{"name":"Nathan Bot","description":"Trained on Nathan's musical preferences","inputs":50,"outputs":2,"layers":[50,50],"weights":[{"matrix":[[0.32010855590496756,-0.929099768206974,-0.6515392028769568,0.1781304209453531,-0.8897326362129119,0.7819832532600212,0.9777120116925729,0.8207747693208168,0.4281932839617389,0.8517206766897885,0.9294339876616639,-0.9197364554417065,-0.04143239276713927,0.7152883925192332,-0.0612830804342066,0.9427853394448248,0.8609975685151687,0.3307401220711212,-0.4619861506829974,0.7776872743502078,-0.6106245925080407,0.258904005943291,-0.38637372284473104,-0.4290812258895509,-0.05065498827446246,-0.5142982076917196,0.9942685273590424,-0.5499867886966848,0.45826688788386943,0.9543410224146245,-0.4125673408806614,0.5566403345315732,-0.6159898345843752,-0.7105295647820801,0.7464966651444345,0.7665940897991714,0.16177419422332534,0.05106543636871506,-0.45907723302050946,0.4939764066559353,0.8181182815552505,0.9856372634680899,0.3738741588289669,-0.12740249512821483,0.5877153080504788,-0.7754816090322196,0.013820339927418258,-0.01478589984993247,-0.9416745665040959,0.1354796589534381],[-0.49039328492728573,-0.5239069406993514,0.7888013839470258,-0.35985771350174467,0.5890092697752435,1.3969434453681393,-0.4053162400656316,0.5025481730427411,0.3010976677253578,-0.6562179436233763,-0.7959056350874728,-0.6334603813347106,0.3419973910279213,0.3353849975735453,0.4466874720282341,-1.0297625702711366,-0.170834321209552,-0.10335176722487668,0.7488129197552269,-0.3970535488487411,0.9252565236424051,0.345965086626995,0.487301353554563,-0.21531749414954338,0.4637793371465515,-0.024925139546736093,0.6303663757812402,0.4824787157140871,-0.8872895705085072,1.3880472175629857,1.46007159692233,-0.556142665890194,0.6440957415671161,-0.3914734334302657,-0.8565920536167588,-0.6088839570166161,0.018134747790037292,-0.03970447436766611,-0.5349374965984138,-0.16730787294591232,-0.952127425216843,-0.7665792759574624,1.0639121958133013,0.05021433391400837,0.165963132660842,0.02481169598115757,-0.24405993543355006,-0.7223050897025871,-0.6898807426720883,-0.33755859089888507],[-0.1763097388700245,-0.8004461192527904,-0.5392417131938716,0.6787159660130282,0.6205958464398434,1.086525963730158,0.74453884282237,0.8560578659656429,-0.623981564682927,0.77044665611115,0.043493823742043865,0.9518473776445965,0.694035975409831,0.3386049049593685,0.1984921839069424,-0.84379227022177,0.8123146663108101,0.03306086846828387,-0.802229090581793,0.3105162510629417,-0.4919101674829638,0.8321362930355476,-0.7691680340947634,0.16661594919972422,0.8233922731522664,0.22073798657808327,0.4100213859276416,-0.6667852078916484,-0.12160986503725672,-0.25101232411749363,-0.8574366639787259,0.4998915225792375,-0.9546482861612541,-0.05806429963861043,0.9523510695972998,-0.12267232572515709,0.24628200838448447,0.5796621738415744,0.8135588741526685,-0.13978462614795198,-0.41128979698657153,0.4782764615982066,0.13061747842941823,0.3994537242099687,-0.1270559878257603,-0.7059136071849307,-0.8487233510090153,-0.1704462628905606,-0.23467841219629476,-0.7818875743339426],[0.11629403124503772,-0.3985137082169647,0.8048087179150034,-0.3675941858861435,0.4731830848710827,0.053459129698214154,-0.925781655991807,0.8633946552203247,0.2531897799622015,0.6336331608086758,0.5476066920657054,0.9077344540874723,-0.03739515412584174,-0.3153867844841121,-0.2530250839236856,-1.0364404615157397,0.07986107752890259,-0.9615394293021697,0.4336744414176231,-0.5822505661862103,0.021109084822824673,0.7264844518747942,0.8231027358984991,0.49943616457014683,-0.8853102666920389,-0.033465884226496906,-0.38834826152366253,0.5673682768570388,-0.7654270273240097,0.03924037513809252,-0.5303258735632876,0.31971034620456595,-0.6482141177378007,-0.5175679401085361,-0.2602174671695475,0.49800381761353385,0.4696480344244344,-0.5115594475495793,-0.7490038756071465,-0.19889130221673865,-1.0291629992019427,-0.22597347899807124,-0.603805685242433,-0.7367204092994383,0.44771696370594205,0.34447548496960817,0.19635086743316152,-0.6404789711141932,0.3256649884730275,-0.10151585386596121],[-0.7476112641820877,-0.39121430062031304,0.7019529209811038,0.10456145586525258,0.5655238379187763,-1.231825208115904,-0.8093914018829654,-0.4981500946512162,-0.8142383695488119,0.7614978685756674,-0.9522813495222654,-0.02845181466959996,0.43316509376592394,1.0437034357067592,1.248849633729759,-0.2979348144001564,0.10375302666316616,0.19201916976805714,0.33933409098619005,1.1751459623395493,-0.6466664311870207,-0.10330589293635677,0.06505999777284921,-0.10252392793981267,0.04798211502417878,-0.46056454986373563,-1.1617232895427545,0.6219014558550536,-0.4167854346949601,-0.8826685343250454,-1.3930658916616168,0.6858428568026013,-0.5161043516073631,0.15845071031077618,0.3677437476598549,-0.49150501272933234,0.7393693395117796,-0.642532875743285,-0.5994868116803473,-1.6559819681122236,1.201021552050182,0.6648282120090447,-0.1449427622527645,0.2431371521098071,0.5882103283328481,-0.16126956572893014,-0.5756337948177711,0.6449003706575466,0.7559839198221222,-0.00585714980410515],[-0.615012392966956,0.22787750853382752,-0.49362034905943797,-0.015074368732099538,0.9434825949825953,-1.1249072479120539,-1.1901019538565898,0.8922067961793365,0.014575900957218538,0.6438540663500696,0.3288271373003645,-0.2472734197449733,-1.039274540139953,0.1883111777709905,0.7203324106958819,-1.1005888965161057,0.4489170113292836,-0.3943242035348893,0.29493780687033,-0.05351937990154029,-0.056986105497596896,-0.14369501165515222,-0.792787019872909,0.3463007918296403,0.13587435468139386,-0.7122915223772722,0.3283995577448321,0.42428478012025195,0.14525472472786233,-0.3837234425113951,0.44516447465873293,0.7423590663821391,-0.9097986150617347,-0.4256176052018774,-0.05197649426572031,-0.5426070884155004,-0.45642619680144086,-0.18802220393943897,0.36946843791199196,-0.3620252609010867,-0.47282718609181157,0.3180679431273577,-0.9257350983103658,-0.6613045163174419,0.5176047445529949,0.135972986210745,-0.3039204083004203,-0.5940197194986939,-0.8882867949797185,0.4351899456683805],[0.5448386308387367,0.5985344550756095,0.9065131558885129,0.7921917786032694,-0.47132371552161434,-1.1090599736389664,-1.101620955992989,-0.38774701812919454,-1.2477449199505288,0.7561200971168711,0.38421192196292725,0.2634153342962047,0.12904768883308929,-0.13837365470205257,0.5292343228349816,1.1306215120161907,-0.7572756994144367,0.6838440447562333,0.4369415795409253,1.8663319768280222,-0.4700707893512703,-0.41919082111509354,0.2973856909469276,1.2545740670186813,-1.4218270538864495,-0.17300345757444088,-0.18624282794999217,-0.43190580449827,1.1699676533170364,-1.2916936306404176,-2.2158653120966876,-0.2237985958847323,0.3944110256351709,-0.4334826671415368,-0.8189107097158602,0.8527912417693648,2.219691970633489,-0.731269563316737,-0.3565750742182579,-1.1869334899203803,0.7667384439676951,-0.4654104054243363,-0.19389444189273283,1.595131979308389,0.12340399765379255,-0.30797923747320693,-1.7681876424092613,1.6315521865155231,-0.4567479435084278,-0.301985006064173],[-0.05995154838021002,-0.22968291365668317,0.23770098456859143,0.5515746960803211,-0.21032085523113098,0.24075393767188474,0.26622497034304154,0.7369779811694537,0.7740598644451366,-0.6570963633771895,-0.5843625714662753,0.25940684807278724,0.6305849420034869,0.7796454091014443,-0.7009670737665747,0.5858650188486215,-0.5213579238088586,0.5410942972434385,0.8725903755655171,0.9000274355795918,0.24308530723654753,0.20037027340584881,-0.060520693015511544,0.3647984822246952,-0.6274881061555208,-0.9291504951641303,0.1793860408581242,0.549416024569901,0.23813913746407303,0.9652643232936934,-0.28347903746563535,0.7150729577168831,0.7412508316175039,-0.059788748300332574,-0.8668974323762603,0.22874594802723272,-0.06521865311074834,-0.7406428528562864,0.7989476420829417,-0.9969333817868452,-0.4369079645323859,0.7948355999513712,0.919166596358562,-0.5864160842787184,0.7687462496809458,-0.6761669790819542,-0.7634916724860713,0.214056737915592,-0.4350430454404585,-0.7683478390368459],[0.5295350956836115,-0.08896664527092443,0.30682051761896084,0.9417459189880263,-0.9335348328544983,-0.7566776577659504,-0.7462389258992844,0.42143594881657515,0.2237027127821948,0.9333389388674425,-0.42994133642044596,-0.3026379245667774,-0.20218710720719335,-0.9329086760307957,-0.014136639037342202,-0.30951079564063005,-0.8717123595879344,0.9238516561208553,-0.5475649512886925,-0.062452136629300256,0.25574067882295337,-0.9472489193691801,0.5994167188604816,0.6278870666744617,0.3481254611256743,-0.427942673893419,0.5460350645556572,0.9127628514284865,0.11910421839330483,-0.3152136480349152,0.5085930344668811,-0.07889454845254722,0.43244948316924137,0.5431599842250194,-0.6524559505026093,0.36756593198460147,-0.9429663047438056,0.9829596087154076,-0.01776335499349031,0.904269587800921,0.3487156761130469,-0.34958518054952464,-0.07382286897629595,0.30934926978946553,-0.5005416848549458,0.62375681683587,-0.0791244470483982,0.1957580946775419,-0.37892571661023194,-0.7187326666853964],[-0.770752857372051,-0.37001302760561655,-0.9899795242166469,-0.6942474727760747,-0.43486507181981193,0.7405649404394689,-0.19818875337890676,-0.7297961844347054,0.20372107260190048,0.20106735736969417,0.4864027452398699,-0.19956208831947603,0.16500843461987863,0.4648746567255005,0.16858234743838985,0.7728346714863609,0.17511623903504037,0.244051814898743,0.7535050524401119,0.543884222081774,-0.8425740749118629,0.4249586272733897,0.31431363589731093,-0.39217864384009693,-0.9604799342421929,-0.7046870320561809,0.39408691003300006,-0.5975314847132001,-0.896704080567996,-0.40464657907163515,0.2758541693383076,0.6724832829642223,-0.5730881241028879,-0.9694385392083241,-1.016069300932226,0.7299275827557987,0.6570982143585306,-0.22171748014412782,-0.49515206247712734,0.8948260680685765,-0.03998957174408773,-0.8073541205762221,0.6782881841337199,-0.2455316681282153,-0.5100108786790258,-0.3471565082586903,0.836515871327329,-0.4862528722463543,-0.39855221920548606,-0.39677881774578255],[0.22134929916397944,-0.39282509963990925,-0.038117759902087725,-0.4404011784029811,0.600680920488234,0.5021758215298061,-0.4334264477787344,0.45353151819230675,0.049787557926993235,0.44758952371985944,0.43854917958192996,0.13557388251981373,-0.27392812480945,0.8005005873635135,0.8091955327393981,-0.6950943585090547,0.017267644300519667,0.3018418104686636,0.7568502978129051,0.5883373983577221,0.7347975789779432,0.9141381127704692,-0.9928059048916217,-0.9570301121819939,-0.46295878748648617,-0.41009549259285083,0.15221364044262828,0.9061954974162151,0.08038181418990478,-0.5502680176939796,0.4566914384611733,0.44231054884977183,0.3929065722274528,-0.45683049365224204,0.16968384644296453,-0.6856824001011921,0.9300008644467056,0.056806463931581924,0.6526549622216096,0.638279647133968,0.4077165102388493,0.3551622832112575,0.21753376837425556,-0.8932199175330644,0.0432850195962947,-0.5610790311448962,0.514000894484137,0.7747748031131988,-0.8678537391595652,-0.4728466705448507],[0.4537354557330085,0.2295186114785975,-0.8655010834501817,0.4112656545441183,0.26207934092560914,-0.87981456660407,0.780552615218486,-0.3372674716042199,0.9848615780284068,-0.940771678011108,0.9430804776863323,0.005159492253503039,0.812790131901708,0.11464261022488849,-0.7013700316638998,0.6291541844866358,-0.5550861206730295,0.8945785170093825,0.3795749629284089,0.14909624428562476,0.7981792809009987,0.1107872638547146,-0.850875175984596,-0.13479745274065988,-0.003660473427898428,-0.6606626460898138,0.6251584368642368,0.6044849912777502,0.6799671076733781,-0.7761421444822394,0.6057830498560021,0.00709841263743024,0.3230939484386151,0.3491435370199668,-0.8662733802143959,0.9516019975056899,-0.29104459560645907,-0.6071603021318766,-0.19698470613788335,-0.8050167014102929,0.6443804449745298,-0.23922447851138218,0.11220025016058403,-0.3125365602912868,-0.18587827110192623,0.7265477129939634,0.36362447395189396,0.4234915903287839,-0.28197262993054273,-0.06895995536705349],[0.378335095462486,-0.8966100260409858,-0.6045101466328109,0.5309399731714558,-0.6164364009344623,-0.09530571836550593,0.4152434250414411,-0.47275582516353365,0.4462851832105123,-0.7506156239335692,1.0860950891785244,0.09320237095404822,0.39695268936477757,-0.884441127226999,0.3960461292491599,0.8377469394011057,0.5376718864198753,-0.4948629370238804,-1.1507348888196678,-0.20953264309402456,-0.7219946019063745,0.7098850242357353,-0.2071476212172022,-0.8652394952950977,0.0511853016048151,0.25961140433360025,-0.12518223028379297,0.48460940854389667,-0.5903572634734213,0.5689264683699298,1.3293752071990252,-0.33503240026483755,-0.668101776275513,-0.7279920624004173,0.7286015192563948,-0.8081669266050832,-1.025131456805232,-0.706113195535696,-0.9397605888395614,0.5921709563156994,0.611843056762153,-0.04628340034169064,0.3868030901222938,0.6465373187264726,0.09405332729127416,0.7551105423185124,0.8037357091031996,0.5583010555560091,-0.39509655475670935,-0.6130482266214664],[-0.6474630353910332,0.51848839648914,0.9689616248841559,1.0053104461475175,1.0740259621586596,-2.353389010245018,-1.4126352617237266,-0.8465633960455152,-0.792998667323918,0.21632777471164075,0.19044144981038255,0.19408429874151392,0.8477868536807752,-0.4042713794518392,1.3848419215099952,0.1854625459398691,-0.6935567306284448,-0.3943427220875553,1.6039579012148062,1.819040236782717,-0.9278949435561344,-0.028681664342749942,-1.137519136971768,-0.1678060563895806,-0.5852064693189771,0.7367054385144716,-1.9044977301896024,-0.14461381017566471,0.9271676522594989,-2.963252381715816,-2.231382878336852,0.9570992717534591,-0.27793895473601543,0.19114252492257983,0.3028504332042492,-0.13523767724428887,3.172937176990181,-0.4005443773006793,-0.018938454936505863,-2.478452712835049,1.958180301872185,-1.1274459781763249,-1.6054388538621618,0.7769002726930292,-0.5209821135228337,0.751640961318358,-1.5063977390400574,1.074966293752996,1.014414771214027,1.1452378768156184],[0.5746146142955945,0.5065337137840539,0.11511124561188817,0.7888496761921275,0.655901876833756,-0.049058452295134704,0.3758029791699933,-0.05902901921159569,-0.046859617371691524,0.5096086388265074,-0.9223782269821429,0.38319398199340826,-0.8775754742628213,-0.18831538454582522,-0.7933497834518953,-0.7106211414301677,-0.47282192687954383,-0.1252807881898299,-0.6074699260972799,1.0003125740185232,-0.3384926327128492,-0.3819296653742455,-0.25739757000139984,-0.3492108076195149,-0.5780974882226441,-0.883704960102766,-0.12351644967595295,-0.9893962676883059,-0.36198165047366243,-0.6852728002466781,-0.9755760992778916,-0.08508245791811694,-0.08259033397951138,0.11171383252801953,0.45395793457390526,-0.15807729990829725,-0.5480311198600089,-0.6996698256470253,-0.4057207171373756,0.5982528971469089,0.6204619308400957,0.6518357474241707,-0.718013320021468,0.8004613046234953,0.5438353463061406,-0.4249989538030004,0.26784142803643235,-0.058633903725055954,0.4907029516047039,-0.7262116284706102],[0.7671572175747491,0.15358044108068558,-0.05051470361878832,-0.9089293806666761,-0.723237849334008,0.5230479715766871,0.7143587955647799,-0.17135071115437608,0.03149664179654929,0.6813615217899169,0.6065345796696867,0.1271087295246556,0.6027278409164621,-0.11052813269784365,0.8791968727411833,-0.06023372162380348,-0.05736948352281079,0.28329526112618597,-0.8886118218457385,0.8777124409306173,0.8491122837508274,0.9700023704469278,-0.5936371290550013,-0.2497120588757685,-0.6785659179854517,0.8787809793625037,-0.765458358693656,0.17482756381987244,0.5513195718411175,0.8378012228632511,-0.22075636909038898,0.12248698894204449,-0.5826699467595471,-0.7799309292079292,-0.15731938704270507,0.5402051563659993,0.22707879120145977,0.6502919757180848,0.4940652459429608,-0.23526273741479123,0.25210117479008365,-0.18366892350420788,0.4910983928618605,0.3840772063638215,0.039037959860039696,0.18775031840772813,-0.7792581897878402,-0.6658555913174523,0.9457861034711469,0.5818518759192108],[0.4255857144334601,0.6794547103181946,0.9974174736498637,0.9798867320317531,0.4864847062637561,-2.123092690910311,-0.8889463438611962,-0.5280630382104461,-1.647848618604738,0.23190226881661838,-1.0104779556401668,0.3182650033218994,0.10240269177957997,0.9423902992952679,1.1853317506108019,1.0129125153281764,-0.7562673940301667,0.7247979195744225,0.29211513851352233,1.6110282993484555,0.9156883345296594,-1.2511477525421753,-0.4015901193492327,1.1493777290826006,-1.3832437696668707,0.20801645140348082,0.18023981593483732,-0.6014159297086484,-0.3169413420831828,-1.527240800849285,-2.0753712381128215,0.08837446162021542,1.0025961437853406,-0.397337214757896,0.399786234356258,-0.2671556329758543,2.022771256688153,-1.7062826751144908,-0.29751055201556886,-0.7541072072875377,-0.6763666846384063,0.7139822092862277,-0.8645743742080403,1.5968735509994836,0.4078594418998089,-0.250464988039126,0.16046198412544072,1.6801341113643333,-0.49867572760323975,0.10862468797818652],[-0.8692468640152506,0.9817040779020658,0.10971253449001883,0.1272685009649033,0.2106918430987921,-0.814793759588989,0.002629765265182358,0.5977154483290131,0.9548674832962345,-0.6557292475722494,-0.8460980541791222,-0.9729775675635982,-0.13009378716631295,-0.5367064128348544,-0.6571091609873426,0.7095588071119912,-0.5786337177927354,0.09944549174556304,-0.2563118851638218,-0.0768854653385094,0.38502109872228735,-0.27760521406569066,-0.7085042190589783,0.6800455452022213,0.7475832656682262,-0.048274573472195347,-0.9320651734183099,-0.6351769313160597,-0.8718702653952505,-0.36242103342227555,0.8342320836728273,0.9640490544488134,-0.6194687462258994,-0.4982702162880708,0.15239799979025884,-0.6474032975002534,-0.14997871827066359,0.8794055566593536,-0.5626895347866591,-0.37071682653903654,-0.5529295190758772,-0.5326443967029374,-0.17518427255930166,0.2759362192823104,0.6586250012194838,-0.29033332746409296,-0.6289262577943988,0.7848408290421166,0.335432081700261,-0.7141887419212947],[0.5034640740811772,0.8758960392433609,0.6876709707926767,0.3992352744425667,-0.6435088907719011,-0.27550804958321895,0.2974509957258188,0.8891176941200951,-0.7063703468930194,-0.018538519388436606,0.5680116491197997,0.948895189406224,0.09224940114698264,-0.7974874364069182,0.4352971102563781,-0.544403902277988,0.6900810996461825,0.2665615303053683,0.8102146441922459,0.21750059166872582,-0.340558602907776,0.7842984154628498,-0.13818947898116163,-0.7576467723844913,0.8585194831514155,-0.9078312475124374,-0.689090007008208,-0.41975516349206377,-0.7749055275837821,0.41046811549921886,-0.19936625022032264,0.1242145104591083,0.9826174487550154,0.06455057401610424,-0.49875235513906785,-0.17699944441514154,0.4627247195967015,0.05561703911366907,-0.39490760887007753,-0.316230872299191,0.6453637253126786,-0.9756081259914198,1.0009954907422245,-0.16332636437647746,0.542983129571814,0.32060041804861866,-0.3199585960897893,0.9569003220977856,-0.5582474800147991,-0.2080749215154755],[0.5035994093380828,-0.23442787349778396,1.336060577898361,-0.27910031209388625,0.9192091849631486,-1.2480556307416435,-0.7981795799517187,-1.0373791191216997,-0.23388203235707436,-0.4966142699948545,0.42918192931882443,0.5762647154224835,0.7301150489680583,0.660474684194308,-0.16953777987909371,-0.2734549075204537,0.8219734684691172,0.16026640266683553,0.5963058483314835,0.4428006721620624,-0.09602206597607883,0.7894982294151669,-0.4821940201522595,1.0413125099850185,-1.2502218302551362,0.14983635510244192,-1.3815396426926656,0.2547923302851041,0.42650936619189267,-1.0704077187549554,-1.342918921529366,1.0482809013608647,-0.6585515740413146,-0.08100435603139293,-0.2022048044204003,0.1694543316821748,1.264224205310109,0.21504519253453425,0.8790473864871405,-1.2998611775529036,0.18616611907868366,-0.6647230564410692,-1.0411482795249927,-0.06875621715476816,-0.8712336439551648,0.764274199613278,-0.6566459869223269,0.07907830136645079,-0.41119381811503586,-0.015505764735137505],[0.12495911978022534,0.5593119833849878,-0.4203178240317658,0.4918326004486749,-0.8354197158662237,-0.3925015664368339,-0.10721500164122807,-0.7431784471345668,-0.9484787862187154,-0.5415091738762874,0.6715441946724933,0.6059435147728878,0.8429214314795325,0.4917470913011718,-0.48747827130272836,-0.5921081556841075,-0.3521658867222928,-0.3537337754919206,-0.9794263296054122,-0.955317752255703,-0.23020854114573824,0.7552439989420305,-0.9064463995798065,-0.43551432609580326,-0.9839791705121482,0.811404028462338,-0.5023178355552403,0.47152071592326505,0.07774805910693905,-0.10485362580478065,0.3986912957697014,0.8852690742918802,-0.44764752707465266,0.11718467456048254,0.7352266823339392,0.4356081543172974,-1.0110053009879365,0.019355533203600422,-0.696933429281736,0.8880624855904524,0.49801260648933854,-0.18347352744822712,-0.4350146257602054,0.22632114690029506,0.1750215281328235,-0.21045036208254067,-0.3342146338200371,-0.08728526948766027,0.5869832057875888,0.18665786952361985],[-0.6596553172041122,-0.14442352326991628,0.5451257086536371,0.6130824560337866,0.3637117727674573,-0.9804024175040433,-0.26154520838520706,-0.9118195185541519,-1.4968478727143901,0.4044599649232902,0.6115328837515309,1.0091381559787889,-0.7952296017110676,-0.39781463845874426,0.6108751448404339,0.842410270762422,0.8492277836077341,-0.43887715702878893,0.8040934913302407,0.4796866442083027,-0.8158264501898213,-0.7772805229505324,-0.5055874582450867,0.008133379226856549,0.10160005818555447,0.3791290011076767,-0.6144764943292985,-0.5574349550705663,0.488693803384176,-1.1774095444273827,-2.0976833277934306,-0.9490915484611324,0.37611982109518044,0.5334752396906262,0.7079370239535526,-0.6797818046193492,2.1746328687937706,0.2523105709989008,-0.02297467481927146,-0.47030560455422976,-0.3316346364228508,0.4398674257718581,-0.6072730710709465,1.06174644361297,-0.11093448331990619,-0.211758597050595,-0.9654755880661202,1.761301178452594,-0.10631080688203999,1.0534468625017632],[-0.18479229722777746,0.974685404847625,-0.7026988205407125,0.009556296529947203,0.46154682839965994,0.5536159112121424,1.3191857723293576,-0.23897091204772994,-0.729715245907299,-0.13111973380928127,-0.02613400224761679,1.0048770403387348,-0.6178980436837097,-0.06508147170757328,-0.8849143625045292,1.132964315450516,0.6412743793184323,0.7480379898854534,-0.7888971162838555,-0.07540862716607946,0.6948489586932344,0.5825118561387113,-0.21163918620961006,0.6873700850047934,0.12137764453350831,-0.8547885050745601,-0.4217759481513691,-0.5357029212662059,0.08182039526385879,-0.6465124107639878,0.7822840789264885,-0.8205153747395391,0.5859100408317218,0.9368241487233965,-0.5965304687477772,-0.893279404997013,0.22351725867205183,-0.7143080605895382,0.008316594048135223,1.193837234633759,-0.9636039871827935,0.4034435583687609,-0.7298363449880284,0.46963910444491136,0.16171042728433094,-0.31013436596557487,1.1311376510233713,0.13184638081602731,0.7761417445796187,-0.11114609023565007],[-0.429638105785002,0.7130453888961761,0.19914151858864318,0.18848196147446583,0.4293350950349415,0.5637197385420201,-0.8669852287326156,-1.4012409045657128,0.43737932191418866,0.9776023107848755,-0.16959902248030553,-0.052627267376497956,-0.766365915182812,-0.39593441154509473,-0.47900495975895463,-0.43252053412033237,-0.8505275156607611,-0.0816464107800454,0.8415234469276738,0.46750320371580223,-0.901907509638519,-1.012300086846399,-0.07968870550161854,0.9450186330548359,-0.3207998268416899,0.3432547940384905,0.30175258925856363,0.3116823622905617,-0.7508276266122735,0.07727046702061453,0.4851737285584701,-0.7387419254051434,0.17176387909761517,-0.5118250633855097,-0.7392014417280248,0.0833555693225605,0.46776360232492903,-0.17110234181632253,0.48106554921041195,0.36291462831581167,-0.6061061223268833,1.0817810008418483,1.2484008457823514,0.5567370943136799,-0.4235236208554266,0.24805701819224849,0.6409380540885115,-0.3887999282283652,0.8240999241778848,-0.335287891631499],[-0.5231806805417502,0.47367405907304666,0.3960623521094969,-0.6335848076699184,-0.2605344035869149,0.559807977336121,0.6759852460278225,-0.5073614984213111,-0.7014512205673834,0.06103227208062959,-0.5599470030105603,-0.6559072824262051,0.9288042610616808,1.001081542421446,-0.7976812104526343,0.33736748896746604,0.8246664847799537,0.20095826093240904,0.6597447275200847,0.9849550411869601,0.1679807297309481,-0.4295975149707002,-0.5353720529554306,-0.056513784908853386,-0.25266678940172155,-0.3106013003143861,0.678894845724461,-0.5082128463593932,-0.09760922008583507,0.10372714521579443,-0.674160825552274,-0.2491199356697734,0.6800066342890962,-0.40409094365959863,0.2553490423455195,0.06439505700649299,0.7491236820088277,-0.6345099434154772,0.8665685017440513,1.017016721002933,-0.2408995744975336,0.7740807703126901,-0.50696750035768,-0.14621462650370443,0.4514219266050317,0.8117108347288801,-0.549075703754855,0.745113737005118,0.670848577347726,0.685045889781163],[-0.9420414343287391,0.9327754285887341,-0.1530327225198418,-0.8367401310567559,0.4910564301654527,1.312540858713171,-0.08552149271247406,0.3196788508373615,0.8893019590429423,-0.03823230876397772,0.18575790723452576,0.5476913024429829,0.7737616262530305,-0.8178068722897261,0.3226441155055891,0.7556364980952678,-0.46077990043253897,0.729313410425133,-0.16204191427449652,0.11146278146599693,0.7984586284100925,-0.8853266470865961,0.416612818677661,-0.03811807100535865,-0.428599915499814,0.6880691888032804,1.2168766563934459,-0.04427474650054759,0.3987138939074793,-0.5104630143406331,1.1984932974383178,-0.14908782090308123,-0.22257283028479857,0.8413751540777089,0.049977149777622173,-0.8515331483588533,-0.21090974452681344,-0.11066888464998147,0.5094064425323876,0.08001657723996655,-1.0798217011390234,-0.5725002172566107,0.030313130125408008,0.2982605269905083,0.33716688394839545,-0.8910014139040356,-0.2311903400277916,-1.219027454082851,0.26148023045803587,-0.6649025123949183],[-0.8162114638462784,0.8625349419055502,-0.4029589687971003,-0.7696270500629189,-0.7572583019721034,1.0083824983011895,1.7533703824603888,0.039542476243262376,1.4228327282823265,-0.3092937628875477,-0.468791412835188,-0.7551825315236874,-0.6550557154851814,-0.325077052554596,-0.5702569028847866,-1.5177665954001718,0.1190020132856637,-0.12221509175455962,0.012735372785241637,-2.205205360194329,-0.6460921519170612,0.9095500687813509,-0.4376220276902369,-0.16404803356232797,1.2601726131088609,0.443911800486469,-0.3983039516539368,0.13555139964627805,-0.49679342007595145,0.9796489054597235,2.3209467330277445,0.6181708615130865,0.17543654802732592,0.6209532891955859,-0.5055158327798317,0.7516865532231909,-3.415766979148306,1.2419925198228408,-0.17053800395070257,1.5440691616301703,0.9471187885199902,-0.37416636196492126,0.9876709536927838,-0.2900762904869541,0.14982619045016687,-0.5318112900559446,1.670704192979012,-1.8957433428129298,0.4568546908236515,0.6150476463505062],[0.8230485758510521,0.4979782420119514,0.5106908218615424,0.8566922489812205,0.9657317635317495,-0.8281450767786092,-0.13705269839011663,-0.36281658192513244,0.814768218355648,0.7173586476991526,-0.9277411746639859,0.5859499943233931,0.34070626626641115,-0.785974962284366,0.9728402054787669,0.6189333933720268,-0.811668166289044,0.5095165363777435,0.02200747522583535,0.2584258832826511,-0.09223527756500914,-0.07128311094085288,0.14124171661829102,-0.32534308903595227,0.8252865778177638,-0.24547090690280135,0.35112516073210415,-0.012404666407049044,-0.39854368869825474,0.39783570131513096,0.7519468029418572,-0.9318836192305346,0.3674836077086488,0.21566742078499807,0.4439496977408559,-0.5491910446001339,0.20143559555216323,0.4594907412608387,-0.137547965821952,0.2426181130490269,0.31403059120109156,-0.030106061668731712,-0.955339734251009,-0.039315057566589796,-0.3483692206861525,0.12575211741077882,-0.48674154012494675,-0.24091386974459833,-0.12163754694287213,-0.7863327607229383],[0.11781321755278491,0.7329577461210183,0.12606906831775122,0.014347493719044029,-0.8550022419523724,1.474191324590735,2.0480021436075457,1.5046110930729648,0.3888915930611548,0.10767045838881481,0.4992753663922653,-0.833147562333703,-0.9585211183499165,0.28579579421156015,-0.6756384740428589,-0.4778685977478784,0.8684262966874697,-0.8673882251349936,-1.5114769758419042,-1.27089844045527,-0.8827200557817388,0.7958061869976837,-0.41651320439876804,0.13245641532769473,0.33880458591378537,0.22455422002203787,1.1592623076165476,-0.8853829216461788,-0.02179417157020108,0.7811502681584633,2.572841694347372,-0.9058782192843899,0.6923245569033241,-0.7214152879785519,0.802973361748524,-0.11762463636411621,-2.181218695241378,1.3494407653538807,-0.7859581022717225,1.4664232760328908,-0.6779477141467928,-0.5685846292617619,-0.6629779806245343,-0.3017998460628916,0.2912844039617714,0.33550816764585917,1.3419852913518047,-2.0270493706750248,-0.2876540575520103,0.7507963343449235],[0.8091671194817943,0.6295110837574751,-0.0432703434461597,-0.9385104476836489,1.0046248592976263,-0.6607782512704451,-0.8826967354025971,-0.14012110670433156,0.05431054781222779,0.6876318902626589,-0.45920432162275343,0.5472300599640125,-0.08737410366102422,0.22287832005252442,0.8375429377085607,-0.7223495712714225,0.9840574615023169,0.10552942666028108,-0.6622663871856667,0.49076630166008306,-0.9529681574973503,-0.8229385440205919,-0.6368726455204394,-0.16263196278894296,-0.017707922433894373,0.15767128140993078,0.8536887172171109,0.03911229704465633,0.42174282335233476,0.3456629932725143,0.47416197865198817,-0.8181724268321546,-0.4047150631145431,-0.8195521815131863,0.8435935300448405,-0.5800060632579807,1.4544005202925474,0.17431287660924605,0.004935434167963605,-0.5937261485010323,-0.7184472026600737,0.6478783869772259,0.7758328880381085,-0.17429761831346768,0.2970785831750845,0.983563387838916,-0.21741357497901542,-0.7304784149293053,-0.8860649247327804,-0.038188216493119174],[0.04098202822788733,-0.9395515056920299,0.22559283061837207,0.7343400375304915,-0.9105832887930516,0.13904737449982799,0.4023415687245248,0.708453754499225,-0.6728350613879414,0.48855383292664484,0.0820388509793146,0.4330816810976678,0.6527594161730803,-0.6229956371883212,-0.7616336464698149,0.9566120278948775,-0.07061555099212555,0.18317227728401814,-0.4823639222493111,0.42741918345179825,-0.3477312519113665,-0.4477041501038905,0.6275528875232728,0.9915711615215281,-0.934568651822048,0.3162219144147969,0.30064174803183563,-0.23004443273487815,-0.6809547677015615,-0.7785821175150873,-0.841976298303231,0.900874961867875,0.4525832081794524,0.22931400732612384,0.6723487771226916,0.26003356851011106,0.008258782700399139,0.1790006935312612,0.08482215586095544,0.4003715986530498,0.8833103531277399,-0.0724929882731714,0.6103419029829181,0.48956510086181704,-0.31046796898013146,0.7500509726273142,0.5597722960660234,0.602669094588358,0.30904527451458796,0.7336099694962475],[-0.8730408160384812,-0.4230783096719145,0.20045472323485666,-0.7913787427433653,-0.8023153859714395,2.0107353646827266,0.5850988119512213,1.212185355429339,-0.1983517434325497,0.40578869155350705,-0.0785093591423071,-0.1552417238578111,0.05989448116111607,-0.7506725306821423,-1.3512763572587794,0.03269506449694789,0.06412223111167288,-0.8902127610358215,0.008157952073565577,-0.7067436728283895,0.6226624136301644,0.8696697583378376,-0.4303725829245814,0.30813116963330683,1.4818267760800645,0.06837564111754141,0.3132809881614116,0.4344467816301037,0.011501348741138503,0.7032983271214736,2.231551673128761,-0.06340677905840275,0.6086944836255231,-0.2319585529034016,-0.7528175689398119,0.43635422419640507,-2.3708326547802536,1.5252986796139323,0.5414476817021244,0.9078571148322133,-1.2799394429343753,-0.08623228070631327,1.233061706440329,-0.2957778306706967,-0.4773597091676201,-0.9654389621310453,-0.11064314964153142,-1.8194992624877304,0.8328168804276487,-0.5143396526626945],[0.28198532299951307,0.041908501100278495,-0.22140993898787317,-0.3423908247205402,-0.25338628372578004,-0.12019464496755275,-0.5943595356058823,0.9062204815266731,0.5367116772343755,0.8698003124593119,0.7898837546217558,-0.865921805896719,0.60347602556841,0.8269861345502115,0.3059629382555114,-0.15963096550353245,0.3793291684445493,-0.6670621253705752,-0.036172564010962235,0.5637597193183126,-0.29367103223424135,0.18625723598272123,-0.48016406539214335,0.018520150723051472,0.9128313304318878,0.4144628063193125,0.39825419854894367,0.5509382953977939,0.3053527328528312,-0.4717225669951424,-0.1370249213277679,0.1453284030679047,-0.13795737052638857,0.08149103543492961,-0.9937717051985702,-0.3659906025182852,0.2278312813304885,0.5986763838255551,0.1588944967481605,-0.4971418595110681,-0.7462473963244967,-0.048666236455469865,0.04647858436325904,0.7460550570274752,-0.7418372098405005,0.8173225062305547,0.6910889902987887,-0.4090557692864803,0.9861093327656305,0.5524899813557271],[0.3981848846049567,0.5909238883334417,0.728003074340324,0.9743794056983255,0.4881337483828016,0.5873210496992957,-0.43847180206156905,-0.08003543662068065,-0.6202526297490084,-0.6572776286348924,-0.218138007161354,-0.8996018763517966,0.5500757196230207,-0.7307544986047672,-0.36250473525672616,0.9069906288087102,0.5358683374909841,0.5979563992025867,-0.6910619224626262,-0.9130742398185733,-0.37428164694081056,-0.40499894788669694,0.6917072041880941,0.8666606424596087,-0.8191818789018911,-0.017931513818739225,-0.9964127067604581,-0.9202597583321577,-0.37178880317890045,-0.431290934105491,-0.5153318405316588,0.1286271857970467,0.08479179301708749,-0.6750057043555985,-0.45797101060685275,-0.8121403380788266,0.2997565081046088,0.5748168220885114,-0.4341438112514633,-0.033930801562442804,0.14356338360858212,-0.1739638293556789,0.34840184242743233,0.5495954883556775,-0.7737901197812904,-0.14486381660987852,-0.45872994490227936,-0.6139506934517324,-0.6128219605662432,0.11651308601080303],[-0.09243875510154316,0.2778861716224849,-0.787777246998008,-0.7688270365897436,0.011753752006868033,2.2781315365098163,1.62969885905365,0.11464562403382111,1.0988594339465996,-0.9343015514865904,0.6913053487650198,-0.19040306256454312,0.14185702431840316,0.9018644315477611,0.26101127145718933,0.09148485769737268,0.932071151361981,-0.8559846455675117,-1.338588108792599,-1.721125258508297,0.3866485647776279,-0.5432059402737774,-0.44272307687014445,-0.8371289362362208,1.5600385473524894,-0.07274028718290276,0.8826416561922015,0.8492449294445111,0.27730812724566456,0.7261258300357877,1.5668593782711442,-0.5931029849756433,-0.9986244817182309,-0.8297236946164581,-0.13585879109997986,0.49293172356972814,-2.0937358561664796,0.41671061716978586,0.6082884206816036,0.2892823624466945,-0.7364715426746251,-0.5530423174236349,-0.02885232451078559,-1.0224379942928807,-0.253492898664622,0.2934619563241524,1.977463640111753,-0.4284999034714346,-0.3629778433924669,-1.1358360281919329],[0.3633265397927383,-0.349741427934972,-1.25880727417034,0.424284829661645,-0.34122575403385486,0.678647779325007,1.094731896913228,2.11868614226941,0.6898643426393528,-1.198383364146329,0.3756942562468118,0.022461083726177427,-0.4605198470053281,-0.6234212876708786,-0.494012398565626,-0.2974693221833885,0.4265325628515931,-0.7968434950229871,-1.6069094037570464,-2.0537918965667226,-0.9054442079214283,0.6374278196176972,0.6972747140313794,-1.3558920826544856,0.1147252078517885,0.8497056910155318,1.1681898136854194,0.8904413599029609,0.6940904647118546,1.3548270208593225,1.311494348781063,-0.3557043372165077,-0.4158195870814148,0.3929363156306992,-0.36816507578403,0.7978111213828325,-2.1659586508661763,1.1710254102207558,0.5282041626983491,0.52714679989104,-0.21084535573442434,-0.25770674493577705,0.6512376927831935,-1.3083453070164206,0.6164877864183467,-0.1649846308665652,1.5364008528836053,-2.0815627849108065,0.33038242906031384,0.33488488916096143],[0.23408885907318833,0.9341998935613062,-0.6862366397441272,-0.4849742078026547,-1.0089691475669667,2.3746967487505515,0.3798550380827319,-0.6463831463816487,0.23606499320463425,0.5999221601029113,0.2536833228646866,-0.2986815551814381,0.5677220181238768,0.7659999197372015,0.20932875457682312,1.092045893315064,0.20994276752435156,-0.24943681338268078,-0.5382652144619395,-1.2704785050630572,-0.5627259233868652,-1.1749311432911838,0.1067911439242535,0.191153398832617,0.6273068540976007,-0.9595555209805547,0.21834984367328,0.6065072859267829,0.5576122865039589,1.4695672228566874,1.1476421113938167,-0.5638472521578002,0.5868773111420925,0.6950471357799574,-0.39528994827122754,-0.44652818414261847,-1.4995230258516743,-0.02551454835321669,-0.49257920402278993,1.5959026654583284,-1.3034546150878095,-0.1855638497057718,0.7661853917267638,0.14224042662962524,-0.41270828796444586,0.46753675018410695,-0.0698466902320168,-1.6043256220854147,0.9127673190602958,-1.2618000333587844],[0.2164876712286109,-0.8965675543765993,0.4160174410075793,-0.9261217707619513,-0.9304369742816037,-0.8496067341610991,0.7402045282923617,-0.9502790377619899,0.7909123192096668,0.3026603492172893,-0.027116300075884742,0.19971066726575107,0.8497570896747071,0.15225231305505907,0.7438448244022425,0.7712831619937901,0.76430328725712,-0.3384390686888211,0.028048355983793155,-0.13767039214313573,-0.5909351237622507,-0.6967543177632026,0.4638254056530063,-0.42667476920937125,0.06543533849918971,0.09846437206737234,-0.8538588662117594,0.4399280922148451,0.644890610234325,0.48364454674458884,-0.15592916083966832,0.33372881826496187,-0.47181735373062494,-0.9924736493854376,-0.3790951503555325,0.15007174378075788,0.19135634744477492,-0.37040013104498143,-0.40585773364245686,0.7892362031375136,-0.9119286213457407,0.6025295392649233,0.3593940722428121,0.8315737449140181,0.4522481928344017,-0.6923512157151349,0.28126915785345696,0.0377191013066963,-0.6150159056442779,0.5039610111643585],[-0.8901647433060265,0.29426970252925566,-0.22673157449472378,0.08057848852646508,0.5285338363613008,-0.9452385459443371,-0.2858673849186833,-0.45950682952335337,0.21526328294334657,-0.5058445044363616,-0.42213750317245685,-0.926356874245092,-0.6257575263930119,-0.7152124090899968,-0.2639453377918587,0.14361385266291699,0.5861538558935482,-0.41871905358059397,-0.01607819258490829,0.1717103766760236,-0.7753911686079031,0.07198518018728886,-0.8300429802532592,-0.8420456893689883,0.11837339981879347,0.641244812441863,0.28469757821866676,-0.6471315621975565,0.6243459154920424,0.867375663236944,-0.3748849043155017,-0.11513082509612517,0.7790798761784005,-0.4086243671779555,0.6750082989288615,-0.07203736185817322,0.3590617896006407,-0.09414475687635016,0.2892286211219345,-0.7679744104509308,-0.02612051395638054,0.6795068548012835,0.489642883287863,-0.5801357594560055,-0.1947296797238851,-0.46232266724192644,-0.25469966292982826,-0.949206865240726,0.8077827976016128,0.4641882808925384],[0.9881074273965502,0.9179713448121779,-0.18082718269522338,-0.24053868359214203,-0.35890308762973205,-1.605584272456032,-1.0063411832040017,-0.13262667628603544,-1.531501934446524,-0.019660992169018284,0.2082177085022484,1.1036542056437686,0.15167968714994787,-0.0699027617394684,0.1465934082606492,-0.023767321748411344,0.2954195358387849,-0.6648900665561204,1.0236866043593977,1.0324397278913455,-0.7659713977393857,0.6168311873564233,0.6873079193987834,0.4879310375454037,-0.6918011014425999,-0.7629458449847123,0.7468896984630911,0.3086870442326804,-0.5349469825833385,-0.4122013284771746,-2.056618309767221,-0.36408443019583026,0.15618737842772423,0.054052818404140626,0.20612692819165743,0.23144750986663296,2.163776255239758,-0.9985187391822261,-0.49509706676615484,-1.9015487955428034,1.0826288681901965,-0.11710510173329554,-0.05877599986961466,0.3640601055566698,-0.863527400472206,0.30334419252633593,-0.6562890419248625,1.1517942076680343,0.373381825894392,1.250169117232241],[-0.2697133254499466,0.5182593101493512,1.118465989625605,0.389537625639208,-0.3353682886123055,-1.853007383323974,-0.8892499494855507,-1.1221294695263844,-1.4665478574865074,0.3827060439450674,-1.314008037197478,0.857924649248009,0.08096800691061849,-0.5054830434131211,0.9975814492415803,0.48605167476751193,0.6906405982552588,-0.8449223417119108,1.3897955723688828,1.289956015273045,-0.16892906798808588,0.20059879338645,0.6402708444135055,1.2798401147784098,-1.4672911110246325,0.4805251680658409,-0.5204327513135356,0.17776874810985732,0.881027232144722,-0.9106993603492801,-1.6478431357412135,-0.7963764946142373,0.09756342418945092,0.4921629130301057,0.6133716928754618,-0.27340000918283025,1.3528746662463276,-0.27214277931624237,0.8868588342085386,-1.7506170277215927,-0.8589568384425101,-0.13873452268801464,-0.6741133200717768,1.3518077926304235,0.027494634521283073,-0.44439033798464556,-0.9340667256241777,0.6814712668064639,0.7751436395140794,0.42087668896791025],[-0.5427433524080966,-0.18405431969150854,-0.0600112981838975,0.7923484600232751,0.20456107984829655,0.12773670360032743,0.10767427412123533,-0.9777830269353773,0.8304331922615494,-0.944916709876745,-0.8524463723649723,0.4754591704828887,-0.80164502630911,-0.32938195650903046,0.7940684353489688,-0.501365532790201,0.48595256642055046,0.6261066345675532,0.6848210241243047,-0.3806240120881728,-0.367357540434725,0.645559421989251,-0.10796847647074789,-0.8369271233211283,0.21308696182046424,-0.6251604135893117,-0.2464892357716459,0.7408231147733375,-0.7743452047093163,-1.1823669634570877,-0.014360903151876237,-0.0787608382669913,-0.22581617424639763,0.3039068820078755,-0.31429873105442724,-0.21818512633305331,-0.6195046659350533,-0.5113975712193944,0.4269384989068631,0.13427563103882473,0.18662787900735114,-1.0395632466221272,0.6151140168972586,0.13804401886456635,-0.10694538823995943,0.5889953930598275,0.8502190704495897,-0.4220923106311926,-0.5370252616329647,-0.24974535278222382],[-0.7227125565852829,0.3542445481335774,-0.011223637556502514,-0.9091589631490214,-0.8549085052156818,0.1652992591835064,-0.39792702218137077,0.23281651865711184,-0.33516220884829573,0.7403456035960055,-0.5954513430531828,0.16283256186842004,0.2725616646140024,0.09990379336093316,0.36401465371541264,-0.21836098505763973,0.9271619167183566,0.384094288303242,-0.558235760121199,0.6348924282943024,-0.21349385879639934,0.036466660419839515,0.47943447890348195,0.08269167652594692,0.7866308816736103,0.8072956440009372,0.933558608419528,0.31504356311798615,1.0051142890563105,0.4424956657645078,1.091017975282135,0.4615932510029924,-0.32002943320928334,0.14268723411718512,-0.5555769390756503,0.2738205262073223,0.05067974458029571,-0.09817110227622328,0.07083946535999033,-0.1391874968348275,-0.8592293640564834,0.09541501458591015,0.6284865352521884,-0.20944897703522217,-0.46008794177142975,-0.0249913668625416,-0.9057353683110823,-0.38392438188530054,-0.3281669261452296,-0.5480814916276873],[-0.13364804446642,0.9727966224480877,0.8196106708562955,0.9234164044751142,-0.3405095080498581,0.4810801995516554,0.011076504884310799,0.8504128996999646,-0.4174336704853442,0.5570543513942876,0.9797088910853745,-0.8523224690818999,0.8474396127687416,0.20448531036785897,-0.3189157599395152,-0.6434875064129456,0.5981146116181519,0.10526943194991294,-0.08858703675156945,0.5883817723400029,-0.987208933466179,0.7323769375667639,-0.35016462293559814,0.8028217723149108,-0.6227549922097313,-0.7760481077442154,0.42713503360842736,-0.6866339406803464,0.5536590479468235,0.6160812481961033,-0.087046859724087,0.6924116508019471,-0.26167789139518266,0.29081277942905753,-0.45983665220217534,0.9241758476462137,0.702501052671879,-0.9763211166505501,0.4206332041842928,-0.40214898230651136,0.8055797942464565,-0.06679352463231075,0.09042076723673348,-0.7710091260388228,0.9952156595300591,-0.23701930686424524,-0.33213209396580123,0.3474673815913758,0.7187476285665141,-0.5385560873784841],[-0.07793207455997515,0.9569812646561268,0.25019301890002954,0.8159703501492203,-0.6136396230306393,-0.9137001939583121,0.20407210543650944,0.9520015905837534,0.298708787013668,-0.24912058874255197,0.315206931150615,-0.8004352745590135,0.2446897610320583,0.619086549323571,0.47788837797721107,0.07818998404884749,-0.18178650126711582,-0.6972926674981036,0.6011301608412182,-0.22939821031361032,0.18825799859269166,-0.551392999648964,0.9624247446360154,-0.5297178470379343,0.6120668905965669,-0.14599609859773507,-0.38811101489785976,0.6538968597539605,-0.7862462992577085,-0.539895353556198,-0.11190725528734055,0.6558390481541931,-0.14136070080490254,0.9038463889124487,0.2729638925643678,0.7948753458206305,-0.8397473805202886,0.8488206633530188,0.22268745857199995,-0.722078983813799,0.5954218478588588,-0.6954224836636669,0.7247443421068568,-0.2994623138881919,-0.47476726675026354,0.5079204591390567,-0.4003585866880832,0.7563415060571299,-0.19618522197988572,0.7353747232461866],[-0.07814507008365171,-0.5037299894481642,0.5748378345324721,-0.9807817493175517,0.9718563493891541,0.18383462043510285,0.7478363815365576,0.6206569527227951,0.9909982556712612,0.4772844738672585,0.12953653118053246,-0.2036858024141147,0.06869144684447671,0.26980886700353907,0.5985668247236605,-0.5369124374089344,0.5829274706132851,-0.6075637775338518,-0.012423746113386959,0.3234568449111689,-0.7251056214601332,0.4465953270546499,-0.9169298821286259,-0.28943634975527827,0.09489221926576788,0.48149097176718475,-0.5994056075315951,0.1913975417916323,0.9530679369510904,-0.026754543495397853,0.5350206756017448,0.12376087794304898,0.2975094508771561,-0.3803123195704228,0.83645339461098,0.8269899828877784,-0.9511199563355623,0.834689721407006,-0.08109713981548551,-0.19843582008672092,-0.1684576953569627,0.506095755736434,0.08367825029936457,0.5190699915274788,0.6769816641150919,0.5758011803728625,0.12255156633004816,0.7077872547661846,0.4082368006245408,0.30850924866589813],[-0.8392910166673502,0.7646273626423765,-0.23150990060272286,-0.2723725160581905,0.2270347391309181,-0.023335145313039773,0.06230608346978263,0.6688726149884088,-0.9789756649774445,0.4919453918721145,-0.5845462097020648,-0.9723188669335608,-0.9846221715627087,-0.2077438598243801,0.3258419229233774,0.5264340705106365,-0.49979832359838267,-0.83737754037391,-0.07091769577056829,0.00665346519086261,0.3575303065045915,-0.8668300183695569,-0.36049641841060315,-0.43657132506759094,0.5106007470763784,0.33648391853507914,0.32624995718164,-0.7690979921010191,-0.18042008784806482,0.1379487518601268,-0.1223612408523496,-0.14994731293371183,0.9472173189190866,-0.3104687799962434,-0.7475886902808496,0.7623697165855092,0.12847137573835732,0.4377155071180441,-0.644163015618216,-0.5479269326833419,0.2821899023658082,0.10338921933921082,0.01402054976183449,0.043995236902310504,-0.23120590026710697,-0.7933301498668275,0.13413066229526308,0.49845332522709307,0.34644146276958016,0.7330418014612854],[0.7428427501778905,0.8913980940571844,-0.5949818654361343,-0.7726841262389025,-0.027036263835901655,0.6232664549374787,-0.7865744370878948,-0.22918400490902846,-0.6306257209382592,-0.31183682393150297,-0.6241134874805415,-0.26541093155341405,-0.1653360950992523,-0.8893524794196331,-0.2788469834060783,0.7290143255158017,-0.5208587079193461,-0.45719532955697156,0.013496444113266571,-0.5893919180771803,0.23691306498698553,-0.1882920350976846,-0.3752225403754317,-0.9798271651662619,-0.37145389993331457,-0.515939011985227,0.9439761291213995,-0.793281024383927,0.32147602066638514,-0.9210107189428871,0.7678387015920617,-0.33702232315710534,-0.7447328971804994,0.4116328079908381,0.157298226102469,-0.6377121168023953,7.85148291557386E-4,-0.2489536800080003,-0.6671153238069333,-0.2206673143714863,0.7731677808591029,-0.04844427891081972,0.05104449631870625,-0.6195417740483374,0.026544575951034502,0.5450566597217008,-0.38550338405932577,-0.12443791366011464,-0.0480774088762438,0.873266074073402],[0.1751304614326836,0.25691377617829086,-0.6697054478917688,0.8014672934087622,0.2938026436206017,0.4691834427077653,-0.8107803074870396,0.25093853439716135,0.9003093279640869,0.7309819693532545,-0.508650203875398,0.9449686171685449,0.6762639868126545,-0.9680411178445113,0.7320924566635346,0.9789771897474511,0.7374278007665683,-0.10408025193157211,0.6644537246986233,-0.33048097232357476,0.9250401439354086,0.9465270039713165,-0.4063735840549492,-0.04460968944917155,0.5757673281053669,0.8858095029099895,-0.10398671244221667,-0.8372311297830356,0.6832311738686432,0.32692167015126444,0.017495222740612736,-0.6808182361715496,0.46357997261174516,-0.9838903981412115,-0.9728172559824454,0.2962530602059747,-0.8790786011211983,-0.704605687032537,0.33358009976996406,0.24536551352978286,-0.7166198106751891,0.06037865156900793,0.2130192971965625,0.3086693196697348,-0.08859616603187268,0.931740564503783,-0.7827135800445032,0.6737537367858434,-0.038083319438100664,-0.9317181092344982],[-0.7290773352318625,-0.24558388427171504,1.4369252324457216,-0.8331764151313628,1.138919062058822,-1.6289367634623666,-1.6977496437267097,-0.2122347140125119,-0.821816114460762,0.5524986674084399,-0.9129742963881817,-0.13100004076567767,-0.6133561572768095,0.6155965553853668,-0.38638487301007257,1.0697393172102083,-0.6481349260401037,0.3007791849977509,0.25043741619593923,1.9502156833083304,0.6478476816587342,-0.5146910155538806,0.3207894956401948,0.8247636792901086,-1.1168120500926428,-0.16031169403775405,-0.12598926090245308,-1.06604823465201,-0.5997322042335723,-1.219626205782615,-1.6521696830768005,0.418079849409578,0.6069495161157826,0.4863243023345338,-0.2026465709306571,-0.31692365457325,1.8607769783562735,-0.8190702384726732,-0.2055822649973671,-1.2301523804852785,0.8768459983753103,0.8802821088527972,0.1880911814764644,0.8151857810744624,-0.8512705199328023,-0.26537851568247045,0.36397939803570606,1.7944906595761694,0.25561312389937263,0.7017997863766497]]},{"matrix":[[0.7236778221961538,0.605676960027416,-0.8719689385431377,-0.5006807743475322,0.7437572250804521,0.8164125306904332,0.32636476603519526,-0.1451336220132547,-0.8167066058940272,-0.5231952331675491,0.5536268699393766,0.6240164592832479,-1.082014942678432,0.8900010457896224,0.5712923229676458,0.5077782537041744,0.6539909746212583,-0.02794958823482466,0.03250042670038611,0.22889921326995655,0.664691865780847,0.9861252716496255,0.4786792180035334,-0.18699863058727187,-0.8284487206422501,-0.6426678149782821,-0.9592171632170414,-1.0098481185909693,-0.7709223103974313,0.7737386093894523,0.5153094430250527,-1.2481978798428444,-0.8214654271004613,-0.018413974419505416,0.7047548435681346,-0.6132260112959949,-0.14621057621425762,-0.5517522017973462,-0.8496664989063184,0.9743192641183159,0.6707762929819844,0.6937758515065525,0.21742521441231044,0.19413480916252976,0.3986050962367584,-0.48704748358918304,0.33216199620819004,0.3818820137374118,-0.6276104394960613,1.1296947672395017],[0.4864584266793282,0.5829669491303762,0.9659107455176348,-0.9060324512072124,0.9881425215453873,-0.6006087503891491,-1.0295357266488439,-9.572777153647443E-4,-0.5509404211005644,-0.264776268355648,-0.1376957720037026,-0.9014410145645467,-0.5172304610342435,0.55852609655201,0.1679954596435046,0.23901793300232532,-0.7392852273006344,-0.1599698607644058,0.9634054927114071,0.5347125863719506,-0.628457775754364,0.43993114336890277,0.8098850840260957,-0.665554719971705,0.6231123438746513,-0.7196320841059233,0.8061625161856283,-0.09679786421544828,0.8676136077236681,-0.08873258655399578,-0.025316335103117482,-0.3313040839243874,-0.2951199286526288,0.44691338027434446,-0.2557178218775835,-0.7990672523980397,0.3814844583759445,-0.2066669036540803,-0.8685340321074838,0.0969445469429247,-0.04133656617606169,0.7398846589734646,0.006230117506888188,0.6257200997140573,0.055929610097275644,-0.014378563590448024,-0.5198127997248276,0.35653209698760596,-0.8720027676770273,0.760019563302869],[-0.7627469392675837,0.8234130440598653,0.6016283118396375,0.2659136527701325,0.7904862262031835,0.5047932145984969,0.6831167802570858,0.6959245827188849,-0.46717372648663624,-0.3235622680046046,0.12119447797130031,-0.5303348640407203,-0.5795743054939528,-0.4835566974109151,-0.734457409044954,0.6586923952737775,0.9477948260482325,-0.1664545416801411,-0.10218884557628674,-0.9698650469236004,0.3175693334160434,0.5427468542395467,0.42029031318827553,-0.9638736597901056,0.7655702124347495,-0.8527853959176988,0.03466446710978073,0.1902078482880842,-0.13929467085093877,-0.31542490150506425,0.8449662091533552,0.56521309730479,-0.8550840418205512,0.39996176429580765,-0.8055156265563761,-0.36204584159607855,0.9938486604793593,-0.7843253023387803,0.6038075938789398,0.5952999318484845,-0.201653531035685,0.4512226468289739,0.6471293350482622,0.4239331679456101,0.6988473451970111,0.8218446104954742,0.7360970707260419,-0.475766877891169,0.8648028829478931,-0.4433149670860198],[-0.5982118283786858,-0.49593936288512186,0.14440604387689016,0.8504945643871854,0.38914061145869194,-0.013029577945309529,-0.28156335126995774,0.14890616404258944,0.24575739019789997,0.0472770080179894,0.922050634629103,0.1467920034068616,0.13184666786913585,0.07855820100238793,-0.05084613190442617,-0.7657564908638954,-0.5612507070483387,0.2991735949334347,-0.10030108995757281,-0.21397692989108374,0.512856397145305,0.2548925876473797,-0.6802206289230546,-0.24295271863770757,-0.3809158635935863,0.9283148739618152,-0.18131936468350546,-0.9856072139029565,-0.7681802091770612,-0.24205810992030768,-0.13198400354006207,0.619437953665079,0.6714384636430539,-0.600993005710535,-0.4688464989515173,0.04843760990577033,-0.19569196690512652,0.21241719227145278,-0.2702851567394179,0.9922479127152869,0.5889419904230792,-0.6012698812248418,0.32150649127172287,0.8230912515290323,-0.9996984050665304,-0.11281976847910766,0.8890438068192129,0.7201712426586406,-0.4641946813200955,0.5936454660521696],[-0.6128500824717149,-0.11688230466014217,-0.2117148218471997,0.14787137556199603,0.3635930239084933,-0.17416220931479245,-0.2946598512370899,-0.08096787063350255,0.2868863156600156,0.43280555889479017,-0.5106739502337437,0.6414704217584247,-0.8662055091688546,-0.4862638296379421,0.18875150699541376,-0.0581196342458946,0.7676046891250436,0.1517824523754165,-0.5226466419004464,-0.7412764179575815,-0.08456704073300901,0.035109165056492794,-0.8465183002436447,0.39249540270341027,0.5441656700628469,0.5598031637085614,1.0335348944678049,-0.6671279786578651,0.8897603310867321,0.7128079007379564,0.332447596041853,0.4763383655352633,-0.07128574972017675,0.9032324394994204,0.8746825177731726,0.827696816740886,-0.08642040080160315,-1.0020381106772234,0.07601003311672545,-0.6453957283637585,0.4976921341482594,-0.2889453635496926,-0.1411348639815662,-0.3227339979784809,0.612057179055843,0.22509058784609065,0.910286818608747,-0.14571337573056503,-0.27144200240769406,-0.7504070255242219],[-0.06724889980943033,-0.6363749116681752,-0.9945070110628877,0.6017871391684623,-0.9026112014935236,0.8672406380961104,0.8971716986774629,-0.7544859864497374,-0.0016847858171425245,-0.35094790691611855,0.14480835161438269,0.46982977958330224,-0.2871440831271662,0.28553640920385354,-0.2864325790582724,-0.6310138472888901,-0.757636518834879,-0.5289293993553381,-0.2778314958745256,-0.47297878240079155,-0.47782460852221825,-0.14826858697847123,0.5002676101953359,-0.7057397349147874,-0.38874761171914063,0.09173937404002361,-0.6332892965210928,0.7283475594840417,0.8586549487263522,-0.17284527188822127,-0.02699994536634603,-0.8170607115207593,-0.7167073569018266,-0.2850160143920085,-0.5643933988984916,0.5825656323154287,-0.4584642611683047,0.9505942587394995,-0.005261732041717885,0.3939910039613984,-0.02311408950175592,0.6322461271087013,-0.23229070680028888,-0.9465611965920235,0.750142031672847,-0.11740382316714018,-0.8083365815351086,0.18119028733704035,-0.9035817398864918,0.8122889383318288],[0.9097314813359546,0.01009840021711296,-0.5317791040510337,-0.7053765317504277,-0.33909179631964037,0.10488678366946545,0.5039322226968664,-0.11770873151138934,0.8254249594327646,0.2297769845140825,-0.348062069460211,-0.20380667490846835,0.4382330969568705,0.5412706907808053,-0.902781290076867,-0.12188624727898793,-0.20939122620443942,-0.7758764041782643,0.6601683532292094,-0.16363183724159663,0.20738754243052235,1.0222584213857084,0.3527322400060616,0.9467515434390166,-0.18623730449293363,0.6174546624033895,-0.6864799994209698,-0.17400904711107745,0.45912974837084164,0.7076215590793318,-0.2570254203284909,0.17822185793047554,0.2682478352979105,0.11401838810322684,-0.14985715959425006,-0.4978527787848766,-0.13553950042655769,-0.6066987615658062,-0.12279099933415065,-0.505512148223145,-0.7538368742091296,0.8314442802535038,-0.4001715015970255,0.2711661077051148,-0.7676496864260101,-0.8087776614347579,0.9510128017524264,0.7912352676347302,-0.7299951423590455,0.7814994700865971],[-0.4871969852558736,0.5606120224737834,-0.9057928404149125,0.32936319204956194,-0.44064199998173426,0.953242832526756,-0.7853779621878222,-0.08948060780225321,0.9447114535794549,0.6362658744657148,-0.4792611431315387,-0.7700511983149599,-0.34585242093410073,0.7092895662607154,-0.706196172771235,0.04181987274430043,0.808938217719239,0.8836091032036971,-0.08280977259361985,0.6836069831630807,0.3901293334774298,0.32489256039854897,0.2779033994031534,0.8308424045147148,-0.3160961345503233,0.798560357696647,0.8097867729594285,-0.08795546626313919,-0.43403227261646476,-0.9286012916182736,0.19789818148354055,0.6097300565270206,-1.0246997483128693,0.6102468429958685,-0.7045849027893311,0.06483001097847335,-0.9300822956344772,0.8495106281746904,0.23315908307745603,-0.8739858414378596,-0.8057125207944948,0.4761676232836977,0.0799493547983692,0.4575088964025879,-0.8439830949218681,0.45009924287337055,0.7301811352866876,0.4964704178011579,-0.18732212791746064,0.5802699032292878],[0.3626789583233439,0.8937904099151784,-0.16695694624590196,-0.2855589002306332,-0.751807046356906,0.017647236883950725,-0.06832981129727875,0.5862112058857418,0.20432044698095617,0.5829223881981301,0.39872186107380436,-0.6741549778508118,-0.7450298370819806,-0.3788898794168247,-0.05639354493740456,-0.6504836761762925,0.48953221081788867,-0.432715024606894,-0.8624621903295161,0.3458459622002405,0.5268578407739141,-0.16455249867084532,-0.27853016645144163,0.8182534416247264,0.9417121956032338,0.48619642033784616,0.8995273533998247,0.17724445185573,-0.38136992788585833,0.6254965772325983,0.11894470115621766,0.9528160163988201,0.8008761879898495,0.9936469868605131,-0.9553650310103626,-0.17221809538161584,-0.24808491806905789,-0.18072173972564998,-0.4123379528612904,-0.6602706559897605,0.35749593691032183,0.5809060814110457,-0.5015521942645162,0.8445613989045939,-0.21217384691194718,0.44401303746539045,0.9227670645276816,-0.756066816041974,0.41587801809113656,0.3867837509223424],[-0.35688898664112206,-0.8787400007863566,0.5464721797604898,0.7689473626821981,0.03382020398811815,0.6323977339297167,-0.8351151415967342,-0.9775687937958351,-0.946617449832992,-0.709418976414053,-0.831813929720821,-0.673104379052142,-0.9077986364498591,0.9532563112638309,0.3532959534055966,-0.024508625624403747,-0.19672247556621672,-0.185616867143973,0.8047953773166425,-0.32069742078271835,0.9461606278593359,-0.8307282656752678,-0.6185008705592896,0.6248236873554325,0.29066481635893127,-0.5510867612183936,-0.7228065097409029,0.333396401646247,0.08185647052114343,0.9990433742724932,0.12703268000908005,-0.5992423415842562,-0.6883907781233908,0.2613235864914431,-0.9987097872047256,-0.6340610326549169,0.04316710199688254,-0.38824278252941496,0.10535861288545821,0.08816629431268266,-0.5829076600293178,0.8720967841596678,0.8877232602509048,0.35148343581763036,-0.3503090654122521,0.9096013923325579,-0.05958010091795471,0.8977636045222972,-0.8092486954404468,0.016232747495225425],[-0.5392872296473268,0.09838329957338919,0.8889121701443162,0.6270785802065086,-0.45264527354447287,0.29635166862414725,0.6199584365407803,-0.7029705544987328,0.5834735647832238,-0.4754360980294917,-0.4881493222022081,-0.6293304726905936,-0.32831024810661447,0.20475510031597316,-0.6450399402176217,-0.3048241863819478,-0.8030904573878123,-0.00787702193760313,-0.8888046946187821,-0.5835027973239035,-0.2624280149695375,1.055940110668747,-0.354802939228837,0.7392292558079585,-0.5539815231653287,0.30216510239805117,-0.4326810646294056,-0.4577977172063917,-0.7231483023786566,-0.27500218302808654,0.6578448897164324,0.7806562109749258,-0.04774488835844284,-0.0706608778011908,0.7928372926866326,-0.7151134625141129,0.6294661418564381,0.4650589811100586,-0.2675539140591657,1.0500801916651346,-0.19410131351044024,0.4412446214226325,-0.1647854994086908,-0.8141903681200893,0.5418286031074647,0.570117227355641,-0.32541376816597695,-0.09489098712672318,0.7640375059586855,0.8634023673543051],[-0.8269377025008064,-0.6404214174544429,-0.4157553416217656,-0.38243161186411445,-0.37473144173747397,0.7731454646098007,-0.7353857531793893,0.6636462071856142,0.17989858901185804,-0.8883145907766827,0.807707989800242,0.004345744827053607,-0.9012188891898953,-0.31052283564414623,-0.15853344247230425,0.7550468412238833,-0.09448014829982473,-0.775795828223001,0.6431524866949488,-0.46934385861196415,-0.3963527368764149,-0.8889829356042445,0.7242385932946781,-0.823763949559782,-0.003157177965554536,0.4401702131273637,0.22373942216030487,-0.41493414281533647,-0.3378790192735745,-0.6719726066267637,0.1536085878036581,0.6196125049780278,-0.5616524784755825,-0.7988457324007748,0.13009204375463584,1.1726377963072458,0.08068417695264055,0.05499329997911367,-0.08036099959453828,-0.923707877074987,-0.30352725235882577,0.1799002898318964,0.879453508192781,-0.6598415942812281,-0.6660315864078452,0.1682299664187694,0.39898539147354106,0.865474079161452,0.7195468791923335,-0.26837712505854167],[0.03885564787668621,0.08062384991765957,0.1688224611612827,-0.24274159204246523,0.5200484461004301,-0.19461945772564138,1.3747975328040976,-0.49271896459972336,-0.9135330099646,0.13694473662276965,0.6257176141953371,0.5109969292830137,-0.9096294215358532,1.2984831665450198,0.20369660957179445,-0.20307424706511598,0.7625191097880543,-0.7854934183087574,0.1611797126572878,0.7794677109436847,-0.20996129186191897,1.2045818878390468,0.4859566611321971,-0.8284102398154559,-0.8900525775019414,0.7565308784702716,-0.23640268819594767,0.015661994829166536,-1.1517688041834184,0.6582508668834278,-0.9010602771754794,-1.0869336857586789,0.9919213552239068,-0.8343241991274406,-1.1941168936386706,-1.120657021183554,-0.9005603825769838,0.6206553762519086,0.11156786972965393,0.9812046898600957,0.28315693246562834,0.43496066284193685,-1.0265378218539654,0.32393122263626417,-0.7297098400037633,0.31681961277689136,0.247000837281955,0.38756120712664116,-0.9564721557305768,1.4627229806176754],[0.06899562728514615,0.7038744136216397,0.937396645500834,-0.1444445114347599,0.2727909110485032,0.3778252054264327,-0.9073040077826103,0.07096123649393116,-0.7396719216991102,0.17424778166485008,0.9441767224781863,-0.12493220453881347,0.6138559094307944,-0.5083992540823619,-0.9660328491692662,-0.9590033633039852,-0.8652659077154974,-0.10676006996459103,-0.869728320150339,-0.35592140981779957,-0.1534172728714783,0.5168781125052324,-0.3297494103277351,-0.26034912773855096,-0.9006870433833939,-0.3219720107502343,0.3202310025574817,0.8923405663299029,0.12333305534363008,0.6612401697155094,0.7685059566898742,0.9033618382675602,0.4764700261693253,-0.5483733037596009,-0.6281853989434677,-0.22207574987738546,-0.20861000743278404,0.5072495773212393,-0.1391581452375369,0.29615338501319494,0.9177164271514259,0.9825084214980813,0.9004069665420371,-0.3570123552284531,0.09835845273690931,0.7557219350219158,-0.7553010255073315,0.5194054078917095,0.24327210818598105,0.6457618566923421],[-0.6566479772449441,0.017340368758211086,-0.6566023444312965,0.7417096339973042,0.18385805134022168,-0.9660321286395368,0.3448588116056858,0.29407386846635647,-0.4246291299802407,-0.5393712386916298,0.2585057317983677,-0.9274541539190728,-0.30718755788204277,-0.4893144643080622,0.19272813400378377,-0.09760484091796139,0.905216543815782,0.7440169958778683,-0.8957159880656703,-0.6127079002099409,-0.0379363512105342,-0.04427290661988949,-0.34532234164115183,0.2530077396653243,-0.44973553267158944,0.9806665574356809,-0.8180927662987008,0.5622598003187931,0.8616532270539403,-0.29122373738036134,0.09900824531126193,0.1849151027669933,-0.5970473598174503,0.09735621522755203,0.21580617893747545,-0.6727418726314535,0.5138894443240105,-0.1683917636120744,0.4848755939162159,-0.3334145481481323,-0.7192357364369908,-0.5902871269778206,-0.5913247231686577,-0.2943816121941918,-0.5955695508259932,-0.069742978374503,-0.006440082079148144,0.3207632098665484,-0.6041437052331753,0.5762587155205549],[0.5258030446423659,0.15350255604076796,-0.005532035478458912,0.946735219242372,0.8457966888163886,-0.41861213700607547,0.3548719951312725,-0.28481579250230443,-0.02544531305315009,-0.06454244612199385,0.42864393310588794,-0.04797738822965106,-0.8643646511701839,-0.8362989556858067,-0.19946521957338426,0.10264981002122506,1.034682274966021,0.3545350154184027,-0.9890349152567462,-0.3631807557612493,-0.7916490204092752,0.7541482450948648,0.7495766613870934,0.9519394480234166,-0.3559301974157185,-0.30824917012817743,-0.7958653674452891,0.8253111795841163,0.8325455315610639,-0.7503871442204633,-0.5703283998156985,0.6333727295357634,0.4109128927444223,0.4100158733398625,-0.34676968731345814,-0.827584653451886,-0.5827275807950822,-0.8423845100168031,0.500513336011074,0.1543677786721673,-0.4490662613552265,0.0568864714614588,-0.4706301218798309,0.18868199549820508,0.22545329632210453,0.3122146887872549,0.06666016257439054,-0.7041152735588753,-0.3515736309248878,0.34854843921208134],[-0.3685141858735903,-0.34200990722833263,0.3376690801865213,-0.2865390456990465,-0.9151980253471697,-0.3032432281330987,-0.052368781567813404,-0.8872078909934675,-0.30952229668605924,0.058540223239728344,-0.9121083055137446,-0.7174131538918351,-0.3621457181531996,0.49155031497220764,-0.842967406271178,-0.4149513339843062,-0.6531194060050294,0.21989496116777818,-0.17429041039303914,-0.8600451307517878,-0.3920784985367737,0.5784373052270133,-0.024067604417274,-0.4694095227818094,0.81572667034709,-0.3688479237607486,0.5745770246314623,0.08938797900875964,-0.7701199811259123,-0.6225614830401438,-0.2998033358620231,0.5082172339560697,0.512473792199107,-0.3518087666804096,0.4818548405106409,-0.8999520323361118,-0.033280844152599035,0.1390571497601488,-0.0216751502260729,-0.6874057501413,0.7638705514863156,0.5304914369797397,0.9569301137878573,-0.893652154687929,0.2035494280760085,0.11594666934334931,-0.1719695591847959,-0.9174677974362005,-0.17619376158703773,-0.023827609666156338],[-0.7516904118949813,-0.5973648914842266,-0.7929745870704343,0.4250223386820226,0.7528499776211393,-0.3033778146672124,0.7195245051115398,-0.9009813546698946,0.354893616327866,-0.6959232614118452,0.8357434118511248,0.8300738532849727,-0.7463011713607886,-0.9359844698640952,-0.5516641483005655,0.4034100666246512,0.29882280137246836,0.35257187237668886,-0.40519594632599987,-0.8514011441000778,0.8180042354062419,-0.13371294205150566,0.9072605431207807,0.9190462912256198,-0.788562643654558,0.3791757548741567,-0.7353488874722669,-0.039078547372808095,-0.6224707043278581,0.7362986813909232,-0.7389035440388142,-0.16734048306326482,0.5093591639788608,-0.12096722358256169,-0.08593456108797817,0.697872555438721,-0.57226333428254,-0.8774178057244274,0.537112742243244,0.7858791358831448,-0.26713304689850925,-0.4250388924850952,0.25204878094685107,-0.6883193834653498,-0.10958105673233041,-0.12631521563533557,-0.436897721462362,-0.7056944950753692,-0.012202457948497513,-0.3779119850776844],[0.5070225833408267,0.2809344778620064,-0.124542306503333,-0.1446402557195768,0.8907079843045663,0.5820432924668933,0.9191131812869154,0.7864899265940157,-0.36111022981822205,0.29124888544298594,0.2546022233846722,-0.20524359882177445,-0.15601312106808743,0.881418971523136,0.8886678746811164,-0.47603064127003225,0.916250548722696,-0.3270596880781347,0.47228143647244136,-0.01688354795054736,0.28797515677719987,0.6655522877003734,0.506459902274291,-0.3714385483663436,0.8785170887038032,0.9297586565390294,-0.6579871958698235,-0.640528234342665,-0.35559456873650164,0.42836087478673407,-0.2268594772359638,-0.25553937268961063,0.24571642416434203,0.48675367129879094,0.16080766931154336,-0.04388933418464347,0.8414520243680526,-0.7256002937245122,0.521772652542724,-0.29580127483754887,-0.30247724954312066,-0.05104922209584926,0.2573230804177737,0.4082298688304771,-0.3948186202621688,-0.9028503305706822,-0.4031034025090114,-0.7910981190509326,-0.49682607323897054,0.8860405357467606],[-0.4765917999552573,-0.7640330735766413,0.4902177995688401,-0.8702266734770439,0.11220216032258803,0.2385862405481747,0.46339423441430244,-0.365455570229402,0.7180826350558555,0.9129430596832245,0.6563713514285799,0.4330004189261443,0.11724701570162943,1.1766035816010758,0.4903384407889978,-0.6327513124452184,0.9781350574908166,0.4792478905753097,-0.5023383674974817,0.9239363465877527,-0.9372429010939027,0.8575241042505456,-0.49052892979706947,0.7393966624615591,-0.5248139028549463,-0.3730596601855099,-0.2513731110414195,0.8709426873446721,-0.652879585760398,0.14482975129532133,-0.5407614168947988,-0.8287267357605477,-0.4082733345875066,0.8081253798062189,-0.7262327461337246,0.13606698389696006,-0.23725270734106907,-0.3743721601111133,-0.42833331645624545,0.05798692430198475,-0.5718949606426132,0.6069809056476446,-0.27299982217461216,0.4658802302198852,-0.34022326894147586,-0.21006621198435677,0.7712424661667582,-0.7991705055796718,0.7279922933015228,0.9507384255986344],[0.6719702546589633,0.253510792006746,-0.0713165365979891,-0.0948407722204076,-0.9253004414424336,-0.7724784053975271,-0.4742999044942953,0.40259004690521083,-0.672900841266884,0.002093383978643176,0.03609800049087783,-0.009254341755320824,0.6277357620100207,-0.9242934194210152,-0.2856135282780772,0.4244475335055085,-0.6722404475256901,0.25156621803184775,-0.9726538533744176,-0.3433336470819472,0.5324854077739536,0.12110588343258283,1.0137649356492326,0.49715561553961923,-0.9211410062989136,0.5813227363585244,0.3785304368611965,-0.9567558923584859,0.3438520074953871,0.27315597559171,0.9323711768789148,0.059266411404934535,0.6527838545250954,0.17090742231079953,-0.5579125081865859,-0.577511670903664,0.8266646598347548,0.3658935159148954,0.9740648859273493,-0.49015511917384724,0.375470414027473,0.881689223282372,-0.5494505604423392,-0.8080014790887164,0.7009150053542261,0.463421904652183,-0.4804322200445387,-0.29160096443009575,-0.5098549676082001,0.04962768246310059],[-0.9798902223010207,0.15724826822365517,-0.31361040404093005,-0.5360794500491894,-0.6238377562513211,-0.9311194964639444,0.6431184545082883,-0.24407824265735353,0.9631245966072994,-0.8739289589675913,0.4081957394800174,0.7351069114130228,0.4570293327903282,-0.6874553680715051,0.013288671816593172,0.885522759334471,0.7880622901904089,0.3942357808776257,0.08743963102901355,-0.07307930037563623,0.7786739418903332,0.42631143708249625,-0.20305377465828303,-0.9399595184782529,0.7379270328905644,-0.976582582644151,0.7170787316112153,-0.8291590406957515,0.3915346143401049,0.323908540197736,0.44828020981969463,0.7809058653017101,0.29077058084100865,-0.6906624619110033,0.7728503254482946,-0.5103288962410611,-0.39582093050247746,-0.015272927887332647,0.9387027488558054,-0.928159737952772,-0.4182112655163977,-0.7705540921597903,0.37352656627499614,0.9887066821547594,-0.630819556343256,0.6335865077033875,0.4974938920510168,0.035140024811009314,0.8445149481953843,0.5713080016326646],[0.5679435408591063,-0.8795751946681963,0.14263136258749992,-0.1362516056386604,-0.010383140625462342,0.10839437700085815,-0.263822413650618,0.8771882066161223,0.20553907967610863,0.08907084532980333,0.2882598914377202,0.05523509386449893,0.30544761553766275,0.22156933087896982,0.7773392726137668,0.03431992046239581,0.034724122764701965,-0.1263355988071872,0.8170481390055292,-0.4333785920301783,0.29944969958806134,0.13707887722168302,-0.9238184769960971,0.3265366347621941,0.17296335027321094,-0.16608400792916875,-1.301547080873714,0.7618730557570101,-1.0391070222515224,-0.6931655054370334,0.5442036394758327,-0.6320114946900705,-0.8742512450676235,0.46017771068897806,-1.1635718011128389,-0.7738826781932833,0.7794761930915615,0.049635296738322246,0.1546707827079841,-0.7757371266646407,1.1512486141692462,-0.3731383278542806,-0.29936435456171706,0.9192168852164991,-0.5588506302247822,-0.2601002323328019,0.8469233551778265,-0.5000694620230907,0.009545436579070171,0.5772927970492984],[0.48704031918452945,-0.4520962097392914,0.5801910794605228,-0.35432277455620614,-0.08600186781102738,0.38079657246162996,-0.8170674728330547,0.6625060317578286,-0.9155530744371763,-0.615159829694211,0.784731637800131,-0.5036542391136047,-0.0042296251438776475,1.010004703460878,0.9591885844969944,0.9647748408815606,-0.40861944231593544,0.5688491844924557,-0.3883348952061339,0.150902378230902,-0.7818232711236955,-0.911141108091306,-0.9496380161542227,-0.6812532872340136,-0.18692738573268444,-0.39972041860686824,-0.3793527484080246,0.1757866148634862,0.8517683536116457,-0.6556104240579799,0.906659491478294,-0.644442251611592,-0.8196237093843117,-0.6811090620664806,-0.5272118089459955,-0.5757057260664965,-0.7922756535615405,-1.015428608099189,0.11970030151232765,0.04373919277123633,0.9520352360788452,0.517181261336408,0.5357232351652875,-0.02015467154130411,0.9221954107411958,-0.6052112618519804,0.713991136269542,-0.8831368274132715,0.5110678632726915,-0.8573035964207263],[0.4499264551286716,-0.2736790365589916,0.4328129498225896,-0.6767312564035393,0.37180097431526077,-0.4723076525242472,-1.1702431292477657,0.7422570423892834,0.9218792354861978,0.02450654165451641,-0.5942786959755162,-0.9248250639820853,-0.36196281276240966,-1.3297525799464156,0.013239793852885467,0.6450274928869227,-1.01599024817668,0.9563977756315124,0.7753528557106973,-0.7245778753662883,0.9377755441184107,0.5788514217290922,-0.40955270064760796,-0.7159549902738533,-0.35762248295093546,0.865070389831394,0.512513742519071,-0.6426005940197909,0.6304629872185519,-0.7246092959068855,-0.1380630848985226,0.5586717540938073,-0.1961534596662937,-0.0033271435481065886,0.9985892582133327,1.275502217588873,0.36517106627330237,0.32697869516443323,0.9124083321955359,0.27113342101370674,-0.7874323673730056,0.14592481655725315,-0.47307589773235875,-0.903333422354331,0.1990273983490156,-0.37084969083387614,0.42781898211078867,-3.073134674142371E-5,0.31266369490952917,0.3462111507055409],[-0.9048249090808376,0.17510636454277173,-0.22601138926866943,0.48398216798385,0.3549986973092105,0.5844372650726849,-0.9236088554664245,-0.8818789693824073,-0.6183101698311866,-0.6218135438566026,-0.6898618718619031,-0.7106671113311528,-0.31479915557093446,0.8430486488975224,0.5718569222740526,0.5993339808399254,0.9993402105362234,-0.09847123411275559,0.8953497195829294,0.25825754845427834,0.8675555790050241,0.7860496742044281,-0.14125580141097238,-0.6630893725722378,-0.040600990237826075,0.9824109225334644,-0.4893969303277442,-0.7205833643052402,0.6742872886465571,0.11203499335032184,0.19751657435573353,0.13837644387070816,-0.2843313302864437,-0.1081730011311054,-0.717871910873918,0.5534052671366316,-0.05915913474617927,0.3844501545813145,0.07863309904804439,0.4199753884860993,-0.5705764063337558,-0.4518456198285479,-0.9274558712377516,0.22665835934283504,0.06404537891627676,0.03295936131321822,-0.8733520927656669,-0.38963797354991575,0.4168690890067308,-0.07095962542357624],[-0.7999819702520619,-0.2542384425003081,-0.6599382747443361,-0.22952159842055497,-0.6679592837749163,0.6088138025763986,0.8763807577450604,-0.27753832466383904,0.7165575022853494,0.656871960288172,0.617145971209607,0.15517246819816222,0.7844815486420674,-0.9946819987432015,-0.8191571382781637,0.09892762108833307,-0.7682237841685132,-0.07608527638683789,-0.36564258991908893,-0.156721648269669,-0.8981939337793937,-0.1277158749127083,-0.9369867286867091,-0.9138412272517602,0.5458544360185217,0.7637333158281436,-1.0120891445138596,-0.8083985288600071,0.8248347646580808,-0.8767829115614186,0.44672879584026043,-0.1907367585190226,0.9317464051242356,-0.661075348974104,0.15529511091449816,-0.8500855167337426,-0.8939583734552252,-0.10400371751786984,-0.3494284257992869,0.8185930346256872,-0.12025557624814445,0.6616957528079241,-0.8702508727503966,0.6425791481281146,0.5577440516888829,0.10919090936854159,-0.24375326639641348,-0.494291881599433,-0.45133299536303834,-0.22626575241596092],[-0.4779925711699354,-0.40017159893516596,-0.912750749430483,0.5722629397092187,0.4649134024017685,0.5253662586932589,-0.20505676341358753,0.09477741108055562,-0.8353256023196726,-0.21474583294467153,0.1131175112370724,0.8864759583189424,0.5458560552357363,-0.6346092290824695,-0.4693835661272268,-0.08211358166946395,-0.27533046468405337,-0.3097949690475737,0.45372343616081323,-0.5130984640006172,-0.5040716651680254,-0.4339682349750832,0.9573652154856829,0.5521567007888243,-0.06688920444494294,0.5620826018356214,0.019349491282115366,0.1280928782209061,0.5953172116782807,0.9728197782807484,-0.058010767985621374,-0.5064214827116514,0.7915196728466324,0.5520507061439718,-0.6135652894051348,-0.1383691414783729,0.722982991412668,0.4664590902002291,0.010501744409122762,-0.8752017763204697,0.91138097443028,-0.2523299084259135,0.8984173118266601,0.263303744960707,0.4828775902007107,-0.4850441623159018,0.8899986892005552,-0.21705703099699852,0.8709418635767143,-0.6455495731113612],[-0.0659964840321848,-0.40341574679202136,0.590903071626461,-0.9118581834269311,-0.7897683386739159,0.4546732145620247,-0.08520510844300108,-0.8827395430850989,-0.6687809667432215,0.8907591997871546,-0.5821498016311724,-0.7721955886182763,-0.1451648085774741,0.7255814347300278,0.9422928134508388,-0.5903137901177086,0.2622167153361287,0.5148150021468388,0.42796611259132866,0.7110172143382396,0.5318271211926078,0.5074792774050665,-0.027449889197882,0.6824619231102046,-0.2514665216203342,-0.8668991536910609,-0.5708243994197236,-0.7155626808269947,0.7891933529737252,0.19851325065264563,-0.9097624992325308,-0.03348073582885567,-0.8326435839880582,0.9059850578251356,-0.42733354139288143,0.846455107413724,-0.7478846173697383,0.5754890326598401,0.16302121333953043,0.1342449648820665,0.7703349879472081,-0.4452913902606131,0.7204402873565445,0.9355288019009802,-0.7015856545766868,0.24375959620597903,-0.8145144493158897,0.449251633699072,-0.32060645911620217,0.25493693300262504],[0.365779364530242,0.08522052134571804,-0.09494848266467133,0.8995899163726704,-0.4647281126070923,-0.7179859859995388,-0.7396452875459572,1.0062999547443385,-0.5717303694444625,-0.9052684372723564,0.6922342428865408,-0.709584933550489,-0.68762387244942,0.32912939450972,0.8567965295583755,-0.7531644433031665,-0.4466557806505555,-0.5243579093298392,-0.5246970610834643,0.6779951394288298,-0.8090964858934647,0.641455736051929,-0.5440965350327938,0.8044344994132594,0.4769643851778827,-0.7632148543880529,-0.14366210195505327,-0.8479233760375947,0.4984138310818676,0.017835624871908425,0.7984924332032509,-0.15426172171405386,0.7052954510282917,0.361502431373264,-0.490331139039656,-0.04094454538237218,1.053092235792873,-0.6024435452751773,0.42369583244905956,0.39724356091399304,-1.0577228247918806,0.5433682357531235,-0.06401441021860567,0.43099610191856297,1.0016714798139927,0.1584035601800488,-0.49280810117859014,0.6986881845190853,-0.9111019111140182,0.20059806503138444],[0.904350631022032,0.6430948607950153,0.9093984155725578,0.46749479647064446,0.19802806248003862,-0.11062216091897231,-1.1857179521539014,0.7352135040261517,-0.19814179725935832,0.4384530267814931,-0.27478458951861795,-0.7579377669683243,-0.25784660619228045,-1.127692035807195,-0.9949742020718967,-0.5629506735005423,-0.4846805907449547,-0.9328657393171119,0.7601524702049208,0.1117409041286408,0.4906391723791404,-0.583737604336587,0.30779088854048514,0.6964017648169586,0.8308481754119956,-0.4955114099544489,0.38795843511108385,-0.5914742829573807,0.7971943278644482,-0.0943341743160492,0.2897438966617906,-0.4404623006120811,0.807331013664616,-0.19258910221614686,0.9638873684912959,-0.2593876404852362,0.9663115071188326,0.04295314181472294,-0.3893864597186847,-1.0941321598342206,-1.2591063057926497,-0.4278899015297424,-0.6405088837989599,-0.437218415604987,0.040319812728676296,-0.5034797526343785,0.5354537303892674,-0.15421444260666148,-0.4155773587845856,0.0766644389799427],[0.18270521890241748,0.3321342236790646,0.7211852752802518,0.890992480755417,0.8678336993853271,-0.9659364158056644,-0.23153605211460276,-0.02400341854439456,1.0415071570489742,-0.25000690355264493,0.04114905423553975,-0.3314726004003728,-0.6532528548916134,-0.679545661694776,0.5690260851849955,0.05402194653427976,0.9016574359065043,0.05805260759524705,-0.41430796119716606,0.11976326295080537,-0.7176831804899924,-0.40075623770245977,-0.6198902024079964,0.7719477686815361,0.21731931061099524,0.5933264671082707,-0.26155049610843906,-0.7000787583950401,0.882271148658513,-0.7038532471764022,0.06722052593105789,0.24350957711071416,-0.47578501827879943,-0.5693534408126656,-0.6910683499464957,-0.4499752229216363,0.36364542260177796,0.7481839069691609,-0.7481654942408121,-0.6816395011821641,-0.21099667720104834,-0.47646208336122114,0.6088236088598757,0.31471196437278653,0.2884481894970708,-0.488692315551248,0.3447047600799112,-0.5291430838863036,-0.4954338969680217,0.32023621188587753],[0.9220854730720771,-0.4791481198537385,0.6479965606476971,0.6859246859653554,0.9592450635264707,0.7196727211845528,-0.005669627495558936,0.5371708857109978,0.5154561352768602,-0.3693641318849854,-0.700524779411442,-0.028940699193572093,-0.41775492545546233,0.027258704344330476,0.5961953018158915,0.1156763144875389,-0.020303921069584764,-0.07705145066854588,-0.35549139043367783,0.29393915942652266,0.10787683280333156,-0.7668454531349514,0.8496063119385112,0.9305124851820825,0.42760276888183096,0.6485003915817991,-0.8484182631027009,0.21430842242276385,-0.3045720981228507,-0.1689540695339738,0.354704133399163,0.552885590171148,-0.9013769808016353,0.7328260367705115,0.5123703654749285,0.03757823429301208,0.7713195730385596,-0.10897714635364245,-0.46182048492703764,0.9438960228621129,-0.24735251491002683,0.31854307127353204,0.6902905069351093,0.01855930596061755,-0.42727218446357196,-0.013583514480596947,0.060633376444267466,-0.6876656140778754,0.022170810655596496,-0.40564604865889886],[-0.6721104250771097,0.15047966577169264,0.21071512021308772,0.5596814837991495,-0.9516222922081499,0.6968804370033116,0.14186570968312087,-0.052771580720999585,-0.42637909538686014,-0.609324344303094,-0.8369961044287583,0.23151536269442458,-0.41117429906870034,-0.37635869503817715,0.2565158729504193,0.7275286888068387,-0.2580261618660931,-0.3872854954659627,0.16388740319738315,0.8629714791200875,-0.19031013915992992,0.1500790737979158,0.7213851684231244,0.6595737611701235,-0.3368087805865468,0.1804625976483851,0.8466390887956037,0.7352700822440296,0.6680994442368273,-0.31580898140901936,-0.5351776481516786,-0.3682275549886232,-0.7623899704343782,-0.5398874325933744,0.3520826205958626,-1.0297075809065257,-0.010663484330253723,0.3288924408618309,0.7475691156929334,0.36475177001624315,0.2403667264566516,0.6485092022903902,0.6647807136900388,-0.8893579945448643,0.31371201258460807,-0.9145967710524967,0.8833881906565698,-0.5914579011564676,-0.40510841316506585,-0.23385504923635636],[0.03098749412576705,-0.5819960257467326,-0.5335459523818284,-0.5868303677718222,-0.026118761924545958,-0.635657741512034,-0.11541131431825676,-0.0821294387054835,-0.38176898853564184,0.1736376185868906,-0.21709208813964959,-0.6178940275862954,-0.9010350568996464,0.24957940662749348,-0.8409575005389212,-0.8856326743313216,-0.807020078295548,0.8658783652606973,0.3680144652331369,-0.2477049698690741,-0.7318755047512471,-0.8999485800467744,0.6112603424178787,0.73862487186221,-0.7931995324213289,-0.8889163029819891,0.3055378373943677,-0.20400047788853098,0.4150242178382778,-0.9906840326823314,0.09377602590113537,0.2612608925126262,0.820445561746644,-0.892994084091376,0.7625618653594719,0.7287905393668375,0.02106407199284243,0.3936308256651764,0.34820098584802955,-0.8170964067393373,0.20755502031693399,-0.7627812689321103,-0.38082431905095027,-0.8256734822555207,-0.6193823227608742,0.09698709862083511,0.8709366969119771,-0.09578276744472351,0.3796763451617648,-0.3411868944825863],[-0.44683433553531526,0.06456221758016308,-0.10664770289656388,0.31996824912415134,-0.4107757373926832,0.1904556904221372,0.244872642923567,-0.7880427111919209,-0.8996966756576132,1.0066579335528356,0.5661361391419355,-0.008506476887319779,-0.9032484265751493,0.44012016862114395,-0.7456086001889652,-0.46788213205086265,0.13347060559084759,0.27088092457781954,-0.20028146048407489,-0.4509375669036841,0.2252755347133824,-0.5457947185334026,0.10483398933819602,0.36377356690669643,0.6641672352052257,-0.07010070869449957,0.03355085636184514,0.5881836835269678,-0.9437182689448534,0.6881061968454397,-0.9632177745508508,-0.9274559702133818,-0.6465275084767049,0.5872714107490085,0.9768527924896198,0.784215337241639,0.9609804993753185,0.022254941887383178,-0.6813314176010865,-0.029590613616554757,-0.6390435899390449,0.5705788344906998,-0.7908053767523496,0.055024443686943265,0.5217362835954128,-0.257647011922176,-0.1548407103079265,0.41895030664069177,-0.7806244721309983,-0.504853784349021],[-0.9284078537851832,-0.4338881158468314,0.70879192710112,0.8332402071581595,0.37202421869883184,0.7448336736056906,-0.6409196459815988,-0.8189781321094342,0.6930977208555341,0.6325713883767478,-0.09483163515454732,-0.6403416105439271,-0.749022955463388,0.563996834315809,0.07945283213900332,-0.9248938826305373,0.7165002157765302,0.09975798113761002,0.5514863782759658,-0.031483417170443895,-0.2858925568673123,0.09806037484094104,-0.87107697315155,-0.8631853740028154,0.49270739314309314,0.04654552004569336,0.13722167123802928,-0.6797006256789376,-0.4722744304655048,0.22658832794952435,0.285101081137576,-0.8707809371782347,0.7381913008222771,-0.4441962867876484,-0.37756859203317694,-0.433316974237643,0.45767557560540834,0.943959552130096,-0.5390402640272147,0.5703729374959986,0.28232143711576746,-0.3497355869703899,0.3682050536168178,-0.19945467238905068,-0.23870895104909481,0.714640474754527,-0.6772950214945845,0.6981375974154835,0.7291915994909054,-0.4252627457935601],[0.3027481597233814,0.9912796371031718,-0.886427248913222,-0.16727383588121353,-0.8349269100772695,0.4868369558239994,-0.664592392941164,0.3974834584536197,0.5427183809800805,0.41148190432377085,-0.9088573983530934,-0.5800914304847664,0.05656320542259733,-0.5975943113491149,0.9202635733361417,-0.8234396943858641,-0.8012269980571824,0.7513390174095887,1.0320229674967247,-0.6801971029078974,0.011040313181331661,-0.24625266780114188,0.9739643511813231,-0.7859117731990478,0.5689833108797545,0.18336470649850944,0.49808213654291833,0.8871350339887588,-0.46368464748877475,0.22349002568794463,-0.0011381878215077138,1.1290509337198238,-0.918194320724996,-0.6981801393788593,0.43412313635742555,0.2804272819296623,-0.2888487405614938,-0.6812907715709362,0.12802291585628509,-0.2244598268164318,-0.6763128689004457,0.027692694035049207,-0.0049291823873634675,0.3203845470624072,0.5752087172118552,-0.28560266462489714,0.6430711019506002,0.8638969214158476,0.23997897838808968,-0.008988377243385696],[0.6769961530758213,0.47567561629482297,-0.7684431771340728,0.11617062052148569,-0.7162722206027474,-0.4485738646889177,-0.3376580314841138,0.9075800555068386,0.4701376597783053,-0.9821658797358217,0.5630587002722929,-0.5898278285190671,0.6931444482189901,-0.64336212136461,-0.5332728860190428,0.3261899614547903,0.9074374553157274,-0.3346377568486549,0.8235358130089973,0.48004929695746185,0.054138276107957774,-0.3400020046630162,-0.8917847424970009,-0.0851158744039828,-0.7418993490636058,-0.8163821467312805,-0.06983174314700102,0.009325228199002673,0.05700247799392389,-0.5270555828448636,0.3628587026743391,0.5808019313778139,-0.08847209273012821,-0.6275917547302912,0.6750221565820639,-0.4862732273958107,0.6557040457129419,-0.2613730343783208,-0.5628725236651412,-0.2525084470415363,-0.6670353005335261,-0.04772703425399431,0.11223307568177482,0.35267326926844794,0.6766106901135496,0.7139111298440681,-0.4007323770034188,0.5439655966280528,-0.5295820285339132,-0.4458414733485342],[-0.043543124621036,-0.0780709838992589,-0.3482222388435503,0.3126690796508501,0.46262986592984506,-0.9873509140276466,-0.27290193292926795,-0.756690992409434,-0.08986976751707346,-0.8609561769148839,-0.4789971150706531,-0.7627334729200429,-0.43772433026677815,0.21318032057416908,-0.34562073823498796,-0.6505295177830087,-0.8215759235412317,-0.27873319397861984,0.9300356539434778,-0.8426823518410566,-0.9421539460369177,0.9179292538111703,0.9614942838819909,0.7006740303573089,0.44606474862592627,0.17846870484042787,-0.6703187529677781,0.6387541406356996,1.0629509724460515,-0.9004511914575607,-0.5404807948004443,-0.07338972922025765,1.0570883901484385,0.5062309848808153,0.22226072811069456,1.0205556815669228,-0.5687570304507601,-0.14230492105454218,-0.6656541981200258,-0.8584673344491174,-0.4072796921577566,-0.23825150513809895,0.7665848151347723,-0.09884002243031637,-0.1927087487060094,0.2626217292352656,-0.7436033734504222,-0.2794404151963146,0.1942728179339406,-0.3206804187517398],[0.24367146143552343,-0.8457660462582083,-0.5751834369074688,-0.9530678251130132,0.4611945723931326,-0.3295748092353511,0.19003322760885047,0.6499715792250802,-0.46802299345691567,-0.36551577136192226,0.7913180875741455,0.566475934930215,0.29418169241359005,-0.09891348753272777,-0.4323092216217715,0.34273642725845976,-0.2944179976269002,-0.5787819210873975,0.9898523335673124,-0.5167724978742843,0.11829491758839229,-0.12948244057322814,0.8130571745323874,-0.47083538651666357,-0.8649848110603631,-0.5252111524765156,-0.9028477812156135,0.09496231909346814,0.5436717732226359,0.291128782185819,-0.8833064824023693,0.36497671674638793,0.3617236321788546,-0.85668127313963,-0.4862385140588151,-0.7352045697689275,-0.3086514740272104,0.9143928852125595,0.8163343822671171,0.772680341895401,0.7084930493441592,-0.3377053054253776,-0.16600771165146158,-0.1988357209108529,-0.48534050461976125,-0.7224232275611904,0.7700938555894342,-0.2848830042421484,0.4862438393973102,0.8461870390621705],[-0.21455466403375803,-0.41996868549188143,1.003312750925716,-0.10033989384729815,-0.14900282629176373,0.6098516019520976,-0.020369789793786508,-0.49138619070787354,0.44219485752732646,0.07081560305243963,0.7111735746272727,0.21268235321660614,-0.8140152982911802,-0.914816539713099,0.7443273572106038,-0.7998503254840388,-0.6920953528310362,0.403207705873321,-0.12339944571346177,0.14732021025726444,-0.03663718155115938,0.8781815673950848,0.39532703796445273,-0.6856405450175026,-0.8177499644459655,-0.4505465558288347,-0.16234517724385794,0.6032588339241353,0.13458066693210058,-0.30752463696228616,-0.6739249538849545,0.32204216070530717,-0.43096327263848255,-0.08944151036971615,0.03601271270666028,0.48469844194435013,-0.16694673733281148,-0.5787556036067454,-0.8726644886447614,-0.15952593076221205,-0.23416780376730822,-0.03984042271708704,-0.70594392799616,0.8127534442187546,-0.04561417442234742,-0.3150519230139076,0.5589410305115141,-0.6418933497806256,-0.8741543102480582,-0.00791397323612219],[-0.39580396329972256,0.5999153425365694,0.6595854738661856,0.022450525055485098,-0.6256714110537783,-0.573730823906602,0.2960415016765159,-0.1978512199512954,0.1152135042534475,-0.8449636936551477,-0.9136929555550588,0.859805961904926,0.3195276083923176,-0.2451144658983421,0.23477432029130788,-0.7419046930070262,-0.804565195760343,0.7223657468843218,0.4696826920879158,-1.1323556961805403,0.6630460984345028,-0.9131367723900798,-0.13867546865882538,-0.265545165109124,0.13007670576634273,0.4489071045229709,0.8710432740363981,0.3284705900875047,0.8468332251263968,-0.7427929114977768,-0.28629164659211553,0.5468492575301447,-0.7261810134692742,0.962658211488252,0.5875478457243251,-0.049633319412924655,1.1038611903828282,0.05880963397001636,-0.8975001771428667,-1.1035003550270872,-0.28890958814028245,0.9840438198007277,0.7809009096175633,0.5009624224587207,-0.006574064476892456,0.2639285351509036,0.9469137361012113,0.3054008622650637,-0.2526826187398096,-1.032799812397432],[0.5575026909952295,0.35230555444920936,0.7309348331697356,0.14055152144662392,-0.39721358814100244,0.11010505310671291,-0.6302585015257602,-0.5071408243915246,0.7278816154466959,-0.07678054214698313,-0.058855543241431045,0.1690324212689402,0.5319572053858003,0.3570530518610483,-0.11708563174789459,-0.47115951847183446,0.8683752149302649,-0.36031409837072714,0.026827569626790164,0.17102222421413446,0.04159520390312167,0.7281372245655968,0.022342475457843174,-0.32890074251749213,0.30765318851751466,0.4554602512096866,-0.47271982732419576,0.020378082710304023,-0.21164865144089756,-0.5821364157255549,0.7217060231483721,0.8805779971100514,0.9418811870032849,0.8875989530984447,-0.08675987475464234,0.802193689895637,-0.8747685314187567,-0.1888619333323532,0.38548904203569,0.9068591582575481,0.42361871521256417,-0.6970146428237961,0.6815154697203999,-0.09341891828906061,0.8555222572438056,-0.7302308939653342,0.4076588075000268,0.5186025056851218,0.5197876324169264,0.9238950115004824],[-0.6701481315492192,0.25648580794098985,0.6151518664093606,0.7849433574280701,0.8526051469550227,-0.7263007675650973,0.31493416716561023,-0.5628365594246839,0.6600519325794371,-0.08952019539986111,0.043291109282646956,0.5953277618693581,-0.8005216093812553,0.7146066805768623,0.04592505658434295,-0.7003804366020012,0.5084529782500459,-0.2158729018838995,-0.13358492716471354,-0.6212380827277687,0.7988802625510044,0.07954902586663432,-0.0868810126668363,0.6364913438160745,-0.18040073474515478,-0.19899749060260868,-1.2088730208052978,-0.8624682677133143,-0.6425716958057387,0.6863175149049391,0.9099255095917556,0.5592228347490924,-0.38087718027523115,0.7570857268920773,-0.44014377246863856,-0.8159176833868156,-0.49834922529549486,-0.0297419229005353,0.4129831429631123,-0.47652846233409135,0.6520578822209153,0.02613135552904904,0.5509587883684673,-0.1434900632063764,-0.37739448442655715,0.99823001756109,-0.1571297976976598,-0.846938915745568,0.20231463039693617,-0.1753778643068597],[-0.2147672506715125,0.4971327551532632,0.21822068114700982,0.9387115637393795,0.4248562865745259,-0.8117419208210711,0.8285778207939194,0.21647190097747374,0.4533892343988628,0.7409574366072422,0.016538778546583834,-0.7495819236719674,-0.17274708369306657,0.16599551212430924,-0.7251507038675332,-0.391434786421637,1.004065343579504,0.11833444626854088,-0.04661774891214275,-0.0382132412033378,0.15214068795538555,-0.6565507894761238,0.4226585629111156,0.901920650445161,-0.700980064484833,0.5335001898337273,-0.9024809282828407,0.6559838397640091,0.24572646838496975,0.4955870010193936,-0.866711584352146,0.7480055488757339,0.2578093760155623,0.6551636008695031,0.7095772334203418,-0.6656683581552562,-0.8620810037890466,0.42826819024454443,0.697735362903838,-0.5505652310030199,0.32193873220451696,0.5749759549607432,-0.2384653239681115,-0.051557614924804686,-0.2103612094329458,0.04326912063077751,-0.6451189662887661,0.17722835227409997,-0.7953711689254389,-0.10871132953451873],[0.7975906781226593,0.64862861823163,0.5464961728008263,0.7638998536412759,-0.5708315665848344,-0.9581065022393725,-0.7466288402544007,-0.669967326729706,-0.8882398959727699,0.012681478512157862,0.7346504890490202,0.8369472609374697,-0.21128164930723478,0.3590706513233132,-0.8614966673820432,0.07645495181416483,-0.6977191901747765,-0.6448776481890242,-0.6529102416491228,0.6404318822050398,0.7037657628252529,-0.7424069623945697,-0.34200206614067324,0.8396110732234696,0.8575791001050698,-0.6533959512848819,-0.3727124389728359,0.5052373496760254,0.9038925807247632,0.8976146497713381,0.8524210485816208,-0.806954028108727,-0.22250735273085318,-0.8630769750108571,0.28422135968273227,-0.03323956283164212,0.0742257844974019,0.8029174299633702,-0.3929195661184226,-0.9043128641769926,-0.09367531121988038,-0.6069659358352884,0.5322514968908537,0.7761615226862562,0.22874865965127536,-0.48767640214597097,-0.006838411952314794,0.815336746997573,0.7948431793700607,-0.6069609420937535],[-0.471646882057756,0.22872075849350704,-0.17858986704780314,0.9579462022144686,-0.05523308397476614,-0.6855064307242186,-0.7758390872673029,-0.8242267128838137,-0.8788854062456863,0.691611458421828,-0.6445675069285066,0.7559839064275958,0.7989053724502059,-0.40297240844582405,0.6336921705089881,0.09539603864851039,0.8581585032689937,0.7731162947843111,-1.0021289451806843,0.717496391848705,-0.5060843907892209,0.5963834632131918,-0.6702371114372434,-0.8054301080688014,-0.06828018350799694,0.928610373427839,0.2607278066322496,0.9797221939972236,-0.26555818971964407,0.5835886632010339,0.27465806814765664,0.16434709488614963,-0.961235549447616,0.21029939221185925,0.9729977258924982,0.7686766523130367,0.31700648293600014,0.9389651188244754,-0.22351092849799603,-0.8093058763717429,0.785483628675522,-0.4045799098124217,-0.8152563253789409,0.32760193828753215,-0.004065262979633964,0.7841534276691883,-0.2562757944055483,-0.14186870335758045,0.6165910826289028,-0.17542137876028335],[-0.42044271198884126,0.6716796414435015,0.6454355423979038,-0.7594146204311473,-0.3199287241092203,-0.814262455034546,0.1780900405505894,0.5679051874849863,0.7457558335895923,-0.8557150129048777,-0.0068226804319779285,-0.5713381473697542,0.8803574173648042,-0.666120006195994,0.6320360062919258,0.447129420609338,-0.6861538969038938,-0.1999614374619843,-0.04258963217288609,0.22298454072474053,0.2918486760105239,-0.12054141948534412,-0.5545270732552614,-0.39539174946689426,0.9732468469062283,-0.4887022015596552,0.0950553076459813,0.40096318967418476,-0.39804532882644644,0.9699619544504595,0.6648554119983839,0.5564087397051202,-0.31822126679260476,0.9125527952993643,-0.8267533929543703,0.3148630350596046,-0.12054097701089066,0.7752055207330081,0.4552629764396298,0.9185237319739916,0.4291449223061338,-0.9699388287278932,-0.26310905681083113,0.9033262205712634,0.4893710410234835,-0.34834523163617587,0.22488665621182485,0.6758237034725696,-0.44479916773712874,-0.8779813457737548],[-0.6210117492173352,-0.020071572042928615,-0.6233306726679486,-0.2693403295389126,0.07336447448328937,-0.6634583092378453,-0.926417600382235,-0.17016133151328547,0.9342879919317975,0.8006814434056094,0.7925103728537938,-0.6950955242653928,0.16268365917064717,0.9138077839300335,0.07038807971038313,0.3073282232069515,-0.22250612509049836,-0.5151784626078408,0.08536748721142957,-0.2570060740253117,-0.4749635761534523,-0.8118667108432115,0.42903492546756183,-0.07855567581040312,-0.16121587210948365,-0.16399623127303462,-0.9850852100246923,-0.9127213634467309,-0.9719787063977621,0.07281252035081999,-0.7866811734295699,0.5210667114528357,-0.27909419890039594,0.8096924678178916,0.14291355758889573,-0.4089492360710858,-0.8908704360795505,0.6728073777740995,-0.15112645641310055,-0.6167850741051788,0.8306772405044099,-0.15959504345026995,0.5706230387475024,-0.22227872547967145,-0.4391561932723904,0.6992824669911079,-0.8625270622197164,0.6946525011680748,0.41778819157633845,-0.8397095926889739]]},{"matrix":[[1.0924338380189986,-0.5190464997684493,-0.4134814893012994,0.9576170112079923,-0.21539095686282664,-0.6067043966004297,0.6120418395114703,0.5356336692689658,0.1456435653348958,-0.06471501480836303,0.22189398750517916,-0.8808708620784929,1.1834169159737151,0.4071699869760582,0.589097191013865,0.774261558232373,0.42581186011372896,0.959364633428746,-0.7226046301755374,0.6238732631279834,0.08580053906976971,-0.17352443907853593,1.0022829401523898,0.4315546630574198,-0.5613175927583024,0.3128749515800768,0.49475825050059674,0.47560985852786575,0.15472570138322586,-0.40889000518274143,-0.6632336471547777,-0.36117636142423665,0.6131682547997016,0.9123804676976115,-0.8986492656890609,0.8026228822294097,-0.08228928686326321,-0.2984152758102038,-0.8052488770887071,-0.6378488074988328,-0.34924629977830984,-0.12591314460127964,-0.4079688824162242,0.7569863027594662,0.5422796541632794,0.07395518700270476,0.45045767445781504,-0.4360779420967988,-0.32789582100392306,0.8958463567688901],