{"name":"Nathan Bot","description":"Trained on Nathan's musical preferences","inputs":50,"outputs":2,"layers":[50,50],"weights":[{"matrix":[[0.5004811500229696,-0.5719009469945154,-0.7818005021132077,0.5264584951858561,0.15349489527325774,-0.3096496392005108,1.0335533230984713,-0.9497858408055622,-0.03835516132866766,0.8139160316625952,0.05565462217678995,1.015136317300886,0.3209162221143933,-0.37802297057926304,0.18780484412079718,0.8220781783770811,-0.559669938498019,-0.49149388876321726,-0.9081736051454657,-0.22883940083005078,-0.5994887771559625,-0.3889801285720979,1.0064969167201483,-0.5623950619019411,0.1839962446575529,0.5516617496943685,-0.12436312343776246,0.7549912093604401,-0.6722975248158858,-0.7883540210920157,-0.1244748702970875,-0.4612810207476501,-1.326145919723661,0.04251332275995071,-0.3721396036099838,0.021247053122880884,0.6063641277671323,0.34893326529642105,-0.9569754464100685,0.8613168300889862,-0.3394312194795326,0.0697120761913918,0.25219187208149985,-1.070582843218154,0.056544218269433504,0.5653592249988878,0.26214634524434605,0.9041271611398607,0.25650076951123313,0.8818515675705948],[0.74408746319769,0.07664047361392194,-0.914744414115201,-2.0574287448791106,0.1503242488239172,-0.5439378437639177,1.1338178055777188,-1.0418463704565069,-1.0737795781612873,0.8328090664883838,-0.2565584612597996,1.2403786809614026,-0.7497022759627345,-0.5794006079818614,1.0921323137543038,0.7645267387348181,-2.6600674349108027,0.1612531447187915,0.4527098446890094,-2.016749052666362,1.3123340621261201,0.029408439314041447,0.6103462124861864,-1.0709878607487235,0.7260419649245788,0.533695316193982,-0.4618870716032707,-0.2926408714925844,0.14338770392592082,0.6162448544749809,0.02759763131260419,0.9415717927504986,-3.069169210104464,1.1410349440748457,-1.0327243537426578,-0.2890749094780426,0.8291706375013442,0.507671826342372,0.3129079224573512,0.2459721271551486,0.580381228899177,1.0796568059225304,0.8667441704837268,-0.6860899977831287,1.9104737574155384,-0.1160102615174148,0.03965871458043727,0.5453677444234496,-0.30181052870162256,0.2806505311677562],[0.47825394968849166,0.639092696126803,0.6238655911477453,-0.41496255420621786,-0.4290721247934805,-0.10242112587891479,-0.5508014609610088,0.9746675241538446,0.978520692264956,-0.500107219207438,-0.08448666547838417,0.5003290623733884,0.5023637354177067,-0.13799836343313748,-0.5492148751011824,-0.8800928170858727,0.5381027383389301,-0.7014295703716621,-0.4504202488884733,0.06331602117421926,0.5185213234982761,0.14260035668296556,0.19517074152672287,-0.17874604795284374,0.7290272762966017,-0.46212867605420693,0.7378154961775975,-0.06300059289084899,-0.5105811440422873,-0.34103811642207404,0.7400449827599687,-0.21037195600661482,0.5848278733090316,-0.0524073058522062,0.10482343071881103,0.981641198660641,0.12252800258523323,-0.8499984868128629,0.15878513826111443,-0.2673315050033929,0.8200258181015364,-0.3621576684312126,0.24739607707459446,0.11722171021690149,-0.1654886128381272,0.5163818163074619,0.4006794993415201,-0.24509527964776456,0.5222068285001706,0.15849596607468522],[0.7314717519840306,0.28478180734110176,0.647674172048419,-0.3770632801817065,0.5478017625895719,0.37769128388680007,-0.5230688855069627,0.3843536914724052,-0.011563944684074517,1.0155492610998036,0.557061884730112,0.9512214673595003,0.3850350369777303,0.7813510381050349,-0.3512830369368498,0.5882882199249208,-0.26196216923101107,0.12283866141388305,-0.45382802024735897,-0.1648859732096244,-0.3269245261214002,0.8580971649396998,0.6631992907465808,-0.5057144044211199,0.7709968668118669,-0.5947465100752992,0.010320428054743806,-0.11626432429739203,-0.4598295540538353,0.3977373424652987,-0.6705163609292933,0.25729647557749874,-0.4629914158405625,-0.4501679954284408,-0.36373601010741863,0.7476920248114206,0.3938765031064172,-0.9394642663069278,0.37673337864356166,0.437612089209959,0.10641282668797586,-0.1333046895425113,-0.10874624186147383,0.28471138628344667,-0.6221655156268856,0.3936568099596267,-0.5442338437130586,-0.923172386633915,-0.04899308617879392,-0.19528363450126407],[-0.10417828602668217,-0.7345771324393449,0.24721109900445112,-0.1620684692144629,0.6163240775304419,-0.08503912821733131,0.7969199984735976,0.12248032515290591,-0.5963715972398325,0.26472345684994486,0.25171273307451403,0.5047942248761338,-0.07392774092693394,0.21353928404133538,-0.09089698862774498,0.4287378378524013,0.4553160545932382,-0.8918502337636476,0.39411875716839906,0.7425763484764518,-0.36278578810821177,0.6270108686961307,-0.6528354380254072,0.7349547678744071,-0.4403578008202648,0.032279596017574776,-0.6557868448740567,0.199832315449399,0.05156454683981237,0.1257707035868351,0.5512827770524201,0.1798719243226938,0.8322028504060605,-0.0872065221647057,0.9252259438109003,-0.25116297152393163,-0.6532352079185004,-0.7268195254780094,-0.6318558455588386,0.9369695374980365,0.9538562018969818,-0.484536865140297,-0.2729083057557669,-0.5883901582230563,0.013259054356490434,0.14011444825487313,0.4380657424159395,0.7719572345882313,-0.0908189706868496,-0.110644048029782],[-0.6438213341105028,-0.8067553862574717,-0.7839458188643251,-0.3923551163578606,-0.23149385408271228,0.6372658729585382,0.5503009365400702,-0.15793234682557275,0.5874659058846268,-0.7482554014864566,-0.5916384308837485,-0.4060222878785996,-0.46807340414400167,0.8854999435372803,0.9791259759721744,0.5275683760804046,-0.6453305561189965,-0.194348344538545,-0.6214055153812832,0.6291010376875256,-0.2585069892723525,-0.75436759402981,0.007110611311512553,0.23692877277676488,0.47280713093216953,-0.2226414793499762,-0.44073014579642467,0.9302214828733716,-0.8152442008552419,-0.09498580106673002,-0.38895072057297003,-0.7882485429371014,0.4810409288489918,0.19517334254185553,0.027374104212715092,-0.19344209491034675,0.9234626835365402,-0.2822610343598331,-0.11442833801950968,-0.060181546353048496,0.007493257800482448,-0.3888281701025658,0.09582266070090906,-0.00613004503939571,-0.8591739836102897,-0.8205610137230984,-0.5733004894276578,-0.377092728338573,0.334890866937844,-0.9134949459427849],[0.30674426200347277,-0.48890440135808955,0.29375117145713703,-0.07697474793029527,0.25647396901083297,-0.26760503302608357,-0.4538508771481315,0.8019729756843154,0.0464106161534821,0.17102456147390763,0.12215190510171518,-0.8218516566931444,0.8010338191748674,-0.018610984453870397,-0.1961158950293645,0.9380757724507932,-0.7477899213399175,0.7267349591820003,0.36113922933790815,-0.42518593653909253,-0.6054321660347853,0.9652414030342694,0.31754036505876077,-0.3979255472292334,-0.48467439304749316,0.3267893071534523,0.03748901372622658,0.5432822203443645,0.32690629333369187,-0.5671953097259076,0.4340749720164669,0.008787592286969082,0.49659680393426525,-0.405289793083552,-0.2098441077196567,-0.21704959006856514,0.2838975255473273,-0.32909078165944167,0.42316981205271637,0.1398451601115335,0.9171312723294854,-0.007356662686299924,-0.6628007191162556,0.5840042065711366,0.3274655129266948,-0.049388701621737675,-0.7060783470215496,0.12501024617511342,0.7787551222078112,-0.5324911263778035],[0.9344476841747199,0.9817958732361205,-1.117386971826511,-0.9801172902161911,0.9026343087236831,0.6715734205792391,-0.1631979989099458,-0.512904059813191,-1.6936105903083616,0.03464366775426399,0.0837101564600333,0.9100803860401594,0.12242303037900155,0.9671403559780791,0.4904434336297224,0.06522038599549743,-2.237504220539717,-0.4683476681889807,0.1395233261861669,-2.706081277868381,0.09425804082664521,0.6471703826287579,-0.5102858738928869,-0.4392443245164143,0.35960376682154815,0.859917468735592,-0.09076078510810025,1.0908675641462722,0.2805557093070289,0.787052520891141,-0.5390675305761781,-0.05685303630977273,-2.023121188556446,-0.43566842246882026,-0.7287259902162996,-0.7104211251958756,0.5020091251695626,0.1669206291332981,-0.6493370381159191,1.6672531227558136,1.447381922153136,0.39522084797188106,0.30610479425458914,-0.6004235753157994,1.3483317773567314,0.35610611736957215,1.2396027976393316,0.7842117597254146,-0.39856043412358144,-1.002705980889631],[1.0506145305466246,-0.6662158311290067,-0.32879776012196105,-0.822578785163044,-0.7079553389234742,0.4162407080221481,-0.517201970966616,-0.10482765254926395,-0.7003695294018998,0.5347858884211144,0.8781869250745832,0.28458401329958344,0.8948142006675908,0.5139142103995352,-0.061683814644972475,0.9828086006008959,0.5530221727107992,0.9221476402869854,-0.2546223668240354,0.7083157645561775,0.27983741178050175,0.3916464376125489,-0.04211706999320526,0.1220356198396901,-0.06272674085959416,0.5314440890491983,-0.6693375781520394,0.28944839887499435,-0.10269809394244016,0.14383013191234356,0.47909288970423874,-0.24671513171976434,-1.298969808300412,-0.1625572584586016,0.7580472706835304,-0.7236022551666735,0.27113214324255525,-0.20551248988260684,-0.2151246599388343,0.8398576142959532,0.9190822940165451,-0.8146922813491023,-0.2670157447853913,-0.48868241606188606,0.47983572581551726,-0.8529344934740414,-0.6948305591082444,-0.47997209515501443,0.5887977540617341,-0.49355268985652534],[-0.8643160890777029,0.6904195269903637,0.5333981972374022,0.018983793376301995,-0.29958263537377544,0.9020907512460817,0.16640943188689186,-0.33059867284436245,-0.9741366873615046,-0.18858358950134127,0.912738812382544,0.99476129496215,0.7601446668586525,0.12319831880188692,0.6328992661218981,0.18271306997097053,0.18256955516881113,0.8645660180126408,-0.012917894019625271,-0.7829538255435322,0.28595487754860854,-0.3313032506134629,0.14635305502749432,0.5846223111480378,0.03336929866287119,0.42813952465773175,0.9139890957558942,0.12089358579435876,-0.41417930209340315,-0.8032451321155092,0.7872180761996762,0.9314592460008361,0.0291571154370761,0.2380172291562547,-0.022188920217572433,0.40527958892173166,-0.12414955137126642,-0.2717517251458523,-0.040446640968500105,0.9489266078461528,-0.5335073799602827,0.7694610081509238,0.7153001597815704,-0.7253037919491905,-0.7368382852804463,0.09653761556240957,-0.4569487569567599,0.8044421245645124,-0.9906174939646647,0.13830843519209363],[2.1328445996842493,-0.5581002241937157,-0.7952874079120581,-1.1326800788943476,0.7471513975747495,-0.552643630535313,-0.007979772376019996,0.05735080239083865,-0.33533424709746695,-0.8070193234823901,0.5199594656173361,0.41697876573502174,0.5942399840040642,0.05378116918822206,-0.199979529693825,0.1214877789011657,-1.1286216786540513,1.0927045339701278,0.053409812028603725,-1.7919313848505358,0.1695525142129814,-0.07452668765476561,0.6165901100072816,-0.4450575198089253,0.8307449689099533,0.7980630575549886,-0.556911472305288,-0.6188742379794122,-0.13032138945311453,0.20924518567297068,-0.5235168895577974,0.20157945059418148,-1.0987178727224374,0.37748944151105723,-1.1263090518703132,-0.6067372299929144,1.0383111994678824,0.1681588367888034,-0.6942450530768433,0.7448037057572411,1.5054429898584567,0.34813848678349096,0.5926526028455181,-0.5117947970770133,1.3223981642350326,-0.2865031422664758,0.5415787803547356,-3.1070167160640214E-4,1.3305830883428567,-1.0749924828675888],[-0.7463314334282356,0.6029170498369636,-0.48021307390727846,0.7107996260386985,0.8296577104013716,0.3546558013597981,0.7963771679218153,-0.35221842361729083,0.7796500728528929,0.40353348089110036,0.4510343916663896,-0.14865036482606056,0.11272449118062668,-0.4743445829801442,0.7012522489594911,-0.542383067563429,0.0415234319861468,0.16857550920163447,0.9771317262264716,0.8887473083963164,0.009158719134004586,0.8132327239999052,0.4514765712489526,0.005180209047592755,-0.5571587824107329,-0.7669306658732901,0.9092806583986286,0.07700260666642438,0.42802051556278065,0.10638726313582775,-0.600474555830759,0.8812801692227494,0.7544166101884922,-0.4748090744880894,0.15458383721815774,-0.6431358292041077,-0.876063684486056,0.6131290682683371,0.37865066744486053,-0.06295799544923741,0.6966780676331475,0.674380998915156,0.6776675803298983,-0.06445905082509301,-0.3909535934127661,-0.9108029949571971,0.14311656156927108,0.17325913387060177,-0.38088649931759355,0.5071541287497059],[0.26710055374500874,-0.7599244763353555,0.5006336977223862,-0.28238152261234656,0.0745003903395726,-1.086142576326495,-0.877626658099969,-0.3789329374355119,-0.9927360484139935,0.23477622706020737,-0.85666039325046,-0.8477315546429596,0.6318845098983568,0.4932193474545108,0.14122058866684017,0.0973177905929725,-0.881828984615064,0.8511871191757393,-0.9847499029638495,-0.521625761514252,-0.6636274886987847,0.517721531460523,-0.032510419326695544,0.4930329012523796,-0.04785710796356322,0.29403005064345616,-0.6341030127750928,-0.4450304260218835,0.695291460799932,0.6259457967865074,-0.8943790479260489,-0.7854530226353387,0.08969102839206361,0.3337941956026225,0.7670172349939781,0.12371773428567359,0.8331966932551714,-0.09825327084885127,-0.7415856777435124,0.5246504773925105,0.19137426835244467,-0.42237720799653555,-0.2634814760058588,0.07137807145388385,0.1439880571508729,0.33024593983148004,0.5817302874495861,-0.1790719534318671,-0.3714646455751264,0.3639715570173047],[0.7071802593832631,-0.816590116550262,-0.6352821981455332,-0.24057172763262585,0.13806536054441437,-0.7758595111894542,-0.8893315756601371,0.7936800697643032,-0.8905995654951688,-0.4183960787286019,0.6149116676547491,-0.29854418557638646,-0.771223947006438,-0.2583285960815432,0.41970219592947117,0.08625054693023997,0.8962217793772709,0.9033899190242467,-0.9958623037147629,0.22397122500996486,-0.8193282946824739,0.352820960273449,0.6228290227549467,-0.10039212492401457,-0.8363637531950661,-0.48615030488299854,-0.12776225623908088,-0.46902038503370375,-0.6236888268260876,-0.7292104413298123,0.3941330131578394,-0.1922012881787772,-0.21031412284005419,-0.6828998579498895,-0.2615554346144882,-0.734813766589005,0.7072305409088433,0.0032890878363732614,0.08039765887091894,-0.037911530549859296,0.8665831495911674,-0.557535312445832,-0.7760198330770667,-0.25065575236891746,-0.9266311107242444,-0.5244301854210464,0.12163333142244732,-0.5110201294095595,-0.23024232240849277,-0.4913567911259723],[0.0070012312834224965,-0.9687935873004094,-0.9128507664610656,-0.7960867856904905,0.13286449549997423,0.7265783408608932,0.12331075224129648,-0.4620756439974021,0.16748467995981572,-0.09863831843768643,0.4785964673631695,0.8413926638770365,-0.7479072474699536,-0.2804592769075253,-0.6020036033370438,0.0829735293674098,0.8781621222563104,-0.3521430552163789,0.22996753006864465,-0.09679760293021444,0.9735629743515753,-0.017904835348064474,0.45729481868840915,0.6480671861056041,-0.2931875297965772,-0.3625290014995561,-0.06281669613637984,0.037094541749677724,-0.05624420815629545,0.8818946870143857,0.73084532680693,0.9815301637603349,0.511767696087807,0.5241393731601679,0.3852470838957911,0.5799978014554351,-0.971462774176002,0.6800013674116608,-0.6580720130539336,0.27004261820788705,0.30895716344352564,-0.7955153866479414,-0.11069847275608481,0.8091005949099632,-0.8256998124785792,0.591485241841058,0.8862251347895825,-0.145189726624152,-0.1165706531496749,0.2507813603945421],[-0.6403724281500667,0.618009001662387,-0.8256700455756112,0.8840578480536231,-0.8248242059528484,-0.5016287826922176,-0.3130998232955034,-0.9850654924999334,-0.3181283731905506,0.08377426479161804,-0.8533829415580332,0.4442192996032276,0.7219176038326148,-0.1328761377567712,0.8361358044119769,0.12599086499825568,-0.7514578638218308,0.4834875493790603,-0.42598627250544213,-0.3256822331424703,0.03663670321957661,0.06789946258147977,-0.5389002896938974,-0.5471822703851223,0.3816523072836467,0.4107105141250713,0.8024538363641975,-0.7258875468542026,-0.18020091468878174,0.13516520977046545,-0.44319989292279427,0.4043702538409622,-0.5147989201726929,0.5362615514118019,0.012290262615911846,-0.16372097664410537,-0.9986268010171018,0.2467848114629246,-0.5087935607758036,-0.3423862800352704,0.45563121742618956,-0.49369807370674323,-0.7281597098896399,-0.3849986633599728,0.537836625993973,-0.5284146104644257,0.17003996292613865,0.007523511120733946,-0.5355139636041167,-0.28400807997670846],[0.2419165448972498,0.33816194782854725,-0.46990681794978306,1.3284239563964173,-1.0014191786964382,0.3879773512910975,-0.714550615844291,0.6555219348613398,1.1132595390096014,0.6120751836276828,0.09204492317838428,0.6967687225009654,-0.7446168381929883,-1.0424354930465083,-0.6637527654750113,0.8005962220764257,0.14454031513126045,0.5842407153472688,-0.31215349715849694,1.227195514707082,0.3771218050216764,-1.0751133864542763,0.4913236505559879,-0.008423834104761453,0.05304620658201117,0.6785600353550645,-0.7327195194470512,-0.8597286079715644,0.5851432640662082,0.7677270553828937,-0.5836732792676311,0.21726364568306802,0.6414156579635997,0.6322710050457183,-0.24931589590808242,-0.1287479675216215,-0.017700765361209708,0.131664801624136,-0.33416115118006634,-1.4257939150829428,0.026453585256248455,-0.4143349153726114,-0.0741305789599146,0.4808001541973194,-0.4244152809114736,0.5449211875713283,-0.8868232376441747,-1.0138625563704167,0.24026956918120868,0.4184237776815091],[1.6951365650015473,1.2420602564617365,-0.24832826382164486,-0.4240982660920395,-0.03586770540047454,-0.3695078892601815,0.5661659607556292,-1.5811399339705774,-1.8500555892492523,-0.6602374782780986,-0.4104203311504477,0.6210878020568893,1.2625961232988276,-0.5615492693641456,0.14561464309800531,1.3604473820784497,-2.483438735400227,-0.05804179645244963,-0.559126270993349,-1.2689732643179394,-0.6199408312611902,1.215533875565069,0.7801513868070858,-0.46563415720874457,-0.9970751355213899,1.0679868004431448,-0.7088710127994634,0.630679976038851,-0.33892037874030334,-0.2820040154735226,-0.8433961844267057,1.1440949168722483,-1.84233616589347,0.20912918522844262,-0.021887734083718028,-0.835782934918354,0.33343789468606916,0.3614560728040507,-0.14171730126434323,0.47575637682207206,1.5076060413152204,0.4646969663292675,0.43609677855738066,-1.5840423067191676,0.11425716268760135,1.0722504848782646,1.3181433191451537,0.3297573796325283,1.232335243247275,0.38224962995389733],[-0.8005277777628992,0.9179428663243837,0.996207617926587,0.658630647424089,0.9661628427275281,0.591502724399494,0.3275535065386711,0.797528378744568,-0.9589739928068665,-0.3661739389515862,0.21782696821465877,-0.4497119092925924,0.8162151500018643,-0.5829564628472576,0.15657391612518154,0.9320716093762792,-0.6366186173618724,0.38546992967554644,0.9144753493240871,0.5585966233426666,-0.18547010392000018,-0.2453614613489778,0.546483647544569,0.1982626290579646,-0.2947914113570346,0.7154188022699135,-0.469062749119674,-0.07602982652918068,-0.2839235070749711,-0.2210573822438352,0.9743948956496699,0.9610036398406364,-0.13257964039562709,-0.9663733234594477,-0.31517468376137225,0.9678569884834145,-0.36555766997172456,-0.388613848955973,-0.3269108632380473,0.6386314822619141,-0.8026421464024084,-0.038528204232132955,-0.44132187509693377,0.21404502148865165,0.5958929939803175,-0.8259419712113544,-0.6999244125222922,0.7627484509409914,0.34058139267852516,0.016255716130631172],[-1.4225520682127812,-0.20815146782668686,1.4595714930123418,1.201226935964495,0.20347823599980133,-0.39625288623552973,-1.061034572479847,0.2512113688417183,0.8942524610399271,0.5410755576864276,-0.04626502375001765,-0.3041988689405646,-1.1105136780920744,-0.7645567309398494,-0.8054124590644952,-0.6187270502664308,1.6414700467998573,-0.027540418420808625,-0.343409437813465,1.9751521708913555,0.43953731480287467,-0.8026810872085726,-0.9543939258399251,-0.37020060176949326,0.5468869434280655,0.6432326459110447,0.35793208464348636,-0.37062401475773205,0.23524939421519336,0.42271353910859905,-0.36197199994113155,-0.44353824199956865,2.099404576282967,-1.0994331976035288,1.4254300507445727,0.14680824340083168,-0.6924769010098354,0.3870569617161892,0.8751432629702456,-1.1486427132783894,-0.5089190668519891,-0.082647455861724,0.5273217645584812,0.3272054781051047,-0.6962627432329223,-0.6513513912513633,-1.6515317698963634,0.19511719652116005,-0.19865927106594639,0.4032421176270457],[0.2148475238743501,0.019273133255318042,0.018222523380474486,0.9536804679225063,0.7495886627212088,0.755789257093279,0.6554138321977829,0.1295146142074566,0.9374354347353919,0.3754626091924096,0.6434432928711531,-0.3093787021608275,-0.09747888503703539,-0.3095657410570738,-0.1561160877704301,-0.696248490211827,0.7890165707872975,0.6418699420188316,-0.3773346117865696,0.10683354209970385,0.7221313037677781,0.0447618058723683,0.2955193988578922,0.0644823958164459,0.7308694658654377,0.4570679143832539,-0.6756943763579675,-0.5354743056154084,-0.7343448071070232,-0.7487740467093482,-0.7731277771183409,-0.6229602675614293,-0.4062461014716842,-0.03374465819391733,-0.5812913489555969,0.4603197046605364,-0.24797811721471655,0.8608670868918105,-0.34049513067046194,0.7533413783387222,0.7244979671960026,-0.3109646342213061,0.18936943621076843,0.9099400734159041,0.8759141314719961,-0.3285555175314312,-0.7939363973285313,-0.3572708672690709,-0.0839135995029492,0.8803904068666261],[-0.2122356576701139,-0.9762820573163047,-0.012559050942026135,0.33116207422574057,0.3863255049463407,0.9340630663164456,0.9238440461584267,0.357044108969842,-0.09281128618793678,-0.43813382175397314,-0.5052207501301378,-0.6417987941149095,-0.8926239047581861,0.02740204497235129,-0.867146341654474,0.0605824162988105,-0.10141717195505343,0.02919993903545025,0.603658923317495,-0.15416828281428363,-0.03479954753822884,0.9528023121661031,0.34798229738253356,0.7652407615031771,0.009479268594927688,-0.37092630817899896,-0.8260629435188688,0.9496700036223685,0.3954100403794777,0.4039847879213629,0.6501875845047769,0.5237461766362543,7.401291643771472E-4,0.816282688387458,0.44406637404200155,-0.5986418040982077,-0.787236589150704,-0.07714584989880915,-0.8687213867991009,0.8548057382796113,-0.13892103432128033,-0.8923246803840432,0.13157140188731797,-0.4150917394469439,0.27644198668030595,0.046703103835030436,0.5049959025705293,0.3108564520379367,0.5579845849924864,0.42053784283870266],[-0.3937137834979804,0.3295003451461484,0.3726587722328521,-0.12760542313523218,0.33948548024719777,0.582466919096257,-0.3021607347563295,-0.04343727320535768,-0.30692599191886644,0.49015133831329316,0.4067329558390774,0.5271714244459251,0.6587506003689247,0.8444814018381008,0.3193820700721512,-0.44049363491340177,-0.25017707725722643,-0.21499538149803574,0.5708769716548882,-0.5338249943387409,0.3746601889676737,0.016856375544692808,-0.47539940449610113,0.16126543987432412,-0.11895016400089932,0.6240038593708545,-0.6495411063632974,0.6559448612910593,0.6783118220612568,-0.59982931434969,0.19699406647460851,-0.7925488950578977,-0.5884459863031587,-0.14877731016475068,-0.23028378962214321,0.661535808469659,0.8550656288635229,0.7588589938744362,-0.9092846419638136,-0.9943131176699719,0.9342207721860049,-0.5024378463766025,0.24656404780148497,0.9140923896180913,0.050566018516331565,-0.7984629089744151,0.9727322445402444,0.5888572952506673,-0.18558290583514941,0.28502529937005205],[0.20423793616381328,1.0897375766361,-0.7924181687492355,0.9239648555382086,-0.7681243006997945,0.2985144782228659,-0.30367016152682474,0.1647463148477683,0.2711721904374099,0.09196731945610406,-0.6487269905040828,-0.15549266068135859,0.8713725014247283,-0.13875568174672231,0.06494298329702929,-0.004957445382033821,-0.21715161177670747,0.6245944379933056,0.39283817340444716,0.8447029128670527,-0.5338800474374923,0.04500579890098556,-0.770307562125165,0.8960419932407839,0.762329632559368,0.6011796502312073,1.0166214181318824,0.5472790012371247,0.13767769065446,-0.3785339767516621,-0.004716763859759757,-0.4900401697987758,0.026204396064481973,0.992378796584128,0.006783968401730834,-0.8314552206080819,0.48896307193443905,-0.5951873599629288,0.506139142172157,-0.04278494128312139,-0.055646540164040956,-0.4728522282063489,0.30918593823686896,1.023926497576814,0.24831894894579098,0.48812866396807625,-0.17965328428272268,-0.507293037123472,-0.6872693584191711,1.0318185721097302],[0.13417671821627244,-0.6102429083528979,0.3157589311967903,-0.7690712393136003,0.5632121478446644,0.4217984588325193,-0.04521429456348622,0.8343003321651697,-0.6640012461444231,0.4934672924340157,0.038757267810431845,-0.04351215290621813,0.26556147662900653,-0.8599948975513667,-0.1314320563679611,-0.41838981925770113,0.5398572304505297,0.7764532038232613,0.45278962585726584,-0.07802462159189165,0.6382464808881977,0.1973765486715662,0.6140505166580391,0.19550637388362108,0.5576671122476888,-0.059502287645148325,0.45285409208516497,0.22217874511777508,-0.23897105269379393,0.9484134726712596,0.16030503239464883,0.5793464558023298,0.43354421559897083,-0.7855684741758237,0.6259255732340583,0.8388912585579453,0.8695737229547872,-0.08682454324725113,0.8045395567076209,0.754946761227845,0.110863141943202,0.8933518578301374,-0.6137085361339317,-0.8209487722251942,0.31891761141048036,-0.6502535385528774,0.9563250351702625,-0.049482763455148675,-0.2122810963930387,0.9932429335813031],[-0.47106983977610145,-0.9646643041916223,1.0085614464476147,0.12910888076358826,-0.8461348941680924,0.8325665679002154,0.5857491096768301,-0.513243252409401,0.058092198949455574,-0.4018182179485679,0.012906938512755472,-0.5882486586616034,-0.6020816276200319,0.7566427075058226,-0.2888921630988206,0.9134675096641947,0.07294034714885234,0.3688883165815026,0.254354802350592,0.9456548161537488,-0.979720621444923,0.20525656289121216,-0.3599518573413138,-0.7013429476342776,-0.41163599198815093,-0.9452897997890303,-0.7932731955192727,0.535151731949184,-0.2994600745390562,-0.5201475544258466,-0.4144855316259734,0.43849385943477864,0.1623429185053754,0.7222875630506352,0.22181531887622097,0.25369550030472166,-0.5371371691052533,0.6911809410565811,-0.3202958059285199,0.9752478193505852,0.6788689068936091,0.6251953449662154,0.13842957114010176,0.8545229064206978,0.7936501047974858,-0.8767272577544785,-0.5288925617929385,0.600420727897378,0.49732211572761753,0.20191270727073626],[-0.43871139586948793,0.5570088045224071,-0.7500693669351961,0.08706818731694695,-0.38170039820418605,0.8917473326586117,-0.44095831883499964,0.9254427161344633,0.9570416680056715,-0.7644990388032368,0.8583788936772657,0.16780444423142676,-0.37747226485902935,0.9864335109213861,0.0048894096172580025,-0.6008617129177213,-0.5454667241282635,0.4543410576389374,0.7709034621950988,0.27886931955940025,-0.1668269162308408,0.3172732675244641,0.5723285709669563,0.729081826092537,0.934511472176895,0.13425786348013327,0.615765093036241,0.14612033469490285,-0.9921651899320955,-0.6092194576356185,-0.4299704185248904,0.7100017375994242,0.9199971164406668,0.8831479658305709,0.9086983016614806,0.7008500062183496,-0.9982758826904153,0.10621943864759036,0.13494984356176687,-0.8467204167019745,0.11267143958056973,-0.2327442663005302,0.24657628744651996,-0.8626485614445143,0.7436350061763729,-0.4667815704765789,0.003907793198198088,-0.5032816384955177,0.9717482107060544,-0.2999157088681132],[-0.42784597626612636,-0.058515759386913675,0.270711152138457,-0.2558459528171533,0.5314066863794227,0.2292075537239285,0.1813395571453569,-0.6666835856517787,0.5893701189367391,-0.10094514924123453,0.920979018784884,-0.47263550693814016,0.1305137226633145,0.4336952935421631,0.5329154675614562,-0.7010804597018251,1.003110629423853,0.7797138026293814,0.5583882238805459,1.28703898252581,-0.8090430688542244,-0.8152682962532981,-0.17529875375121418,0.7639211679394593,0.787669432539966,-0.22765288668216738,0.40746728849865904,0.3777050648646119,0.542990410037165,-0.37499155953402724,-0.6279840988268094,0.4244787101107778,0.012798020873787026,-0.7454475384512732,-0.38062480032380214,-0.20786508423728675,-0.12717183677644414,0.8872062557552874,-0.7789264451568283,-1.001868111128641,-1.0343979662326648,-0.5596564733651961,-0.6985410075243285,-0.7294579196231574,0.3114347954269598,0.18856246647591132,0.24645143222569132,-0.762668093575832,0.031890784912467544,-0.8043551589433576],[0.30445586347178266,-0.49655912839116584,-0.7186554412658658,0.16879807508955477,0.5401709599886096,-0.7136963116506005,0.2816475878456623,-0.6709186088977966,-0.949965401475341,0.18671209056144375,0.6951225734951569,-0.765462496496949,-0.5521047107064175,-0.13939521241515607,-0.9502754804640969,0.47338249834005813,-0.073974551776149,-0.2958208886282408,-0.13395213221077049,0.4261851399508943,-0.8272798885247413,0.29071873634779316,0.08288386565656683,0.7920725394909325,-0.5005713516929807,-0.7312369480338202,-0.8095598897021407,0.3839754263564939,0.13470525937828381,-0.7531251631786856,-0.261025906493516,0.11097204257476459,0.36776739214522136,-0.14776033112258202,-0.33438245903368624,-0.13689223616864488,-0.8434882156450094,-0.37328472207390045,0.6361186576923299,-0.9104928698069029,0.6345742828966389,-0.6891511717303241,0.8506425316104074,-0.08029919478299526,0.28697435020784123,0.9051509957154745,-0.08116497479400094,-0.8634985296754724,0.5129406268117558,-0.31042416491920305],[0.45267727639447153,0.13189064517390706,-0.4625751857910469,0.6152207938591071,0.8118210572688719,-0.8337701477247778,-0.06395188484055082,-0.45028303595855207,0.29663520409109956,0.20382830639213062,-0.393244060310369,0.8388742713393288,0.9951606599712188,0.9459054730361767,-0.3508081992724556,-0.9718859559144022,0.9719457923479603,0.3902700412880679,0.4545806520491476,-0.3801670358601773,0.4077462708118281,0.9199254180618508,0.0695405780160516,-0.24515891802075002,0.8504323413291313,0.8633185447610142,0.2504261426939325,0.6086541206555698,-0.012515012016396328,0.5204602086950216,-0.34492186875998015,-0.6227749186404102,0.6454335662767374,0.28220700675870164,0.6905854744167544,0.4091058292393049,-0.8486029971510006,-0.2694893015243135,0.7365858722017686,0.2914057193027654,0.6104871683946437,-0.6549679079403827,-0.3087886871272486,0.5182718878801241,-0.8036785673730115,-0.16795769063908772,0.0903709909467351,-0.25036976998526617,0.13553530924695414,-0.044652746175271804],[-0.32297170314322526,-0.35377234683242076,0.6209023965690948,0.1136021712589922,0.5194972905886839,-0.605358729296839,0.10123978159382425,-1.061034277609908,-0.3426277280800213,0.2626699607122341,-0.6343209693620759,0.8940865381166492,-0.13264038531214384,0.2604852027547735,0.36014498128783495,0.8745187569397563,-0.98090939274849,1.0141723401524854,-0.7599350290642152,-1.0823958763396466,0.3023512518431153,-0.6792370684419967,0.4383947314646151,0.802048841715808,0.13857944013450674,0.7209289304771082,-0.5707921858482937,0.09769655866231164,-0.31160620936067884,-0.807667625337132,0.2988906261045404,-0.13469456127346083,-0.504272768288035,-0.6387023592276649,-0.6393471297704441,0.03676809939414459,-0.18204488572596741,0.9804472199409675,-0.31225178959668665,0.44151296462972844,0.0529025598694224,0.5288174610126108,-0.3777092155458714,-0.8867400630876328,0.3481144540025058,0.8329813513292892,-0.13761695427846157,-0.01897065240017007,0.3998161425697615,-0.7188756249959095],[-0.9318929684634624,-0.21947771795008855,-0.6720557417787487,0.9379087816926736,-0.23066711228558753,-0.1290089224447284,-0.5983598813962477,0.9777279074654364,-0.0534271274073305,-0.3282665114895879,-0.9844266134542654,0.07044430895364287,0.13816435406877117,0.9519099544677341,-0.8114197333909722,-0.7119563957148989,0.011328880569396725,0.38936897491808153,-0.6265993167172277,0.030177234473549325,0.25189431776868126,-0.24255440410332268,-0.5898951810221811,0.9387617790650742,0.43019879551647544,-0.051408505891915486,0.89093342109835,0.01723810122786777,0.2560699235557841,-0.5923678943641745,-0.39714894323348865,0.08292860919883521,-0.3226387738077839,0.8933027115475629,-0.18942124687288198,-0.8104436142423301,0.17126032095537716,0.8552081557262408,1.0362929451566152,0.5740149049070742,-1.07831473522801,0.07217033985897243,-0.7075508126742232,0.7121708994006682,0.6115279312081405,-0.24224909518495788,0.6940790049412678,0.20526498218878453,-0.22151272995542323,0.041405580838784414],[0.9419045865804022,0.7218411031663748,0.6737410372228714,0.25116982019316425,0.7477488037506809,-0.3292790143857627,0.5194032162148592,0.7700172018047345,-0.2602786101265091,-0.7627160930912773,-0.0029992034509497526,0.3825969965727882,0.25467757481129405,-0.3917134388425111,0.14682670948357018,0.8989696643451895,0.7548370021986184,-0.9281918792971927,0.5262330167435139,-0.20133454524501776,0.5472390199254661,-0.19965701479523554,0.5605901031811477,0.9644830145066783,0.7293915800650335,0.3301201003785071,0.26573695089766913,0.3215065109758471,-0.4689852723313461,-0.258963560158053,-0.7840855113522889,-0.18354672675575162,0.6457741876715091,0.04371342124871312,-0.6635742885126696,0.20566247247558875,0.6330558243819746,0.34442067007242216,-0.13227786098992855,0.7157947170348964,0.018830781246612194,0.9857898799711733,-0.3222542170764891,-0.20057561859564932,0.3358678121777147,0.05048352197309053,0.9918910605956404,-0.07152820602566363,0.017370867408599472,0.36714208277035304],[-2.630280048453979,-0.012374570990051296,1.0188186164231596,2.6785915401469595,-1.402531490726017,-0.7560709431629555,-1.6524340736698349,1.6237964713783757,3.6973559181079274,0.6222370469491512,-0.37408128286449416,-1.409916373718812,-0.2896300201203868,0.02355008808103242,0.02345506378797302,0.1765761279273531,2.9200876590111773,-0.36951709907851105,-0.5615736293351045,3.457473691099406,-0.777866261715396,-1.2631635925024058,-0.3759188462519542,0.5219204004402281,-0.2545486163456385,-1.3455988058877415,0.8854542886573649,-1.693014714821134,1.0640339429758825,-0.5167324740576982,0.38546102641318103,0.43316406332604657,4.015354856324761,-0.3858370537046412,0.7719401753733726,0.5684452672673868,-1.3011104212917621,-0.2485036282674936,1.2599216768892747,-2.1973055211479124,-2.089382187026241,-1.0238479074043485,-0.3279395190598868,0.7981763968681208,-2.071589666551324,0.26518164045024456,-1.8209326038546974,-1.307973284516367,-0.7276826999892427,0.6062826936048535],[-0.5518888594561587,-0.5942940737823601,-0.32436946960737706,-0.46319875102779395,0.7326271350857849,-0.9059029961035088,0.3108713991021406,-0.8576851364934626,-0.2275133213719598,0.9056943839141798,0.9540584620849728,0.5561564717751414,-0.9742107193519085,-0.3771121188874439,-0.09864061056509389,0.5639468455573807,-0.02977311174267597,-0.8373272552604153,-0.5474706132332768,-0.06536400644806642,-0.18710767052190408,-0.801889365766695,0.028055764594509987,-0.6766686963661774,-0.2631753761522203,-0.045474450908519606,0.9021913580638659,-0.3271800997078573,-0.10768067669228817,0.40921547097907146,0.552414357761072,-0.8963239737717899,-0.08078549972181483,-0.10761035206196501,0.3504429083640995,-0.587381065956029,-0.745604906714107,0.8971727476277286,-0.6034854154975696,-1.0144051804055714,-0.7734093597633708,0.9747721459989033,0.6326554429217348,-0.8814592751160735,0.48008826082871675,0.45862395930438254,-0.9728987953448778,-0.6198830531549078,0.8662048362823965,-0.036923114751575274],[-0.849355006404768,-0.5705735136729837,-0.627167832529425,-0.3480585457868874,-0.4963987623935849,-0.16923039150624825,0.4511516978158314,0.3055056037733809,0.7668862647116057,0.08587341929058093,0.39994717298615573,0.028146457212275572,0.37020511985341953,-0.37611703305030053,-0.07053257833618158,0.8170054830960465,-0.31799265054923587,0.3982199638234909,0.41137900142580675,0.5951808820504427,0.57295610850333,-0.7768604450715483,0.5706337947381176,0.003465531317805127,0.7801417977099326,0.8100346731928768,0.9974049951730829,-0.8579335445951854,0.8973257468223194,-0.09476035539710216,-0.16651578441798262,0.8661920217720093,0.3708241112813126,0.4888937641092107,-0.4854822835534075,-0.02126782378193102,-0.6227290173781365,0.786305238425958,0.5164350463772607,0.11397769148296003,0.25250707375580345,-0.5882362001184795,0.8707164257010689,0.21004112170438502,-0.41142794370282254,-0.12344886290525726,0.30433520416396564,-0.026383645557678494,-0.6329064020421252,0.41982402142791786],[0.5500305178533802,0.6409925675983322,0.4965574365766159,-0.9546276812832984,0.6112579093514039,-0.8939929550310264,0.33361421107536254,-0.9899593955401338,0.5641431903467928,-0.9524196314191038,-0.23048058894601206,-1.0806049277705725,0.7238153874721558,0.5560331268782907,0.6715416285647859,-0.5455755556950604,0.544854568221578,-0.4555895601706558,-0.848395223085345,0.019165075095608386,-0.7449947192504838,0.6643295897310059,-0.7167312591919599,-0.7114522331288416,0.1937725161348078,0.393481510814212,-0.8427844269390479,-0.7944793099216767,0.2206787790186684,-0.3963070100523422,0.8359186943733584,0.3334577703374284,0.13293119502134865,0.5399307843255454,-0.24953345838560181,-0.11413684554709924,-0.15958416140197498,-0.040625632946680194,-0.6889554064311277,-0.07432044392294493,0.3189159092102753,-0.7670173000541949,-0.4864142661876245,0.5117723418244564,0.8925889467664582,0.46666997141442385,-0.7640565639819074,0.14812009693457912,-0.7794958331831082,-0.4641193619874625],[-0.9422027621411757,-0.6805811407344716,1.4713673837184866,1.716646364517795,-0.15977252352385474,0.4151572935550744,-0.5331332947008746,0.3702025106832716,2.219089788817872,0.19372901685555183,0.11497845124564858,0.3954865561941789,-0.7148983428283556,0.9498885090660468,-0.9220528742515087,-0.19768104422486826,0.32773277272704154,0.7117347773399929,-0.8104884753465725,1.514699040022713,-0.6648206508011715,-1.0948728500326055,-0.38269659716956744,0.3991636358166423,0.8017524128148769,-0.8460959991508219,-0.12054462457184068,0.18028290150651297,1.451739387352769,0.3177098683502693,-0.6636589548479127,0.5369281242149642,0.8198655730288068,0.434852696319412,0.20296168805417533,0.2255514609704752,-0.6067151278667561,-0.3813445454858984,-0.06270354258592749,-0.8295103649402265,-1.8072133871803497,-0.6245975120013938,-0.6827199492676579,0.7476576745756962,0.5079213122550519,-0.594847647153492,-1.3268146173582733,-0.3272363203009164,-0.7510324396050636,-0.4650699923619004],[-1.035168532478519,-0.04808201129279349,0.8548751165760974,1.2167365499107314,0.25899298004857674,-0.49513245626240104,-0.49566153662846024,1.448656146975094,1.331105694228734,-0.887156492979353,-1.0074787176220696,-0.5184528424661538,-0.3666755049037569,0.3441862881274956,-1.0035131193147766,-0.8531880302943574,0.6607957880175241,0.7459545236348739,0.5660731651423773,0.1613590623269581,-1.0282383661520111,0.5473869415752096,-0.15139672521582748,0.696223386791366,0.317080268479735,-0.11420646724390525,-0.06464713099047237,0.22897206082012644,-0.27868269037518195,-0.7400107743091134,0.8095104039058327,0.8161866979131883,0.6978360511745667,-0.1602198969939401,0.9281866355838668,-0.5873319679186755,0.45966879667179056,-0.42300792929745457,-0.708878205591198,-0.8235766251265779,-0.6679797298068196,0.09515369945218473,0.36066642854031533,1.3580141608927379,0.42691439461388164,-0.3697809816195487,-1.1788065226486533,-1.0230867347702377,-0.61152361668642,1.0496788423272294],[0.007877388872844032,0.9149565299865507,-0.6212139930091782,1.3811350083272258,-0.3632712432134118,0.13696351183894384,0.1423256591160014,0.8457862298097973,0.5078411983940994,0.14195848790421428,0.486410266720082,-0.9663746903265047,-0.8558413466595727,0.13601139854007913,0.15177507564086795,-0.5828514271901468,0.20699715688593526,-0.8853660241789267,0.09061774852048701,1.7387476044325645,0.070420028538348,0.7148419387650397,0.8889001181256536,-0.32031254790238367,-0.6446864398031246,-0.07459804896071434,-0.3087976585913743,-0.516275006324966,0.8989843255571482,0.4633545831101613,0.9167681327589287,-0.7389136879603632,1.3167382214393042,-0.4796297879428906,1.0844487220066095,-0.5622605640016795,-0.22405215900131303,-0.8663662428349173,0.1880654350165554,-1.3262906196643118,0.2429332213921074,-0.41710908984933376,-0.7568741450216666,0.3703962149632134,-0.88132217032326,-0.7760174372183679,-1.023140451126108,0.09699252805757626,-0.9946074661586449,0.45867659573620523],[0.9840824514993725,0.2312536774420777,-0.39266322009388,-0.1845846975160252,0.15045646178166105,0.8138595402093669,-0.52848246722014,-0.895549290066191,0.07349183630101436,0.7627670810836458,-0.37464806015881663,-0.7932643504218267,1.0484455315411965,-0.5639338053539393,-0.5404430105727379,0.9376999032478979,-1.0259720118932047,-0.3952717069467922,0.0790111859463729,-0.13056747482201786,0.5201249366782281,0.014436099637288183,-0.9128881726483445,0.2955472414190842,-0.2051210194998394,-0.08435395711603716,0.8623774064880855,0.9342794806722621,-1.0229446370864816,-0.6450134430253754,0.3589125438183013,-0.6796186378528815,0.010978972191135979,-0.6780226575370849,-1.0294193767297442,-0.21281682130834495,0.2819012491187635,-0.5626990563489792,0.5976090886044245,0.09068799577715997,0.5324561946679518,0.5469037416041544,-0.8236483586432749,0.012737797298460338,0.4095910379153147,0.6558192294918049,0.9064990546413189,0.009485186913406322,0.09404020598266966,-0.4473197945142083],[-2.0459834940233304,-1.4007971519430809,1.5513446468668624,2.5125195983173505,-0.7190402081128819,-0.3986270262977123,-1.0536295995673932,0.7327250979975946,2.0940353106522283,0.4963259231367455,-0.10865647241850461,-0.9182587867531503,-1.3640443412525474,0.05100612468111996,-0.4080047572901568,-0.45404622777937903,1.2593687228434192,0.05782087652839702,-0.8646049915372954,2.7279311258274412,-0.2392493087618849,-0.7664527890288523,0.03418303413750057,0.6813216415676212,-0.7913001490354376,-0.8427252608697087,-0.8146482840389068,-0.1569468610773703,-0.5569863386483556,-1.1772122499912634,0.6288067120449958,0.3956338937723207,2.674325967050109,0.30776895424180634,0.7973341971787185,0.2282963626976772,0.7620323601728533,-0.7142704916697135,0.03648286163973436,-0.22880799808936175,-1.5913802260807797,-0.530375765136952,0.03756470203387469,1.2568129646967612,-1.9388021855695936,0.5351103576224753,0.05823158861124853,0.23749054182629026,-0.5503182589147717,0.6622717135011486],[-0.09206192335154807,0.20601939295045973,0.9862580090753665,-0.26703744374985167,0.8273264859598248,0.5871955804891535,-0.07806772041764924,0.8728867108100141,-0.40272607809408667,-0.14813776427485426,0.7972102848468621,0.20099180504172126,0.5222909752372404,-0.0051472788022993,0.31774715394017666,-0.5273613985425649,-0.3050977365110494,-0.5441532376932088,0.8316356773582987,-0.36562136503078657,0.6877310311744633,-0.4982630517154057,0.778980892614536,-0.38243173086885734,-0.2607089547721112,-0.626093908508166,-0.4994226563148468,-0.8778233388727055,-1.2229906759772766E-5,0.32081998934989114,-0.20300828142317529,-0.6374938921216595,-0.43496898640637344,-0.5377127556465836,0.13180546764128306,-0.9301926040290652,0.3774778430165529,0.7903980301621784,0.9666121702964006,0.9723809601010249,0.39449652661411144,0.5704622571826001,0.3481373880458439,0.43203943778656645,-0.10399396156131566,-0.11006955531558102,0.5759103446274783,0.9679869155542609,0.23098784110235018,0.18433266283314517],[-1.5621310598199531,0.5082434220734185,1.1474283001700192,2.439515488946707,-1.2806454934091291,-0.4818361238673989,-0.018915070309032226,2.8577718187515364,3.4945600397166725,0.3463059562758532,-1.193926040716314,-1.329300263669285,0.2012567969288681,0.669867557867707,-1.602009042687886,-1.4663683079692784,2.6540373960818524,-0.14811507427476356,0.6650070901485429,3.3206374758545016,0.4200050624182653,0.3301091266363819,-0.15865410917351133,1.623210588997743,-0.46158778466138883,-0.9777931749234408,-0.31421706440788194,-0.20538060941417396,-0.269922513989075,-1.0422414047480841,-0.7402916846299237,-0.13688161703487287,3.152349623545647,-0.8847879828651023,0.4450698217286744,0.12578975268714312,-0.6228513247143667,-1.3337038276781061,-0.16102305391412416,-0.28194782438823635,-1.8706050279418787,-0.9442029143917554,-1.0555760411413104,1.4895787933059013,-1.5304392754453575,-0.8840729109127426,-1.9465769657838607,-0.9404492078258895,-1.459701234930865,0.41743068636852854],[-1.7559884565385138,0.5329944272408459,-0.021289482485301416,0.8661382135489727,-0.7537569345557193,0.34846927398364624,-1.3013144145134126,2.089081287274752,2.579268016794406,0.43053976478347084,-0.1399550842031557,0.18492920314155037,-0.5822909874601594,0.5613189919317111,-0.2284931937360974,-1.0691148914869328,1.9277970897518284,0.44133181571934965,0.6639005528277034,1.2571667669841438,-0.6029647430653625,-0.7172136126643016,-0.9495692185074474,0.43852623455772943,0.2502664274136015,0.5411102623172958,0.2892465162878817,0.4618778065113367,1.017978672466956,-0.6982640518170582,-0.28866614370186355,-0.555318244817648,2.8704024406628346,-0.5123869197910516,-0.24620547527579292,-0.5110136723982294,-0.5593863574572006,-1.144449037700274,-0.44060145453377636,-0.1303028728177295,-2.141411701704567,-0.22506191026032318,-1.0205523013907516,0.5416248685914611,-1.256881119573837,-0.8642209946761705,-0.48003486459961314,0.28706044583944906,-1.0036783276590417,0.5991785132021351],[0.6758835215512592,-0.4484669922543564,-0.2079514314994652,-0.576506337368903,0.15784723592927744,-1.0621943137618026,0.25095375308143697,0.7070664495891245,0.4450880146362412,-0.9144604730510619,-0.3848348396886469,-0.8048578857739004,-0.003862644984411385,-0.7389687769007363,0.46504753586849484,0.05941347071942604,0.5817781750467255,-0.22558966876770678,0.6728217914240638,-1.0061543868545109,-0.09095287412045076,0.5754120427939247,-0.2168039241434601,-0.8204133445256269,0.6587393110593113,-0.46449747649593137,-0.6681633211006062,-0.32968994845008287,-0.8798024553621042,0.007616605844275804,0.25430403206829666,0.3968012654261231,-0.7773399181307958,-0.5956948931326935,0.6976508684947343,-0.4012505891535841,-0.6727796538527342,0.6522632509859646,-0.17651229469173077,-0.5375286790697367,0.6843540648064624,0.33355924013082766,-0.8485443755968366,0.16736176143352804,0.030156375517114982,0.6815848024723844,-0.7189872941488966,0.40628793632671617,-0.1329197812310871,-0.5728235668406877],[-0.5640978373017081,0.5617279760062405,0.26502644440799283,0.5067271571365738,0.34016774296458246,-0.46349693649503,-0.37937199591866405,0.6376886210896042,0.8435368807073407,-0.8711740001238464,-0.8721304467926134,0.6934780173553599,-0.7679909860843245,0.10669804611691154,0.42340105525470634,-0.22016424095925394,-0.6458060301872438,-0.7325317127904367,-0.5652659243739198,0.9049139250129508,0.2007003269225786,0.4912086315186959,0.44359344296103814,0.6459101715341797,0.7111721624203656,-0.5359247499260549,0.7504722250482229,0.3316058589464935,0.6459158122067974,0.9294605971466008,-0.2612944729787676,-0.9710538351255767,0.8414932879074289,0.384089251864067,-0.16746152469075895,0.11903947080179975,-0.49833388311782,0.497299617708466,0.4973620423289534,-0.7042037754992827,-0.2896015643133858,0.728931757621357,0.25232432733492044,0.35751707625724566,0.9041608691311195,0.1314707124643252,-0.5828330838769848,0.39322349831931175,-0.4062041525059267,0.6220617544732564],[0.3354586942969593,-0.36982336486870426,0.39836792584346115,0.6689045713601822,-0.41597591026583897,-0.4929821769394037,-0.9061295455282191,-0.2961647923746507,0.9240641441921338,-0.5852940393708242,-0.7519349324923685,-0.5610181114466868,-0.38746756506521446,-0.09813571294646083,0.8196394140708253,-0.3173616783554086,0.9697528434969398,0.15264008629152012,-0.9278516989522758,-0.6996724073728068,0.30395752587620795,0.05673440919881971,-0.8932495147208939,-0.5223602544458059,-0.5623330135010542,0.3180918054059817,-0.6263517006153255,0.5882575039673356,-0.41247801576810633,-0.36804497471510406,0.6503033928137683,-0.30376729670501756,0.5813902276386841,0.30658400566140376,-0.8794123535723569,0.8972043388133332,0.9835462797967773,0.34265861634396216,-0.5566380066910821,-0.3928084804456982,0.06731037482484184,-0.5415311444815709,0.011002414731507839,0.1810297624815708,-0.6338536704982527,0.35002142084600124,-0.10309074052981143,0.3241698707059411,-0.07786127190664674,-0.9557108692773728],[-0.3884610884062553,-0.8403992181809031,0.3401230368837171,-0.7885467674956672,0.6116965003606091,0.4836802631857605,0.9906241589224446,0.5814019802728094,0.6014212586937479,0.9828286166053355,-0.3489156143600407,0.7708969786620625,-0.8366996359766266,0.5701685981355461,-0.7138826338703432,0.9378003862166133,0.3391683534655055,0.4262177695666355,0.607121703184475,0.5557404741454938,0.6840713046312586,0.41844673035631175,-0.8979057762340227,-0.56441189239234,0.8288382778102182,0.18801897733053005,0.5443471018085583,-0.14240471762362716,0.001706136614651049,-0.23681026648573678,-0.845426262136803,0.7467318580134128,0.413453822863656,-0.13185041263446823,0.7953275535480209,-0.6598423875444278,-0.3055812167667617,-0.3097841443205767,-0.4061116229088754,-0.620932078629682,-0.37652162751174384,1.0340681393938151,-0.7681792838959375,0.4986520152334966,-0.0748441296951945,0.23718561712922223,0.19925364629758882,-0.28701125002555306,-0.37841462034762824,-0.20603294193682353],[0.25932812108927716,0.21533582822449537,-0.8703827012471816,0.7751458935481464,-0.3917301154383594,-0.49035869518986736,-0.14646159664286176,0.40652767676554147,0.12791335694510106,-0.1836716362525185,-0.803443943528827,0.16393549396443235,-0.34148286432243663,0.4575521867249584,0.6297263716813581,-0.17156983864637151,0.1716028287848746,0.6323995282047443,0.5812208529861103,-0.2707384147257437,0.5597252698321573,-0.29351238817540615,0.5256831945635683,0.5177978823232869,-0.20618925456411843,0.683059664619559,-0.5215102939968074,0.588047929495774,-0.8709532191659107,-0.22647330873200863,-0.7765088905639307,0.8366956370353769,-0.39010368174125454,0.16562494203711908,-0.09193966295462468,-0.6064996079596017,0.6534061118827019,0.2057988566918818,0.31182174456953754,0.09527114868151466,0.19119213556658918,-0.042938198873831705,0.0889687735916827,0.6352683584806519,0.844539024250248,-0.017099316842025456,0.30953862420302897,-0.4842729068361828,-0.7138157674849697,0.722251836919987]]},{"matrix":[[0.6460299872230537,-0.06875254976397875,0.08431311297122439,0.13891892621570182,1.044923196697347,-0.6044199523935706,-0.8263390983183858,-0.02599777977947443,0.19159760101180284,0.5280671448372661,-0.8479641819026787,0.11434642987423896,-0.10889079709387954,0.8295026108446398,-0.036777709710506694,-0.7260737948761337,-0.925407702318791,0.14460913257370062,0.5835688398358403,0.8455133608867649,0.42772423291451905,0.24793906211670833,-0.40884997038552007,-0.4832433560061012,-0.7597195940108141,-0.7137205402745799,-0.559644502684635,0.1333447865885743,-0.11391684853599005,-0.0664840651953247,0.7172639635283212,0.6297885950894854,-0.3524020863573696,0.6501719141186516,-0.5588956722567829,-0.4656377268265905,0.6272149176389024,-0.04848853306085818,0.7133539172850346,0.20288879617587116,0.10470487817615759,0.06614471445616137,0.530850327914768,0.45328489741173045,0.15000636774459697,0.7849885014207444,0.16522933313369448,-0.8091611350717512,-0.7106995698592505,-0.43933497928451126],[0.1786961052094335,0.716650469514111,0.4873924900089985,0.92968455970158,0.5713132267713079,0.06278776782750667,-0.07606408282387779,-0.21042636628499142,-0.07732676543895027,0.44030391172197886,0.5659758372114095,-0.6151483572097864,0.24991365883154276,-0.7845045508176796,-0.6550614012391223,-0.9276328409884983,-0.9231361231557778,-0.7611407546971564,0.5757438627349395,-0.4242129337236989,-0.6737684257622802,0.5302666322266041,0.29721927113251806,-0.47139262086207045,0.7026037172350951,-0.832098207266189,0.7109583980503529,0.8698018916929412,0.37169692869489973,-0.7913736805518103,0.20650510312711318,-0.600975498507449,0.704158623972536,0.5373676367170106,0.8974277836772507,0.5402376971419569,0.6209421468347572,0.9221905981895308,-0.31911928268504236,-0.4249349590837494,-0.4899017065164164,-0.13851488560806,-0.9213528122352953,-0.655951339352609,-0.2357252355733455,-0.9959798728477303,0.26989293405835524,-0.7051264652740993,-0.26052163767970216,-0.6175356757871555],[-0.7075306772249187,-0.6184119957163876,0.16543042619298265,-0.13535713994294457,-0.17113356599170607,-0.13702808113778492,0.016848693498640835,0.5797019943016408,0.4845298173669244,-0.0505940944948762,-0.709631811355852,-0.32130646652346695,0.8089653340358991,-0.908578155267109,-0.7478125752270084,0.7475326704107776,-0.17076455127397994,-0.6662072754395887,0.9203620852260906,0.08550439380183388,-0.6531989455002676,0.5988358717517068,0.793460327821833,0.4833253505596201,0.5775868831893732,-0.37913556021301237,0.910742541562482,-0.7080808465875117,-0.049409149732987726,-0.19023725342572737,-0.8375387493919034,-0.8481640196199973,0.7656153899272223,-1.0258002246443927,0.7986188788715997,-0.24281260195818133,-0.026322165315248086,-0.29117479083993414,0.38683597352532567,0.38691134870327076,0.6644680874762692,-0.2929213065103011,-0.26788338234314274,-0.14344498317027846,0.09005657806930638,-0.6692672933794204,-0.3099337447207308,0.5914985134361556,-0.10913045774388089,-0.3315468177949662],[-0.7026539087414243,0.6231617764586895,-0.40730132685864934,0.31488621876513156,-0.47779540206614696,-0.5545381583579082,0.5201671158152411,-0.7659448969444455,-0.5635075253582315,0.3890039140307238,0.25473877691884284,-1.052501111257643,0.5975223212250822,0.4126132183587404,-0.5774407208008515,-0.06792418512266911,-0.9216852542862478,-1.0678929956569578,0.45370010299947194,0.6936735859921961,-0.31560065619817435,0.16985704782680733,-0.5327812570776904,-0.5040553625938239,-0.41667595237157457,0.5846126059955651,0.9261596387955572,-0.9851493021361564,-0.4132250274672306,0.17143494015907712,-0.8783582907996487,-0.8967545295516777,0.7007462158425252,0.4404590895486882,-0.39282549557678564,0.6261208581781097,-0.7190905452680267,0.18309931897228968,-0.6856526928784064,0.13660628755216736,0.3610460557934802,1.0788685895210264,-0.16064260080886705,0.4121363625540221,0.5074063192241658,-0.63119369506454,-0.3677484428051217,-0.004157170572046013,0.6771743200189972,0.7821261626072352],[0.5218136621104005,-0.33117749227567933,0.009192051583231366,0.7751388913477747,0.5980238097158455,-0.7120998095723198,0.8034219376769466,-0.9917924029619581,0.101968935044731,0.5350191923578126,-0.18958886241288295,-0.6860751175779289,0.9715593145485156,-0.5677496832086378,-0.0536109205985607,0.9550793148845085,-0.30483605096013855,0.724294840855518,-0.7431204745287958,0.16417056906918223,-0.4423590589172023,-0.016755176219192383,0.22697682046605772,-0.32836927903645685,-0.9287836531396358,0.6133120397114471,-0.7214840175538715,0.7057595458794006,-0.8739206392656841,-0.7825754289997853,-0.16705681134974484,-0.6891869349507065,-0.21982769777363345,-0.3063121230400429,0.2863539289026564,0.4790252711509102,-0.4453672836405188,-0.8718203617646445,0.2676584218091929,-0.17861732589814847,0.3471798783285327,-0.7460927140805904,0.4290768682822409,-0.6879449947665606,-0.3908560128781805,0.3784111630366585,-0.7757489459125857,-0.7125298302711761,-0.5096560568318842,-0.9387336125302459],[0.14805172914722112,0.48274574595883707,-0.7417289186975727,-0.9591904155278788,-0.6696002936730252,0.8634097285387389,-0.19850479961248185,-0.13335707640407424,-0.6889497649518317,0.4162614224474873,-0.6287808395304008,-0.2769790889492897,-0.45019151160608595,-0.06015899722439746,0.6711580478778142,0.6942332059798735,0.14718072791216236,0.31211059378017303,-0.2855303417086549,-0.26548156139529494,0.3958089477018902,-0.4259926008917929,-0.12489746213180584,-0.12500554415483883,-0.6571258355543913,0.5025905007281742,-0.8504512202324827,0.02140466928436808,-0.9103016662739992,0.8698171978310624,-0.2104700494069614,-0.033472882302219405,-0.5124912516054991,0.0822018143342515,-0.07424439437231259,0.8431250766853329,0.23516338838165435,-0.8691462803489888,0.4608647236676836,0.05838342691264321,0.13064667843454067,-0.9655659502224371,0.7512327348436707,0.28086026506480194,-0.4285851314242208,-0.3723886150961442,0.570918847887827,0.829613976434063,-0.3822303298789196,-0.8326019956011462],[0.06592615481318136,0.8182731647076982,-0.593167333742935,0.9430492039949457,-0.32819265733829117,-0.8171277003674974,-0.6759277589513915,-0.43307412667537026,0.4852637944044753,-0.4459363324809488,-0.13690087401820383,0.4030595775364888,-0.765001993362268,0.22077480440010322,-0.13278101088927857,-0.38206555997630354,-0.6154290979841206,-0.44278567776796857,0.04017973666233814,0.7402601210134139,-0.45240704379626206,0.8010603414441048,0.4125658709326057,-0.7467542107280662,-0.43340328302222375,-0.7853322966083296,-0.0920729542412877,-0.4608179710176597,0.6970562229158284,-0.6589147119732414,-0.4675907679860072,-0.3033357615852141,-0.4848457461163908,0.3233088750252937,0.1655631097075623,-0.4665650383275811,-0.5994822477703082,-0.9305019904708598,-0.5535955194166515,-0.6140198759553739,0.7509516418470416,0.4202926834280223,-0.16863532904024128,0.3248659972999834,-0.5632354797802166,0.4200354095855579,-0.45919525223917396,-0.22792051198006796,0.43825549783196077,-0.7109111158960161],[-0.2797495934404372,0.40989469907754766,0.10889208967441551,0.7710439937966357,-0.29426882221913103,0.3340123881414493,-0.11509185910708765,-0.09190196617226132,-0.8533480376966386,0.3879640503164224,-0.6907410490456131,0.17955635815304155,0.393380972896495,0.6289939485849408,0.009895809290669941,0.06008297025574061,-0.13361533802298065,-0.6682172235785269,0.07205374194164665,0.5578669313367729,-0.739707366066986,-0.29237977820982186,-0.4411473374318013,0.24026006330972396,-0.17533890613323483,0.5385709192085699,0.6304953624802613,0.883637582098597,-0.3197260144920474,-0.3419380565295383,-0.05242103147894495,0.10577306839055241,0.2804133896372856,0.36608507953758085,0.28670196469689224,-0.4319779524597549,0.6177689920314265,0.8598563926799951,0.07731032623985068,-0.30239795998768876,-0.2226348824465959,0.44213938854639695,0.39575244585494673,0.29717556221545094,0.10647521669342187,-0.2783587079175368,-0.1461340383618366,-0.15409576615932197,-0.28730424004941285,-0.7601082543102793],[0.9096569597776599,-0.8321185551726604,-0.7991309393827357,0.0027304077990008024,-0.5656039365475832,0.9290992418188109,0.2705568945924309,0.3109902547578105,-0.2706656558171568,-0.1657116539629665,-0.02984241764768217,-0.03438124459527881,0.7859497019681378,0.17683645920192517,-0.038598359733927945,0.6763735308730379,0.8356436521156552,0.20577331270543428,-0.26218729451280104,-0.6361478157615531,0.8274847428534396,0.19220258091384393,0.7447322577163534,0.7164715675983785,0.5210794321443761,-0.9993862310336978,0.8228585930575031,-0.9100188352066025,-0.2845404245244541,0.14591695785652167,-0.21899027394066944,0.10518884461785781,0.996580159554446,-0.7707176496348468,-0.2699346379485598,-0.9375106857567476,0.9868449268890038,-0.3570954653890765,0.8914386157473766,-0.9847801561166304,-0.9190428456584844,0.4762971487936268,0.7942806589206532,0.6713580724848113,-0.45833119638903086,-0.9475170706896555,0.03635210888643924,-0.2985441542016478,0.6136904251687535,0.11887286184339027],[0.5676063480137171,-1.1086369984556799,0.07227138721449021,0.9394533644891941,-0.2005439585116336,0.06817126502657804,-0.76300366427769,-0.8033337313463534,-0.9170757786449669,-0.9863007784501749,-1.1961810974807818,-0.7730673203238124,-0.3255742523747862,-0.9022395705454542,-0.8718004655810311,-0.6997580834210262,0.8799356393617983,0.6708962701617173,0.39741673112410003,0.11575545326434186,0.6800511573064012,0.9213643285734251,-0.5329304910087904,0.046044015149715574,-0.14811604406247744,0.9831214932188407,-0.36076779364649436,0.733996486163783,-0.5590570787075548,0.43026293219142914,0.8872830612627021,0.5347472533174314,0.3768001132947508,0.9406067790461317,0.9879872629816377,-0.802814421355717,-0.18628609282301622,0.4008748670940269,-0.08325201210218364,0.4081533586739827,-0.3169471592851164,0.8410123265847526,-0.9277270213639385,1.2835939496750173,0.4717902091466641,0.36400309724534574,0.38859621701844027,-0.9297264160111466,-0.13394157360747053,-0.7582209603539141],[-0.6567306447978039,-0.9755643019962715,0.497207689646417,0.8595357887184795,-0.3292225564982134,-0.1883912595141664,-0.7457272992179225,-0.09932907351560326,0.2398700957155416,-0.5819200702281669,0.50326227316515,0.1714324875253128,0.5438847390845253,0.3381900778077663,0.3959138590657094,0.5645278539899307,-0.4842531838124064,0.3665020823731327,-0.4527613658897522,0.5005000853294242,0.313043711463451,-0.33466996750388367,0.6817065843389145,-0.6650097380752004,-0.040463681749349806,-0.04215367553872602,0.8065996063996027,-0.9289785002101459,-0.8440763339846507,-1.060102409340112,0.4179522336469508,0.5311589058282552,0.23419202486225962,0.25001284861192,0.5363529787366695,0.5701378680709088,-0.900925151619574,-0.551219692330174,-0.2449680350047041,0.36086997331005966,0.598421039906842,0.9604323987107216,-0.1613349064905959,1.0441278924964101,0.44732041445715753,0.8710485240271707,-1.0337553408756652,-0.32612123344184796,0.6842862276961514,-0.7557419784881111],[-0.7531140211262489,0.12659075635515799,0.26521559377553705,-0.7698207043966666,0.06693948944453196,-0.7031619987715271,-0.5758850318718015,0.5420641397093114,-0.6935253751028626,0.11974767705616496,0.6024743793723867,-0.6761711794146595,-0.6567171841302283,-0.4276000267145662,0.24463386983485358,-0.6858812523932809,-0.8813758407439101,0.7461745054458613,-0.5287859525720379,-0.4205435199428824,-0.5370215115535885,0.46193768265102114,-0.9442201889445385,-0.48464583920749194,-0.11977351133369622,0.7252185623605547,-0.3920426087499264,0.500787253000324,-0.6587478473910136,0.6960496457310793,0.1859805391333312,-0.3080413722501595,-0.18471886343546481,-0.7416066761956952,0.8548336845359655,-0.1771722551055642,-0.14031811347584974,-0.29223700923268403,0.24186549829104514,-0.8347653228497176,-0.7399577939309814,0.5211014991792975,0.6797895062185193,-0.9421989448757763,-0.2727488743191244,-0.8759446273678017,-0.4942962075581633,-0.8781002016196214,-0.36334241074369084,0.1987633741937587],[0.8925160072349482,-0.49634641487225034,0.43892155084403073,0.2281509337423414,0.6399064081494392,-0.12309994227839827,0.9247588430639319,0.5061296585856911,0.14788177773913444,0.2875339527193449,-0.31841157321676894,-0.7213280348612017,-0.3121222944659375,-0.918608235364183,-0.11950441445613422,-0.3773773858984151,-0.13581921578242914,-0.10770728306545001,-0.9343726115164933,-0.5477580970759142,-0.16470316105147678,-0.33119985690912074,0.4878919908820779,-0.791563574665642,0.6057971538383884,-0.3117967503312593,-0.4299041998206116,0.7527541038998273,-0.7693620868489687,-0.6260287244723383,0.6939370364803542,-0.25435247231982844,-1.0514607818976447,0.9339357069611022,0.4837805069682507,0.7120197447818253,0.22218155012445817,0.9251522083787265,0.9213026945456717,0.5855786658539114,0.940930134731162,-0.0010612331614455483,-0.2095893967770677,0.2592109093505816,-0.2105867999248402,0.2069609878512754,0.3713972443214837,0.844625571400028,-0.6937264999998728,-0.8098534651440933],[-0.6140310864653137,-0.8270725404452022,-0.2175236295888109,-0.730013221665933,0.9821594353049207,-0.8720295579289187,0.04705160783828173,-0.16075182702198684,0.2501264400915301,-0.20592158654105813,0.02738772659449552,0.8392586921734166,-0.7830014289049598,-0.05656673916835277,-0.902527292773384,-0.20328917396786286,-0.982817370602804,-0.4774356737124127,-0.29647126072633084,-0.7889612840222675,-0.7833914541417115,-0.7999605938490834,-0.5222882379610436,0.22402185441172603,-0.2847274036081438,0.5929821658498812,0.4571853251782143,-0.3555736638328874,-0.1783538872818441,0.5896765906123494,-0.30923492926287316,-0.3268941564443179,0.32508858397775914,0.4416458893793586,-0.9002562808345581,0.5499230122385832,0.7249674176505929,-1.0101833878566888,0.08894399945028104,0.8901256930902876,0.9700701359553303,0.42833646666999703,0.9319782772065087,-0.9285986186357083,0.16734184901977037,-0.31765050458186284,0.876109278828398,-0.09936489058445472,-0.2666331796132037,0.09005793705696649],[0.6092432211928419,-0.3433236988257535,-0.5008809267413634,-0.8703182344973206,-0.6867537350111167,-0.321696203798299,0.5537956161664751,-0.5810253989918431,0.35816645206909964,0.8715331608695559,0.07137757374842495,-0.7279715700532855,0.6042674984232083,-0.015196322974925588,0.4606283515068573,0.7752495835681305,-0.5758998603903674,-0.7184904614476468,-0.5643713171066972,-0.8692841866050848,0.024255172126124824,-0.3229674389790577,0.8869823601966619,0.41460911631150077,-0.693893397862405,0.7185292568114232,0.755542776849654,-0.6364870233033093,-0.4359204458375445,-0.3183884208582748,0.6441834615746632,0.39436947607696066,0.8011391977771417,0.8153844151572732,-0.8079898844078242,-0.9130658893077318,0.7323592763781491,0.6280939092400887,-0.9698628129747201,0.397688916295361,0.9200285106705122,-0.3230857928561592,-0.9369177134121068,-0.3727569653705443,0.7607855923518752,-0.22497982258331273,-0.05619226811085089,0.15456448324055633,-0.504138736591349,-0.11650818629959468],[-0.4010171845448694,-0.1242849999593665,-0.7961520262585012,0.9597293909139332,-0.8228517519016109,0.7432943091666161,0.6147402617063924,0.3436835336118447,0.6392024560646289,0.2897641610954009,-0.4454373900164129,0.2601610236683096,-0.2198251357806566,-0.851785659335273,-0.6314565465993572,0.5996922961909685,0.8864004851662253,-0.8760203435638437,-0.8969302069411018,0.5920327661449213,-0.8962256855999178,-0.08090010078065028,0.299024148564736,0.1464092019277322,-0.7652455589012754,0.05655815361991835,-0.7904271154718642,-0.7018474662995126,-0.10222862749868461,-0.5579433754055297,0.7962120808335437,-0.6913710203328862,0.5089030604071748,0.468605149499773,0.3488639702301776,0.19374129956784403,-0.9005811985106191,-0.7796022897857419,-0.9981367588035578,-0.7344550691156166,-0.6225644343041085,0.8300180947466135,0.39448170434556995,-0.30751235284529616,0.4427711921668904,0.9583068560427314,0.5466941991457472,-0.7000572154586542,0.7183221031390273,0.866187570939322],[0.2634492595916375,-0.9852806259825202,-0.810231843967101,0.8805425448343899,0.37124079299926954,-0.5230629828434421,-0.9262178392648531,-0.6283204648579029,0.15498787549234994,0.07279827643046635,0.315404373360742,-0.9656188784968864,-0.6544111936492433,-0.05106981934982455,0.7744252443640522,0.7749692873565686,0.9566718415998758,0.037228251573699876,-0.6740474101957337,-0.24589779773042672,0.4312114705004749,0.10184345102075942,-0.10044414161932243,0.8606504498436431,-0.44095693002699754,-0.20578307970745321,-0.4820301926867094,-0.01785999688892142,-0.15283650734222662,-0.20532967493462956,-0.9638655526354588,0.32620200453194836,0.5085683126646399,0.6360013292754757,-0.7188863486080949,0.20206564065400154,0.18087714555621084,0.6742846888420142,-0.8896813560214585,-0.3228876458111004,-0.2135604975168173,0.28029790616802214,0.8366919082827886,1.0868210477509055,0.36909164385645904,0.702129792145627,-0.6391513233588132,0.5940672720902677,-0.6498559289621332,-0.040064350036670734],[-0.41806388556143187,0.13749199701826567,0.35648960224289017,0.20759162798799163,0.7008148169085484,-0.9738637743138006,-0.3772821257125,-0.3353156478306652,0.3009234444149406,0.13280208982257416,0.7392554551442497,-0.5748365468379698,-0.28392273914424604,0.8822773442652424,0.3708408706516121,-0.7057988984536927,0.5991345137810629,-0.9657209785883761,-0.5715298002654567,0.07458947891300223,-0.327263106107248,0.7359568216817327,-0.6678132365111091,-0.49343739157251953,-0.9657849375756299,-0.9237211371602083,0.7601485213096631,0.6280072665591068,0.9298331331517746,0.9202600418917194,-0.7883604757968823,-0.7655669354635255,0.3066335565685193,-0.9545424795431655,-0.5571625528884191,-0.8902029092533492,0.13643442217055232,-0.055085940321435795,-0.42386586189947284,-0.8797386007291731,-0.7648029382150862,-0.5707137884668361,-0.15972786128758096,-0.5513003295848204,-0.3132445213681991,-0.8890721809283764,-0.33535284765868967,0.37510117424035466,0.09890595411495724,-0.5559292474429804],[-0.9482925140892479,-0.31133275202846733,0.5791650624621122,-0.9952115321870479,-0.8297186826993609,0.0299577981288171,0.21492040418189348,-0.05785462263879063,-0.7399808206330349,-0.9824453769924355,-0.2082679678932285,-0.11971123592151274,0.377259111815002,-0.3214726894266323,-0.4504200853853211,0.5148411895973981,0.5363145117913527,-0.8642875471332262,-0.0885080270076801,0.559079582245248,-0.6538755879199475,-0.5709762612407181,-0.005204277460886083,-0.5909413867949294,0.6016869140916233,-0.14757857585383186,-0.65126581175939,0.8646002610163035,0.7852591217202698,-0.7471862434736531,-0.858898306978143,-0.15671409927187663,-0.018325758603380458,-0.6371043694875217,-0.15443371234897402,-0.8142097538790448,-0.6775761800960202,0.43039335084743346,-0.6262309396957059,0.37015454161210615,-0.2512770758854304,0.15915906590365667,0.5519005650319903,-0.7639413741789652,0.6177285146236015,0.28818131327749164,-0.14076478694623817,-0.3341800965662545,-0.5230763860746103,0.017384634470469198],[0.4248810070805082,0.5783398782520571,0.1929308805757455,-0.07760046732687996,-0.5776314248412792,0.5579654780095458,-0.45857595995363015,0.006492445407055154,-0.7909578689998341,-0.01459476748945666,0.35882563791555244,-0.8970820577754522,0.8190224661514306,0.6122367392005357,0.39481708236621865,-0.03772848504349807,-0.24338639936338355,-0.7916457913014153,0.12566677030899356,-0.9429482229176852,-0.581467910242157,-0.901745737206713,-0.04393132172434319,0.3784008966819233,0.9440120676800415,-0.7804137094498615,-0.5235208855980986,0.32419612254055064,-0.2075360017946392,0.6534392789600999,0.7402567852972778,0.14764426106535375,0.9419893584911949,-0.49599172712441847,-0.11217560488585902,-0.6238467333806973,0.2324492043171284,0.4691755742934324,0.86626442619878,0.11326514731869873,-0.9003190547267038,-0.5312848588910273,-0.5176409230758056,0.20446105334948766,-0.31021442090045986,0.314622971441016,-0.4274558407703056,0.8643052918621478,-0.8009244532528439,-0.4634401348868873],[-0.29337036852436704,-0.42824221496188003,0.20604623107299624,-0.7291881552082351,0.4226960621631147,-0.27520745227148985,-0.6161885689705702,0.007605196037239484,0.8347607562538589,-0.8804663791558903,-0.007994460314550608,-0.7999610916146536,-0.5073091570647881,0.38304110528468027,0.2323557223901068,0.20869734511237725,0.387354276522347,-0.14660086339184825,0.22539847109459485,0.49558966968230594,-0.2460488669163889,-0.8465679495544172,-0.0375619593216667,-0.8091723132768246,0.5630182430760425,-0.05275716636418844,0.1443757095835088,0.5122606335442785,0.20778101439117327,0.022524794828634172,0.5024785736613505,0.9960148759799158,-0.18270548994501798,1.0431488250251102,-0.3065091465625301,-0.9022908804053403,-0.3145862459256489,0.15285801112696804,0.7334145262939512,-0.36977857795087243,-0.20567407101165308,0.08084661276262323,-0.2683000193389751,-0.6166858964772177,0.19781367551623621,0.30470751131027546,-0.5330305426930245,0.9756291544032856,-0.1963686152180262,1.0239325468389582],[-0.4205161232816177,0.42147981986852767,-0.18112938755635138,-0.946472080648212,-0.15187184636372525,-0.17027895956757233,0.3400460175163886,-1.1796223493227629,0.8084861194824111,0.8159117644014695,-0.9379314392091498,0.26387299036160733,0.7605083778180534,0.8961647932199354,0.15855547145719925,0.3010574441458705,0.4506089040492197,-0.7028390216136169,0.7380603384221986,0.1889563250369577,-0.9007712089105947,0.36002110110481955,0.4277527033986672,-0.3090120393820695,-0.2134554849150077,-0.5954419011116185,-0.4938345121617661,1.0594363873917083,0.05948017077712579,0.07835055498012371,-0.882708221980999,0.9291767060953041,0.09963417973754415,0.1684133959897337,-0.3838261321260222,-0.02807945668797285,0.9747642663242699,0.3024062670037967,0.19385336989477628,1.0504389563615317,0.8197140679846302,1.2169625645615751,-0.9056271520507514,1.0249640468553332,0.03844257783190073,0.1725409356768606,-0.5275137026606365,-0.4572016878790064,-0.9301002221156122,-0.21747534907723623],[0.8240841224238555,-0.7450903633501165,0.5322834096622375,-0.34055089139022615,-0.5715751522048838,0.5078611068615063,0.24318670801298242,-0.6010443227259218,0.06568218867508656,0.22100607504384154,-0.23155472848413952,0.6656500295510318,-0.2570630368983189,-0.6336498013641763,0.08835819980306468,0.5807438688370417,-0.8088833455083815,-0.6885445004841506,0.7567834180837602,-0.8781611345699967,-0.8454679062758405,0.8512897553982037,0.4793280551129252,0.5419458602242265,-0.4611823651282016,-0.17870695805874498,0.14880609789487467,0.36092771558015757,0.6481086402723679,-0.673737741080982,0.2296329224355575,0.03914792800474841,0.9381634213767023,-0.5412038373074732,0.750412623958946,-0.23740494625275993,-0.9387804514797,-0.9998716666137828,0.44182798763887954,0.045906016432259805,0.5296229892231673,0.4378384788382001,-0.9825831234876281,0.6964048094394704,0.1724133743650597,-0.07446113972357186,-0.7517464812362711,-0.26743015165396916,-0.8159246994376781,-0.1286173470389624],[-0.4401586601374843,0.9894400640798185,0.7569533220965826,-0.03931479924845147,-0.11429471149415388,0.4838400178274623,0.19934797604290166,-0.012953939541310798,0.5820193368111988,-0.4286661929585472,0.8574880535774163,-0.9299525364190115,-0.6969010525390573,0.11306685948024629,0.9512923546207289,-0.7478481175370156,0.7631430059504786,-0.6582154174814029,-0.30147171731945527,-0.40456624408917247,-0.6659053118171716,-0.6191160246558987,-0.02995306236295189,0.7435768894209853,0.3089137540982985,0.5298764401551056,-0.9827735147615035,-0.0688922578704964,-0.6635443109403537,-0.3060559281736207,0.6582608416306301,0.14205676224643862,0.7720335270278615,0.12846643066811456,0.08065895277940642,-0.3557520161767809,0.02033441177169545,-0.5412035297693809,0.8961502313434985,-0.6824700976361635,0.6441394439031315,0.6178371002985837,-0.37263030583786716,-0.7354403723229624,0.47754120552084073,0.7130508001813628,-0.48084819192197936,-0.4898681657216556,-0.3617233667700159,-0.0632728915158506],[-0.4303536456947383,-0.5322166120858962,0.5979779039071142,0.3086447083661416,0.9648643077185635,-0.1918550705468798,-0.5324401736571361,-0.317531384858658,-0.8605663161518694,-0.5559882012067686,0.5765648096917854,0.8519508606990175,-0.9066483627254037,-0.9463129013805417,-0.24091970685518296,0.6106574531364164,0.8338239273919807,0.6748511693281477,-0.13055173512521745,0.1711136107156376,-0.5431388987429626,-0.6664455579915705,-0.903742255748097,0.08991292309888337,-0.015417528334556181,0.9668944347179489,-0.7779448964057339,-0.49006367089794195,0.7329028000406941,0.2661503436021824,-0.6651030488079412,-0.8535886512581441,0.8439266343653793,-0.08716195815361154,0.41628947118563875,0.8443823633268759,-0.5554158442609897,-0.7735068053206385,0.1968813349298301,0.04834432471486595,-0.935868383883886,0.7908178760745775,0.3781926079042452,-0.2207483624669632,-0.630555129587089,-0.3400040825496649,-0.9417807855496951,0.8519477795545841,-0.8213158497418738,0.5649456161168679],[0.32167011151089353,-0.42564759901921656,-0.6681419876188575,0.2146159947731704,0.15454863178310274,-0.5623945776299013,-0.11409989530150548,-0.7312722203674128,-0.6557449906049847,-0.519286088370755,1.0793802047953358,0.5729478245146368,0.2766513198488327,-0.13876230458762107,0.020311332611344164,-0.4460386697957974,-0.8477548302054636,0.4532287884293043,0.4263543356736628,-1.012359021195859,0.30917066072743987,-0.8137737778685198,0.48275823579179594,0.05527394576497009,0.5823250998575178,-0.5046739734967621,0.7351725232756687,0.8612906419058654,-0.055022783930462456,-0.33799781757613206,0.6151427188206011,-0.4589764513861248,-0.3037832072445517,0.4417440988590644,-0.3701631674391725,0.5053415590089693,-0.15358199360003869,0.6828866471125641,-0.6112199058306769,0.45485603174260747,-0.3345700523708153,-0.7458435063758243,0.316396277805042,-0.10696828417632297,-0.9647048779870874,0.1825775082572782,0.6589183432317839,-0.7907577858471534,0.05590220765537529,0.40701972953642107],[0.49820008151570655,0.4351872503764174,0.6927269523690566,0.20364805553677368,0.013435360021005848,-0.5301094463804598,0.5597588009521194,0.6247183669417419,0.36276294992996655,-0.35022055196371626,0.6960364765521376,-0.07892820829062681,0.9351988151859211,0.9431283219009399,-0.22181353708335502,-0.14423500909979675,0.5408488634584574,0.16275340184034268,0.20606119297996103,-0.7588146529921881,0.5263961166316372,0.7877023521642972,-0.9612337554389823,-0.06307846241902831,0.25892044018998484,0.5227566043566495,-0.3956661100554522,-0.16332589655963015,-0.634205252673927,0.10208253061107335,0.20444341127221058,0.5783977137063767,-0.5028725357141316,-0.18756134339742342,-0.37839674229470893,-0.9656002353176986,0.7245604302471165,0.6398291937620414,0.3376356178416492,-0.5499986042106504,0.11285463023236808,0.4249490888109556,-0.5777607845078591,0.027211506236250044,0.47204080264860554,0.2092384569539267,0.32766762930192844,0.31652399567934725,0.14159487577361435,-0.537665454458511],[0.30097462303015554,-0.3895548810790722,0.36380836128842864,-0.8921974646951538,0.12825836412858765,0.831671233726079,0.815368993304583,-0.02580001814453867,-1.125484184554946,-0.7360453188073979,-0.48873819539097196,-0.7168539506933022,0.3651431712413665,0.5060951497665164,-0.6013087142886538,0.875571301504873,0.0969532184874237,0.538255951655655,0.36809790979504736,-0.40747449601215935,0.4048001349485084,-0.5020457462863078,0.5447483149015188,0.011164338868714242,-0.776184040960613,0.3600272851779462,-0.017116775207974718,0.41828315022724266,0.8262449143661641,-0.35578761067054454,0.3109914786365255,0.22841155713171843,-0.5100671803763379,1.331559055766406,-0.4026350793359485,-0.07172711446589684,0.15300839637357208,-0.2960796444959596,0.9090940464100582,0.07273766183952349,-0.024351539319063236,1.14086586800856,0.3708567980071786,-0.3938916242842797,0.82622516659166,-0.07780480274082793,0.6703838307594338,-0.2878122330916944,0.5748727581669485,-0.7633627477765311],[-0.6838871776760005,-0.4868592241175747,-0.7961165873682666,0.30912495943780777,0.48455592392583846,-0.4134773003539358,-0.1719034729785603,-1.0520847701772438,-0.7062188488011971,-0.007748768117483226,-1.159352891059608,0.1390570713090257,-0.5798088403978795,-0.029040394005489845,0.9099564433785039,0.9018418019207759,0.20422720564407448,-1.0983980801377105,0.6608089810065412,0.21528055322064293,-0.8347222264364268,-0.9481163839751993,0.6784643930441696,0.7667510095752661,0.41080357919531424,0.17494257369383945,0.8873953531182655,0.002903758616628192,0.8355760613189332,-0.5536801939389346,0.4961193556682386,-0.313508578516517,-0.74604181570199,0.9492431326601595,0.8459570562763142,0.7311971589281022,0.6994381300635891,-0.5672407976448902,0.20750427317521922,1.044598325009978,-0.7171361313607967,-0.06067630975459645,-0.4719120545539125,0.5596843132805903,0.6150551357336667,0.608433307475167,0.2571978127524354,0.49383855225720247,-0.5742742590297379,0.13077786130500985],[-0.6366214618694878,0.34558880172112216,-0.016061295418871083,0.08821661226850533,0.5719269999616907,-0.09070195495266106,0.8540151666898668,0.7384357175992559,0.48370078455878873,0.7056579671397869,-0.48224794702984325,-1.0028710979046596,-0.35885801878307144,0.6412304248089358,0.5734031049307431,-0.4995891989477909,-0.8830773921678055,0.2976162559874987,-0.1089840544767173,0.9015463128532298,0.11841058923118501,0.9055364255190016,0.6666894448195908,0.7107989164895302,-0.5916195890597691,0.0016941272841173517,0.8250421605771316,-0.7511625266074274,0.8110147224773638,-0.2305768603496077,-0.738198522254808,-0.0016070407728069143,0.33419580719642933,0.0889105631271406,-0.4020105187788374,-0.08133479046010172,0.02591989418203061,0.1335196456095726,0.3910659159529123,-0.9506554611767122,0.9815278715378322,0.8606733422859774,-0.018826977156666834,0.07927902796759026,-0.17755691049221023,-0.712511328518518,0.5882265591889143,-0.36754227029243064,0.2512734861927598,-0.6106691458360551],[-0.4862410202642634,-0.8798124206332044,-0.6495889762498971,0.09511335849095996,0.6479746519045805,-0.9331116849370292,-0.46178252682243687,-0.6820458194933673,0.1600045583767152,-0.18077867265237263,-0.22164194780420124,0.29156108460109087,-0.7888683381878082,-0.15527816045618,-0.7995244878280311,-0.9062005873923585,0.4112768679601745,-0.6194295466636129,-0.4035838732396344,0.31580256575889326,0.17693074426365768,0.6302212499375057,0.7117769107428157,0.5658913057292361,-0.7569433542371408,-0.7398202342590543,0.12370725255868965,1.007991518558955,0.7619097982698061,0.21533082985286647,-0.005909053501139532,-0.0021213722154433214,-0.6864417791259776,1.0424059789186504,-0.5541269562765027,-0.7489937678371967,-0.10813964439184155,1.0455008915079256,-0.6964837158240053,-0.26767575142685135,0.6173720858504322,1.2685496981577715,-0.01335318508214725,0.9397550803248845,0.8049328104087429,-0.3583550651797097,0.3277389624231224,0.19295077070189012,-0.2297215437310601,-0.175115844921299],[-0.09808709248675583,-0.6603055209477973,0.5488408653066469,0.3595939688439739,-1.017291041772544,0.1485191783941929,0.4608244122995698,0.07983413755301076,-0.4327818938939123,-0.8951867362864484,0.853046723774271,-0.6565238690144115,-0.5088560700630028,0.5719497742166476,-0.0024814022243800507,-0.10763066324858835,-0.9405339212793334,0.9203280913538531,-0.42639869776705597,-0.9589712680263953,0.5737889748238685,-0.8482507581754299,-0.5546993175503798,0.7700017949182464,-0.3935228541472387,0.8447197601613263,0.6717822142565983,0.5056262459486475,0.86930406159308,0.4864148344307475,0.5242759810519766,0.6624594417045209,0.14108696707809204,-0.30680973132403827,-0.8984860062388466,-0.37672263239999804,-0.35342479939375965,-0.29137662789855034,0.40770467751650363,-0.34274228810598406,1.004948516095303,0.06906109303337526,-0.62605762955797,-0.9664879526559548,0.8442250703989739,-0.024121824460894923,0.751085839585381,0.914995784332373,0.39088416807977,-0.06853052297590653],[-0.6522305834902012,0.7229782514943897,0.6736988899794434,0.6358987574849944,0.4686576260461314,-0.23367702865110251,-0.1722843223418069,-0.5512060429921305,-0.048985848385893954,0.08809165105745242,-0.7677320086371664,-0.49028444557056244,0.9713491487454933,0.024583716965804105,-0.6719143403034832,0.3469351118531547,-0.325646356525246,-0.9186135622623592,-0.27070298810379784,-0.634726697989583,0.7017595696888501,0.7108601459207533,0.8556659324575465,0.0474305336933216,-0.731032269479027,0.4630146183693735,0.8736505520365844,-0.8176189846943913,0.9822087779571442,0.9071067750030801,0.4121743941977792,-0.8513318951596045,0.8691435696364047,-1.1190652173710578,0.26818322159325186,0.45275834111467866,-0.033177858247508456,-0.12433275088941091,-0.1874124253280743,-0.3820789702694935,0.7233569544984721,-0.4586619023876378,-0.5419060523808553,-1.0464792804073286,-0.21748843758864225,0.9895519469928128,-0.777737315473063,0.4169701729116063,0.02405375044213226,0.13462706070806213],[0.47085766553306,-0.7098664574779628,-0.25066331325054486,0.1984596269135657,0.1862982469469249,0.256505228371539,0.8457574528869486,-0.7818651525633394,0.9708007385388386,0.44660576751227116,-0.31105835732410525,0.8821668146016931,0.24489447294031544,0.33921232327784745,-0.2794266062579284,-0.05139811180397761,0.6082485196161488,-0.2062925266432833,0.8291342810049885,-0.3104775658511572,0.5688974122766998,0.9864144319100061,-0.21061880721173643,0.7381951377171185,-0.25509554497447395,0.7706145462345779,0.22820556978949402,0.6721746415172243,0.7880583239646308,-0.7976840476959374,-0.06568128001875223,0.2130523572358933,-0.9662694865625314,0.6118538854699886,-0.4170889078698578,0.30215359172224276,-0.792481766910713,-0.5191139366814079,0.2206131706152627,0.3600863032978104,-0.4105076299714544,-0.34008835637921236,-0.5546794516871025,-0.459145792573669,0.10378111356853666,0.8689362870841939,-0.4512899923227169,-0.349155972371102,0.27287600277476404,-0.40853395823381145],[-0.41081886200770157,-0.6076668349965634,-0.7689345241018197,-0.03774875622975143,0.5940810078272234,-0.9189680799527415,-0.9023599618242415,0.6149909806864947,0.6507279030608993,0.49914779001927795,0.36570649364902086,-0.4138735642958472,-0.9347507595520824,0.22330922946474832,0.11080199965504178,-0.4272372896965792,0.9909153665488954,-0.8184393715762429,-0.5383377018055328,0.49410410726869036,0.1384466021984314,-0.9146581776488136,0.3261807348393407,0.711048928872708,0.388711588896309,0.7094769331345534,-0.5233504981573799,0.35348505306007005,0.5138302872326813,-0.3808571982029156,0.31564245544874797,0.5857531822000688,-0.5209221282130158,0.866548973532579,-0.24774703278714288,-0.42989379078490586,-0.3077119034986336,0.3784829452271243,0.3849060244956769,-0.5731353333030564,0.19337635755587365,-0.797859898174928,0.7906927545520881,0.9505770778374706,-0.9629813326575883,0.5547628098518159,1.0452035368127555,0.9713377898273993,0.7518058038688539,-0.05050418150577513],[-0.49254129593804313,1.2717652455227693,0.640666985291471,-0.27874721109591216,0.20995569964932595,0.9780848836637939,0.7654740361824944,0.4581090927804737,0.44643769255591326,-0.44019920830416537,-0.520609529011112,1.035623737397889,0.056379601071075626,-0.7279101454140401,0.43532861365426956,-0.7910388926002083,-0.9119248359631559,0.7310894514930341,0.8198309705285829,-0.8439911219223507,-0.5667527343553288,-0.7634438793836932,-0.6087303043145159,0.9913822692806241,0.8236909436036733,-0.881510811023729,-0.19393267535219857,0.47145873894998924,0.1376025556060789,0.8418727220933506,0.003350778183295657,0.6202866261436673,-0.5750213537016112,-1.2718317985536942,-0.7702078697368533,9.29740288293492E-4,-0.6889595162051972,0.4070940811063899,0.2642312648372029,0.1771402222009946,-0.7064593243177438,0.08578884068433472,-0.1362437334605303,-1.0764641352796005,-0.8034022515096781,0.9070951273996621,-0.5973980753047078,0.11604549668528907,-0.10088955000815619,-0.6798226425351305],[-0.23635148811287318,-0.39918636932253393,-0.2614533840134554,-0.45591885709912955,-0.8330009886486961,-0.9708971182634949,-0.9584995961338288,-0.8623161422270933,0.3069910387782596,0.28393874964485993,-1.1184536500545277,-0.8755384339338086,0.5216547969779693,0.5469151720525335,0.5580994631872163,0.02774184811732319,0.565813282814513,-1.261011054454163,0.007952871128426806,1.0487802033097464,0.3211797722035388,-0.6407435052884295,-1.011894611236857,-0.17567275548646885,0.5162357979882825,-0.07525113357190051,-0.47925429260413016,0.43061810035650544,0.9875416667970514,0.7694039358338347,-0.43049409245219766,-0.21570514905331425,0.7049296630868173,1.38532433441087,-0.5292861110062553,-0.2948588568672271,-0.2127890175682346,0.8144544077179056,1.1933327175646011,0.643983875556934,-0.5543990275945033,1.0943432528567345,0.18434818525058647,0.6330558355685649,0.6045002176189855,0.7475748003636902,0.7288048504741724,-0.6215347609282341,-0.7811072520958624,0.3529682940376653],[-0.20745896522456986,0.2749489228385091,-0.9526367321686007,0.0034086730794371926,0.4152939068013262,-0.9195975546017,0.5578762008558594,0.5248767766660154,0.6851973116191482,0.6854226451648001,-0.9497906193797674,-0.6741889088052768,-0.8843490745108558,0.5903554398838949,0.3589037035312722,-0.12290584864695754,0.45550413265951867,-0.19303128098299058,-0.1556951571686847,0.0501432434222351,0.46103590772693454,-0.5074768798182322,-0.0556211906884001,0.49773619945960695,-0.39155411756961955,0.9678978328869527,0.37429611318086403,-0.4205580413509958,0.06204372950464522,-0.5655675617723508,-0.8026130069212367,-0.5342305715467557,0.6931625766042868,0.7030360623523386,0.5179788413537514,0.680155961083782,-0.13361554134084513,-0.27199650636911654,0.881476962472151,0.6003043225400049,0.7900686559448332,-0.12013161420118477,0.15250984865546177,-0.8842395155646073,0.08538456446819967,0.34931462898554266,-0.8229145956227274,-0.7288516528622673,0.2618633746107885,-0.8692024577751247],[0.42063234988051207,0.3487150956225449,0.9723521188549049,0.6432265273545493,-0.09727109813663957,0.03355679296611831,-0.8254252742863323,-0.638749564809659,-0.489848083515075,0.23420527288332932,-0.3570527161856145,0.048413496848508195,0.5353836020508854,0.7126111981021593,-0.25397804774780197,-0.2587769596995011,0.47929911848091666,-0.8271413277270908,0.6387142354806086,0.4605482043192673,0.3780306764030108,-0.8716483999665653,-0.9293087562379363,-0.7980957602429476,0.21017681345677808,0.1535322953089905,0.588935888209297,-0.7177023158398893,-0.9508644177710726,0.9452444057642104,-0.9015492295068612,-0.2667466200215183,0.011501459212922472,-0.8609006832361924,0.405165907144873,0.9897688939604945,0.21747504957164088,0.36291583988460513,-0.4063612683200726,-0.047789005786435225,0.3852290452565383,-0.9063950905421078,1.0320697107385775,0.7961486110828823,0.5897279210748962,0.8405267221196386,-0.06290333182590883,-0.09766463380477397,-0.6609801042478375,0.18979967831351668],[0.12476252424998426,0.7923055733266469,0.1404546795431483,0.009742099990729893,-0.0746397875338661,-0.6541986883690578,-0.9501547475001193,0.6251989606530796,-0.013989317709288419,-0.4746353562371068,-0.630990029664845,0.06509225356057254,-0.1908492350845256,-0.8254631418332167,0.5288944196662246,0.13793786559385496,0.08141537356473626,0.6626743256578842,-0.3999734001658033,0.20299856352588105,-0.8118616471314027,0.2169502844046153,0.9123568004849889,0.782001957851888,-0.4183357057906654,-0.14862892020493598,0.06914588703299793,-0.9007373925341868,0.5346038571050992,0.2897980548821221,0.5929565401206434,0.4546353910312748,-0.8576839934003014,-0.22584636492261023,-0.1723114809610715,-0.4003813850914942,0.7585440468068481,0.7928226960104297,0.014442069366885283,0.5139258733630827,-0.8743795091942834,0.18566472322721164,-0.13918719421422765,0.3195534751700241,0.3341644695275196,0.6447181873353542,-0.12792532061684872,-0.9226662751738129,-0.559731742232953,-0.10381921892207384],[0.5359671691489374,-0.851354367333872,-0.7800894422147577,0.07088706166922737,-0.2935784309551948,0.87123643847815,0.647994798416651,0.4563633512416139,0.19163829297974191,0.7252966800416395,-0.15532263258360143,0.6910103029973448,-0.37609054861288677,0.15745570011845825,0.7684799137651308,-0.9201422587061706,-0.5108587157064876,-0.23164939621068928,-0.6343036487571247,-0.37540498136605926,-0.5170290271528687,0.7536621840674248,0.4377755748172296,0.3285694888781408,0.19809779680018327,-0.9235096765199812,0.4797844790936937,-0.8214517268677481,0.6341763506831766,0.2840189998592253,-0.344360368931286,0.4086185152293278,-0.11549274040477155,-0.6087375980521444,0.12050637847973265,0.5121668043966863,0.04055430771877091,0.09087749040170452,-0.04471088550230717,0.9092279407040528,0.40206842253557434,0.8360122254009548,0.14390562156775333,0.13293597203660362,0.725639746074242,0.7034786334363041,0.207006627576675,0.8898578788289806,0.5361680293122602,0.028176839702580055],[0.5875771932711118,0.884114162779001,-0.739184792528025,-0.6812729729894573,0.7608782877329178,0.9378082295917145,-0.3700301643852081,0.05705220923095296,-0.3486274216235091,0.5565010189254049,-0.0502976519859376,0.39621984450386827,-0.4491642757174712,-0.7212717444436766,-0.13194822542718643,-0.07404052126795191,-0.12083187869264814,0.8481145088978811,0.5322529238399469,0.1136522867141251,0.8789456473761513,0.45277788786853895,0.4621635984477711,0.6580240630284769,-0.5256437421064237,0.036454005126890544,0.8113428886583967,-0.8994312920895079,-0.974491556480886,-0.14232729915595788,1.0354505022614635,-0.07290079458998001,0.19713540182589356,-0.9458108080521286,-0.3275794741891763,-0.07307337049855415,-0.9945332366748879,-1.119528787319174,-0.633950344564876,-0.07412911489988842,-0.04062517812666528,0.3531894857804156,0.09638607658548934,-1.271963850526248,-0.30185933860116376,-0.5260185631459877,-0.3007411055772717,-0.793432290523818,-0.33327083768608884,-0.9568200736824213],[0.5352308549706488,0.37254132355940395,0.16708330949810113,0.04771081778522502,-0.7324507375091719,0.5703756853835554,-0.004868279978844388,0.33810725236403993,0.03492136488431387,-0.6444396613688851,0.11924688990101276,0.08994133051239113,-0.9817151393498353,0.2909733456348838,0.06372501068099479,-0.4976455924067632,0.30686951138074187,1.1211964204210352,-0.4314960293954984,-0.982284371853534,0.6550938435890903,-0.29139949552893574,-0.33733913971722906,-0.029817385120121553,-0.2707640379483076,0.8282438307148553,-0.582722976391473,0.6968685281330963,-0.6074820208954205,0.46804520932590504,0.3403489782388885,-0.00433518095119874,0.29252441628075,-0.6930482919261821,-0.49515450698660823,0.8121162548556383,-0.6169034350516288,-1.1951346684290631,-0.29301735866296824,-0.7685120854921107,1.1029437129468067,0.23477141109952923,-0.3662149560375038,-0.8251997640312745,-0.7465328533243644,0.06913544159002252,-0.3146985974380618,-0.9126655869023659,0.5606486206580019,0.5057853914644542],[0.8399763954443439,-0.3685013379528245,-0.8483175697500899,-0.8401838477592924,-0.3226932850132041,0.10176606634623366,-0.3673392134879276,0.7393059871463161,0.04489887546460335,0.9235516141517827,0.2762019106303907,-0.8628750381585615,0.9330283612887085,-0.3175688087873946,-0.6386383072833908,-0.9273282808506679,0.8781818447910934,0.29549878710996696,-0.42939080272249713,0.8640070010500515,-0.0490084918646361,0.5360930499756541,0.3876946729806046,0.8221967130364027,-0.8492451156145701,-0.7685530977858005,0.9022083205350303,0.8847022818266945,-0.04199662008311289,0.7015034671208307,-0.9173641068644581,-0.6809504149197554,0.3593475819727014,0.7348904049890487,0.12932754618195236,0.42163673303290394,0.6353729455876735,0.9468066779269056,0.2179191979209808,0.9231574357099703,-0.7227216893772972,0.028013888169997055,0.17872587623105018,-0.5395205732303129,-0.10185215610203942,-0.7351810738028465,-0.83071282603797,0.9413585378339693,1.0173334107915264,0.25308720173723076],[0.030885211214628755,-0.7663837021745139,-0.5897498215733253,-0.4441969706041531,0.5243723934064763,-0.5881402178861627,-0.4236773002794917,-0.6501459252614525,-0.41118139701509415,-0.855593265073456,-0.380289727611289,-0.039022535887561854,-0.47997615491185747,0.6463554587335631,-0.37387459045391025,-0.450639685390638,-0.8464716079201545,-0.8105847474823384,-0.7545950553414857,0.5235135980503691,0.7484889225532202,-0.22340356899914857,-0.6772160018082198,0.6570423534727001,0.676965496055844,0.9490661245291057,-0.9515024332744084,0.4856967942284404,0.8526741383987434,-0.44477099639108564,-0.7351020449990668,0.9250912047913675,-0.2692004711976649,0.7432801513951603,-0.3055123993736051,0.08840722290524476,0.5914625893876883,-0.5495936509523874,-0.951707802590147,-0.2324848072374973,0.8534122764932764,-0.7549132616924373,0.2641583408422663,0.17531246968503578,-0.8379552475132432,-0.5521120339178038,0.44080416345643947,0.16719390978005516,-0.8579019048478043,0.22649119192677672],[0.31387594457456514,-0.7392599186449511,-0.1766923315178798,-0.544056352907939,0.3515488012736178,0.8187414287906374,-0.6298874636195528,-0.5380955185493748,-0.38526193469518233,-0.5258048935828805,0.7978646305924572,0.16582429158857506,-0.19695367362288652,0.5607979830119172,-1.016581793714291,0.5675757536045571,0.14561477144901863,-0.8928270187953384,0.8879984103645382,0.3823045111769126,-0.3176619175086211,0.10915234917671426,0.23721000381621163,0.7085761741072627,0.28900402268296954,0.07114216706395597,0.924730446536667,-0.2009583212318952,0.8742582890692088,-0.9191405015734067,-0.1302913796128042,0.6410718409605454,0.24728854660685456,1.2092815281655538,0.5911550700582142,-0.2802719370118694,0.2295162022801897,-0.5695204825096198,0.43740952239222,-0.30538716935006427,0.5633907421162033,-0.26299366803573443,0.8741195364671444,-0.3931912936250466,0.04450177443414534,0.5688652834093743,-0.41574750392597554,0.385810184949021,-0.42939889056046876,0.17309660539701452],[0.5014236187949841,-0.09610253698458622,-0.27960431777408146,0.036748407268443424,0.8607530899456628,0.6325309246482612,-0.5889238771052859,-0.8915997448679011,-0.016939014323237266,-0.844733596749548,0.2975256677030861,-0.7188564004884037,-0.03445854143419105,0.24994887872903973,-0.32365951698388695,0.25486980492791234,-0.46193235237191377,-0.29980185723102815,-0.21448920309195948,0.03547489939967557,0.7446651380298397,-0.3070905987513192,0.31239446242674335,-0.25316196195186036,0.41352454815244577,-0.8970437745735189,-0.6077303331356362,-0.2974214417507081,0.5313812222340809,0.5958223723222954,-0.12030573069645188,-0.28205991351807574,0.31088845882487015,0.701072544812312,-0.5521510084530542,-1.0309044058826256,0.32332716148052487,-0.6557536967285151,-0.9404953957567582,-0.05619648860979823,0.011300350233472348,0.6519578124001318,0.681416995042774,0.13471529419411205,0.8791774193379123,-0.09544615798369184,-0.021944287055675624,-0.7571999455127699,-0.6745814287453593,0.7314485377791989],[0.3339104620434096,-0.20014428124343858,-0.9877041337405403,-0.28786573645791536,0.6271692166599774,0.7534562634705717,-0.05487780265127619,-0.5480325575867508,0.0506134710979221,0.938747128564863,0.6399264233196239,-0.44660851894858045,-0.13819256294934842,-0.8017852815686416,-0.020512134310022835,-0.4663832896143143,-0.29645397403986806,-0.9080387448678744,0.34366582563950315,0.3943699564648654,-0.13710923654339754,0.9469996562490544,0.8868083416363058,0.23808113760076308,0.6636399333075086,0.5307412201014248,0.4243834313588197,0.7799566848932726,-0.4973150994047209,0.8922865667054288,0.5839763546419962,-0.3009054170833732,-0.47158571582453895,-0.3477718839246715,0.07011888352174697,-0.38137062001609934,-0.5622501817659906,0.3869635813448918,0.17198452444121234,-0.13861222482273888,-0.514876616035546,-0.27273219996140735,0.06213381424106134,0.10584126225955529,0.4044492418553679,-0.9236709468094653,-0.19396373529737682,-0.4936738824143044,-0.3256732502489617,0.1603853318400624],[-0.5070722833546398,0.9834494841206399,-0.6757244824813542,-0.059544136245652225,0.48945227747379555,-0.07182459965561203,-0.7130449713172318,-0.2190357471959396,-0.6227773849905056,-0.15184705511122243,0.22209050520788878,-0.620191408511267,0.8460147550962427,0.15509893635362,-0.3234128863763296,0.2811587603240667,0.5274451108332922,-0.33808686962923556,-0.5383075944931708,0.6496046312314518,0.5660899971151994,-0.8034664566108515,0.22377706011505547,0.3613037807899744,-0.414385058581119,0.2109558252626642,-0.6937920951716103,-0.5261159752814792,0.6214468852115588,-0.7558304639894929,0.22211608187368548,-0.35833540899213173,-0.4088735640046046,0.6688667636048177,0.3190465297239624,-0.8464503181435039,0.9063364228748937,0.2815078443405508,-0.4577298677010119,-0.07608190420059881,-0.03292269473824315,-0.017966160033585626,-0.3946941375641926,0.9926083894875086,0.4169534025303569,-0.9604965617208069,-0.6742803547174719,-0.13848000679203284,-0.6898370084273531,0.2617805801163934],[0.48945945871129803,0.5089529654801243,-0.35123000210449096,-0.20777643945172314,0.514517322321999,-0.381893338772141,0.9020226230844784,1.03340494846681,-0.8766135450037561,-0.7460680524054056,-0.7589165803643312,0.6778921338560083,0.2012197376812233,0.5785988983671503,-0.9118059131110023,-0.5242347140940923,-0.30762387659565,0.506499839990581,-0.6692009519304754,0.5207542798820911,-0.6206062072024269,-0.2710525944141213,0.015612837636599004,0.573128107792776,0.2517850712352288,-0.47157016802983126,0.03449854650221265,1.0191184468455396,-0.190818778923003,0.521032335264994,-0.7001431289873867,0.8038178000290617,0.09556398104333712,0.49738993558968686,-0.03460046126601145,0.11777274527989307,-0.18971789982095535,-0.6733125671527053,-1.068029866159477,-0.9557182975884363,0.8712616572351602,-0.6881107966343762,0.13871767600134258,-0.29551761439472746,-0.9365008090208033,0.34020736374355,0.652127618645162,0.9240446862216118,-0.38160874236842063,0.7882278780287162]]},{"matrix":[[-0.8691249754246501,0.07242573234236793,-0.5381850978310951,-0.6783172359049713,-0.3411645540294317,0.42482903958493146,0.17095690300817495,-0.10100843745495698,-0.7461188341510773,-0.5984465183381092,0.15425494343233614,-0.9261821258139604,-0.9347926455521549,0.785080659224316,-0.1438660088352661,-0.6737381072304485,-0.12227443667516064,0.26269875145105387,-0.7576110723407045,-0.3126651351432337,-0.21687229432263988,-1.004017835463052,-0.5733025385061481,-0.1487043060947977,-0.8196613448911112,0.8212624389432629,0.6638337012830952,-0.30983385821348663,-0.5263695348723596,-0.44153707215513255,-0.9877020075080147,1.000977884472709,0.4192077882343543,1.0335630160560971,-0.21915543331935017,0.3462949535019128,-1.0971170360633273,-0.25518970145719705,0.16450131612055366,-0.809762651935551,-0.5060506174686787,1.0509249280208686,1.0352035427749358,0.9072991250013528,-0.07337926681317576,-0.423456196369896,