{"name":"Nathan Bot","description":"Trained on Nathan's musical preferences","inputs":50,"outputs":2,"layers":[50,50],"weights":[{"matrix":[[-0.005569521780072926,0.07012504240393752,0.42137494870099185,0.0829289127600462,-0.029831562951178905,-0.8456672580228961,0.08367138484108648,-0.8707151168425904,-0.8857231202748516,0.13310796873053038,0.773364182335781,0.025898135896539345,0.588117288414731,-0.3596055890734854,0.6762247303122336,-0.21258441924890487,-0.9390025112932662,-0.8379367205372006,-0.1224416272663468,0.3785640763132252,0.7446048421956555,-0.7317676677739289,-0.021029873984876303,0.03837397138028053,-0.24990577610683543,-0.1934258118435899,-0.6698876883094589,0.7578096308468963,0.30190369720037774,0.6039414993813177,-0.35339259007862106,0.5165479143141652,0.28824059943525665,-0.3458156570284678,0.16198770671506266,0.3864704500735672,-0.9458110567725614,0.3361611100878969,-0.906892430350724,-0.1747411381566787,-0.3234938009170461,0.4795616093842581,-0.9646056997878842,-0.1019547130685671,-0.5060163045527917,0.3665355862521958,0.07236928950207724,-0.323376410032551,-0.369011870746924,-0.597185269847648],[0.6550395297108719,0.3921199726352322,-1.055210511451093,-0.12548045549813383,-1.0927635145878822,0.15285262983930453,0.760319272358557,0.7896163488399459,-0.48431788112499097,-0.7127570873665107,-0.9440992269403341,-0.3033055147267067,-0.49542321556309293,-1.039730534420135,0.49999886400379273,1.0312832513349177,-0.21873602376373988,-0.04656811686422967,0.3302248528490431,-0.9187489533297339,0.33447741076453474,0.7816011801557112,0.0676453680169945,-0.35113899714717095,0.30355861092255515,0.6686484642388696,-0.5228241344409187,0.8483793395874993,0.11796214931136396,-0.7820251075277229,0.5694833242750262,1.0422055828785923,0.5800350091669904,-0.8645519840530907,-0.23836253333252483,0.4135250232185056,-0.9742134883872985,-0.5048898977680507,-0.7391917844163678,-0.5443755477118856,-0.052112547356790294,0.7276029414883131,0.7403318634491937,0.33291555848002335,0.03422146932472247,0.3047613612887739,-0.887668357168794,-0.12461012863996589,-0.4064147810651192,-0.4128115459111921],[-0.4169097917945732,0.7939449401752149,0.5860257774184817,-0.37221788470039696,0.0383243837093095,-0.5834482224466618,-0.8390250660427869,-0.25458711646915866,0.21892558806168197,-1.0172253659117474,0.10122311952084131,0.6592953832930327,-1.2606798267135506,-0.8452753853554951,-0.8442272928874786,-0.1009936081075631,0.020328135080541855,-0.23067834975946003,1.93900538096695,1.7038966670277422,-0.9372741659458916,-0.9231058342853848,-0.07405429597155404,-0.6873895303166652,0.22029854207301774,-0.030779579278540112,0.23644122881637236,0.07791504922311064,0.2237040158053513,-1.6402452585967255,-0.6597293390534393,-0.19689286628236802,-1.4863194502625043,0.5908475042693082,0.6871843182252799,-0.9831635030400042,0.5902226746376555,-0.061307686674120024,0.528347226836607,0.4610424656493853,-0.4915887827765358,-0.40867406647209775,0.5355027402086171,0.7474219838462746,0.6829247527049849,-0.16607172031537426,-1.1499260209194353,0.762945890484669,-0.3520518848645816,1.108642413654809],[-0.6170834163372066,-0.7512025592038765,0.85635793283827,0.055884956779615656,-0.07535894461319356,0.6535553659465413,-0.632946240232286,0.5929057006723433,-0.5792431564246028,0.1518289922237929,-0.789917364037709,-0.5164913684519414,-0.3799200689302414,-0.11541313813844399,-0.5231462124560984,0.5426333861609072,0.07360217968629724,-0.7228035771574532,-0.41552551373176394,0.8983865311324651,0.6379004599324625,-0.36690137410799073,0.823109316845664,0.18669741753127772,-0.22287962200119343,0.589447153771084,-0.6965767023863729,-1.0375831869033147,0.057144699774916444,-0.02169361586159619,-0.511563452133078,-0.9799155532205532,4.580591554601385E-4,0.5881430796935692,0.296425017055196,0.6963140289134025,-0.1715643129865836,-0.1940223158477472,-0.09560020258350814,-0.04675537936229616,0.3148275218392199,0.0020453144424344228,-0.10142503105000483,0.4115333966150956,0.17297260395351793,-0.09374555165639506,-0.9758579243038038,0.425345646410836,-0.2193073670029874,0.17807632738440338],[0.024444587048919036,0.8216056739420975,-0.2609896000072125,0.38715721971546624,-0.9696910720390836,1.1167196726274782,0.1440157057234976,0.36169628283611444,1.0087688795130842,0.6489216822001335,-0.1401849951014641,0.6145155103259191,0.18772937865485623,-0.3453947866948713,0.9685213984622694,0.4085031074926815,-0.9416892913097051,-0.3159747647340438,-0.31431820257564963,-0.19226351356447072,0.47957063179374254,-0.7263622676643716,-0.5307469366979486,0.21676271210514428,-0.18785691896599088,-0.7731251094451408,-0.6336484226977736,-0.25226489577968164,0.2589037498186439,-0.0684972653778938,-0.009048609042045856,-0.11649824817113787,-0.10540176346305005,-0.2856984879839186,-0.5031989000122268,0.38965659976769834,-0.9306052921595892,0.005611399287528861,0.25999120618146193,0.9072096532345308,0.7681175325783992,0.27103335250563987,-0.6495218401878042,0.6973579933448267,-0.002030151018182213,1.0790188071586664,0.9368957461842344,0.0010489664361612995,0.6848000641782616,-1.0275371505164343],[-0.530720570904495,-0.38758569763219536,-0.010886493839889209,-0.8874084715065608,-0.29125300059749365,-1.2207918528123085,-0.30705442994128357,-0.922540237095677,-1.1430555995189007,-0.12600783110637792,-0.23727338745182755,-0.7416705268931432,-0.5117014643772674,-0.5986201493977631,0.6857791264408327,-0.9043313035651435,-0.347819956642588,-0.3566981644683615,0.011122771983931468,0.5011603015473777,0.30507731364330515,0.2667364320309796,-0.8720677990307549,0.2533211759186304,0.3231616894101887,0.6208119358496198,0.5039380621375056,-0.1866430043512153,0.6630557215768256,0.7358195451453858,0.6793052736642741,-0.5661319997059739,0.47452698919073366,-1.1509995977322107,0.06643261092943702,-0.08479846716115885,-0.7715069717118596,0.4641461459287758,0.029680352884850065,0.6737678239474606,0.15131458330384154,0.37063491488217376,-0.12976610076268996,0.6952403246352915,0.6588095631223083,-0.8432711400708768,0.295213841431892,-0.8320242262466319,0.7929530313427685,-0.3054968933016615],[0.7821108853175506,-0.5811016271743137,-1.0186171719611181,-0.7528876319577977,0.32094564347977816,0.11237256444175459,-0.1034909295905535,0.35488356492222245,-0.4230746869845275,1.109642302505756,-0.1402101035977473,1.4059644775135516,0.23874876381834495,0.3999002975265985,-0.4450064420348003,1.6497741684306289,-0.880846003305658,-0.705905366094567,-1.7688031750569202,-1.753604581006362,0.2793214329044102,0.7330847610289206,-0.2204661917026568,-0.9767710926542585,-0.6780668136330833,0.36678667276081744,1.5231812378769902,0.9890895802537109,-0.01603769065070296,0.9721540070658985,0.3741340880322788,1.2329598581240704,0.4409203811100202,0.24482374852169347,-0.439875873818002,1.622779166470693,-1.1311835814943907,-0.8923202580376373,0.08363901795130176,1.2021170541553834,0.03876427062943942,1.165774007394228,1.0138155488051492,-0.4687231537886664,-0.41394291239379283,0.586822049981767,0.8104056446703665,-0.9409718905305933,-0.43136493964473,-0.5063485054309541],[0.111764351783897,-0.502337748061882,0.7322368225738536,1.0150159514887784,0.06111250433261217,0.7514269084435227,0.039696284619116944,-0.8754896792967191,-0.6494243960898783,0.46131912139621556,0.1224827170490627,0.010204585151073586,0.6817291394272719,0.10669279790185215,0.436608111757256,-0.48522474397352505,-0.8554966862771445,-0.3427200783134215,-0.28089250137530536,0.4166693008619427,0.8287613075642972,-0.9476268573796955,-0.26942109131827896,-0.7888798261730916,-0.3257909575918924,-0.09190225302520748,0.3901666186220717,-0.7871346727401054,0.29128183154871684,-0.8518664367535456,0.7286508304451426,-0.770355138420753,-0.9182463618121066,0.18473564121631472,0.9836371710925695,0.13844163791324093,1.0138175050916602,-0.40385036026187077,0.3669784851433413,0.1571985178409882,1.002476535988787,0.4221381406423699,0.45223513672890486,0.6757621596747001,1.053100786255563,0.0029087391879826625,0.7749749576608668,-0.7673028682897863,-0.10241754155294705,0.7419743788240704],[-1.0809948611941917,-0.1999573953043386,-0.28701721463177815,0.27142750869338933,0.24060711862135378,-0.17527341172273964,0.22777239623638457,-0.4271775608338258,-0.7468836706552475,0.3512757640133114,-0.94548206050655,-1.07340676896992,0.6371707325152363,-0.5211772852937823,-0.4969885784887801,-1.1760894689075276,-0.43167451069980756,0.49747080504976504,1.848009236581874,0.4907131960139099,-0.03611088304557214,-0.10952647167622716,0.882081271455384,1.0280732082488395,0.8160650441513494,0.4811057782131011,0.4607449416659999,-0.3582322771748514,-0.05254870166469391,-1.0341031458855496,-0.7976718441152211,-0.21911262783718646,-1.312532624469358,-0.05400155740642685,0.5953706300218922,-0.07145778024472492,0.5250266764034516,-0.849211485545512,0.7159370134511965,-0.07180748702955111,0.6913614206845848,0.3369964952771535,-0.2775598054246976,-0.02661301556924255,0.03911529274445843,0.10229939237236817,-1.3168594206900486,0.8549859875132488,-0.033000478398112786,-0.5581783871230124],[1.6981704961380477,-0.021685911984372013,0.3056097357595154,-1.1738191459319673,-0.2252822699144407,1.7575480756131683,0.5439512573849646,-0.38240313919013724,-0.0014264395635493377,0.5302105419157944,0.7477493250261242,0.10561388381771583,1.4032012455843592,1.1123050366389708,0.03309001227794491,1.2218041418219725,0.15628613279716608,0.7842443340223012,-3.0441352010976357,-3.13009598670108,1.2689346930010292,-0.42888503384254223,0.8854565094885392,-0.43071952044423045,-0.07982386198718386,0.11463631337007393,1.603670355761239,0.8944344672217217,-1.5831117189676538,2.6856967439489963,1.9425684352890684,1.3875336507184062,1.8213090396706497,-0.12829197613108445,-2.6604197853829255,2.114180119008026,-2.6072734728472184,0.569625173157533,-1.1394016682361898,-0.14426191608577926,-1.5734023626557851,1.5373419503170658,1.7368797329869297,0.8703942466566642,-1.873916468611006,-0.3382019245347446,2.0405841898402595,-2.009917027332607,-1.7029970293959025,-0.4924535584250164],[0.85791053089078,0.7703387182711053,-0.8614403903481846,0.977404516511596,-0.5356790504110063,0.8493499340690096,0.4123348329778792,-0.30981014682637914,0.8527391115875972,0.022772654558941015,-0.08769807909695541,-0.1718976492170988,0.239748502286582,0.13633819451065324,0.2070239369543816,-0.9969054050074734,-0.5933418315793914,-0.5557573940689692,-0.4171989061765739,-0.8686779447947438,0.8231881139665141,0.4079460889720515,-0.13393463328527278,0.014094398869880351,0.8573384653853087,-0.7769012094238216,0.11632373669480632,-0.5298917220343776,-0.9588130208317838,-0.4489485049083961,-0.650439148904267,-0.8390647806659062,-0.38828512048156083,-0.6319319170430387,-0.8385459693517813,0.2845179193383126,0.42113056954626865,-0.479609891348069,0.4827195628220151,-0.9144772260886237,-0.7869984298584994,-0.27512255433191657,0.8555774899846198,-0.3542122348160566,-0.08126858764907416,-0.640066768351966,-0.6144420704909533,-0.32052381637031624,-0.038513410285922214,0.1508493589609996],[-0.27510468769783564,0.2619142038697634,-0.3058170227964309,1.4488543716576918,-0.08208386365654846,-1.2322142584718445,-0.9680605391269467,-0.37835363313630016,-0.04600232914446732,0.14997015850468448,-0.7945067711657937,-0.9239068363637845,-1.1621392669921131,-0.8597042818588364,-0.6780134342878056,-1.4990016697388564,0.08705698981770467,-0.39869039878338486,2.4445503623744615,0.7799024442341639,-1.4594351576588025,-0.4013227705931459,-0.43379774912673513,0.6440805424644034,-0.08094422815724106,0.1584346958956338,-0.6287547880213183,-0.6429942162623273,1.0704841263805638,-1.5654707221622506,-1.3736173637598037,-0.3228637071424754,-0.3425422805665274,-0.5019488287615103,1.0986915077181938,-0.3294319675253012,1.1252537413517025,-0.17765327791502558,1.7217001373715084,-0.3905385186553193,-0.09827140870695307,0.22971141342056295,-1.1598635714795145,0.45585869887621616,0.9989825552803155,-0.7668627177177898,-0.8119735026622219,0.7947033545884706,1.9481824846700178,1.628477756806436],[-0.022183049810984092,0.5107550053693964,0.25466190248638554,-0.186232448322081,-0.11846801886089713,0.5850080878916335,0.706074680808024,0.589240496221213,0.21163741701147085,-0.32294178079445846,0.3069378588700872,0.35063124804842477,0.7779960858428469,0.487226864424774,0.6560700957544142,0.32654010804761446,-0.41386253769503434,0.4513228928685753,-0.5035418100990878,-0.7755729605569841,0.09366362582728352,0.2922320242990232,-0.7749135096286367,0.14598217741944372,-0.6871284199338719,-0.027323446892215195,-0.3601128634031748,0.5396618351966225,0.0024009608365411802,-0.5603435849214095,0.5062027529092388,0.5258763158371632,-0.032190086776586926,0.914091051413889,-0.5271910716702748,0.5632144257699911,-0.5779257638775135,-0.1598410852170193,0.4300380937240127,0.4300948211359106,0.3457592909897173,0.49213621345087727,0.2326140377997318,0.8804630753793699,-0.2762885364137858,0.9284614116735634,-0.16549186026314985,0.17157795016195904,-0.7499183116713328,0.6935536741708781],[-1.083090759549891,0.32234762432729414,0.4798155177758417,-0.011720865996834771,-1.0054221629786297,-0.8888843128810553,-0.6196387901326447,-0.8463795918300204,0.2508108264286015,-1.1069149616185492,-0.5284139794726733,0.07920448181980047,0.17972918689169512,0.7468979702775397,-1.1487307012412658,0.22099193237822723,0.05005547924239274,-0.589191400532625,1.169498537970842,-0.4183750491283104,-1.1781249599054644,0.12825531204677112,0.2137997897613506,0.7726293294303909,-0.968431896125903,0.36196376443003303,-0.06978021181413845,0.64852826943588,-0.7784321459814253,0.13411520050725115,-0.23358880753585043,0.4204665541162606,0.045902626595723243,0.41418060740522,0.4853865848206013,-0.1774978762964006,0.9121509658960961,0.16621810128647332,-0.4646623413034825,-0.260044246999368,-0.5394343856934488,-1.169695091266709,-0.38847391975402523,-1.1459308361136362,-0.1335767212854344,-0.001579531986761365,-0.6723184947776322,0.8795499293187986,-0.12336522890311163,-0.4188221398238895],[-0.5444772861356031,-1.045497262459141,0.3703933854651157,0.11885347338074319,1.0298120935291188,-1.9406977347476284,-0.5166061684123868,0.38525330311796685,-1.2752309444724452,0.2931312741638193,0.13383683891633133,-0.41427978111805014,-0.17653463189110136,-0.6286947315871984,0.43976268748461034,-0.9978239068269115,-0.5615720633668025,0.015597717305038068,1.2457310093622398,0.6785151711386622,-1.1003068827899418,0.3278061494022148,0.7848670200621237,1.2325480848709038,-1.0319661017700958,0.038322764278904915,-1.002342632179013,-0.08532566692226011,0.06620422456733942,-1.97831121029661,-0.7919952488709238,-0.054794662678728255,-0.3680774574722071,1.08715551326656,1.780849341231616,-1.4898757858811706,2.4215873531181393,-0.674777892030361,1.325991983925746,-0.980527742370198,0.13359024861313878,-0.7968830926590963,-0.13261774018002082,0.7412118250079024,-0.04497392446005181,0.062098537683495346,-1.3459782630439563,1.1392955500538602,-0.015382538772178924,-0.1142802090026703],[-1.178525172355895,-0.8776700847712814,0.5155361337941647,0.5554454549452891,0.3938192816185256,-0.29822022290465167,-1.2533085786789089,-0.13200554038472692,-0.21782599713235976,0.14351290686360235,-0.5046615992423489,-1.1505180829091117,-0.8128050617358316,0.6701016859776968,-1.1477122701375204,-1.3711136084971958,0.1654254398735265,0.8077961216662455,1.2759681505772082,0.6200533580629161,0.41901782815670974,0.5210187186889967,-0.8989498404076413,0.43067753739182424,-0.3628530607183263,0.8744845563023042,-0.8017029930786144,-1.3240315266111045,-0.026346423344633305,-0.5571005390403175,-0.9973372606465836,0.2013982441570767,-0.09880772642140923,1.13428116586154,0.8644530151013149,-1.1080482029979832,0.8542188919651063,-0.4362713157896099,0.5289641744797724,-1.250282779627035,0.9999666393459178,-0.5304314156067477,-0.16114991889360067,0.8999952638313797,0.4483451794461874,-1.0143512270044939,0.1766186353594767,0.39768603184898843,0.5669972161672512,0.10589640289584966],[-0.07399453634509631,-0.10228458176979609,0.7161482642801379,-0.4464235499757632,0.8983838307293519,-1.1953695313558061,0.30957692149597354,-0.6092340648297365,-0.9567219087192148,0.16031810720693604,0.45949404016778794,0.6127607919816236,-0.08895716007253862,-0.5796313976330916,-0.5214400950607674,-0.25082336411314093,-0.3956660108439782,0.1929126091349913,-0.012009421490846498,0.44986658692981896,0.64033697765898,0.1721043831847843,-0.22258436612697557,1.1188911203682812,-0.19520169045576527,-0.06223583538165169,-0.19923029592053518,-0.7032339470794488,0.11562685801802625,-0.9305880597717484,-0.6964278773316355,-0.4793442061740611,-1.3025910555387488,-0.6482980489257751,1.3099659784339213,0.5632012083717748,1.2585466143247181,0.36974656780752124,-0.013409600793154031,0.4122331519088387,0.40880584013369275,-0.53199275358355,-0.6013530034694856,-0.2688803963905562,-0.05652492980114885,0.046534508825925844,-0.05193656847216188,-0.5179771237022806,-0.43664555909572644,-0.3181497210721259],[2.4252706946309486,0.6947916269375501,-0.9298181828827038,-0.6522285609827156,-2.013503582116349,2.4111860297096457,1.5174717796973218,-1.7137583588816658,1.6894397736304525,-0.15898391223429106,1.2453984982932143,0.7412318342619102,0.3861677002085878,1.2293159615144786,1.6844855834326509,1.037548396487428,-0.09714155082572648,-0.6047528611616736,-3.479527137762732,-2.245778424864893,1.4491930128081651,0.24188766690000701,-0.058209935272333,-1.6599593689978849,0.588837829972916,-0.4414867589718393,1.1581762311065134,1.0732832660144331,-1.8388408580728286,2.198703580032001,2.4304261504748865,2.901346801780879,2.3530072612371806,-1.4811749697112775,-2.2000311220919078,1.7540277076083184,-3.466644138821519,-0.4570509146334955,-1.242475455965272,0.9191022580076689,-0.41097539020338825,1.3515712531398636,1.184834616298355,0.45630332710001625,-1.5062407985221193,0.4574476053017341,2.895518494722077,-2.6931355160208237,-1.4426415813053943,-0.5727907491372876],[0.6169841825548523,0.6627426593129145,0.8858035534315809,-0.20494646772193392,0.8051553415589275,-0.10581645043766286,0.4771224610434998,0.5384033668227385,-0.052040946704432635,0.7077342970198862,-0.9051793777933789,0.38840609596191156,1.0474408476563009,-0.23539731026893781,-0.8495932590272325,-0.81644481298117,0.9968728184528506,0.5419898687338424,0.06370306373100611,-0.2336747536282197,-0.5913682397422849,0.3221539348965188,-0.5294837261807779,-0.9479255415914886,-0.017019038644345768,-0.682921317236519,0.9285472071643646,0.7979134528872173,0.4524170659962012,0.5581411830381089,-0.5409074005274521,-0.49203830377536223,-0.14261192918482551,0.49620133904202707,-1.1195077597053735,1.066560521361329,0.6671327948521122,0.15520850087658203,-0.27481218594133244,0.5376650907112993,0.6165005805946028,0.30527135157843055,0.5720034324188422,0.5415095303679359,0.2041499504093537,0.2232272333486402,-0.2158682628422105,0.5049482026567299,0.38227421847230947,0.9295723706182262],[0.6070107040628075,-0.5460750300090298,-0.031066064670217636,0.10555669113443036,0.2536193898140059,0.10699989117053017,-0.639258153118733,0.8018845336132621,-0.27271079108580554,-0.41090172657017693,0.1923328894072879,-1.1502517649976622,-0.37397577465734066,-0.4515998239391392,-0.20457260590006388,-0.9880709014078342,0.48144128151045795,-0.8218999695312978,-0.02576196342610148,0.7074108340273645,-1.0756331965372679,0.21023251864670284,-0.6403554856594952,0.9398733348667898,0.7379994549098268,-0.7361081608421419,0.4611269760862598,-0.13590358318108137,0.23783881435386667,0.3016346683148844,-0.2610236396053513,-0.7199906504383641,0.2356919463893096,0.6496103098909224,0.3487929028897499,-0.07096562616312711,1.2276803707420982,-0.20354919149487943,0.7825505505155439,-0.4369254249924451,0.7921490449715688,-0.6116500319344416,0.37616663901788344,0.3597477736979958,-0.031170319516751754,-0.7474235268269543,-0.19034974177901612,-0.1700881797535266,0.010914667292879706,0.18983096158035875],[-2.176791423946591,0.07976555205356232,-0.11370460205598855,0.5191713977404943,0.19951345682491683,-2.5547342466010767,-0.6596663181019238,0.3802035793107445,-0.4210476675045601,-0.9465391631165186,0.23597618009018714,-0.20798681478135983,-0.5136778295281719,0.5616650991612697,-1.2181129312418597,-1.497712912650443,-0.25122633786186505,-0.026122108550097334,2.8961748746380502,1.969133206847927,-1.0975778647127643,0.5411647097050692,-0.4059925707482643,0.5974628759099166,-1.011245902758928,-0.7417009041364259,-1.496336017177689,-1.8536726931517093,1.5448000356511211,-2.325544567259823,-1.6373672229129272,-1.2866359622691455,-0.7909374574992114,0.09294947144332621,2.108649333860498,-1.2632957313756976,1.9639185300787996,0.4937869802441053,0.6278758484867778,-0.35306135498334384,9.317004871066168E-4,0.20125512208631074,-1.3848408747288683,0.027276942951053075,0.8362759331883058,-0.1782459818656301,-0.9901977001121778,2.0030101606908723,1.9380774314289733,0.9332131639657704],[0.39771376556195664,0.4029876160885906,0.3610027370965019,-0.4925453072882565,0.4998107788173889,0.7094259110871192,-1.0021939906839652,-0.5838199822416615,0.06289480416785245,0.3214436410387291,0.2800033146356392,0.18821744840330717,0.4283645176007587,-1.0679862566460343,-0.3325709699663367,0.32778126300019433,-0.9676769139359301,-0.2650087679548012,-0.359106342639271,-0.8228737241252109,0.06504528036423243,-0.8189698253282724,0.6566654496876001,-0.12834711870196602,0.3237804742280324,0.3873227919559563,-0.06426359772719598,0.7825487338205852,-0.9119661401582398,-0.9189333425430132,0.5939956073512639,0.9153237938962746,-0.4776985758263518,0.13298814093589162,0.3275532961445205,-0.041172447138098714,-0.02958642312549696,0.21001926554830885,-0.2762663318901146,-0.4672094166748422,-0.693633057497283,0.07916434599889867,-0.16244305257309447,0.22428678171462033,-0.21451558936401968,-0.0821277710880257,0.007922723830608354,-0.37316322352374554,0.12334080373273607,-0.9131327440249759],[2.18375798842832,1.5205630064634486,-0.8450040599918487,-0.21976061266323088,-0.1461062700373533,2.096272155619316,-0.07218115513097655,-1.045432712783595,-0.08870579098034509,0.1136825411290905,0.7393577535222323,0.9883606718798914,0.1764042219670392,0.4163797049328357,0.5657149212771638,0.39542490612852665,-0.5576921705077145,0.7196747251820645,-2.619094354798446,-1.0263695464862528,0.4663006958237631,0.1364708470998995,-0.39392611489117785,-0.06630683911803788,1.102198741619302,-0.7281215318943316,1.5630545063012713,0.9184688262471609,-0.8718887914885645,2.8392057290178494,1.5806674716133566,0.9475189550137011,0.6178628792995727,-0.10715772927653418,-2.3662477962615074,1.6324490335812978,-2.0600551758769936,0.13146371823873446,-1.065402517157537,0.9835494916042659,-1.101259202326375,0.24886087886501757,1.2135027807395364,-0.42206564105312144,-0.9077832969829851,0.19767251917311968,1.6062109825967876,-1.7776220666320008,-1.3560569578070023,-0.6494416550062544],[-1.0408639563670057,-0.5314725340140481,0.3619968527063551,-0.25517220501994703,0.5962261479531541,0.02749436767382969,-0.06783019493148114,0.20537129561222014,0.6965486465620662,-0.9794904142649284,0.03989227435471971,0.5182525300582552,-0.4667468993061563,-0.19338655856283615,-0.838608957211911,0.9048888303698358,-0.9271141148923033,0.020202590238825202,-0.11510587946083374,-0.011425637774408587,-0.47295938665414416,-0.153441335016734,0.38243159753415673,-0.08097862137214155,-1.0065216146859375,-0.2757174397911449,0.41550850656218674,-0.019084930811533486,-0.9960292844486317,-0.6825111528884262,0.8496757047277017,0.0033240254291131656,0.568089579456134,-0.4236317210463174,-0.21026050335518895,-0.3263390844558861,-0.3263446299560384,-1.0752421043356861,-1.0140514417942808,0.8459144190462813,-0.6001392651353332,-0.38092662016971074,-0.4210737134744466,0.9233991185352132,0.1148810485486817,0.10945270930134365,0.11270128716336193,-0.30044435466814573,-0.19630358803933226,0.6280338582688809],[0.3214908698975438,-1.2538842302406694,-0.5004115883251832,0.2803696739864235,-0.19588159651563392,0.16192720314423792,0.15778026109576104,1.023953748975566,0.08628048122431337,-0.9124616274988779,-0.27363091914440535,-0.5672062594328757,0.1416300741546942,0.104273532004759,0.10880680451664283,-0.5617016749710468,0.07986571285749756,0.4391982475881989,1.0880996964673146,-0.37400691631248856,-0.11477649553655726,-0.27604354768790956,0.4150764733152632,-0.2619756289232892,-0.5836049268549515,-0.8656315282015831,-1.2577988688331045,-0.7227006373032028,1.1222318785944658,2.1677650006779535E-4,-0.9547978157380478,-0.2610517849284842,-0.7420592227230391,-0.7913913477477799,0.8728816218808481,-0.6144596170805524,0.7594263804014755,-0.48533104543563166,-0.10039811899659444,-0.12403646907793414,0.494262667786051,-0.28490871155746167,-0.23072586312458226,0.35946685296374403,0.6798719899124483,-0.17976291359515958,-1.3928865976561164,0.8183678894150577,1.1215844348592405,0.793775233988178],[-0.7617246256338385,-1.1363499307661817,0.9988823223785241,0.814324315658211,1.0912552348788573,-0.24643157253783865,-0.2435113273861573,0.35457478018700633,0.17534796108900486,-0.2671652997590107,-0.9035850645005165,-0.628989198874624,-0.5594129574024947,0.4854062877234751,-0.8072235254746716,-0.23747273731174184,-0.5927020405091857,-0.8603099917608498,1.1411223913404283,2.044954968934795,-1.3698635258360872,-0.7182232751808699,-0.5395188915795694,0.2994953768418208,0.5864559490268806,0.5040430495715241,-0.2749159884249117,-1.4050182939483364,0.5920183458015608,-1.700266514346413,-0.6994686887668767,-0.004690668914717129,-0.3950867410410493,-0.6684635024989406,1.836987751730035,-1.6458959191721032,2.282925110576271,-0.709483926777434,0.9652943592826531,-1.1337918949822292,0.12232956009833643,-1.053437401646361,-0.2995935015667593,0.9046555992141934,0.6699216128928502,0.08860439506648012,-1.0940985293381855,0.9350490530218811,0.7411154299817546,-0.1485046288904683],[1.1786704939021926,0.9989228191594726,0.09807116586807542,-1.4828832938324505,-1.2168573781851453,0.43192258608012535,-0.44372190005380063,-0.7568638000255743,0.8252236461312282,-0.02163637642626418,0.8507403303099877,-0.20574381855647103,0.9302435303005374,0.5306259211827513,-0.5567128232111116,0.016141038549853687,0.06042280980365932,-0.03401906293636316,-0.3611430175171737,-0.13414734237030992,-0.51463647526224,0.314791335831462,0.19221763996925045,0.23358492731161615,0.6667521432653514,0.3305575390073548,0.700722534117016,-0.14038855531240166,-0.21281850898365814,0.6775199218806508,0.28530112524413365,0.5322145541169189,0.955427855849153,-1.0430151093947626,-0.42314037786549746,-0.4056607213000727,-1.9688458963540394,0.05915477370341268,-0.5593497308775138,0.40795881319387783,0.21679352060287374,0.3716507831794446,0.34468144775121334,-0.36891135575718875,-0.7272964203202424,0.6298136408425107,0.6124688998348025,-0.6875947722460067,-0.1153135924843254,-0.16889691042143706],[-0.16164251077579847,-0.2970843445636114,0.06675993671530335,0.13514155415120077,-0.13158860842175357,-0.5393921540118374,-0.0018975336787026035,1.09039156417154,-0.7775283363648338,-0.1380063506847798,-0.13960833016668048,-0.30555229453900096,0.11910356840533963,1.0058144052450135,0.1707148705503589,-0.9987039550962549,0.34774960789760073,-0.21573092117244483,-0.21844432407407585,-0.6776262687663576,0.540967994508392,-0.7757875639185665,0.4827587177134562,0.8366019767864493,-0.20788629724002441,-0.4876270763069535,-0.4791690042482274,-0.0868687389789773,-0.18359774910040094,0.19043868453355658,-0.5419512258165645,-0.4799120419385011,0.6214782905612858,0.26860252265294543,0.47295852295375296,-0.9776332661550299,0.0380934902669782,-0.10548376783596883,-0.18918041697672083,0.8747526821926226,0.27764964759260197,-0.6908975636218644,-0.5370545056396778,-0.3941277705007818,0.08769901349994716,0.9276877935200538,-0.45605257940563787,-0.5056427948291131,0.34702496273524447,-0.1462513483661401],[-0.09536282257533701,-0.6320507949912457,0.9980184743925548,0.759402049396377,0.304638882656338,-0.37702780535784847,-0.4974168662796641,-0.3080290755261857,0.6441494629620131,-0.3408772744380103,-0.6047677062072726,-0.260937932809989,0.04280886331294224,0.10640820941684072,-0.01373155831351935,-0.6900311207917718,-0.5187789270698544,0.6599728055066689,1.6689491606551456,0.5813346219904106,-0.6339805386424368,0.547188399922088,-0.07249966014146855,0.7863812600625467,-0.7438930835157502,-0.11285641841367174,0.4899697607983296,-1.02995956794693,0.34847494596591766,-0.7504802229977774,-1.2852422884588894,0.07245966686337584,-1.6239534404659506,-0.31776185976636917,0.7207805500485922,-0.6894306657899001,0.6471067198811895,0.4701009739864861,0.27621933452663344,-1.1969882673931411,0.46914571010202333,0.26021717067025685,-0.9109297861198213,-0.5913410857151129,0.09935652219895984,0.3615657236813182,0.14643503341180217,0.18321459101033866,-0.2650460103196591,-0.4453027461274413],[-0.7328354044773014,-0.6396727437967845,-1.0633520733129551,0.5963575417752609,0.6793047220142093,-0.8498656354084453,0.08326580661681769,0.34634492505440495,-0.019211410432751246,-0.12096803190726807,0.371668198312645,0.08453700765119605,0.6173796379361914,-1.0183020723073868,0.20859384749318066,0.8914147227970349,0.6102624335848573,-0.1812450308532271,0.3346385011141461,-0.5556876322041397,0.6727640656877449,-0.8152431165944418,0.4061830305859309,0.08903715739755268,0.7771969253982757,-0.6218029834085901,-0.9362284952582418,-0.46215821324859047,0.6638000126963759,-1.061001848540856,0.3578356188997506,0.6269500930432232,-0.3973167776590328,-0.5209018891569573,-0.25215006200306955,-0.7423385246863641,0.3782736493160125,0.613833187813865,-0.6420329368539515,0.5186656944554238,0.44882532755255955,0.5102205750807364,0.17856668465385872,0.8206894235835149,-1.06646500386747,0.47108735519766004,0.7773468381862979,0.2811198411508027,-0.6201493646212246,-0.7608465281767842],[0.8135038985801945,-0.6452568478185746,-0.15076344066420372,-1.2816089105392114,-0.483778953674065,0.5462493052647911,0.8680823944215103,-0.10286561022288675,-0.04405931031232519,0.9145375058631661,0.47184113724068205,-0.5282046533848304,0.6941863647445022,1.131151245870323,0.03626469583031845,-0.2519526488033195,0.4466734182070158,1.1045996701380671,-0.5076834359313179,-1.7082855543370317,-0.4701933041570716,0.7738650355198151,0.8952721403939192,-0.3782825606566567,0.031138247873084404,-0.9543422457960563,1.26989978874485,-0.21958006229409738,-0.11541529329466822,0.8542886000372119,0.9629049187414606,-0.18100541246056234,0.8178091793264579,-0.17686479297568802,-1.1643666017041745,0.5164448962494181,-1.0274061618033157,-0.23655003297820773,-1.2919320116610795,1.2244434491670793,0.3923476064064482,0.30641963995806637,0.03332389186626341,-0.06758772495758772,0.38995807133063776,-0.16022092684652334,-0.008616826278951596,-0.5241965345469912,-0.5784286196704596,0.36164339003353696],[0.11501502371165968,-0.5186527859165722,-0.6299621789231612,-0.4825057690016734,-0.9355609609716466,0.07905408339573976,0.3231830469715162,-0.7689135072689969,-0.6228454147874215,-0.8670313529261412,0.7541281315702808,0.295217098217707,0.3089940179495831,0.4478530890176862,0.059158279764152305,-0.2589068760437016,0.6683175423998038,0.9542458076814839,-0.22352528600762955,-0.7258299245317621,0.4454812733910442,0.12361389807489329,-0.778938571998879,0.28999612774596356,-0.1604378627561909,0.6667883798613256,0.7408795851753256,0.09695905781034632,-0.27980177745936696,-0.4774391309899984,-0.6710525144413421,1.2037180046838734,-0.011237192700257758,-0.18994548001544453,-1.2837459674831222,0.8303949633323234,0.048386022303507574,0.30791456734312606,-1.1362706527064568,0.9677242136716563,-0.5466189433713208,0.5151513010330616,-0.8702754762215592,-0.1780932116515662,-0.4907294650819567,0.13606919785549726,0.2673725146747881,0.005777318299638659,0.5767324702109653,-0.48798299192344263],[0.3921957273593848,-0.6002600028891509,0.19188962440530694,-0.7507422463252448,0.033325944799102586,-0.861261709014288,-0.3394756833843415,-0.574597816624917,0.2767435494083273,0.6277266333208993,-0.8930795903395156,-0.013311954099946932,0.3025432741847649,-0.04169806704541624,-0.5601666034001352,-0.02602140112258162,-0.5215000959472692,-0.7376215334947933,0.595225957227772,0.5445326693873384,0.3788154065243773,0.22557408181610855,0.4775722509918974,0.21017401867644017,0.6061753814625702,0.6955242499704022,-0.7094447299591459,0.5781981204553949,-0.34231051762421655,0.41382934287496853,-1.2245249176653492,-0.18873887254721738,0.5491834954551351,-0.5492536192275519,1.1625515665393773,-0.03852874132089874,-0.1630945980219812,0.7823555300150417,0.19242514833644214,-0.377518828467923,0.43911554113556056,-0.8606038462420695,-0.7778196014369676,-0.4349830210421896,0.9148711285511772,-0.46288588406629094,0.15984254969609119,0.11676307253705745,-0.4398561063345281,0.6244397103171831],[-0.43089565234649324,0.4876474430480395,0.6918052324369853,0.9660892500029648,-0.9708463765359271,1.183926914231537,0.23319734945436238,0.3800664163695309,-0.8446074715226225,-0.45845169926254414,-0.2485506352399444,-0.42241529944224604,-0.6880923738024648,0.6937488294935267,-0.8144422883517849,-0.44415789829024616,-0.27359360013442485,-0.49209178554534216,-0.20212696106232747,-0.013825873120274522,-0.47900339355621796,0.33816817541024613,0.44087334297203906,0.3130734040187554,0.1673161258594559,-0.005615431748779726,0.7562834979082649,-0.8384231040961828,0.7236666896315728,1.1731103692891542,1.1720031206719086,1.0120246677209002,-0.4506606692049869,0.3566927734162292,0.40534663328901915,-0.17988812742523205,0.40093739110764054,1.0439024564811081,0.5789337960587692,0.46028706562629906,-0.4028171045954997,0.9446893914754809,-0.5880693867719942,0.73174608754698,-0.2247515604716399,0.8837318193754656,0.3033915054420724,0.6823575170880146,-0.8805392414976762,-0.19419643723463909],[0.8000206676408678,-0.6411270070889828,-0.29928920015768873,0.45154222644758013,-1.1878577912619979,0.8159226397788091,1.0408991410175725,-1.0412007004980548,0.32210059066226343,0.9330826207618014,0.11274033734998178,0.6393720509200688,0.872226593122139,0.998740270239462,0.8587496371559379,0.4666607567725782,0.4674218065649526,0.39860226567876866,-0.021900894274645123,-0.7232932453309996,0.06852606208124329,-0.4640062444908513,-0.5865290194923081,0.39563708956879945,-0.7307652621696219,-0.46229184369565385,0.6862965958761204,1.0123121172295553,-1.0647467997751525,1.2577812154487085,-0.28628004925521133,-0.20251271123015357,0.4587203561894717,-0.8354947207349487,0.02479495950738169,-0.12960728299789376,-1.5342227575337526,0.21213510595709809,-0.6359315834728579,0.5037934777034945,-0.28101048821911334,-0.799785740480933,0.5933493915766126,0.5554496526161746,-0.9695507761146542,0.45122905566571436,-0.3713011831549672,0.12998772381544568,0.5997434666800863,0.07111990364655713],[-0.9613450340020763,-1.6363017996716012,0.08351277314475938,1.178900293815101,0.8352421751670508,-1.9025394722807056,-0.282161566482987,0.6903204820513211,-1.3196621006308,0.35409663231654515,-1.0226884381277557,-2.053733567557319,-1.6797135670729817,-0.6732555600672443,-1.7182610757115313,-2.0443320491872368,-0.7995051823664983,-0.17509748051379692,4.813830119498841,2.204972838510603,-1.1925680179851388,0.1463932552135644,-1.2611973056237988,0.5261224119327721,-0.14031756334348647,0.06753947412997657,-2.026928823135842,-1.7725445702405325,2.072786012603006,-2.3440501343527247,-1.6967256739703316,-1.7436025138993057,-2.005923551762101,0.4235807473112661,3.583781440750118,-2.388219089417931,4.123584979368323,-0.6639171771503977,2.003348860898911,-0.3420551271546195,0.8373636806335528,-0.8401989339398439,-2.05819210086588,-0.8068775213106415,1.5217978822436806,-1.4748763433193457,-1.4565273366710543,2.448091621682717,2.740469684869607,1.665903011769385],[-1.8715048250351296,-1.072567718641615,0.3446533856395153,1.84485255314932,-0.15216578795464267,-1.0841064763992643,-0.11664444222058577,1.1228372308204018,-0.06571516024791585,-0.7717069312806837,-0.08311257328841085,0.08852318569090556,0.001204586775020964,0.5925133413147721,-1.1432781723380707,-1.7461266254230963,-0.09998868026897315,-0.5261232583772312,2.515943002547491,1.8191325585438767,-1.0237206726179713,-0.15378394079577068,-0.1274923966600422,0.7172903216475093,0.35017630977059805,0.5887050623282086,-0.2687112121732392,0.14299857950949588,0.5208779323758908,-2.096174165713723,-1.9972316022701608,-1.3904493925991452,-0.5281591603763858,0.5369260964417928,0.898404302233152,-1.7031920329411387,1.790082382297204,-0.35092360088020075,1.4788185734228583,-0.24042839931789411,-0.29503152280457945,-0.2037825876693327,-0.9324832856235854,-0.9260980083419332,0.8972705322110723,-1.360732209643687,-0.7227901553322084,1.6047008020506734,0.48391833517908067,0.027262219715126507],[0.1316409816143929,0.07065761361826357,0.24660418623261735,0.8334602974195784,0.6719771666315136,-1.676727403195172,0.0036862227579026767,-0.6059359095423993,-0.7633784972757801,-0.27880398424402186,-0.1655252474296265,0.08855079632939068,-0.6399559838412079,-0.5961936121683182,-0.9333149159295314,-0.4832758502998319,-0.9567942829111539,0.3963486014096314,2.0847743247485573,0.9353963089148647,-1.0483048848933814,-1.0301752254179215,-0.8644723084212381,1.1190923471535645,-0.03855839462757886,0.9571585334196995,0.36723688210324,-0.41606829094839654,-0.09094454281250944,-1.9634782494657803,-0.8683499511151609,-0.9865833134141193,-0.32603816152113607,0.6514690634513162,1.2416815957831713,-0.16558685186119254,1.0552939373042234,-0.726350352345347,-0.18982740771861484,0.16739765407721077,1.2316634584396473,0.48350783491348126,-0.9722742235572895,-0.29995624854042097,0.22171629844067994,-0.7057460133185032,0.08363913239144448,0.04210480154146073,-0.12370686845786844,1.2064758065626882],[1.1254583057019911,1.037893819391715,-0.2068785798538831,-0.2239294027820687,-0.7308251553839459,1.4977728111008697,-0.07104219806471677,0.35127979240762897,0.7759162342659021,-0.0469666129087407,0.8474744381927724,0.2547782630824854,1.2181507302620111,-0.2576917307580814,0.273182763981381,1.5925976093866931,0.6147170517956809,0.3436655539071206,-2.1934638290050352,-1.8145766248304516,0.47479348219565676,0.06751701825325816,0.11193060059892998,-0.0816336477848706,0.16957125245399615,-0.024434396911640163,-0.288376930800424,1.5601385806746733,-0.4553995231292073,1.8532063814169326,1.3039821541644347,1.6247143027008903,1.0785547945258078,-0.8909027655397947,-1.112218620999934,0.5377461418890334,-1.288504028399704,0.30045315640103515,-0.9979256444017535,1.3956000402384727,-1.0473167011745053,-0.14804985806975965,-0.14367091260970732,-0.7009779296896453,-0.10320621107865455,0.3539457655721789,0.22034489860389564,-0.6837890913797878,-1.788914614441363,-1.5279574108290146],[0.9241605152564154,-0.6250095000995899,0.4527279967522981,-1.0310571497643242,-0.9215250711850856,1.6146992476507818,0.7547049229915697,-1.419132961762553,-0.49984722321426944,0.967365223544121,-0.4505640265620396,1.0373304578935847,1.1889195230895904,-0.10481952491802853,1.282798283013604,0.4373150166407774,-0.5641252560995149,-0.5057291556323782,-1.182284823445351,-1.2903209929972046,1.0330203600308965,-0.10380164282284723,-0.12285056633952174,0.21398517347985646,0.5609364415957993,0.32035440232794005,-0.2846868859755785,1.2033296181687454,-1.6152885493334324,2.0720292719129696,1.978476045966806,0.17696938799926418,1.7831825834035675,-0.22424059007975958,-0.9522605222575121,0.8699478025874554,-1.9990583058082534,0.8851290896019484,-1.3136695823531543,0.22957070344168212,-0.6533013663315713,0.4132152552690316,0.8958823129380961,0.13982534794102583,-0.4505827508699906,0.3689483539780179,1.3401611800600992,-0.1653254278994003,-1.3301300646118779,-0.18336486879667843],[0.9987850919889191,-0.9030544541948655,-1.041503600224305,0.22481862360945623,0.45701969423651323,0.9638054239384527,-0.4555099009156957,-1.009571476517184,0.35019792556211415,0.8314670017514022,-0.578571891060686,0.7450238554587475,0.8186412213395768,-0.31664295615564275,0.02937472668160464,0.40716289456634175,-0.6968260161550347,0.21448058549174517,-0.3186188402677725,-0.7655315061460494,-0.302725348253665,0.7039896398853125,0.6019153548878465,0.6745017521590605,1.0268466823205302,-0.723658622416319,1.0429722393544811,0.9324749935716969,-0.0025653139465044144,0.8629093747525305,-0.19551043501230886,1.0083575933686046,-0.35543385498176994,-0.7717885061288653,0.09864702786245377,0.4212815929452741,-0.4655899960225178,0.5677243533858121,-0.6859552854712516,-0.47398668117383913,-0.5317837139480786,0.44200474555412145,-0.5062985949232246,-0.743522917477132,-1.1493815060537746,0.9582633917400495,0.4495163420679088,-1.1934234182656729,-1.2919127099451884,0.2153819719698493],[-0.15082589056117016,0.20334852930426597,0.6836495860409927,0.6596505989916346,0.39526735859797535,-1.0651106319343588,-0.8473570243170612,0.001550649287561412,0.016761086067272,0.5072558350956952,-0.5944544249050951,-0.7123088388565809,-0.8625748385416432,0.6030144315816924,-0.3503412548496266,-0.48150973985110246,-0.362769699479159,-0.4858652823843865,1.020206658193012,-0.07458594817374918,-0.5003573224166336,0.3224949270561656,0.5349163401130085,-0.3453764952098309,-0.7906056822166548,-0.6540285143644617,-0.6284522726341218,0.4399991479580585,-0.485954349263422,0.05703229244938161,-0.011075778464321284,-0.8390143448086742,-0.19970840947728097,0.5261449003014055,-0.47085419661041183,0.8368060290277147,0.199155113853932,-0.8002194545126258,0.06517012376407239,0.18479215892189615,1.1613355810619819,-0.38842079734916546,0.7942846589356403,0.767595809563108,0.1288027972784166,0.43189581971268937,-0.26973482656560827,-0.22578029790747675,1.2235277649559193,1.3049137372719173],[-1.5893626029090038,0.3094895983334109,-0.3555009857903327,1.3909194993524705,1.4875325363880527,-1.109775306718129,-1.3018173984666235,0.8822885478065164,-0.23444599336679284,-0.031324332257816376,0.48550842535872996,-0.3002592218356697,-0.48127075530846164,0.13251051704236005,-0.4897818761264354,-1.097688181990784,-0.7527215239636794,-0.1469181857909868,2.1033430136922155,2.100772536388078,-0.26850526314030954,0.40199740800037914,0.8299194877663937,-0.3630430258935788,-0.19700548742480964,0.6521081734249462,-0.4685510766599496,-0.5748426825474781,0.9502549585644658,-1.3853256656326698,-0.5645901882697848,-1.5867344171307043,-1.712120527626829,1.1607188473823529,1.0343249257428915,-0.830425918994793,1.0763323909102815,-0.4570375666703523,0.007816618672826653,-0.6882773897990522,0.07417054142164388,-1.445513267688701,-1.1642227021017726,-0.22028388812356414,0.6771562395937264,-0.2484513652137763,-1.5901111790007347,0.9817502509120198,-0.04987436641633995,-0.32207474446158424],[0.5200996765337326,0.9872555067497993,-1.118072235753582,-0.37938738498687585,-0.8858110679948917,1.3828883119577882,0.7371300303581372,-0.7427866879536071,0.5021998377895925,-0.3508540736464093,0.6263763213566609,0.06926981014427538,-0.1414015067725529,0.12902296617974585,-0.39126819109473776,1.1937698577291787,-0.27054210503831255,0.9661418476711856,-2.284511721933205,-1.8994125033481726,0.11904891122387819,1.011667199415928,-0.7013883653049704,0.24664936776356075,0.38383436337524374,0.114544014560005,0.03145669321610298,-0.21976213641166706,-1.5241774094591398,1.6089068295632394,0.9021658713883512,0.595219176190185,0.666585405589178,-0.024609606566054626,-0.5610635902141958,1.6757180534831446,-1.2132205366009396,0.3514432494549211,-0.26906355755687034,1.3472026496798222,-0.7906936080033375,1.3385021384732936,1.3341880788370242,-0.0023317916146921654,-1.4895631902738597,0.9925801865026856,0.3676553907132078,-1.111081358567845,0.03368210516141001,-0.33147448736738017],[0.8578796270051672,0.31452713771546226,-1.2566681452140576,-1.6855478921503864,-0.8774898137064889,1.207138710706448,1.5318552107991454,-0.18183424292760864,0.6721405934219843,1.1178591554838313,0.04288490543017727,0.4585469318512203,0.3610447784099317,-0.3566827688249632,0.3367410607647318,1.8785424947618181,0.4931704438807709,-0.5373202653955385,-2.1543359943530236,-1.3160032413789955,1.5617021264772109,0.33296415316992667,0.11507223423679107,0.12745517140874418,1.0937388291567152,-0.9815582536727862,1.2477252736434283,1.892679310951017,-0.4501764059777004,1.8228300232099697,0.5637443836210713,2.3823186088148525,1.1787710932606947,-0.06859161457539782,-2.2906920647865125,1.6903969558623564,-1.7206257658373114,-0.7743486949322972,-1.6228061848080095,1.5600431621391375,-0.5598401324157634,1.4639372327366538,0.2253104351824755,-0.8662851375156934,-1.1888808204753867,0.17488471055381322,1.532237763527513,-0.3064042584988511,-0.9867646131529921,-1.7411264936148083],[0.3900274812865185,-0.2874827113604667,-0.5745659726233541,0.5762642500577473,-1.174481625763394,-0.40546697575675544,0.8129314515856173,-0.20347617761136255,0.9303727866239146,-0.8883298112103712,0.7217186556274798,0.1805543346162445,0.9671643020938204,-0.8727536660542987,0.24077106200721898,0.1389391623766871,-0.2855587395131048,0.3866578740101498,-0.6107325094442851,-0.11623347541115868,-0.010473406122957123,0.5195379556233565,0.5910697117110836,-0.757158291571602,-0.5925639090683432,0.2238401988185492,-0.21580729318588773,-0.24566847372457862,-1.123124203347852,1.1955813644734552,1.1918247016686496,0.46349467913074643,-0.147225019773758,-0.7372792286346375,-0.7970123692597255,0.5242927631220402,-0.6732361191545445,0.8273834376231706,-1.1360433979407232,1.081677257623962,-0.6675311207322195,1.142397624125667,-0.4169058083700716,0.09965573885615997,0.17571583878735453,-0.4599367979139602,0.9621859644344164,0.45661827772498703,-0.07159333583753709,0.24545088631361955],[-0.20721697318246085,-0.7105152911283743,-0.14776133614128842,1.6261450247827922,-0.1275652161314884,-0.8153037204511664,-0.7546706499513323,1.0670057663216164,-0.8135925802721312,0.7126081926661648,-0.18585542745818207,-1.3364596451810105,-0.013732501307649986,-0.8493310217049024,-0.7591283459297968,-1.1922154041245976,0.3150808323214676,0.03524556038557327,1.7495210290072873,2.7279789659113165,-0.5762850708087756,-0.9345986897840549,-0.34702867727947406,-0.12906797332282766,-1.204985613129782,0.1128463516246107,-0.9676292725540526,-1.8265815747658067,1.5519645414450827,-2.1586698404658136,-1.091472567703716,-2.091986253061453,-1.76971949278411,0.31730238787300213,1.4812451923532834,-1.7737674277617013,2.9601622182925897,-0.4863323735791672,1.2566793835184535,-1.0873146459903358,-0.13068453489830884,-0.44661972991573806,-0.007218869128007683,-0.0571269056060234,0.4986212078324329,0.07061656982373317,-1.7871229581554013,1.8155095140905728,0.9268203865623064,1.31647721152326],[-0.22440669694200469,0.21433642586554463,1.0802922166425546,-0.0604614214461242,1.0657191673442723,-0.8287896286694996,-0.5876163238804032,0.9267582198541121,-0.04577200454593677,-0.6785285006147423,-0.07086211108917978,-1.3057661984209634,-1.0357874136320016,-0.8540334382808722,0.295337411538933,-1.097911889407303,-0.12628837358411027,0.13570746142447945,1.9991705304926628,0.18647352927507058,-0.9322262905382542,-0.41387611402543156,0.42467904234447523,0.9504131281376678,-0.5642915049804821,0.28104368835057586,-0.16707583713257074,-0.7722796363457813,-0.3306617302811128,-0.9685772144606583,-1.3568358727873429,0.19351321996802323,-0.024596970171367184,-0.35142477995422544,1.5724169964803885,-0.640897181543332,1.2329019907408612,-0.21214871442911803,0.4997590720945263,0.6865886070094424,0.5789637028149603,-0.9802431328302182,-1.2292438665813465,0.42406360597522386,0.39538303681661785,-0.35162249863895456,-0.7403128791978378,0.5677962853839009,0.7642178966260361,-0.4448569811314168],[-0.5085229450050162,0.20453257920098228,0.3289801854363111,-0.6604940176260427,0.541665654633127,-1.428898544538396,0.791068636446809,0.7415186368986814,0.2501877725188478,0.7789488293052129,0.2503332129856027,0.7910123366065072,-0.7169954468865355,0.025015735447875748,0.40938268833799524,-1.0051657385902548,-0.012608766827701226,-0.9342855375096626,0.9043497013039377,0.7914090868343052,-0.41035852780745397,-0.29535286798725285,0.20986126372666394,-0.6703585530097504,0.20124413662285842,0.05431080354209308,-0.9794954216986994,-0.3942714898935311,0.15284734019778692,0.2490385831790026,-1.4178185902347784,-1.3176553689754464,-0.8022009710966181,-0.11038754748287127,0.7378470833460739,-0.6243620256275295,0.5363997380200569,0.17084265505234403,0.40396156356729435,-0.7487500914207552,0.9615113207622273,-0.005023416742956218,-0.7276179400550246,-0.717392608073572,1.1182981651014847,-0.06955414324816536,-0.7940140882120648,-0.5344439262933652,0.8030875024138061,0.3676318125829392],[-0.6973460268280183,-0.1341604868344495,0.1848652758532343,1.1004374532800971,-0.03955244492897089,-1.2523351530264157,0.3465178955737972,0.8865506274412428,-0.4546021607454339,-0.08323898893072035,-0.9739662285208521,0.16937667989216051,-1.082095995242515,-0.06532558197397884,-0.4651955469220878,0.44339386228889044,0.03806132646792467,0.04619128955510327,0.05824805350862571,0.14369003515198586,-0.5777227036253012,-0.09769634301371642,-0.4769970462166351,1.137533504134642,-0.6868238624958432,0.2582426593067743,0.16503706217928593,-0.9843580905887309,-0.31449549450583414,-0.4823882093067194,0.33217426065936073,-0.7325302169259785,-0.27622699411077095,-0.5843583238448951,1.0323525218102483,0.4356618402398817,1.467958934554983,-0.42467445522089947,0.8134621399939519,-0.15200851706727744,-0.6552003098181122,-0.6580348539305426,-0.8137024987230673,0.00909294821277672,-0.2151991415530924,-0.7002603437459506,-0.5104078219167966,0.7814253553477507,0.7382522484865763,0.49323349324404675]]},{"matrix":[[0.49775329364737547,-0.7000026847257721,-0.04498347795080676,-0.37478106144098666,0.8283919774944722,-0.6514539214168548,0.764326120565864,-0.04920389521604344,-0.014655407960065387,0.1665571730627024,-0.39088873783719896,-0.1019580079597337,-0.0731894396037267,-0.3891517911133701,-1.0287149346247184,-0.5272788713416072,0.4182567465580692,1.4185783899783109,-0.09477576398949206,0.9645667242981821,-0.42928946395549944,-0.38200516706981613,0.30701040728706874,-0.540804891455894,-0.8196783239365628,-0.28646271648348176,-0.6443502367688551,0.5550305853118607,-0.38722270926795394,0.3004919473904897,0.28482007338970144,0.1017163895586818,0.15333533671372374,0.8494106200655946,0.7870314298498504,-1.3318107282258185,0.23913748863114723,-0.6492441078748061,-0.5243706081596365,0.26137417114773476,-0.6773570170001048,-0.3828460605087039,-0.19785619158176143,0.8216577010386286,0.2305586327354971,-0.7192214193915006,-0.10545456782532604,-0.23136206977328003,-0.8670461007853301,-0.3468449570111258],[-0.8375866280845179,-0.8813549636822895,-1.0313744482455913,0.4841720532426584,-0.5547364442360733,0.009140905496588197,0.9640838958920663,-0.0966122064774644,-0.7578612632514925,0.22091860970953475,0.7611472861724135,-0.7891885755626039,0.3048206717566953,0.026242169900157115,0.5103585876463014,-0.33490272130040843,0.3508045659347909,0.22799852250460498,0.7536120235671852,0.7278616894596772,-0.1247904032341375,0.36158383828163226,0.2295131708189066,0.40148362914191776,-0.9215402740946882,-0.5147759853920244,0.22283688347372155,0.3460658862647731,-0.21180318836410086,0.302629747446851,0.3288975758246228,0.3432781959148359,1.0096286365397296,-0.9103414093280585,0.5085469415506052,-0.9962021443834613,-1.0818111347379444,-0.8830127853070414,-0.7860212922022528,0.7900279257964463,0.5987221264098328,0.9631863756551864,-0.38117885756785874,0.8884086206352672,-0.20798317116012008,-0.7730709775393549,-1.1013875646583522,0.14601673000104284,-0.5182448712967864,0.17028602378438842],[-0.5769071252929409,0.20403917812074057,-0.3314361247307527,-0.7603843533265522,-0.11189013397098074,0.47644659641815423,-0.41433895670435594,1.068170137924223,-0.9852020369370714,1.2786260407101868,0.9187241755113504,-0.938306236864308,0.9463190983588455,-0.38749758111775695,-0.3171151084425807,-0.9025161241351546,0.6898613948313258,0.2158214647473893,-0.3210125181403381,-0.8616990401343136,-0.09745536361487342,-0.3878796673532446,0.23776970120721044,0.49334971872222794,-0.8154558459168942,-1.0169844144623426,-0.11102612304632524,-0.252646903325421,-0.5164309825559745,0.6766675575281371,0.47643270830549567,1.0550506475754737,-0.3800212274535227,-0.3985420626762152,-0.33177980508896576,-0.30572404740596315,0.6266805917308188,0.05502921420997855,1.0921684149085875,-0.6087221427185175,-0.2778211686400172,-0.02183810763629805,-0.27122463780468475,-0.6418800383176524,0.7415570180876799,0.6827765477098843,-0.030724727597041476,-0.7786359863114116,0.8833862445724197,-0.3011449358795384],[0.6903373076570753,-0.8989295560053837,0.817715313441948,0.3559717291338451,-0.5492014408820133,0.5900561059652245,-0.8965821902139732,-0.41781340640174164,-0.740547368456928,0.4131211012528977,-0.2974721109476967,-0.08910159716837335,-0.5577130931913933,0.897044363394095,-0.39574767083035833,-0.03843362360096821,0.0817645076385045,0.39663494243637487,-0.8480018781549649,-0.6224380486924519,-0.9920108960902715,-0.4306357868721522,-0.446850802819318,-0.9157823476371348,-0.8122170887280478,-0.021674742573333766,0.1165555586802403,0.5989690363933114,-0.6937657362760219,0.2884647827027151,0.26042676790826563,-0.12066011155636248,-0.4245324243812366,-0.3517883569078508,-0.08595150808100888,0.752637813713919,-0.40268152383203715,-0.7435642991639123,-0.4003675701006888,-0.5962964196726026,-0.07462096643246251,0.682590797094081,0.5088873369965585,0.902861712424413,0.3967281364105135,-0.1399047358365941,-0.7298678157376248,-0.24211410605453534,-0.16101488130072195,-0.981621651385698],[0.8461851510569927,-0.252610504330286,-0.20259033317194589,-0.877761379469951,-0.20554408142696692,0.19582635076758223,0.5022284775262831,-0.733667119820683,-0.6130921628892125,1.2266053885136787,-0.06969658621650358,-0.5718474840461079,0.8065286861807123,-0.37330565006914246,-0.4483300026525054,0.2701213523811735,-0.8964128783021463,0.8100242069284026,0.925286436277591,0.5335938918445716,-1.149196860712289,-0.866740132755869,0.056366857521963784,0.16393749042125993,-0.5196940806279273,-1.1180928994122745,0.6313470061008086,0.638313505094992,0.5033389161196428,-0.5660370245411255,0.1423468715016482,-0.7086875356870541,0.568970380789314,0.22000795523684463,0.864806328801276,-1.287858162966415,-1.1142542199205698,-0.9024037570683777,0.7736340413757599,0.1981142327447792,0.9923896072825358,-0.1241069020848979,-1.1414259818102515,0.9876910966494606,0.3845963645560626,-0.34078288164884535,-0.26855858311453246,0.45414145189593924,-0.4423325428943595,-0.0018688960696452421],[-0.9571772287206729,0.06418242934920809,-0.2950977235217616,-0.8746057103168337,0.8115137922532875,0.33662137997754754,-0.9136120579017765,0.45559296798613674,0.7812300905919682,-1.0070242812434276,0.9081537433507739,-0.8676276988731081,0.32945068179352033,0.2890853843996151,-0.85619872465616,-0.8140184878230453,0.275645191780786,-0.059119112332417505,-0.26480773692910975,0.7894702824969898,0.9918050774102989,0.8238892801981723,0.031861096314334106,-0.9470763831554954,0.10090048175893798,-0.6604066459443501,-0.34411303293125817,-0.7410378392673342,0.8138709274330111,0.688501755874647,0.4534753267543721,-0.07412895222083414,0.8827257128302736,0.8949712647241819,0.5646511310006657,0.7825676169055438,0.6634922608347303,-0.8346575309311258,-0.4478630283430751,0.15148870946229034,-1.0622222217913306,0.0693820222811192,-0.5401371662810455,-0.11035989081780145,-1.1704792357537228,0.4154870956668767,-0.6684219074688432,0.7863005762598506,0.03088502374811175,-0.21611772119393105],[-0.5048336582082725,-0.9005780359746016,-0.34820580848601695,0.4789235692850696,-0.46129621843659496,-0.1183843314244742,-0.867202943713539,-0.14461985142922057,0.047936100035962464,-0.7457027835213309,0.31535679292613655,-0.18821767641249362,0.13102930758351436,0.4259391812709163,0.7217993459676815,-0.7194321708577892,-0.7428883641893607,-0.10733796981230757,0.4677063739793636,-0.9092044489403814,0.47816124739368937,-0.2771949519887607,-0.35681835780017646,0.5528841269943149,0.1657464999637366,0.07260904641483419,-0.6519142802745052,-0.35258784614727495,-0.231872283393685,-0.4834135099739225,-0.4526109953874623,0.43647085821635134,-0.2618209162411776,-0.38908774620786385,0.5120157443323626,0.6087265749851469,0.47043470982546404,0.6221982190276115,-0.38856032585369255,-0.21271351406852063,-0.4209130213966231,0.0956505106077824,-0.6728156327828617,-0.4565116205895559,-0.813939688999781,-0.5885785490795981,-0.8064489529720527,-0.23495575762705714,0.4728914235703185,0.07221499863571468],[-0.7177810269286256,-0.8841355571709439,1.0700560039582105,0.5074643756279799,-0.5945927997354925,-0.3194477420805848,-0.07012974402761804,0.7230472906225438,0.7260789869899468,0.01027698641926312,-0.6910065906370668,0.9205276902578791,-0.6531787097770323,0.7822369931181649,0.7329977823267725,0.7986591240918609,0.5349199523582431,-1.4691029232342,0.21658005521708984,-0.0835754657525263,0.01823775789846056,-0.026332917683404698,-0.5683735809900443,0.6805366698322866,0.15888999719684208,-0.424600603995092,-0.684839768911486,-0.5131680062712853,0.7669770718599948,0.1249769953304391,0.48128068975704624,0.7747236865877871,0.7220745118392231,-0.9696815085731321,-0.1684867197669941,0.4464181391095502,0.8204049824823239,0.7083795932852069,0.003636564408376003,-1.5253870630281168,-0.05741205957466678,-0.3904201310156067,0.9699203920594751,-1.2371186586999416,-0.9878378415811343,-0.45358657051409335,0.6662162711297122,0.8015580773953729,0.3149670506766889,0.07644117141696259],[-0.6281731665658689,-0.6040579325853267,-0.16064574801638384,0.6496959354487323,-0.42894592955765465,-0.832289534689684,-0.5059255381067169,-0.8147139736069882,0.6330585810534224,-1.0806794252806924,-0.31541233118787276,0.37687112944102685,-0.16246818693723583,-0.3926599271004369,0.7558913680368646,0.17883776270774984,0.6002350382488102,-0.45118714597693804,0.4523271947674898,0.1074468105606046,1.2913491247321534,0.5381892695105283,-1.07202241152456,-0.30661566029736503,-0.6300133844191984,1.0001995377490962,-0.44906080168728524,-0.5281983491824611,-0.5904020967153453,0.32979088194742545,-0.11913934274820095,0.651852063857717,0.14437916310044707,-0.7295869970819687,0.8497522394674403,0.5268408718917568,1.097883315375714,-0.5219764507021146,-0.6048182416812562,0.646846683143215,-0.5225472506481958,0.12473250722199554,0.45559330346158794,-0.3640537109204402,0.07512190237714984,0.38972886493424896,-0.3635676272558888,0.6218230610918843,-0.6165387245665177,0.9648177881125265],[-0.00714165646076192,-0.8822619671298454,-0.4950650585187226,-0.20780366228791564,0.7071755565014893,0.2146979230078107,0.616475072964985,0.015423789062735206,-1.0569595710249582,0.3961786014718362,0.36871256897329974,0.24983609165325776,0.171336927989311,-0.3856792003418378,0.043097727590071244,-0.2631228490020444,-0.2622600921007995,-0.7417647931711974,-0.14046149307439282,0.792083307898552,-0.6246497447881209,-0.8935067685377154,0.5825727656055409,-0.4811705907079814,-0.5612859276977545,-0.5009053334304456,0.7475565777924176,-0.2508140194924382,-0.09012436350324747,-0.5932279656892205,0.2801113146086021,0.4234617020278501,0.5583297156395183,0.713991207749008,-0.9231253491408051,0.5701975025136056,-0.13018074616679576,0.7444430879091655,0.8892677316139137,-0.6022334417007618,0.20771350128961932,-0.5568961348543415,-0.3939803506909094,0.17755183308622985,-0.6742229438761915,-0.8031731301739679,-0.20549098772215343,-0.5232933653692388,-0.2830001187756591,-0.6308518465899526],[0.844276355010326,-0.4237645176379645,-1.001494106982947,-0.30268780160228326,-0.5066825864912551,-0.7072775779029045,-0.8938197037462882,-0.421936542008878,0.9435116062501817,-0.25873834546311864,0.5275722437720829,0.34781433580538135,0.37521929859231895,-0.5136022390095362,0.6284697046498395,-0.30202579809286495,-0.08070927485338691,-0.322287047516047,0.8987062928388384,0.014744011191674034,0.24157868652270445,-1.0013932693042606,-0.5201145533983732,-0.3587383188084731,0.375601283553259,-0.7673426066398706,0.574854023588758,-0.8692705654920139,0.8729380836271418,0.4237873606903313,0.638831227914381,0.6655365992413578,-0.37883389124564887,-0.6551409634884685,-0.5165150782651687,0.4566963459727262,-0.45107498273071744,0.5675258521923356,0.8870010095150488,0.5820148559090877,-0.7175200308060743,-1.002285039223854,0.5208658555618993,0.892400891198761,0.016869287721425402,0.35508294367946935,0.24890980151193506,-0.27056221564819893,0.46714534748512276,-0.6199954371568037],[0.6652170977366798,0.9105140739015004,0.8270878391876911,-0.5047422096928385,-0.3187969114845364,0.9667335314311027,0.11182474143860209,-0.8590242163587384,-0.6271335537342296,-0.5240800755427322,0.5780650634132036,0.929860070892139,0.8388369678370532,-0.4693583422901652,0.0915109125679185,0.167516110285428,0.9729938422118778,-1.1253655231191328,-0.4836100685548715,-0.2814624672305319,-0.5018514869819438,0.6565325333229214,-1.1561878251545226,-0.022884654232733274,-0.7652164763839044,0.2298981110089943,0.301044695296249,-0.30285287400317806,-0.34911395888716,0.8039384172928385,-1.0787679854775367,-0.4985188181739782,0.1582146125747196,-0.8162423972408218,0.5899874049751548,0.9775338621410581,0.9024048802417538,-0.23452750511745096,-0.044544999468436944,0.1534093884343466,0.45070362802679564,0.7079448968711999,0.5109114686429302,0.21476641921451026,0.405642259655903,-0.9455582663611253,0.1155587428958593,0.4961593495995426,0.4820167842306806,-0.1618297002274773],[-0.02370272324813358,0.47492324061244406,-0.0970951773588407,-0.1782975935560807,-0.8274032598500503,0.7401746567038123,0.6414993043033818,-0.6957787721205853,-1.0371413702878873,0.3445004252570424,-0.032164251564494664,0.6067830629471282,0.7099503991106075,-0.5750805798830076,-1.3911226904756324,-1.2532243102104879,-0.9509200134194834,1.376980821050259,0.3649688664280736,0.7280613842239986,-1.3648782028109825,0.5677211411357497,1.401619207697837,0.3195444643025048,-1.2150908349312586,-0.5378195065846738,0.7306513908988322,-0.5091487893473443,0.7925373216582813,0.6640566474283119,-0.29230425944623556,0.7810005689432375,-1.0492359812184993,0.36845220496007697,0.7633177989941559,-1.2969777498942348,-1.3157176991703796,-0.9739009251454431,0.993740878949104,1.2462873216605965,-0.7321334636889177,-0.016304404679809776,-1.3567105003136526,1.1003203119114349,1.1091087642308661,0.05304187479227918,-1.2615676139538003,0.21596013994801488,0.03776878546913361,0.6035816650175317],[0.7484606681559378,0.4208807569052837,0.11031914935406936,-0.9444128201589489,0.2072879467187928,0.02989067900401697,-0.4496281784541956,-0.8622930115953934,0.24666573617229734,0.16200844165902306,-0.4271733312050827,-0.8419635015740489,0.45843389343891344,0.5201784902052534,-0.7489502039742019,0.9215967408018253,0.24066633953603325,-0.061590369525428394,-0.8501964281952817,0.1410283850962985,-0.254929590441886,0.8033081008620079,0.3390506823943931,0.3700835635105902,-0.486513358113197,-0.15012591912188591,0.13407848349574003,0.18518295438012608,-0.33802963959562465,-0.9320004525386659,-0.15662824152076052,0.9762065926478111,-0.6892748077588788,0.3132076959259184,0.9173273301855115,-0.20710819542307443,-0.6330226595645269,0.6852802694682086,0.12191079781517955,-0.41527693432668106,-0.16724950886183992,0.23724287665455948,-0.8903059156021074,-0.5492675585524622,-0.11328494169730359,-0.7455385160811165,0.6403228422657151,-0.12249724588226374,0.008143776470596359,-0.2044934342885913],[-0.14002119636566834,-0.35552957574866206,-0.603987214373392,-0.6255458156508781,-0.4617301008049564,0.5946290706120597,0.9425997550997115,1.0052553574810847,0.6558952954125536,-1.0044984557960361,-0.3168361736688843,1.0333029585044502,0.7180183584855904,-0.6537122904740907,0.7512392445640552,-0.11942640201456986,-0.5120884806912203,-0.8839944900305151,-0.21330229962419697,-0.20122874194927345,-0.502186860782167,0.9961723514441734,-1.1690618910053339,-0.1827042901575768,0.972058068107811,-0.7138812007214335,-0.1414621514803341,0.5467832066980782,0.37211188032019893,0.5758524760062389,-0.9713623787463751,0.7933795814006244,-0.884335006250586,-0.210913913107394,-0.7586233059855935,1.2403198887778506,0.5426023311613004,0.6797980599578249,-1.0431282024511181,0.5013211707381193,0.219283785418665,0.12586696180896842,-0.7847536274083284,-0.4940023728805428,-1.16133719000049,0.9254732145501036,0.8012862372519571,-0.25787279803638957,0.4905120041701763,-0.3000234909281449],[-0.6603639317422635,0.30719119665410166,0.24702237632392063,-0.21195754397199387,0.4862483180882127,0.44117145950347414,0.2449158933281601,-0.45293505412080187,-0.30002706852586514,0.5079066597629136,0.11193502204923571,-0.4457388299235636,-0.15920385645546298,0.8108581997639802,-0.888578951171629,0.17390664915887996,-0.6177881750662689,0.7957601392219636,0.9103923024599955,-0.06566501196492944,-0.7910646364355589,0.7963698461898824,0.09705867709549845,-0.5001154032057415,-0.8335110673578419,-0.6209994927655071,0.13640914318136835,-0.9852541272962055,0.725350621955446,0.1692537561942227,0.777134111839662,-0.3218821687948992,-0.5265912840881642,-0.23493864467883596,-0.3847659177109533,0.3351383356449963,-0.6642211556150536,0.4541974586247513,0.9966744518108298,1.0312821069676399,-0.7184475786927816,0.24248655257909968,-0.06418587778387246,-0.6595279155094945,0.3423966743943388,0.9194971831179192,0.586584598278319,-0.5254223774052291,0.14652082100107616,0.2545315798797101],[0.8339120079269247,0.376477902080359,0.8316311239404783,0.6542347617507682,0.5112333801225561,-0.35076504388925644,-0.6678708162128666,0.2810714041891216,-0.42134550684853267,-0.21678080215373285,0.13207784305643425,-0.9097198345631065,-0.47630044851746134,0.16335227374126307,0.5678092744478509,0.16951129666195178,-0.6739679463246552,0.5333697919931109,0.07308468663774274,0.2591991561483753,0.9688200913775928,0.519759827487501,-0.9056053055744188,-0.9650172590131798,0.8162322742297224,0.04739759602909855,-0.028242542322671402,0.8748722495724749,0.4130875320430337,-0.05738590917813279,-0.47160205051366777,-0.7069764232686214,0.5669767621292428,0.3180511689839299,0.927723091182772,0.7680003793047097,-0.8139899015946053,0.7048872245775282,-0.8415532927068092,-0.3190956024900789,0.7711775917843455,0.9131577670091413,-0.12393274705362203,-0.17514172404978373,0.4466657232132289,-1.0121849616639584,0.8382729538442939,-0.9263723449350533,-0.4935965872703091,-0.7421468646798461],[0.2619091850557593,-0.6730317872209228,-0.9057296159337767,-0.5120883129475179,0.18004350864416435,0.711506560325264,-0.12862092492223637,-0.3496092279749547,-0.47166175628626233,0.8096878684279789,0.05294714587233725,-0.7039130727348929,-0.11334409509945009,-0.20339833047905154,0.8792567633775965,0.33418457199882995,0.23616664809003163,0.5469553940146229,0.42875969487331544,-0.5588924677262311,-0.44145272613434794,-0.6144911055919121,0.6260829556279724,-0.431008541635749,0.4279033186345905,0.5561105722950765,0.7204206424604945,-0.8329319005050534,-0.48496191265210603,-0.783761600901209,-0.4211686844255591,-0.5444953722403306,0.5687918909112561,0.5372042857295903,0.039481001336080374,-0.5203518499937023,-0.07260595672709506,-0.8232112503583993,0.8093021427925029,-0.7657153971360946,-0.5684442092351986,0.5351109783498652,-0.6720877670698643,-0.3558140414313272,-0.7332660669092126,0.6730539797597873,-0.6199316679936562,-1.0044535141394573,-0.0070568525148343945,-0.3454364325113145],[-0.920352368112596,0.7444811917116987,-0.7335876745662359,-0.004599704511486128,-0.9299583672743014,-0.3869286762394677,-0.8666254235194186,0.051634734919259656,0.31433716729658556,-1.2427298922368146,0.6660540481870102,0.7156438655708169,0.6148325152210641,-0.5070343384089275,0.8070678858048747,-0.6930188996670605,-0.631961934686879,-0.9054275085234809,-0.1635114267217555,-0.004077395217884969,1.0038605565365906,0.31865570378330327,-0.5657219046951266,0.05587426931281244,0.48396888966713203,1.066787643985691,-0.7298549710189994,-0.634426875582193,-0.6235807722294684,-0.7034378353573185,0.28915623000673646,-0.5505098555949893,0.6732576347103574,-0.12036931111462096,0.2089559627416311,1.1294439517652528,0.36576673499829626,1.135096873649747,0.5071761003230559,0.07478830694697017,-0.3843017798932684,0.7948558965989383,-0.3391760663388179,0.08031837127722134,-1.0266059377630807,-0.4181206871780458,0.8447456186641952,-0.46915284971630017,0.4748938531198652,0.538448166988298],[-0.6158775641633137,0.4223402235299589,0.7201384229315938,-0.18678617841778203,-0.3878397100149213,-0.6684044539256987,0.276463585711729,-0.8385562185542644,0.8604038197156431,-1.0018057953429704,-0.2642295777636581,0.8300653491218964,0.60188818463195,-0.3980659052700267,0.8666110357091553,-0.22900367762909843,0.48749303083027085,0.013396147927229776,0.42959617959970453,-0.6271753194869599,-0.4481096943815885,-0.6521311924888802,-0.5206767562566973,0.9052076393209799,0.03203714126701005,-0.536099367070915,0.4026126612172367,-0.09166365971884906,0.31748816126907564,-0.029200090894870783,0.14830778839606554,0.06319113299911332,-0.5964010905597763,0.04162328382044001,0.2778607715879329,0.7195013685403243,1.0418410540884735,0.20393958095886316,-0.2709087239899413,0.5390928891359188,0.759560531736875,0.7107108543671411,-0.7218222414917486,-0.22350393991321285,0.2808636097778175,-1.0026873879177545,1.0643362638361014,-0.782106238355318,-0.8062674801107492,-0.3316055212590954],[-0.2544610116988356,-0.5756993204350572,3.8205364376783626E-5,-0.10487819614488121,0.36278762458776703,-0.266232125100599,0.4596346425936904,0.17900326623413487,-0.7272054629252688,0.8195360943124604,-0.6199507687164835,-0.9112454075099625,-0.4797700987953051,-0.32689544131779985,-0.4835000876704455,-0.9396249857122045,0.9167516625165143,1.014378474082866,0.3914713835109175,-0.9105402174907745,-1.0293429853935712,-0.8772957180470018,-0.24187651461166698,0.7192509156555568,0.14059135674726517,-0.7756951011592871,-0.5744793883571166,0.7130541327247422,0.9978172370711669,-0.6163964631698278,0.47657404076969584,0.24491152599621926,-0.6564342148378846,0.6081723112927073,0.6424063419562366,-0.16743447391461314,-0.7230826611308675,-0.745235050410985,0.49224895896957654,-0.34935986606286606,0.2095917148471771,0.6974289770016685,-0.6899191462754325,0.2660432148636889,0.6219854253956902,-0.11631042617838955,-1.02283940697829,0.8785926273762408,0.26855922990549463,-0.6675877677161843],[0.7951137670334969,-0.8101382739685375,-0.32644621965496967,0.44381713589821614,-0.5415273552987863,-0.7700606136013145,0.6161049261180609,-0.11105012376154208,0.4430171382298616,-0.5546988446171,-0.4511481782456527,-0.04108035958962527,0.4900669669571372,0.760458761940631,-0.11652918196279088,-0.6230862319946242,0.9989784855479494,-1.029179806321835,0.5453827693377097,-0.13235127544302533,0.8966859950760887,-0.7869274617269533,-1.0330844250695264,0.9702209235246995,-0.7291551340000042,0.609133603532758,0.5780900189971073,-0.8798484704319411,0.8357322846855565,-0.7250382753152919,0.11480698909954387,-0.45550115193835816,0.7500846076137514,0.6238263092935451,0.8761322344466512,-0.7504418156643621,0.572644726206952,0.2131520054629521,-0.5394817332497781,0.016266051990588736,-0.5519642224259576,0.6874154500231225,-0.01228976367373258,-0.45501010873446074,-0.9915387068538931,-0.9315308843743304,0.5968060706493423,-0.7908536857246045,-0.7750245150447564,-0.10914609639038586],[-0.8853737841386946,0.43528294522611266,0.3712574730999832,-0.7988325527656325,-0.30246853626967574,0.4429174884418348,-0.5736580643918526,0.5221263009758251,0.6529105160801505,-1.00126335598763,0.016945949382286156,0.6490516073197856,-0.5552916785879639,0.8899359858998714,0.0846253544966176,0.7267955156319366,0.6482739162220479,0.3335909997219542,0.2651104891431646,0.39600403150506414,0.047303115491568945,0.8854034976107606,-0.8517215530550118,0.4977982475639897,0.988909290409493,0.9600646017758591,-0.4834222285480785,0.2768097469622763,0.8585569956217892,0.3096838444482515,-1.0100299373664856,-0.4430131143855561,-0.4198276078879801,-0.17778184382775022,-0.4912101153554792,0.8199383585125631,-0.4135999687864494,0.32272596424831657,-0.07906855838292402,0.07777245529054674,0.7854654493001458,0.25195656375343,0.21406535533885143,-0.0786351894312641,-1.1774484795249451,-0.30112181444484004,-0.21598600808289578,-0.46296955847709487,0.10395592064185084,-0.6462819306310323],[0.22563955193855986,-0.3740946409018906,1.085576868018619,0.08813153209661925,0.3217218117079692,-0.2909783536950618,0.41151105519797315,0.9407804420134797,-0.5102989572989058,-0.6265172153453042,-1.006239912397448,-0.3122364385476158,-1.0447756429816193,-0.145325990963038,0.587340567927755,0.002628363188181457,0.5459286648931119,-1.026406510571329,0.6628818373382602,-0.7519448485789957,-0.10044148363039652,-0.9984644073275689,-0.16564448158160341,0.4685153943872328,-0.4657765682589842,0.517266481702573,-0.5274571285052425,-0.5628889322972498,-0.23193172437455012,-0.5129736489844261,-0.5364636729861922,0.7022937929657946,0.9288698663127396,1.0007952775144355,0.012407869306242401,0.009009616820455169,1.0621566330103587,-0.38693145621804403,-1.1192476339960176,0.3794563319438749,-0.7841429435570209,0.3926092218852237,1.131410824383142,0.642781502198052,-1.0297095348952834,-0.4047191354637561,0.7395449533854954,-0.44857134787676345,0.8538132787202521,0.6545185196388847],[-0.578295007933641,-0.8351638865530561,-0.5436442106777323,-0.5968205941010576,0.17687783402963278,0.7799717786051202,-0.9011383094151395,0.9280572090372652,0.5020350391878744,0.3507795392103358,0.2242941455828128,0.03487069051188817,-0.9675438269048471,-0.6204007544138698,0.8650952767376838,-0.8540078345502498,0.6413264509939097,-0.5010941018578383,-0.854167996323915,-0.6626477600629174,0.17947560381011407,-0.34451122704282766,0.5904644148082604,0.883047359273254,-0.698476285252554,-0.15228851114818978,0.9253022085444549,-1.0107582145898009,-0.731952518666842,-0.6581761649892446,-0.26240650198786947,-0.4440956087048743,-0.12023592120195042,-0.3833381746294704,-0.7623202829183463,0.10169374950711116,-0.11703053326527517,0.18175347418425156,0.6460728699666383,0.3745036894428756,0.7570968037524474,-0.1031284147319192,-0.7924057573556499,-0.30457980385160893,0.42702762603844546,-0.9763784417080972,-0.41121083107676765,0.2643812289895502,0.44092279229007636,0.7200075626832027],[-0.002195920859707874,0.8069217455281783,-0.7821698227975455,0.4677554300652176,0.05376059383730708,-0.10278882043771281,-0.3061693917324837,0.19623024836721153,-0.35050328214127574,-1.2729816062267727,-0.1558800037967986,-0.8580947006223657,-0.6667142950662215,0.5194377496765191,0.6551714624525895,-0.7237763756589121,-0.241003704448866,-1.174851465417115,0.9325222145656451,0.9163452768662605,-0.012621776537029087,-0.23321037611802783,-0.25727835415887834,-0.26245088533260685,0.5168600471048933,-0.1964943971954163,0.7520457696459592,-0.5783638446792205,0.7736836601844815,-0.6283974718799439,-0.2689834583909489,0.6151401069732481,-0.05231097699743737,-0.1508550128592812,0.24688594298980626,0.9833105691255168,-0.37983348310442183,1.042437731850438,-1.0670510183144004,0.25884287010844703,-0.058612557548058115,-0.19833513517011503,0.45597638305554483,0.08387674489211906,-0.43484907189074706,-0.13501679136819586,0.9003864593493275,-0.03286337289156172,0.4082581249559472,0.9108812665298294],[0.36215064199361124,0.27173985200934814,0.2781305578587361,0.43072047822125864,-0.9067762587960453,-0.10897741541169219,-0.3939722336693287,-0.6121548530597921,0.2688081903501745,0.5604217386986191,0.29184487397032916,1.0201128059150222,0.3197290510603494,-0.025207870626361442,-0.3378230502945784,-0.5238435979329377,-0.8281149472130143,-0.40519917781228476,-0.5538240183784686,-0.1850840197282393,0.1811760366450643,-0.7418441477140398,-1.1029359388886804,0.24162211648549323,-0.3191889988282262,0.6776270351997873,-0.7352343754897493,-0.24831385159167285,-0.3711976269544405,-0.4760258239419068,-0.17947632873633174,0.8570624813654165,-0.10259300601601115,0.9403031954478149,-0.20710696975285825,-0.7136835267435236,0.22437193328316268,0.10726437760889888,0.20600676737896398,0.7553102555291674,-0.42385723059887576,-0.623124065287604,1.0932626020507983,-0.834471013893662,0.05678272352600395,-1.0121570037685288,0.06259220915815528,-0.8542354118460858,0.0340808932455554,-0.8810514784436374],[0.5306002139753079,0.534526563415214,0.6954530631857287,-0.13988418752580853,-0.14640852361014273,0.7390558126273109,0.2722623515838992,0.7994652125164986,-0.3540755318838389,-0.141575297189167,-0.3326454928415728,-0.9915394269433048,0.9973720338528878,-0.2263069180548014,0.8699744314179866,-1.0073408123748395,-0.08625471066120381,0.6708164284497214,0.9248482800044888,-0.2990237942458349,-1.012059844779682,-0.4895110149748284,0.0772299502977111,0.9859182962323567,-0.8900608086711213,0.1573153845470529,-0.24840935275892176,-0.40583200228207383,-0.46123424986983586,0.8361361147674639,-0.5872621796683353,0.5367176995433226,-0.23465844709453246,-0.3012093397453194,0.6785640158721206,-0.23494398895581142,-0.9137422898215587,-0.2960236880675732,0.6508805771006985,0.9409118362535094,0.7904717153501154,-0.5018111100723545,0.6099356805066757,-0.17132526509032464,-0.43212316002133955,-0.9493105922016479,-0.7222173478981596,-0.31505552077975657,-0.0706505566974929,0.08807294785120397],[-0.05154774058120091,-0.7849024404281637,0.40146041317582537,0.6977074284446715,0.9782207483379166,-0.7076412944218294,0.3050506878794291,0.49442328559994064,-0.6427243570141492,0.9001414467465165,0.1341114652025383,-1.0527935296092614,-0.8369503930197016,0.1820853012063965,0.21860265516068847,-0.7858057880081323,0.587906529753811,1.593856250472694,-1.0705016939398815,-0.5219872604500468,-1.6875706671431892,0.46824630529851863,1.0601475099957711,0.39520245885710276,-0.06661220834944255,-0.9384754783097037,0.33027809977595596,-0.39791835199007397,-0.8784652226612882,0.6503844302442117,-0.01793568051498662,0.8001872639446309,0.4810367316460882,0.15137788935706678,0.7264521408505118,-2.049261135081894,0.3755130376620252,0.5248567711549094,1.040305535099811,1.3471334521714158,0.25266520326844427,0.5411577709851085,-0.35122027600890887,-0.5600325073134559,0.5792898823547971,0.920345224984393,-1.5454456300767427,-1.20740322429438,0.37824674355129345,-1.1790979074648997],[0.9416102920864071,0.6548519136484764,-0.448697624271311,-0.028728560242168594,-0.7544153569245363,-0.07746362878696592,0.5779431959610162,-0.35302388145671976,-0.7040839726142589,-0.243569199243044,-0.9687081414295888,0.4910462680398261,0.04097112374539221,0.6963874835753591,0.354040199671318,0.6305359147718153,0.34578885378025587,0.3438422555087776,-0.9747149659186761,-0.1430118386203078,0.5360617032178154,-0.5202774156533259,-0.4083045306639181,-0.8110498731459741,-0.0314040488194517,-0.9428157386929092,0.48246033879045513,0.5454312150896655,-0.032812147380693275,0.6886894140976835,-0.22140373398510854,0.3765430848632752,0.20516985295541743,0.9503334746311148,0.13439346434796878,-0.05790404778218328,0.020834381703557208,0.9141030903516653,0.42240898693845313,-0.7165926627402915,0.8161874695440886,-0.9084654780842784,-0.549767214839263,0.660951203076541,0.5714981162070293,-0.2132984115224491,0.4355194425683375,-0.5812854308403165,-0.6414337559650336,0.20825961425372697],[-0.21381059169062003,0.14786801760746532,0.63565052684058,0.4265208838161136,0.6742231539337973,-0.8836469514711395,0.29408601222647296,-0.5735624368507837,0.837570283142222,-0.49517323268948205,0.06523112547929089,-0.8321752157236998,-1.0061740009556357,-0.487774924581072,-0.5608117812637257,0.10345942046270298,-0.36955064183098246,-0.6653661573013083,0.24460033604506318,-0.9618903911976499,0.46591884590322663,-0.5751891698762981,0.048818250032119696,0.34841252667101397,-0.5825758069777199,-0.844327220741009,0.017067600698027045,-0.13250578322473702,-0.11182981655881263,0.16237169488069841,-0.11526068821911024,0.6670196284588433,0.37443920553434484,-0.43439765085716053,-0.7422457879229566,-0.9997673784367679,0.6084696738679319,-0.7841519513008121,0.006872377160574087,-0.7471754965900183,-0.9129846762084736,0.3001275353345744,-0.08208484014323414,0.06929663457534713,-0.44253263818777905,-0.04360029029423104,0.021319831241012686,0.26453781232580625,-0.579249488046285,-0.5243606684654356],[-0.9442248447122406,0.7566792404478117,0.38678036036440555,-0.8678803907672062,-0.5703786000545416,0.9106840792940919,0.9668361580379496,0.197865139343998,-0.14694934566373766,0.2356023962821667,0.068927886228007,-0.06634286271089837,0.9340224690646008,-0.4335333993736249,0.25342294708653174,0.5751600993416619,0.8539636318712515,0.0773141576874998,-0.44274974806590256,-0.2994514777192935,0.0231995018009268,-0.42399392997517454,0.483537436135404,0.0415185843218109,-0.23663372191200344,0.3073983205158623,-0.5559262820913128,0.942158565325409,0.2607254742143803,0.20366024165373864,-0.8492383760346612,-0.349353033391345,-0.364510357783425,-0.10446140401836267,-0.5666931928494952,-0.38370488667758823,0.6599295150012886,0.3375436122692567,-0.44082319832666234,0.10338863340471229,0.31922711550594585,-1.0167985449454435,-0.056407920413002736,-0.846832869647478,0.8249103482855832,-0.8108262571081868,-0.6296736675317273,-0.46567080783551584,0.13831237598807855,0.6605523417604993],[0.26329672692784134,-0.8363213454150757,0.4909389872070347,1.0015039153155318,-0.26939862903917244,0.8689453867931392,0.014642549813770972,0.573768912751432,-0.6838452113276198,-1.3003130365383,0.05508725939268502,0.31346813292442,-0.9017209894191233,0.45509017816715674,0.5272516104000006,1.1438414134703558,0.26500340291505947,-0.9712403191453064,-0.30911375862568735,0.05872719717760369,1.2864905032016265,-0.20960831476842032,-1.1197942540256445,-0.48199421005978194,0.01638917155857831,0.045188008081422135,-0.2955414767722821,0.9090599938111305,1.0233045902472662,0.6062888885264084,-0.9456138223910604,-0.36944594142861076,-0.4319314662410288,0.3242054235207853,-0.7529146966186103,1.6129799283558062,0.7640862491978989,0.8227457395358798,-1.44363900399808,0.216360032853002,0.5405661236984992,0.9192751474203892,0.6705795558381275,-1.2398905962157214,-1.0039647363925563,-1.0896241301911453,0.9258200805410489,0.05541133006283609,0.26594649306557083,-0.24222061879816406],[-0.7392813752477934,0.4923347734403703,0.1290901018131827,0.34026780484303365,0.4218705646378746,0.913445117955845,0.9929203219147709,0.9687687210789123,-0.2872450237926575,0.35356634998051223,-0.03210670171820687,-0.872106490601709,0.9583489152559523,-0.7883439797425519,0.09836407718979455,0.23044147442899812,0.286377230323036,0.19576455056621297,0.6481441356097587,-0.09670885949830224,-1.225605833826149,0.36051073531392086,-0.1484311618365809,-0.7306493497206613,-0.6580668748732349,-0.6688237723007177,-0.46026193282455646,-0.7289937769897045,-0.2839026993818685,0.5610349970415671,0.5147592789890426,-0.5285611527875196,-0.17030556293174828,-0.7562837254921969,-0.20954267093048565,-0.20033284120588035,-1.1584228489846657,-1.050658155871565,0.684869502071527,1.0158665385008354,0.16824681965790872,-0.12003234166785196,-0.19812479948771428,0.8229959903412571,0.8844123817614086,-0.6758401099569353,-1.2808297595531533,-0.830798466529442,0.4372451037796822,-0.37501285083209784],[-0.582883424429814,-0.6026446402372411,0.42787871778024433,0.5270191237684859,-0.2331389151679865,-0.12705499070281093,-0.608049380279732,0.1689234249567592,0.9500748294404264,-1.0292359700664684,0.27660358897479453,0.39488618781065715,-0.5585646810925566,0.31095433001477263,-0.8395533616609807,-0.727335515328352,0.1158344614948128,-0.3178513299627811,-0.8638730856328658,0.8963386067756397,0.8868151995156417,-0.9853159991078754,-0.6314553319077012,0.5717735900998778,0.756228517167223,0.8793349434924689,-1.001974276160434,-0.1506840423264121,0.3748372208957044,-0.4886218824434831,-0.6492547182559275,-0.2862147941366208,0.7797997216571383,0.3624489770734573,0.2191483423499497,1.000274049724256,0.6058632464685055,0.2372708358069462,0.8019040381828494,-0.30440478191363374,-0.5064773344418974,0.8402914022599788,-0.08243356897245538,-0.9565422441071463,-0.9349153409320223,-0.5932547132480633,0.7778447300136176,0.21435148581584743,0.1737087605926799,-0.5286374328335082],[-0.40576960978200877,-0.7187575335585504,0.8233334963079536,-0.6664566394798138,-0.38734093334670083,0.33407443103630985,0.03907536762138102,-0.042841092901742914,-0.806575654511074,-1.2960697051394214,0.7242681525919982,1.1151816223249145,0.6139930361755145,0.27221321521674163,-0.5233280480518592,0.5716215980500068,0.9788200694097776,-1.391039688426086,-0.7127321751701907,0.6406113173900452,1.0569419810051481,0.3657358609200681,-1.1019579339330126,0.8443928923513774,0.28123259287765356,0.498335833284623,-0.27373138569362754,0.37931408977241565,-0.2284990472156074,0.9049875424623036,0.31114876709471573,0.8926380904872117,-0.3115340060832281,-0.36428882499109344,-0.3504590252615842,1.3983867338086597,0.8350040731653006,0.20696900423852702,-1.2700673477652165,0.054600919860372105,-0.9813983765276058,0.960797145275619,-0.3451060758290369,-0.5230015150474044,-1.3595305698769418,-0.3311367932191732,0.012706152989102557,-0.5161051647170419,1.0183572183245029,1.0476182733092823],[0.992910596126822,-0.3263644943585193,0.13242525956516654,0.6811257814523048,-0.17279020252076416,0.7058581220365967,-1.0226307841794904,0.3773060972521922,0.6583816997985719,-1.1807329983868222,0.6778545018447534,0.6643523658152856,-0.4050517803890571,-0.36645888767253,-0.4658019646892645,1.1261896464480778,-0.8984037562060427,-0.13959868814454995,-0.20903586159621196,0.21444500617177797,-0.5364220682542822,0.6148106429036807,-0.9970407563918008,0.4067077411190432,0.4563856004504709,0.20134420638289688,0.6125688211127182,-0.24708611619496582,0.3195276373737596,-0.0037368563472200294,0.9460147864671049,0.4594998607684794,-0.10930341782816216,-0.7289008704665608,-0.4666888033855965,1.3738592129964926,0.8684197480425409,-0.6841653304027734,-0.9204957868062299,-0.9807477911461824,-0.5025136908805444,0.6242537831522408,-0.3972875065362715,0.049054130316451214,-0.5201905811462114,-0.7161826142083368,0.4867635587015657,1.1009525396412718,-0.30760002104260453,0.4558107192435046],[-0.8661963881301197,-0.8603142023666329,0.6162316771981978,-0.5699269460272659,-0.8539329003414612,-0.2839228437329662,-0.23338844521415775,0.6395478855845049,1.1277456287640686,-1.1744774113766068,-0.8673136691810708,-0.4962143634738974,0.9474554022485729,0.8182255063952922,-0.32810403696895013,0.333768347207287,-0.5895613377029807,-1.3270742249591763,-0.7159946072038833,0.6302683044154763,0.7502886232108091,-0.21281612708141448,0.3680182161547463,-0.5056596093995732,-0.07787009265499406,0.39982055750377105,-0.7465437218335566,0.2894179943247683,0.4579152851097182,-0.4552219562347685,0.7242688291862626,-0.6029520358917789,0.15854842293939456,0.6375976590724961,-0.6838714231428383,1.358515037876538,0.05449832362863126,0.7345454128014369,0.04263773696249961,0.41387084708769095,-1.0045117209106125,-0.5640281345258612,-0.28027494243613954,-1.0522703633583637,0.23846083148808705,-0.19687428040432753,0.7763724493291485,-0.3797760917554022,0.9284831353925518,0.5015929972239239],[0.10336298372770474,0.20241463789541908,-0.4298471338056865,0.9165352073885693,0.27703802683833384,0.3431420402886379,-0.6318300373143272,0.8122436601576677,0.20730206409796512,-0.8331517595861786,-0.3385749501542082,-0.34755366177708213,0.20018220254203398,-0.7960007118526734,0.4398519401901089,-0.30083209853696863,-0.0229125956616036,-0.6426794417908339,0.4521353577723985,0.6117524897819341,0.15970388253763362,-0.6646049276513044,-0.7848945725080634,-0.15253066443651353,0.29498339693462416,-0.6323537659302096,0.9316688569118315,-0.03645869150578371,0.8616481125860579,0.40456045378314087,-0.9370846206308521,-0.3342544230105114,0.4798439788914992,-0.5598933719501916,-0.7847511817790337,-0.09702705404600429,0.8735601190579908,-0.8500338121694625,0.9557081937094993,-0.12958757793955097,-0.7297280500051995,-0.33553408507701166,-0.4682149506299179,0.7124450340534881,0.06777310122373945,0.29153402755252056,0.6343350968953181,-0.2869738389640284,-0.147831311020875,-0.1868427121991741],[0.8034258373931003,-0.6048634435463581,-0.8083659369883106,0.25303525573797786,-0.7255277463307845,-0.7693157084639615,0.6566786811165906,0.11849004374330001,-0.631621565492781,0.9591718360199376,0.9973217120915465,0.7454287021443124,-0.9407454512189733,-0.9797695783799076,-0.2828921709922213,0.10426872432933716,-0.7272688729814759,0.7680773654865699,-0.8375601470520019,0.08929304046777603,0.7443744981170118,-0.7595439998510025,0.3009714229290289,-0.1386800925111725,-0.775711953454802,-0.26997997352160674,0.5896692945315346,-0.22041115485814655,-0.04711332646176764,-0.33076957370713644,0.042833459204466566,1.0081037547733063,-0.7517769873467165,-0.9617614899562632,-0.6722541704738615,-0.08954510728351103,0.5849351859205202,0.4744242259295842,-0.35210980638311123,-0.14364932724781887,-0.8560650356199919,-0.5003084998152799,0.6638304361406813,0.2589478688241497,-0.21676709515098727,0.2339459397117612,0.17485554834470443,0.4029971911039166,-0.06716514001192392,0.9694901643575063],[-0.051500975542418545,0.6669405883521092,-0.5939736168502385,0.48452350953360407,0.34580081485874276,-0.7704751520447688,0.8900248028553239,-0.047975276450245144,-0.816957613526815,-0.2683446795422026,-0.39796086063615693,-0.8376237543007549,-0.21197886783070666,-0.6285859983570367,-0.0949091694553188,-0.24093640499151367,0.09057032333920428,0.004287195803499148,-0.16142583619670822,-0.9438524224713765,-0.8902228227129256,0.20553765712502195,0.8728455143829543,0.8179648187995248,-0.6167803574783951,0.6654471380494638,-0.3116561563301446,-0.34573254156333566,-0.05320188678531923,0.7808921681719744,0.9172961994943908,0.08680645305483416,0.0748395067965297,0.9697075604534631,-0.8111987871745777,-0.9043652747470257,-0.818570247242903,-0.39167113221135835,0.4884782563750739,1.1634551946581428,-0.5503618580356849,0.60112655545598,-0.3164690481084059,0.3148335871790976,-0.14569545696227032,-0.4498162491887776,0.36262746638158605,-0.27398878837704993,-0.2925110181571769,0.7327385709333282],[-0.4040091872722235,1.0294175119793376,0.08822576599237816,-0.24633555000388446,-0.24811854522602506,0.33020923729434637,0.46079499425953374,0.21704706330200077,0.36065111625853374,0.4409727260074551,0.23208900598908222,0.17548477036715543,0.8062198798829097,0.32847148911012714,0.8522821832739076,0.18443814497755195,-0.9016389440743675,0.23861235936430236,-0.7248088502499495,-0.7019908529404161,-0.3665896446972889,0.6629664349780773,0.621265603988275,1.0362609945387045,0.07229060958727898,-0.492022574254327,-0.30957572476920636,0.3373918951094989,-0.5968846649472209,-0.8302883617013704,-0.7129504184319747,-0.7575511796581039,-0.944595743605105,-0.3756363436559984,0.7465635951685378,-0.68350446317035,0.41525644035799864,-0.489963007659648,-0.44373706075843483,0.9507034213025058,0.9846182870700916,0.42264568275112596,-0.9305409604122301,-0.02135948768183154,-0.1856752489240802,0.3826767787003194,-0.7844060759732467,-1.064928646535524,0.5047125198030379,-0.19435152597842908],[-0.005478212339178446,0.1681438236347053,-0.6092487650637229,-0.17218702120640764,-0.9706200235667961,0.7148112941731825,-0.731335538108082,0.6476420360199358,0.42958418124942954,1.0399254753728,0.9174476227228165,0.6419895675131779,-0.538307977266906,0.2593432828864879,0.2791915097989738,-0.711510566883862,-0.5219574070252265,-0.2791490185044612,-0.5731165347865587,0.341485362561223,0.4364962496082961,-0.20027054091948418,-0.2253814548862361,0.023579417005139623,0.7522613278449365,-0.5221172233287724,-0.34877491224175533,-0.8252861805279162,-0.7886694098219987,0.3240376004344318,0.8141608163420039,0.10336105990883766,0.48423096851752656,-0.6433725793998343,0.43752509293680547,-0.5308991706366177,0.9378458764616242,0.29485737466149053,0.6921177146779064,0.9416478030416515,-0.8072259923419263,0.17902701233289667,-0.18467537441810153,-0.337398808776918,-0.3049304126128692,0.19289271875792227,-0.6130334811342906,-0.8249123763891791,0.7551594004843436,-0.22193341840053638],[-0.9272468756609573,0.7230355047144579,-0.4898742021574895,-0.1818169643391688,0.7250825715326411,-0.012101452067735103,-0.6780222060671793,0.7542660401887791,0.17289541486773857,1.2334972539701157,-0.6997947807645281,-0.865932677472672,0.9217947923411892,0.8247919168187413,-0.9601606082538888,-0.28013758302225245,0.3952940834625302,1.101118749914617,0.9437368236537212,-0.5397149920700821,-0.9352116756252865,-0.2084815362278466,-0.006185685301300004,0.5882157864860449,-0.9983073282778647,-1.1443761680957047,1.0226827273068737,-0.48476901991162713,-0.22204587124860609,-0.737894508098951,0.9847877335035768,-0.9582668891929882,0.39698867547271005,-0.07023180483824637,-0.9132909393147626,-0.7275696376846782,-0.062063416264684736,0.36970548232034683,0.9131827238006218,0.9461064878640979,-0.10640282702445132,-0.17005993946809825,-0.3695042097960836,-0.6665100472586976,-0.5773710770582866,0.36203653062284313,-0.27981149272582845,0.0035472444826469356,-0.734936522472541,0.02519319501648796],[-0.6015476941447003,0.3428042427033161,0.34696936817848767,0.30227316550517663,1.0128091987341996,-0.3694695106276275,-0.6245496544577029,0.35256134492744917,-0.25130808981025443,-0.7551945456090549,0.4683952635940279,-0.08243982213180308,0.610935774588446,-0.4201681178709636,1.2591015904597922,0.653141723681823,0.15428489490988828,-1.1395109424385854,-0.6093474617753799,0.9431750985028711,-0.14686135365784306,-0.6837858485230013,-0.6484701226691918,-0.6029063695195458,-0.19613723670008779,0.3886543765634842,-0.227291825606164,-0.43869069219447226,0.15415234128810645,0.7094549267788982,-0.5558985180633893,-0.7437280481352725,-0.4672550251136462,-0.8100305221367343,-0.6311227301156931,1.5767308797859114,1.0662582027734875,0.6888864615878881,0.05143084503391706,-1.0731328961224078,-0.7371707104027914,0.43289212691436374,0.7422956762123849,-1.297402959034814,-1.2625591427688685,0.5154293021155165,1.0667134313264846,1.0101732593866062,0.6539563645929832,-0.34912785161195353],[0.5365090713452031,-0.7062698337500215,0.7974397503898484,0.5602158784768538,-0.4835064541953923,0.8955866566996955,-1.0136829576047812,-0.8675023012003168,-0.6704332992513921,-0.2204176642212576,0.2293247907315874,-0.26448711775716316,0.7070250517814897,-0.7518698863556754,0.5953425947054781,-0.13272735307847142,-0.588357778253623,-0.00315794780904839,-0.28804299924728544,-0.052276300191179244,0.7055099893257528,0.9080413201791062,0.5583835868657571,0.9232593637859943,-0.9303553549697418,0.12214643257918427,-0.8466509323843863,0.3936490674685371,-0.5543016138698038,0.5691412870925182,0.3016342170507984,-0.9681212228110249,-0.6831397358727526,-0.4442496947583879,0.5888943518653581,1.1280525556660463,-0.31700324155619786,-0.38792465095595174,0.8056334047599707,-0.19782297305769644,-0.3461874281565999,0.34580069572828365,0.974066662094938,-0.6707147032113384,-0.7131753726815934,0.8133405454917892,0.8889913126515608,-0.011650606517891057,-0.08732135185655072,-0.2730835685506452],[0.6725423374706901,-0.7376992537753019,-0.47936063849894905,-0.273311041974033,-0.34957407576009414,0.73999633704664,-0.7238116307144011,0.15500923922501622,0.046900847065646366,0.36262268886518234,-0.5202853940802543,0.11809209883332829,-1.0180446506440137,-0.44792395608820285,0.9431188950708776,0.5200544052207278,0.8408361952162554,-0.5966023916009678,-0.9842002609154521,-0.03324181067742661,0.17320295430192634,0.706436580700178,0.7760958813018806,0.03301228071273678,0.3241363810793428,-0.8666489660462898,0.5999910725327622,0.27059860739819536,-0.7854030641999005,0.6914230494115053,-0.8538268570923563,-0.9971881618603181,-0.046747737112721385,-7.27838420333122E-5,-0.3508597034645298,0.647909365682577,-0.7666057046215262,-0.24273239210633105,-0.07825166383573333,-0.6964315010351668,-0.6413291253720613,-0.07623882840091145,0.041195611559396696,0.26534313156087097,0.7553967372761762,0.015139642213946406,-0.8224426404349862,-0.7534367842727804,-0.4139563277700703,-0.7645481950847367],[0.17491553893464512,-0.9055385205958266,1.0133684794387345,-0.15209829121410773,0.007639286390338399,-0.8073691404730665,-0.3175889876869887,1.0093322557790816,0.18092509325211628,0.09228968547828328,-0.7389068459471314,-0.5667684415515045,0.26603441221475743,-0.023324419862078845,0.8584307505252495,-0.2627473221858927,0.7983134087509186,-0.5217135247489115,0.4299148330977916,-0.07733760524709729,-0.7893885507846748,-0.8786693893628891,-0.29844424167704287,0.013296248021224541,0.6201032585196851,-0.23291691370184156,-0.6957540795768805,0.16221335182693328,0.8001122884663563,-0.7650727248506272,0.10763110155268397,0.2995881721503506,0.9010767151674209,1.0366648791959039,0.59170076514059,0.7744552867625477,-0.8240059050081533,-0.29760777547266554,-0.9464259480869815,-0.8838107721186759,-0.5078988369836791,0.3696888950264001,0.13362892571320809,0.9083133783082888,-0.5424588058139774,0.40230939760559126,-0.2599853665077548,-0.38297640971938735,0.7147738357356808,-0.6851846487739105],[0.02591764584533642,0.3479546519020784,0.3693321118963396,0.189657092652623,-0.7340119095760237,0.585099252968057,0.05017137115910949,0.14627525853338952,0.5305697450055842,0.7006130008848843,0.732456597830107,-1.157639575013163,-0.4382799642138061,-0.018167199119834974,-0.4721226886959985,0.23344711775701185,-1.03229025640891,1.5484448801521733,-0.39570621483837304,-0.7039956698055247,0.3312710174379127,0.9049324130855719,-0.30944162283271814,-0.006394764065974545,0.37739809007657515,-1.0690340617044962,0.41524578270285906,-0.167577226446758,-0.6645435166097392,0.6950101048581595,1.0284885413982217,0.26416063143270485,-1.0369184511531282,-0.8269135990525828,0.4805305829609545,-1.0085155185501544,0.37404102033978226,-0.18597350989582187,0.24459615849345737,1.2366221867481428,0.8283846448666576,0.09498670563968345,-0.6534690901846604,1.170084640938846,0.586043201485544,-0.05104870780911905,0.12907842479637843,-1.102884979518713,-0.2784343106430473,-0.6250077540962868],[-0.7720358588607984,-0.43553518484537507,-1.1496805252285436,-0.11358083945785159,-0.8731455625383743,-0.7419752399480442,0.8434604072471853,0.24037959546161972,0.747237406113656,-0.05298995348700569,-0.35748187407706544,-0.7991745836574253,1.0185231200893816,-0.3376058366005201,-1.0676355613072335,0.2452324162425359,-0.4869042022153137,1.5820563751716252,0.036758403789702146,0.6468066366354764,-1.2149526724318975,0.38681745881798996,1.2113295293900073,-0.48522567036572,0.4831874718097826,0.5135516552036182,-0.21776715087821746,-0.4386947996440135,-0.7336445740002621,0.1681740446361839,1.082372184984674,0.39978277016148517,0.367039547385358,-0.11615766235470329,-0.5035875192700209,0.02585250607260844,-1.1778649722824903,0.17744845708879728,-0.24744440886404112,1.1427075576323154,0.6642703705074633,0.7844481058800413,-0.9590047606568037,-0.33360410175643057,0.18811271545245067,0.3224299183892115,-0.3805841219217095,-0.7543392734652915,-0.5370721858289684,-1.089518987830445]]},{"matrix":[[-0.8798140815061638,-1.0513940867410883,-0.12758041931526845,-1.0026852393442287,-0.7014972861625747,0.3443707662789062,0.42402934670916237,1.0212672211441918,1.15000689407767,-0.5623223003228339,-0.2701890606890938,0.6101314672864749,-1.051359003269089,-0.906910376314191,1.166276157164846,0.46799632114827,-0.155683044281043,-1.0675171680585047,0.6714901763899042,0.6053085993770441,-0.8095772457318547,0.07120155747195626,0.7811976993983677,1.2180544310494117,-0.7362838229947131,0.29791174923217895,-0.09227223986012936,0.2839912994884155,-1.308759246824171,-0.2255799296060837,-0.9672771201309255,-0.5192630971487578,1.4784484260221271,-0.6500190726319018,-0.4435946965911161,0.5912417796678169,0.20500235285736496,0.6059188605188393,0.2259138213601906,0.38546943503781445,-0.5096692265552811,-0.21816886841239333,-0.05209579000146069,-1.0581521272551817,1.3407533362204747,0.08559606503626441,