{"name":"Nathan Bot","description":"Trained on Nathan's musical preferences","inputs":50,"outputs":2,"layers":[50,50],"weights":[{"matrix":[[-0.17420402278459934,-0.5290728905762279,-0.161550221917164,0.2529137649537506,-0.9475760482013237,-1.1246838323021786,0.3203735606576961,0.906484600630427,0.2537684138901442,-0.3848819578340149,0.5408612631642361,0.2779641464895033,-0.6149516222586779,0.1389766481411447,0.6215043162607183,0.7842773383976455,-0.5396882284457075,-0.43437988136829936,-0.9182422301947505,0.06034964436686146,-0.016761588051325636,-0.9511671709758936,0.2771510313025226,-0.7244538402603976,0.73786142831844,0.6076005516269871,-0.6401109696073692,-1.1104171055300114,0.6613898254244912,-0.13276487246148583,0.40191399971388764,0.31577546781797006,0.16192756658583218,-0.749902735859064,0.6267988125166609,-1.0250464685611675,-0.1334035896954228,0.7959373751157918,-0.3897519981404732,-1.0677780881203611,0.3059782816599973,0.013913338092838701,-0.386223529368794,-0.9366948224303241,-0.8199498016663093,-0.296906342891029,-0.714200380132502,0.8166058409447688,-0.062374413008993324,-0.09548413532160463],[-0.13509896356142245,-0.8942035100602469,-0.1305322354376215,-0.4329414142555768,0.4410411252962559,-0.9407008122953332,0.5620972598291113,0.187503385051988,-0.9347716956524745,0.704420100732831,0.13018371413836008,-0.3497037116282113,0.7579650816724709,-0.04085558574880238,-0.4919473893987442,-0.11862593872603847,-0.3513298526033325,0.32416323334632646,-0.2898996491656926,0.9449523376314578,-0.46068989503338564,-0.09249864854466502,-0.1797751239827328,-0.5212709336721542,-0.772364361452809,0.13077665957799123,0.8768908675780948,-0.763828149167449,-0.9358465185248683,0.1840573948611064,-0.7337710142611498,-0.8886614642098373,-0.037282999386329695,0.9174673711685791,0.4597790636879507,0.7430937607233863,0.7979545890692833,0.807492363199194,0.49313371101678016,0.9170656717090264,-0.41982897658037716,-0.9452702110225075,-0.9915572843625742,0.06853685919111377,-0.9257276443184882,-0.36478619429334586,-0.9994071382633047,-0.482987637566533,-0.6703927773381804,-1.02429232484326],[0.37789290899609346,0.6984735769147594,0.5039433954137573,0.2499904203780751,0.1427803177448837,0.243151566153476,-0.4581221289385356,-0.747862319160982,-0.05280223281084086,0.4510686282795167,0.6270685428672237,0.05757918588631884,0.12241315797460336,0.3124268325905979,1.1044735557690033,-0.45638829383185026,-0.31562422525989803,0.30567071754469716,-0.6373946351789191,0.7732033679508746,0.1062862404298173,0.1886274516500138,0.20334352986744966,0.4151325062912105,0.37950304178189603,0.8566321965437504,-0.9925366252190497,0.47419597099781796,1.0860357674335943,-0.45282167285135244,0.538329511640926,0.055979694541706405,0.2824619140238746,0.3926377595417179,-0.5034155481072995,0.3459467068974926,-0.8837712168221992,-0.5765078440006407,0.6599753684111633,0.3740372149284547,0.0701047942762898,0.7387753148019732,0.03666838289496625,-0.5041148636193499,0.14989231989279075,-0.4730856990553316,0.18083987718891897,-0.730331687237557,1.1903830345515432,-0.2809329396897429],[-0.29280366858302126,-0.7033276571250142,0.8810521649929224,-0.30436496214643965,-0.44713968467228515,-0.8206337193654025,-0.7747102389670837,-0.6550905042780373,-0.4373454239418214,-0.5343864306636082,-0.011099771276384146,-0.1438446387579454,0.6735591331526055,0.8700490680164722,0.4756439633195764,-0.12980727008685192,0.7019968720368847,0.7779357365755817,0.4153695883449178,0.15789017167252606,-0.3171044147045303,-0.060838176785801085,-0.3326365780413785,0.5366215106989459,0.8249244066091287,0.14998927651178834,-0.47317815373394073,-0.9814291323882169,0.07481320385852669,0.8679043496304474,-0.4185334493341023,-0.660053723491298,-1.0184481948111326,0.09953988194790547,0.4986788394402814,0.059373404698533076,-0.6358203854525145,0.7810097891212485,-0.6148516148804823,-0.4708463787392184,0.011874845900353174,0.7495174083403751,-0.4649935805044148,0.3934885577274063,-0.3907665971838955,-0.033455502708430285,-0.3853957021046589,-0.15099221101318355,-0.40404516362600434,-0.7031733423595066],[-2.4029343559523895,-0.5690079140665021,1.2465235133650359,2.0900399225177013,-1.5579053634125501,-1.5853761641946937,0.07542241557863893,3.4967242113991888,3.298541085433475,0.0870402537471204,-0.5314514456627244,-1.1337668481791705,0.47168267925693924,-0.05138877197287087,-2.2531116045476556,-1.5576188517103793,2.628906360665831,-1.3923849988364936,-0.5950115756204039,2.5415059760242733,0.06108127140692153,-0.7243412669399315,0.02981493073911313,-0.748668786903164,0.01516758905893302,-1.3127906270616823,-0.25377567546071883,-1.95468350595859,-0.9978222851706026,0.4749219652646107,1.4170886123178044,-1.1194432267202654,5.1455003388242675,-0.7031339305297167,-0.08122794112630709,1.2612466064459256,0.09643737625281947,-1.2853912615775716,2.941708709925006,-0.778438499461689,-1.7712827137798342,-1.3909507170556559,1.1508271923438202,2.0500186025747213,-1.960216286270219,0.9170383245544915,-0.4688303255164955,-1.1986938828941975,-1.7930390335545565,1.80743715241892],[-0.5439629637025858,-0.44720506051804504,0.25529064721381056,0.9788183402435614,0.9618228454279654,-0.6549807216019721,0.6472255719053137,-0.6154403333486714,-0.24110695821049552,-0.2553608929381576,0.37896230813915793,0.2429484030372109,0.8647304225574421,0.3311520231196405,0.2730233378658878,0.6950188530014733,0.7786289669959788,-0.7986330532512638,-0.5925221535601857,0.8625854361302736,0.63394970724808,0.7823426011805407,0.6000539817439496,-0.8936703348139802,-0.9484028250944434,0.9354082456826681,0.882476143832092,0.3324430920322319,0.8233914727140125,-0.44564315078457317,0.9313316458700659,-0.8704205229499997,0.11964348979667362,0.2433706546071279,-0.23020826458699414,-0.24726562122401244,-0.07130363147883859,-0.6702005938485742,-0.7548879691943808,0.996397490420503,-0.9515555217785243,0.9823016876490538,0.24867924125378563,-0.10031288098921087,0.655172853445847,0.318241523261386,-0.904994893970453,0.3674367834274166,0.6489777812778319,0.5537746410873241],[-3.759664905798918,-0.5151804388020628,-0.24021476411737758,4.3476079628854665,-2.7470143203160085,-1.373041059890702,-1.4267078260431,5.708667609588015,6.888826054696378,1.7668806323833341,-3.506682239446873,-1.4291761290444602,0.7495978731897518,-2.7646133400102997,-7.541889417385247,-2.1616426545101737,5.950162962901447,-0.9072452890655314,0.3875838410895023,6.522851727422849,0.32365539620340256,-1.0494163513385828,-0.5851806169787601,0.811691746162305,3.060710322544028,-0.8351243185252619,1.118221977295022,-5.204226968008568,-1.3396276008582921,-1.1747607902513904,2.0772963047199458,-1.6149294706830952,10.490429201824748,-1.41879110029801,0.26270822725479714,0.5412943675159181,-1.039462719211527,-0.5791198324317739,7.324723388596655,-3.8845826682685303,-5.622165521680401,-5.154961781867209,1.3322771429820206,3.3720957415254893,-4.469820704791982,-0.6033539083014413,-0.007145591394569188,-1.226925892643152,-2.074818406281658,4.921499864048401],[-0.899464317921702,-0.0067216485686870065,-0.10256543761235756,0.5248001832841107,-1.8299988312363367,-0.36885886556489184,-0.7909752070399594,2.2414692685989603,2.7774536153623934,-0.22754500778331335,-1.9638849949153927,0.19225500123069583,-0.7474938859877004,0.1137297197556562,-3.0566152855042987,-0.1349477150293013,1.8387266544491692,-0.4121494203593275,0.43133820982306187,2.197043566093976,-0.15516747209575027,0.0210094143105519,-0.9505083952789783,0.18775445967528018,0.8703677153404363,-0.36618246851688646,-0.04853593963329812,-2.1544470210515336,0.043185792898276065,0.4507813472007451,-0.4001462881389763,0.23507049241133054,3.703853209526022,-0.1658528181685727,0.695354526593201,1.3147278400282159,0.6195241163347818,-0.20588589130679144,1.3436631532273173,-1.3957535792449987,-0.9205554147648526,-1.536446947996629,0.008643481174471758,0.2451943058962981,-0.4502487037303812,0.6597732791408224,0.23149606728903022,-0.3879737261641086,-1.1014040295866394,0.573698483841084],[-1.0700785356265532,-0.8440356368469335,-0.48077519330960816,2.192900526226816,-1.3730821845418837,0.2891045063153131,-1.3324224461832535,2.303477871114838,2.2146595519657786,0.8920647197996411,-0.636203073761025,-0.7841402833722285,0.6210751814796485,0.1418039195755962,-2.8942305617955237,-0.3197931698196786,2.4713329420850205,-1.17744990545705,0.0744366201450309,1.302371511361916,-0.9080611902555804,0.3182432699442688,-0.33414863392662963,0.21522069697545607,0.05527487264165915,-0.5344941600068979,0.07364246856257542,-0.9475483074610428,-0.42575728039860977,-0.33082333118421514,1.224752515781629,-0.5800805292754401,3.516613961032258,-0.40771407081042865,-0.3959837761131493,-0.17517240169705148,0.7598076075139323,-0.7325657555819163,2.2085813001064007,-1.4697043893844097,-1.4785519190689833,-0.9058695326592175,0.7674449987136824,0.8108519495660862,-0.4317467858270169,-0.8279750571952202,-0.5694895057302924,0.30718824660514144,-1.43530798338588,1.8739996108688457],[-0.05652535630583005,-0.7502897744441759,0.12171315561584149,0.19702923838038372,0.34913060496177195,-0.4450830795980796,-0.6019382954248741,0.8698205834817823,-0.3200130562529506,-0.4862297908587764,0.37384549090361313,0.808168586881974,-0.7918408413204905,0.40506505138233434,0.14751956625000773,-0.8217904891238005,0.3548477255139865,-0.2696781137306301,0.9907792180606084,0.19582067158592562,-0.4183342401849022,0.07755582835701391,-0.6017930241251148,-0.7902381651217436,-0.8521195005074745,-0.1254593599219969,0.3476594416852373,0.2996592548424496,0.6454955765871868,-0.49768396447426394,-0.35692425224614427,3.9752226423354225E-4,0.5150906762948685,-0.5035641768964424,0.036401192132990534,0.28829230572778497,-0.7463666784315377,-0.5821961358674864,-0.7401274699218326,-0.4173742482065625,0.33584547064842135,-0.4571338264445552,0.9792284995282057,-1.007347764959008,0.10407105010911512,-0.1841364616139255,-0.8961170735600642,-0.567349918036099,-0.9107735655109183,0.6498909083472165],[0.8817973221429828,-0.19891991513127955,0.5715578612434299,-3.0154604741543065,2.8818596464972632,1.2198135234500052,1.3800348443775154,-4.014424679473012,-5.097453481486081,-1.3619172227379632,0.7449159758791298,1.5470350839066878,-1.6965020616924584,0.6679990465172251,4.698467767548551,1.7693202576663425,-3.2242486646698447,1.4228476819031863,-1.2289273209956473,-3.175224228939575,-0.4180977700269475,1.1885873384455228,1.2799141970628993,0.5429862720284333,-0.42706456786920344,0.4065951303891569,-2.0489992407635365,2.547761873795231,1.2114499907204845,0.03229401198879683,-1.06768215908504,-0.16812368087753965,-5.725285375914199,0.8823193070587595,-0.25488921392199565,-0.7942254090453484,-0.39494921295575447,1.577573983962969,-3.4328662641410617,0.8958328167481354,2.287175901803189,1.8377861802192277,-0.42342436146042606,-1.6000235660802216,2.3109383862089548,-0.24113140089182833,-0.7846123155659688,0.3382088789216999,1.6991026113101717,-2.8083620161368694],[0.66815678184217,-0.3919496660866366,0.23507203780818012,-0.8159642571196828,0.5414597959982487,0.6027167036769684,-0.8698190385770306,0.4753561691138072,-0.09460863441424429,-0.004312131588196794,0.3943985775511049,0.7160080213760817,0.13771961086089346,-0.9025984236599334,0.5239425079763057,0.009293722191462971,0.5036070956826373,-0.8599445477391774,0.6446285829102245,-0.7142519521514225,-0.4423210835393851,0.5428154125787837,-0.19064332614702234,-0.7792444976263191,-0.28997991174429794,0.2635630645720538,-1.0320082356610236,0.14549247379497054,-0.37525657631703735,0.17748922837890801,0.8201453993825236,-0.006861325953066168,0.8976183876767213,0.6070394031071957,-0.4325930272783036,0.16974765664721797,-0.43597205296915886,-0.41358001024120816,-1.0044734503600132,-0.9131122091035349,-0.28041111791119394,-0.26144246455296277,-0.43718904732070407,-0.9931441927588114,-0.7991972059680634,-0.7857836500135906,-0.8445348013840298,-0.8999697730355006,-0.7647988571511928,0.6265531763276343],[-0.5019279767828505,-0.48030881708031414,0.12296664620861583,-0.7724593392679496,-0.496567638629501,0.4439309232898483,-0.7453098782574227,0.3039478780947287,-0.6055170448845433,-0.7734264174141504,0.2764047744485319,-0.036540473339407346,0.4483231982811572,-0.09326771756780543,-0.5279144674700825,-0.3820786127951396,-0.4296994666605437,0.27334102129820814,0.27110558540213925,0.5399117849190154,-0.8962919468917744,-0.9245238991607381,0.420890639287981,-0.29115447991990956,-0.33621238301926804,0.1343305661604088,0.25027900085981236,-0.9403654688800996,-0.13937243087883522,0.6738934344486986,-0.9805047145677103,0.12335727873288538,0.4464530299120608,0.2777973920700683,-0.5681009394338218,0.2129755204549007,-0.3624116906977497,-0.7341490312554338,-0.45967591885756354,-0.20915828756965196,0.611924906055208,0.9369463471481089,-0.9820920987043323,0.061389310040288525,-0.501372453523925,0.2963294150856543,-0.7493005990534354,-0.7100643575126286,-0.6860259944190557,-0.010791182619819716],[1.3289475064230962,0.8467904760213889,0.16510453951635345,-1.9837838044988925,1.3248136279994285,0.7862559347950749,0.4771555268707407,-2.924512185251556,-4.682943441291127,-0.20973637224206024,1.2366657838256832,1.0143278045917028,-0.24934837699212548,0.9906161814145452,3.180331092750419,-0.40049836388039445,-2.7542403439829934,0.2817041191983984,-0.2643246669090258,-4.2486510735050995,-0.4959795982627017,1.2611202381593594,0.5833433219064817,0.6306966148376248,-1.2210421533177962,1.299577763264885,-0.3109667008075082,2.8441961929226975,0.7735983821882596,1.0860127456741542,-1.9528208286457054,0.6607392929233077,-4.356400604066522,1.4134232329468512,1.4742747970793104,-1.4160100604827413,0.13521673611210308,-0.6211326508475081,-3.898555103909653,2.3225949793314298,4.0823295786168465,2.0438654242196006,-1.0482882097884856,-2.2921182238661233,2.074906176864213,0.20563851444984588,1.6158164407059845,1.262000318053586,1.2928758278313548,-2.7902666288532214],[1.3481982743932852,-0.42071785587422894,-0.040188901076890854,-0.6449954658819829,0.1242247521123939,0.42611946119153254,0.46163670454357053,-1.718228137695611,-0.9704652099099321,-0.7871525843713666,1.1099923922329737,-0.5963563532400058,0.2897519060245387,0.910913775745666,1.799367937714712,-0.6145911514295014,-0.7876548788872167,0.21424293413441298,0.778090703278281,-0.022487587454655716,0.0937441395145183,0.369434629069536,0.5624005482530422,-0.4738079888250608,-0.1356841723249286,-0.08607897206964131,0.43949262512976334,-0.1713581978534362,-0.15087295468389078,0.16621084794925997,-1.0572393518219059,-0.17124168157082628,-0.4857343389326197,-0.2985428832154137,0.20695229837379236,-0.6032771440997026,-0.4543592494783922,-0.032741846481398724,-1.1518266003566786,0.8740629465177702,1.4464417200957833,1.6601207711913963,-0.5057505520188057,-0.540373130023777,1.2960782456538504,-0.7893614303788812,0.2597900089495471,0.5116233129170226,-0.6569190540102672,-1.4455166249391298],[-1.0175297113819284,-0.3534763505744695,-0.40030568447891457,-0.350180820595273,0.1076886919659337,-0.8930940289504927,-0.14684168924585772,0.6907062748969338,-0.7070303844055325,-0.5113651563494132,0.6791970376367085,-0.9150264059024706,0.36623398034981586,0.6585870938996803,0.4215383733025413,-0.4514552260112912,-0.9768716129191659,0.7003782636308677,-0.8908821158997762,0.6301393651929041,0.13506779429560578,-0.7590040739040546,0.847869210129235,-0.8473849668425377,-0.25663962598227114,-0.8568872221652453,0.46661699770487813,-0.9445186429599226,-0.3332458030638438,-0.8865919475847032,-1.024904705300321,0.85850450079275,-0.6115028746891742,0.6410665623482601,0.08464899605870464,-0.05567161008324125,-0.5082815417435858,0.5090631618143772,-0.8123026810766024,-0.3497189106364924,-0.6478884657196329,-0.9888446387908203,0.0459517659845108,-0.9205523655750206,0.15837062075639224,0.7472315825085655,-0.36980820127558867,-0.2508285200541969,0.4750503539334298,-0.8976066598693067],[-0.9459693052719391,-0.7039419826823701,0.6174870114577651,-0.7365049619043745,0.7468884952460689,0.3172994884237301,-0.16501999251937344,-0.2424187457652475,-0.8050254629400689,-0.4730709761010003,-0.03407012715898142,-1.0815167270069612,-0.5056085929068949,-0.8354949403840796,-0.33499286846978465,-1.1329537107284384,-0.37603816371273807,-0.5366325790364727,-0.40179223329304686,0.6263219976188937,-0.2753676563469105,0.17819181929678776,-0.30819871406809285,-1.0507741794090997,0.3925046186994013,-1.0885720991842092,-0.06332598269237226,-0.3380791374089675,0.6283403528033921,-0.8337439217174138,0.011242935439309798,-0.7955146275348856,-0.7889365024823586,0.5087559085698431,0.845692839568755,-0.7233165331193117,0.7149378154634427,-0.7676371128521768,0.21949066492592287,0.6294242386405732,0.754047460656654,-0.41171731390263644,-0.5815081072927004,0.3615234110038127,-0.7625995289691883,-1.0957413778808869,0.060177036000282805,0.6810696367892364,0.514425734583224,0.5449862967143655],[2.7837847366549524,0.8950340718248114,-0.1076932994686171,-2.2961490597449106,2.196951519856079,0.19497480280792626,1.2004857155300463,-3.570360859310206,-4.37871220951337,-0.5392230691195349,2.5827698150045295,1.0095064277740473,0.34688004939044526,0.25771324118114936,3.3260395176159414,-0.08977714608756258,-2.762744091355435,1.4586694635138335,0.23188052030762865,-2.775125808595289,0.8210561157727866,-0.4530957786423543,1.181953448603032,-0.8033223190524873,-1.9872496333394438,0.21698516060844264,-1.0525563210156021,2.5477517940263374,0.6142813786494407,-0.3320999032620702,-0.2722922577092686,1.241878290591532,-4.136259830991753,0.285076620720875,0.12873401929348066,-1.1512564108762717,0.11562733576665842,-0.16699960205783537,-4.013950048618968,2.305436465186416,2.981816830408616,1.1905766644373836,0.621901541630893,-2.1911956488692117,1.8220458099588663,-0.2841852674898363,1.2064730755534998,-0.29426087133732265,1.0941172427080361,-1.2662144011708356],[1.0802271095742828,-0.6857911846248724,-0.8790219613039854,-1.6177421263454546,0.8931474873677265,1.4687955647045134,0.7072355225417646,-3.810401560440573,-4.0341890694165246,0.033268379032894035,0.672757994123123,1.4551122547715074,-1.1397700492952485,1.7029041369696125,3.543607265634106,0.793176740393875,-2.207327970394653,0.8793458748910925,0.0797299668101575,-2.334225614898079,1.0959256364843024,1.4173200811213102,-0.08745601330497786,-0.14781119844476848,-1.507160709121868,0.41999747475348287,-0.16089664597707987,3.1255214729370295,1.028374863741406,0.24805028455498443,-1.2466972775012368,-0.32372729144449797,-5.795300842782711,0.5108017514423331,-0.2793477869710943,-1.4081866478014027,0.13492097739963552,-0.12499267369650192,-4.633296859485348,0.9423118280630656,2.6421225296795905,2.9877829714694037,0.6377151924338078,-2.1943672326172994,3.1243881784871945,0.06723548189604342,0.6607685476501535,0.3200507409092371,1.2534443226789884,-2.273424353983255],[0.8216049170510007,0.8448886188123567,0.223710416491899,0.05951530477519196,0.6334396842654276,0.9510843044302812,0.7959997049470013,-0.0683267867290931,0.23458006418101024,0.5619053386143387,0.5683578857211176,0.1994191726339844,-0.6301503986584134,0.6108340190001584,0.5581086756851279,0.6411474347789048,0.23428113723299784,-0.03503939091708832,0.4458031324827356,-0.49856871722961876,0.7153878888610321,0.19236039001775937,-0.8504783330998522,0.7045202665101353,-0.48447147169527044,-0.8568069683423155,0.5230834326511387,-0.6658849190908108,0.5955460398569978,-0.9555427108743891,0.7544294884217981,-0.8273581225686522,-1.3886914635152539,-0.926283777072814,-0.9214874954041307,-0.7704561252586921,0.010818332025379301,-0.6193840579189553,-0.8793871924724153,-0.9253409529204158,-0.40365093953151543,-0.4070005218079406,-0.26710126935502465,-0.33035465807001285,0.24625146818558372,0.3188752521401011,0.2674788497592024,-0.9070283134809362,-0.41069093779553545,0.21519299874653455],[0.5587578015739125,0.5955837176115946,-0.17166982137302048,0.6710352839084781,0.375983823094503,-0.28180452803844774,-0.7519264222000698,0.4352704484791741,1.2808716437299437,-0.6929418357110322,-1.0710039950211228,0.14192663637212863,-1.2558171229163677,0.03579204357467643,-0.5724911285236327,-0.7990403127789489,0.9246236776015224,-0.696933127829944,-0.3564589981319138,0.517387779328305,0.26305698683422707,-0.8653092011073751,0.17776677570539118,0.5532642344636367,0.16095545679139373,0.20809365068511845,0.7597096422882657,-0.06176740979853659,-0.7145032303646969,0.7079097837861912,-0.2633237843133109,0.024360299285698692,0.9756710442653699,0.6867240627442841,-1.0843581983902153,-0.09796832695447015,0.1447493403802894,0.5301790728650971,1.0789536815932939,-0.060259822351644454,0.32216189487437474,-0.199395918062554,0.21352646530963487,0.2550243291541474,-0.12916062220364916,0.25611708815643214,-0.008229821587541226,0.23740163610950887,0.6399527262889186,-0.2361164835482705],[0.902589352994653,-0.02274974951394442,0.5828633230082519,-1.2484131475350975,-0.27400319790465927,0.05437123991120852,-0.13735268151298927,-0.8177539569830878,0.17955512601340584,-1.1557296983042327,-0.6972919663958138,-0.33481301401227664,0.6583402041610346,0.6533283228610496,0.38543307147741446,0.8376479489737015,-0.04592568207738911,-0.8343649310896297,-0.8215762913785544,-0.007294410379160892,0.428886708085139,-0.5583547754349343,-0.2948273486077583,-0.17331570026340917,0.32210579089576175,0.29517639013749214,0.5547524605654558,0.36759174737047,-0.6519168664137432,-0.38107710919377247,0.6796184189806831,-0.6378832729242535,-0.9410086504765565,-0.023821860078063996,0.5103026659660259,0.21487265413517817,0.6858615305136604,0.28315251371503497,-1.4436829649872711,0.36583263054204834,0.5725340042862056,0.30628519893182,0.1084908924813097,-1.1378409983196696,-0.25943658865359226,0.6947064942975067,-0.9290377531373363,0.8365070930259628,0.9830769407103047,-1.0814677089064393],[0.4699865066506378,0.7177617325243727,-0.6936343439505216,-0.6114038705632353,-0.7473475458720559,-0.9573352420369097,-0.4676075107771957,-0.8028052121631756,-0.9878596068525107,-0.5775513152583799,0.5234218231310438,0.10740394962667978,-0.5787917585254609,-0.906293117020528,-0.08636408212891944,-0.1673514325852985,-0.30028662597282124,-0.46005970050447864,-0.5205936151653555,0.3674091931065259,0.7954947282925278,0.1180510888030202,0.380388898704312,-0.09762265020970651,0.5636659113415042,-0.30898094242804314,-1.1372672401582902,0.37694833553266527,1.2275093738096232,-0.3347304017594844,-0.8158626686943212,0.5305820898573768,-0.5128197108191558,-0.2741129394430838,0.7789159032806695,0.11700513117242557,0.17362282148592598,0.30692995866138534,-1.5507658415830419,0.17566800519635206,0.08967266087768098,0.2257256736559349,-0.7988478296297872,-0.7901265812254428,0.6653581953087433,0.08375679952354903,0.2372970820277079,-0.1942464224974854,-0.5320642399925672,-0.20360547262166506],[0.9638136053402012,1.0600034006358245,0.02866190935106136,0.3455278302779946,0.420722642205726,1.0569689871195438,-0.016101330453820086,0.2286293392502011,0.28664302587493756,-0.8209514935575885,0.5923728785826732,0.3346258440552432,1.0134701247753073,0.21793460847231977,-0.2947756001244583,-0.7512310840603098,-0.5069887358147348,0.3693739003384081,-0.7427637899306284,1.1184557270792463,1.056732806542904,-0.7918578914961356,-0.3428406316192708,0.06801455632444872,-0.5881458190559063,-0.2494725932505831,-0.5727221989151209,0.033569541205332475,0.303025588475767,0.8695243706886324,-0.4454303498341266,0.3950744847346588,0.9522202722623571,-0.7680712534870368,0.8067886672244703,1.099488256777477,0.5883239959520739,0.2696262959807573,0.45560714631982147,-0.09434161845849101,0.6723726363127928,-0.3469055063194956,-0.23493155971976362,0.18095123292489762,0.36826942949918773,-0.36530723567714213,0.0311533581406168,0.5707192721109733,0.25581960796012326,0.05377226290083072],[3.781755981371501,1.0641725345691875,0.4402260046270471,-3.3301362432333015,3.0905438307494992,1.7346859255159728,1.0826862238363508,-4.40704019685532,-5.509000913282409,-0.4831405308063802,2.617410917634283,0.3829925705126774,0.34861378969945006,0.7538036347835196,5.275817429557272,0.15286269624676418,-3.313986779768932,0.9049143235960942,0.6250134648494162,-4.9873914037601,-0.9722866468433808,-0.1638009237283398,0.7431219472357729,-0.42639468209299203,-2.512335875691494,0.24892245121783368,-0.644624625677989,3.0276016392882372,0.5924980555981312,-0.822850071820773,-1.6830188585981183,1.6797732553539062,-6.148051725770471,0.0259830535297563,0.8604110677324428,-0.27094629645907586,-0.5278240364512313,0.5329800780167625,-6.166170415800809,3.4538795974853467,5.333800962752606,3.773548302160522,-0.2257368518625639,-1.8923006982443353,1.950127908356304,0.030748877992661964,1.0963957391167038,0.23557379504903006,0.8801283417652089,-3.314971123357139],[0.1582030396803973,-1.1795609451008942,0.2878040995755361,-0.09329859398895811,0.1633405783651262,-0.5773278988906747,0.27857298218519555,-0.735413244949507,-1.8627500601801956,0.12669659473485778,-0.6541813945042542,0.3556869002270363,-0.8917747094819014,0.7281248232897315,1.0883169191710105,0.2507834978039067,-0.5506738674670039,0.005493727210931323,0.5684524339591532,-0.8876605461004594,0.3463979210930219,-0.4827775912658228,-0.06069544267893259,0.29031792549271734,-1.0048459153519251,0.4974178252845709,-0.7617767447439961,0.6113423706895046,0.9871977710694508,-0.18840881704711795,0.324655560878618,-0.883211544987926,-0.6416423839435494,0.28454834702420245,-0.17172525063531915,0.1937010637226407,-0.08626709809265036,-0.15424842245202205,-2.002954722873886,-0.410039123251625,-0.6286106387137455,0.703195147822689,-0.47814349401746,-0.33367285821485426,1.233897634174435,0.014516657732453624,-0.7373802848719336,-0.056104570931265314,0.22105504819352648,-0.3778764470852819],[-1.166005773711138,-1.0846519167743267,-0.25267028569190964,2.660523818310958,-0.5240326960750601,-0.6370639415487782,-0.8458470407082506,3.284156952768866,3.1272012924610073,0.8874400807121885,-0.9434405076440169,0.32847593213389176,0.027437027172992214,-0.33701159653066864,-3.159466660598428,-0.16572074241911153,2.6546315920935717,-0.8578075858006281,-0.48658555004551207,2.737460438159504,-0.1401487345614331,0.03688102919043024,0.04627013935095239,-0.692419131620232,1.8003282344323304,0.5102751718911206,-0.07278566830202432,-2.160147395125414,-1.5132204500579955,-0.6561905671169548,0.8262902744052809,-1.4972467917396597,4.852957638376796,-0.10671312249555413,-1.2611935801085676,0.10597752826048422,-0.13087203527931116,-0.6498647169380356,2.6898796756776466,-2.2619335894600567,-2.3746279282368072,-1.977803307569932,-0.26321151988305336,1.5247278175866872,-2.469883217074,1.0505260954846687,-0.7820309623866762,-0.7422874663020902,-0.5780728069018324,1.7269924959560077],[0.12587568972578975,0.1844797816474497,-0.06411597863334295,-0.8158796953454903,1.1251468575856256,0.36169680335741033,0.10799840247878265,-0.18141692823100825,0.2923466677214699,1.0671371568613484,0.22417886507806492,0.5010033994852436,0.8825947908558217,-0.11299940124790667,0.40463820439848347,0.6077909617111721,0.7193672058947456,0.9295901038253797,0.37770559734410825,-0.22149535878070994,0.2698150297984006,0.8286157157821872,-0.6047314014815381,0.874440054586432,-0.4791165626773314,-0.16433965119598393,0.04145956621078672,0.4766693743329087,-0.7348599953388992,0.4446989792849957,0.42772586143829394,-0.32639280644136887,-0.24360546256088625,0.3852506139807617,-0.3088342335581921,0.3022435008145755,-0.5490378566630361,-0.2911396412653595,-0.18967604435409338,-0.772417464763883,-0.3256468290469043,-0.6882378030024889,1.001471634473513,-0.5460397302783125,0.8315827295146345,-0.33240910663377515,0.2445319373985171,0.20692759229234028,0.9116619658810647,0.074734730490747],[0.8036528518538761,-0.3876084923159337,-0.598468006932257,-0.99327154484105,0.851653621293471,0.4461585947237667,0.2504598553987684,-2.4243902538015587,-1.9895519149503995,0.112041103633405,0.7893976276452744,0.7382863727134841,1.3340386252329863,1.2607857740284445,1.0160652248138569,0.2534369095239156,-1.758255235789672,1.457210304388989,-0.4034728000052356,-2.7444670301511507,0.24961906739488873,-0.0809369905101966,-0.22870911227956597,0.41277623800509106,-0.8943069190140678,-0.5027979424929967,-0.19517437806047683,1.9568329632388957,-1.0411909123688896,-0.40276736399151053,0.2873983385315852,1.1142227111690939,-2.6446765627287623,-0.12789172918023467,0.7787927989128651,-1.1537294043873378,0.2655344303534699,-0.18499127341100022,-2.53289710686955,1.4030200374094444,2.6199784298652125,1.4684671282440487,0.2507378338460523,-1.3055793989391578,0.6260348211781683,0.06027594813399718,1.2837060753304979,1.0939056070707267,0.8336409291704197,-1.7068283006127976],[-1.3804683108035933,0.16134862141099132,0.8127594532389024,0.15222468505673345,-0.19130635455132503,-0.376640302412507,0.3734843351741233,-0.0020395728973283045,1.1300178718872362,0.6074437134753197,0.4035340969489695,-0.24282686680177556,0.8001157198257849,-0.2999996438693431,-1.4111646921625385,-0.367971990406788,0.6649849006590887,0.3387723284951269,-0.5818757393281945,-0.3558799032400682,-0.23905278860844054,-0.4980753187260735,-0.8519651588608628,0.08446327811268764,0.14233942555484744,-0.19938796507685036,-0.6334058820095902,-1.3002048156902672,0.2782032600215289,0.7237931480010293,-0.5054721311147102,-0.11704847389354807,1.8099059665885613,-0.4053140078316632,-0.798727525555991,-0.011331350248642855,0.38481962223724,-1.1181249002615214,1.726458787148832,-0.5805436105011142,-0.7287773647149711,0.11547712176201515,-0.10191173441286625,1.1196008395419936,-1.3427421334745782,-0.7529635860805549,0.2807814180987839,0.3483628480984887,-1.4964982393605446,-0.17949035583253842],[2.6512055039908917,0.998912324571235,-0.7949165854600093,-1.8185291055028414,1.7952578415929064,1.2493999954498327,0.36980865263404417,-2.439099620251865,-2.718389443918375,-0.02278474884687152,2.2836561509504656,1.0588819861156276,-0.039060308942305916,1.507035059286841,3.0608907902222393,-0.37414350675724123,-2.950207474215786,1.791368200377681,-0.32085007522294534,-4.206015239653926,-0.5610543791799694,0.020838179171735846,-0.342486142340073,0.28401343081068964,-1.0681605931833036,0.890420231930758,-0.39250764372625246,2.4924819831631484,1.20962284994826,-0.21114292731944945,-1.8526364522558652,0.4493072279877092,-5.407370769959645,-0.04474529389452513,0.6917626418800374,-0.8817544127028298,-0.1341985787188526,-0.3514973460594885,-4.2708593585101875,2.2833748075063784,3.6180802849722666,2.0903303715518144,0.48966763893366927,-1.252891018214197,2.2957478148046597,0.19498335542863734,0.25324596029199153,0.31710075367800966,0.4138817723060886,-2.2998747529772827],[-0.8944497516220836,-0.3197822548088716,0.4433508273165892,1.1413430609791735,-1.8307813004967253,0.09379838071492197,-1.2365514286596733,2.848872521183462,3.008513638304908,1.0285996083865716,-0.7493141423330675,-0.12319239599642132,0.7961531710946183,-0.9545112067511318,-2.4738659767538853,-0.19000666560316085,1.4204649636850797,-0.42316246410211866,0.8446136062037828,2.6919192994820085,-0.24523772914460362,-0.5084145624104913,0.5376432312626046,-0.6944164965773033,1.0904932974009496,-0.84709393473431,1.356789794314177,-1.786648062026397,-1.7470705251329703,0.6152106075406002,1.5399172144499285,0.3205374188989379,2.7811737872432203,-1.131955561653209,-1.0026731105647302,1.1827758903987395,0.3505908463899671,-0.9364703037621689,2.6182713479836623,-0.9420766295269556,-2.7139453952430044,-0.8051421290259758,-0.3268043431527453,0.8369335715161546,-2.18365104995771,0.7188823076392429,-1.1486501020914723,-0.7053206814080715,-1.8412835151383724,1.5846541971272436],[-3.1906914610916735,-1.1609671100888967,1.3187900981602168,2.6971358066156155,-3.479906151432538,-1.554337346928242,-1.3434130802256767,4.560433979708384,5.2380850374567975,1.1884239800029932,-2.786111677037962,-0.4387272337482993,0.5130117844542608,-0.9673652059511147,-5.096682251739367,-1.0833714645258115,3.8161313586944225,-0.4838191295872404,-0.7256405850087679,5.148870427296048,0.5214162362797186,-0.5841860122334787,0.20973389348729918,-0.06185845999458034,2.4700418587783894,-0.8774118636696326,0.39458370918112606,-3.2451834273758653,-1.847006438833896,-0.8055329016790914,2.5606578318659836,-0.1891449651853275,7.502268652515407,0.008570384561523465,-0.8445060243608841,0.8290968529298782,0.3340638390269766,0.12262180542950507,5.8798064903276295,-3.3977466831759564,-5.338117824795488,-3.49596531601294,-0.2615861541739169,2.1790292772085,-2.884574194150572,0.5093210738395106,-0.22938693589554698,-0.7754072467848772,-2.3875584664691014,2.5275533026509134],[0.24510395824421027,-0.8767261532106174,-0.2881423778596486,-0.6682150711022153,-0.24499246037971267,-0.23903196788982592,0.04481501654004785,0.07034664996345448,0.46166512542775523,-0.9645503185431438,-0.7423610879970538,-0.6229844574786889,-0.18095809279652764,0.9231373798954339,0.8454191177536609,0.07856562874319943,-0.43086526010502546,-0.4085629336512774,-0.8977180587264388,-0.2608287019118219,-0.7233355526338107,0.8265947849502172,0.5122670086467332,-0.8781696880958998,-0.22694338872082181,-0.6743940034634786,0.9362198346823489,0.4852598222673633,-0.7338038017224892,-0.8884844912035779,0.1307983099317976,-0.42719898878410995,-0.2814236233691681,0.5528568331151691,-0.17815128169083858,0.5750052846921573,-0.6031746485040793,0.0923282072228838,-0.7960276723408528,0.6145521137627138,-0.1570652510160772,-0.8679348640208089,0.5293935644560388,-0.30408806090575,-0.49042257423843016,-0.3494003734152509,0.8440043114969092,-0.05061509611802831,-0.73860887985893,0.46282388123461393],[2.5909285822527157,1.147424701312225,-1.0830032655286053,-4.636171352900816,4.087267107448411,2.408684456940166,1.335221465484021,-6.232308363986661,-6.17043437695832,-1.3761337614699427,2.2098486257259244,1.098228616199199,-1.8997960185284808,2.863622806145269,6.331523845750885,0.8541097188968049,-4.388581750196444,2.33164259145203,-1.176813753306917,-6.308206414252484,0.3779250179512736,0.2517254705391644,0.9379967034018096,-1.3355528609925036,-1.4714524566580331,0.4965638218827514,-1.8657010199064372,3.0985859290438693,2.95671930263097,0.9688658117652268,-1.7422075211116437,0.7776962092526931,-8.39621712854077,1.4415402912642798,-0.6029243402550268,-2.3170878293464554,1.4308511355837097,1.9572355888300212,-7.387834990423271,2.6377556946872365,5.639210801195621,4.494039268021519,0.14997099036076755,-2.502098788692437,5.240977945620379,0.13287851357413866,-0.36653202190255985,1.643363843197372,1.95336141429431,-5.024440928369119],[0.25156361379829834,0.1654729824406842,-0.9605084647312363,0.8278978008895944,0.15257822181021216,-0.6965943262042609,-0.03633717230959639,0.8448745019797966,-0.9668075239496208,0.1424617278903009,0.39947618432214066,-0.504140801673404,-0.5473981337594187,0.774528538658954,0.16360255243729188,-0.844581641275377,0.695636952734142,-0.6539942429092344,-0.841260784751171,-1.0106140323701283,0.2742739702359054,0.5515945668061376,0.6431222383539862,0.39364363673759994,-0.5407400609640144,0.09636206717666612,-0.9133599756835836,-0.03813706834860465,-0.3037167745931927,-0.8591915821231426,-0.7502729026355968,0.8272694268056117,-0.7374294686364515,-1.0087822833044953,0.06646903013289988,-1.0787034309910053,0.7330395238508948,-0.25439943856626707,-0.3893315513240419,-0.3622543374752335,-0.5256757023679609,-0.746935206866645,-0.5053547185244553,0.5731237569680719,0.2961007136584538,-1.0628148192405475,0.7819012534742548,-0.5352964238891005,0.16324957516276883,-0.8829797520578352],[2.202287627733797,0.5090931052684933,-0.11187887888610552,-2.5717413294537033,1.1758832775637744,-0.05026420230321873,1.1594584719227055,-3.2803796471966185,-4.641834929966028,-1.4315624868683492,0.9159992260790747,1.483535435131545,-1.183688585965413,1.0406617274660273,2.9355713270726946,0.9223676542095781,-3.572332769691579,0.04679686848860795,-0.3872868373488699,-2.116181455674542,0.9965284875006063,1.4734102532240134,-0.17979272607344965,0.19562335254250676,-0.3373373000858628,0.5316997787340281,0.17723740380248146,3.2897267030092143,1.8684587421312353,0.8056776984957434,-0.4262989083142087,1.1502204328933332,-4.947726573821493,-0.21678313941256147,0.997965591894921,-1.207789412092027,-0.07332449769055863,0.5425943166835803,-3.9689406379729806,1.889106483319334,3.853591428051289,2.0394566784244352,0.5495911658942616,-1.5886323996322953,1.7303514606431267,-0.8331779179764093,0.3072156501274265,0.22025031326775943,0.9287091251924545,-3.0958740171593755],[0.1503444146710363,-0.10915370572543595,0.7328565979402462,-0.2676941214759045,0.6813894117096444,-0.6425539824908348,0.9272060946730857,-0.8084692854861242,-0.6575689786146229,1.0028168786743747,-0.4702510857995036,0.7224515108959889,1.005406521502917,0.5191690815841518,-0.7152111922945767,0.18276650539003458,-0.7972544581152597,0.6951819663777542,0.33603113198038403,0.4147453192242547,-0.6363231149035253,-0.5420102821567925,0.3710702524945321,-0.20830735243782184,-0.7433480247972986,0.429978269943724,0.8075378682222479,-0.3619209584029877,0.8646784082163644,0.9764614542108057,0.7187155586287179,-0.6486097565225603,0.580810927886589,0.7536214525159161,-0.3751125103951879,-0.5107615471865748,0.7918624692142409,-0.9272715004881064,0.6781724918771123,0.42625806566763363,-0.5003348525434911,0.7190964053446709,-0.010188145749474605,0.9950950702701158,0.14349131306960297,0.4746009155422098,0.8266601925415596,0.7375507231645707,0.14319465171371235,0.6230756846325499],[0.6234185097532997,-0.06787432347613039,-0.30175455850738075,0.6497917979584243,0.5137350823845797,-0.14662958287210168,-0.7057440973161074,0.4695886724437625,-0.8118259902457767,0.8538174285098733,0.8031103822092008,-0.010632186577397779,-0.39504926839752663,-0.2454538594082557,-0.7891634367588486,0.6359567787659511,0.24147034124458794,-0.28666206625081864,0.7616233782252287,-0.03606271375396156,0.4689798031583736,0.766015556558604,-0.7599924187353584,0.3886994893954733,0.9188294842456797,0.9749291011798986,0.34975295965435427,0.0565099973030014,0.48817781650649184,0.7465663785364053,0.7054660597327889,0.8876611655855066,0.268413407507654,0.43683879786283525,0.7781292218436513,0.7286890766945612,0.5259051434761652,0.1610719532503344,0.46496438266244344,-0.750514718768889,0.4210442654303106,0.4695207392664231,0.7320204481284625,-0.2407513040908979,-0.62205868952969,-0.6924623033811887,0.3708449835120908,-0.06758527993913706,-0.1076863910008019,0.727531766711748],[1.9553321690497312,0.8957408283960574,-1.5992499276821606,-4.228355033149125,3.448680193639382,1.6684238710707693,2.2634975419725936,-5.103633019003282,-6.873075193107016,-1.2398061046118594,2.682792427026068,0.04918594610271475,-0.6807725646988138,1.3097528308184074,5.396564290681506,2.023373112384535,-5.2383309896418835,0.30178230978288084,-0.19603145008426012,-3.7176333769430894,-0.2057856155705322,0.8647033543939835,1.6590355268446983,-0.711595991283557,-1.1929577612609705,-0.06027545524930703,-0.6032695093259143,3.7228566891891264,2.5143920166125606,1.054218372359523,-0.8767545206478463,0.3444428024165475,-8.07132111518612,1.6328061260983833,0.18054557590337622,-1.3840345514887737,-0.019636893009939243,1.2979735370393888,-5.60093021461112,1.4087392278209154,3.5421709587464663,4.182439816092138,-0.43226320471398294,-2.146614238280379,4.269420281037687,-1.161049238857661,-0.6835988178244718,0.3150206627751475,2.7391197489556576,-4.142244452154046],[-4.997749259022218,-0.027275986592659104,1.6144417681936627,5.112992094756263,-3.26050590127892,-1.729180002587861,-1.9587276995555118,8.025158689470022,8.682859001404617,1.6115849573238104,-2.767512684405142,-1.0104781589756637,1.2630547860003771,-3.4992791762720494,-7.045173018523344,-1.7537740817428977,6.14054158988253,-1.5218580855053683,0.38706740811193746,6.853917739977221,-0.5040207368952548,-0.6664698119782522,-2.117546102797314,1.4233761494439008,1.5700262554146358,-0.39749878832088514,0.8857713719354492,-5.432135072606664,-2.9966294390741517,-1.037620873739647,2.4383454476965003,-2.223744357078188,11.484535617228326,-0.45493613333440586,0.20533488360395755,1.1490232717384818,-1.518715017388823,-1.682292911531666,7.914323182382688,-3.4243088004110946,-5.932275231404677,-4.295234213426815,1.0923321994583106,3.8516418643452925,-5.521518271182758,-0.11551440159355618,0.0990712614881434,-1.898730429498562,-2.5509540466141507,3.903490099318257],[0.3402976758436373,0.16798792137373877,0.10342353696484818,0.3768127438569992,-0.37987145962025215,0.11992305641599561,-0.857504861524355,0.4280160502508449,-0.2578493028162302,-0.25374954854248916,0.8512040619811306,0.2226829170576037,0.14498669767578698,-0.5348004526948621,0.7526235185136162,0.8163121701301573,0.5363012494072816,0.05264717035449841,0.6496741186958531,0.7575579197707851,0.31993804647110774,0.47783857437227306,0.5892213523439661,0.8106037416081364,-0.20906123349179925,0.809674163722547,0.0915739808892811,-0.6872822545167758,-0.83675119119382,-0.6514905938307591,-0.719012856662979,0.42576814933597096,0.01796471876040125,-0.32461645963948776,-0.8090296486287276,0.6941088893039863,-0.3662135105971981,0.49207676872746203,-0.07630033209653007,-0.900178168135688,0.7769024671231405,-0.8482679297184275,-0.12236732580118567,-0.7447913175189015,-0.13943946449792868,-0.31956704177704787,0.8061306503113441,-0.4427470133549741,0.20305947877261366,0.4539109860048807],[2.483116327072388,-0.37850519961021334,-0.14540939862641875,-1.4386109101275906,0.8503885334760496,1.0954334151056377,1.0034778950791086,-2.9361053918305826,-2.3131745377787545,-0.017288253496197285,1.1241477236243567,-0.5810641878455244,-0.5955682852582074,0.20223621593452884,3.154467327250948,1.2114130681806377,-2.3008444846002036,1.397611670038945,-0.7855927102495869,-2.9392564714858995,0.9635822244911867,-0.2502536933834619,0.8156206261145152,0.47369790698675146,-1.2031783437301324,0.9473897487076627,-0.7609049143452642,1.0040756013579908,-0.16002455176187588,-0.2955948898214443,-0.4950169348195453,0.17776043797384394,-3.0441060184979083,0.8121011451272127,0.4141449995822468,-0.2207638204402855,0.6873141507832832,-0.23705022847557058,-3.223397744081053,2.1090771187391577,2.610181187791164,2.0122617856219427,-0.3143931048406272,-0.2802678441424025,0.8591904639406666,-0.7468424968217586,0.8080561783956636,-0.02096795197805598,0.813968036486206,-1.7987572639061378],[0.693639040421135,0.6785910696137444,-0.8676549077422079,-0.8996717194730031,-0.33535090143028984,-0.506282035630295,-0.05462384317682013,0.35140785791263,0.5636781123683215,-0.5871357301326421,0.6342585489050729,-0.7217013336615449,0.17643348265493553,-0.497594548473964,-1.266026319466352,0.28739263843325613,0.35897414337068223,-0.9502147220437913,0.5332722526980237,0.49442841630022993,-0.12143527542076966,-0.17272414797950814,-0.701329409326285,0.031029395278561415,-0.20980878142818812,-0.280964895445744,-0.31586866762976196,-0.8367877868610576,0.6545436885631335,-0.17257338355395235,-0.7487464251963587,-0.6420523203210614,-0.3374132793485825,0.12379073526615979,-0.10728848707669271,0.6123980979477791,-0.4026290469447224,-0.07029086243158807,-1.173520108125669,-0.3988036015702643,0.46257573613027597,0.33903643081907064,-0.18195229859794773,-0.7069641498754875,0.0011866147187218612,-1.1188084334678459,-0.8311778203769624,-0.7127063147554981,0.1891424961826498,-0.19709001038704374],[0.11691291341470647,0.3428133713001236,0.7714100130941574,-1.208287756244044,-0.5152971381390359,0.5091278233273645,-0.7531737702824558,-0.6886769930980112,-0.6328372812041486,0.7893670599564909,0.20333357768191937,0.6318525466929629,1.005351319666267,0.7282642959272704,1.4249936817595077,-0.17143105428308927,-0.2039278616828746,0.9288246374863782,0.6814504521422974,-1.2490753512950394,0.5022437581184921,0.3001601974875439,0.3015023041318499,-0.8582390925633402,-1.1671351724421954,-0.7382754740420971,0.6867949328598915,-0.12296404452768632,-0.4358946232994099,0.7137674465741677,-1.075362736656803,0.3693248344010885,-0.4420627871505082,-0.7384098884777768,-0.7375956792215597,-1.1760547905368877,-0.7759050484305177,0.2506269308612595,-0.8955179126426955,0.8365327211790141,1.4936408994885255,0.45828136031868083,0.5138524562364489,-1.2513846339169772,1.0450672923512676,-0.07459589620661491,-0.4575040638083966,0.7979052009849774,-0.07645141754005653,0.038962281270220694],[0.4115791306975326,-0.17777376471607734,-0.04601634812838373,-0.345291064202781,0.3264177811049714,-0.24727954686930279,-0.28453385967632333,-0.2874751761974727,-2.1994420260846455,0.5438552509406108,0.520985713943359,0.23493295304089445,-0.2533637603334317,1.2149748021364788,1.97389478808032,-0.2133227483947979,-0.35476225799773925,1.045845318722223,-0.8722850760330036,-1.9323137758311384,0.5812522162385187,0.5714692868606972,0.1214789742207616,-0.2206342726674926,0.33726193545571453,-0.5468135646050328,-0.5582646889451588,-0.10710438363686489,0.6885972603124264,0.22953376342558882,0.24481068579864682,0.853132464243571,-1.9773152625337043,0.9129262090002725,-0.03249871161810555,-0.22001574118302727,0.8345041374185509,-0.8182555759893406,-2.1706866667532214,1.472164898294955,1.2147457163148219,-0.12501957897670338,0.244710873089456,-0.247505751298655,0.43963063540140884,-0.7298429609434353,0.14111448882893565,0.7666208378000413,0.7525448660565487,-0.847535563126524],[0.8044118590569789,0.6468555596227146,0.7794610755456371,0.2165427827237144,0.3356716114197033,-0.7487342291735991,-0.3723037254083173,0.3707769434743573,-0.03157686510963707,-0.38547589025616225,0.3080283435675748,-0.48330148408158297,0.7433333366257778,0.600857410245131,-0.7017765672265104,-0.5474989270658149,0.1126413105084855,0.08510226823282735,-0.16221850207897134,0.9155493000732704,1.0534118486482904,-0.03622462202179202,-0.25597129632450455,-0.3553129466533056,0.5639800551704054,0.9071239255403291,-0.3929163375906257,0.4625658762752129,1.0885919972680105,0.6715813267527986,0.42477249475514633,0.1549979597159789,0.1850836452442692,-0.06710248699461019,1.1287374469048819,0.6637872047542938,-0.8793923951949276,0.8193811699457149,0.09260971912209913,1.041577790781489,-0.7523191375285844,-0.590964268402359,-0.13369505905082638,0.3509276191732906,-0.21647952462892825,-0.17164562127476296,0.6694904727002082,0.6072715166735455,0.4346400309273868,0.8641075303544448],[-3.9151457472608873,-1.511151109101272,1.0476607389129318,3.681317946514467,-3.600998408521655,-2.491196306377795,-1.5603657675182694,7.788488054101574,7.539077090845389,0.45577819152222865,-3.3453885338087828,-0.824218048011,1.0226575976435712,-1.762468095224321,-6.914253310450689,-1.5507941948822372,6.208362994385662,-2.7511988809061183,1.03423524888984,6.479907121346991,-0.17387908868487562,-1.3947032868717728,-0.9747121320309072,0.7985181860960268,1.9185738477659162,-0.2766209942221974,1.930709696346112,-4.101923587182511,-3.434067905553066,0.08422739052949173,3.0822742702948407,-1.5955974653327634,11.111779160484621,-0.17612120765194522,0.5498835310544606,1.4286221399401686,-0.8896540653768542,-1.552586544147537,9.21848533103158,-2.8772913505916735,-6.841778641257681,-5.386906794121764,0.274222959653222,2.443830363309,-4.365530522065992,0.5546645229824043,-0.34251267760038795,-1.811991276515931,-3.643538216187018,4.776340267121155],[-0.8567513736086847,-1.0919137565108163,-0.11731248562006458,1.2597840898669308,-1.191255504150748,-0.45738552368047536,-0.9297841637609358,0.2892114781234502,0.8447808583084386,0.8090996192943654,-0.02503703010304802,-0.3340353844395023,0.2598143899762474,-0.788064918959144,-0.6301787409132434,0.24446326553236866,0.2704060094557195,0.7909396610703711,-0.30560587807010786,0.7423556994569016,0.07328259893662332,-0.1083073245239639,0.19555563349863314,0.3102441883877721,-0.5843576949509072,-0.4982704504736187,-0.0668548572978104,-0.38478885957769854,-0.08016661306788675,-0.5414026891727426,-0.34232518110656907,0.046091140643229875,0.8027947671255777,-0.18467453644270887,0.8418436615512541,0.45696166047817005,0.24306014643773316,-5.757368492059064E-4,0.13232457299503542,-0.2611271795676864,-0.9508815713181267,-1.3401600143821533,0.31955074442405695,1.102963303484631,-0.45573351881486757,0.3918648437950897,0.5204733400994747,0.24270562786185365,0.4003836148793618,0.9691568643577565],[-0.5643092560221291,-0.7554521407548258,-0.43511291995970824,-0.15100230701836942,-0.8378661761549449,-0.5916155486261946,0.8044805779329829,-0.8824453331076999,-0.3459814944244139,-0.4617757873912938,-0.5763754173828841,0.23226224749434177,0.5291466451265293,0.43470230436084495,0.34162599100536073,0.7654652052554872,0.6103760563365634,-0.7021745416336378,0.6485693059953418,-0.2580970427428945,-0.5655760745938658,0.04995770339266723,-0.10901813734770821,-0.29739216148979164,-0.5658094431079884,-0.18540330294564242,0.608702440082721,-0.8896309932856703,-0.21145024154353093,0.46592280804329567,-0.1004731969068723,0.15348406759820463,0.3904225456854064,-0.4999906225760857,0.8306352248080539,-0.7283017950281394,-0.6148339029240047,-0.9864920978963301,-0.2688205000527293,0.7225344887405054,0.29440698455326675,-0.737726337203715,-0.37694422640731856,0.507471497117179,-0.6304309768516985,-0.18026691006896967,-0.8825832322096246,-0.8996369012786324,-0.6476111875732053,-0.6578931103157211]]},{"matrix":[[0.5951491500728706,-0.32763699500251714,0.6369228355377804,-0.6338494830888024,-0.8911846628966423,0.7456772990630139,-0.9997707630233359,-0.3224468713512793,0.7609190605883892,0.16499048905763264,0.21005471492399966,-0.06839536332137941,0.951108293402572,-0.38950241104596933,0.713697643896559,-0.4115491409941553,0.4982544822804524,0.9034658417736032,0.7815450419990164,-0.23250801924953635,0.8239184972720759,0.056608985804812224,0.01827335078186531,0.5926029060883963,-0.028449610210742177,-0.7848271308761502,-0.8310176069911137,0.8451326279539423,-0.3440849174405977,0.7884860340831451,-0.3562913188363283,0.7180735137696284,-0.8157331249199818,-0.5694154828135125,0.24654867953768128,0.11514605489758531,-0.46889095167266814,0.930726434497254,0.3006403991057199,-0.9279482578345337,-0.31030590884284515,0.9324374159643526,0.8132702359929795,0.2394643907409083,0.4205412635593479,0.15365544709457046,0.21153681501898478,0.37282348710504526,-0.48111322529176204,0.1441274249626575],[-0.8021912404666496,0.3421753042369788,-0.14006481050619124,0.06649346902644054,0.874974382303551,0.9805674832346408,0.4195861548543018,-0.0939704621887886,-0.1437940011363564,0.18290872878373743,0.19898831005288023,-0.5868524869451295,-0.3982516501971693,0.7475483545063396,-0.13982660445995754,0.9720697386617987,-0.06355859991919152,-0.6854922382866596,-0.43329766987006113,0.0828187169666127,0.1487587409650255,0.08484076464327389,0.7122130246350176,0.6589922615623905,-0.02763690895770305,0.2898366033056886,-0.49685702798024256,0.28264044804294086,0.4346172001463398,-0.3160317944184175,-0.6247207242090288,-0.38477664977024484,-0.756868272672419,-0.13223467447024856,-0.2722082099382022,-0.44930139540789005,0.7342477175511969,-0.5216020421604908,1.053029234379784,0.5125590890621898,-1.083120957777091,0.3630474868026043,-0.4464566220396409,0.2511753563989175,1.0151179009012228,0.3352620605615026,0.3047537494664688,-0.9716340118740602,0.8631961771844593,0.48707680795206915],[-0.6931472349589887,3.70622066073314E-4,0.7771074914336258,0.005858442269769702,-0.7612012895962411,-0.21488061596355879,-0.8723245676268622,-0.2509993666732564,0.8863861881105821,-0.4860934225944559,-0.10170120690256916,-0.4107873664539171,-0.4683566987419642,-0.2209621651212406,0.13956130959584145,0.6042317765086213,0.32955494100108673,0.9631318889980793,0.3798778580001248,-0.5368901255702431,0.020693975284890535,0.1837465652884486,-0.8239680994239809,-0.9801439358285637,0.3106302610627038,0.6671593467946951,-0.8690666002216588,0.4124666576079004,-0.3977805511195337,0.9511565181529822,0.8800837423031106,0.45772642377964823,0.773089071249894,0.4947340817682432,-0.9842250062072692,0.7752909844540083,0.41607892779496625,-0.8343223887321366,-0.504547007122274,0.1979205941847774,0.8433231228022989,-0.048182905987874,0.5602578927700649,0.15012617598299602,0.42474433181846366,0.2654818605555911,0.056885338267695575,-0.7050737527261017,-0.6600267042889317,-0.18772391263375784],[0.23788819131782019,-0.021568498943573138,0.06493599455799823,-0.06095703464386872,0.13452990151135727,0.7189519075264564,0.5476595626384049,-0.2529146548288695,1.0078136752852194,-0.33298995797673503,-0.9126335066463962,0.7318524916590395,-0.9697217058265741,-0.7785097129092572,-0.3236841229951035,-0.9691343718297687,0.34203409969059967,-1.1202896454871125,-0.7715508824046002,-0.48088009255825626,1.0440525505417984,0.5388644671347635,-0.4786299147717346,0.9625529638225329,-1.3827207305578568,-0.31357535295513167,-0.6176793620291513,-0.05763279388887034,-0.1544887833274099,-0.597709502018345,-0.5300242050695968,-0.5941253513682994,0.39155283125465,-0.2460475726439558,0.49434182180069924,-0.825272316155312,-0.7641500377554165,0.12267923935199847,0.10373077656473109,-0.45239759074467695,1.1181955700795791,0.23216758555314637,-1.0341106904467228,0.4381953532984441,-0.45026403332816306,-0.6245654386665502,0.16321252339927123,0.13542948777519317,-0.693105279557372,0.8691093635111431],[0.3083244226193112,-0.9792863739687598,0.12267431295920614,-0.863901204884685,0.10545835088849681,0.5053263315171005,-0.4201632209017875,-0.6365202025385336,-0.3468396651882309,0.39151466938881646,-0.34912198646529696,0.2676276580958777,0.8458743531963203,0.8143690691228419,-0.8479865932519656,0.3708517468730354,-0.10437035521867123,0.3036550170076708,0.6898632990481274,0.7880518146157675,0.6689643571813693,-0.3318451123082006,-0.3906607923392023,-0.4288024953898891,1.0728784303176624,0.21585946546080775,0.9814298048460326,-0.8150210218725163,0.15581369469755044,-0.3917115236564411,0.8828359946199443,0.8051614666929916,-0.6151973598438459,-0.7523731635285007,-0.6359332716540319,-0.9831633086219601,-0.4455591340671393,0.13939533516582217,-0.44936331760727627,0.7273979405499519,-0.11490620031454098,-0.11323972731911054,0.29023097990667635,-0.6060641924408979,0.5399437976030568,-0.22603540933111382,-0.7582496576874361,0.05779246270806953,0.683356104619719,0.24154003115657594],[-0.3447409267705264,0.5167119994749474,0.827963811774073,-0.4555118805027518,-0.8195262452793317,-0.38150504887690606,-0.27260159724582966,-0.9707776757858662,-0.1470597108245986,0.6008367803579626,-0.808749738147585,-0.318498394087843,-0.34022777484587774,-0.7436836222514902,0.7824017135528665,-0.9723431886673793,0.49544883793616534,0.5144678890597983,-0.4092697794685092,-0.7284899164504656,0.2644034397938248,-0.7765799101946552,0.3159590002989425,-0.5691210866139564,-0.4967210315259423,0.7626917884436539,0.205063016229619,-0.8785094449193254,0.46575206063019525,0.5964750120825818,-0.6724170806191705,-0.5598456193353192,-0.23141918091537902,0.026302959137454365,0.15699137802197605,0.5479559490388162,0.7756278593020398,1.0166454981433126,0.9875154768977208,1.0266348138643333,0.4130689507221455,-0.6391503239892204,0.9489106831506746,-0.2704683931714905,0.6804253048763661,-0.71652038937308,-0.6441732214621791,-0.9077102595331654,0.7479230496742881,-0.8659817338648259],[-0.34053441718658134,0.8532084146820674,0.6986956123064362,0.5790616994736489,5.327624219695529E-4,-0.4270649728354667,1.3811589296501325,1.275620657707071,1.2818803181426401,-0.34342110766556394,-1.4164058999578226,0.8812763186262943,-0.5856205668954747,-0.35757833239616316,0.0029239276719212354,-0.35993119943107954,-0.35585751796555765,-1.3762316215319619,-0.3359675025450729,-0.6845752897510282,-0.35066575312539383,0.31399329310252594,-0.42427219471952443,-0.2594547479591698,-1.558971028666927,-0.5435912674482838,0.977121080358072,0.6706117436755201,0.30168447710777524,-0.197420241269509,-1.378798800704675,0.3538195669434523,0.3440016744753262,0.32071785010705317,-0.8294961178704828,-0.2569043658712247,-0.7004532545446738,0.057254912537351994,-0.6511300689074115,-1.2600384086743424,1.6290874830753304,-0.6713577035793087,-0.784311452837251,0.6853664963144281,0.9166138618758923,-0.31898206813822433,0.3805086868586464,2.0370337483461793,-0.7138771659695143,-0.9313736575495589],[0.7219850515716354,0.18724036076222483,0.8237020138107015,0.9481756071586753,1.1556675858750745,-0.0751361556102632,0.9543065665954578,-0.6387301128802901,0.1774753569987497,-0.8301700047635531,-0.5693017524282712,-0.6528585254492743,0.16708792510981088,0.07926452252083323,-0.9942067015886877,0.4937180471020435,-0.5970991743654928,-0.763281938882455,-0.2705089771111162,0.7466079091934872,0.43238708446495117,-0.4036410788329737,-0.8687689889956136,-0.3199407506970067,-0.10734726380737376,-0.9665283754912561,-0.3601210896438135,-0.5301920524792236,-0.6244585066075311,0.6460987960931494,-0.011977619530708132,0.41283102738418703,1.0905925407983348,0.8989010537466355,-1.3430722009850147,0.9177776211158843,-0.801851077825924,-0.8734544560038753,0.08170871350578307,-0.0037833936248360994,0.9421111231994148,0.2555729938924138,0.4673962575706047,-0.11672406815452784,0.7356973377855024,0.13044123111159214,-0.7646702727386463,0.4546114293392341,0.9522825025018955,0.7280876190940087],[0.564431141193644,-0.7513314081769866,-0.6787728763130241,-0.568783091427364,1.2142220377922657,0.6169679926717377,1.5950706895077063,1.1416139458911754,0.8426011858916117,-0.17079521760210845,-1.3406695765294983,0.8873787721420251,-0.8143414590590621,-1.0856609171541447,0.6296453360798406,0.2002338190647987,0.6654594452718604,-0.6316981244339808,-0.2496975481937265,0.5539462576247148,-0.15458641539383314,0.2634507199424831,0.7199194730399099,-0.9304042059002147,-1.5128323696101202,0.5601134483240497,1.0982813789179935,-0.8133703378540794,-0.9410932026825749,0.537228291227302,-0.9469392746655277,1.0823932866357258,1.418572326629041,0.1049673028362861,-0.8616272408564526,0.48538051146263134,-0.2149785545780299,0.5969920346115623,0.04342633553345422,-1.6719639268863704,1.6947525871520492,0.201998711593062,0.15245320840967572,0.5628850772492145,-0.9769245839891302,-0.5698683818886733,-0.7897827436628438,1.9455954383075917,-0.306080219897155,-0.46722347160556577],[0.858790747978147,0.482818018460228,-0.10223354478125507,0.42149620658829706,0.9231362573847396,-0.6595200032455683,0.7292189130853975,-0.07531230909686808,-0.48559543230536883,-0.15910438126114113,0.17532329045720488,0.480501265326059,-0.11409267683661357,-0.1563828001006796,0.3135943317514177,-0.4347959203902853,-0.6375674035171077,0.6424321488989015,0.5867919857636897,0.9461117296178416,0.7469509394712851,-0.1793355958247696,-0.26335103787294295,0.19256982449880178,-0.22665414054895489,0.3447094869090024,-0.950285269426249,0.45914189580150366,0.06873125656851516,1.0059095887464384,-0.22499152886946552,-0.191018187250994,-0.1955318231233826,-0.574526263379316,0.7046665996200561,-0.49879251602641544,-0.23108898087251556,0.09701615816599907,0.5659065329953327,0.06775658427892028,-0.8946102813921294,0.5284034335292941,0.15253507098610414,-0.4254492118817693,-0.06883234997355443,0.40820858105266383,0.6671172403407746,0.1414339583260149,-0.7129265393935615,0.2637780162670704],[-0.277425827678034,-0.6306583103352231,0.46285927142474675,0.5849326002709837,0.6029426809186443,0.8648190895382267,-0.542691065398214,0.7413601189395913,0.08549295452301858,0.04620075027225907,-0.8309029926361773,0.8508448529967679,0.05475411376335129,-0.014553273451816623,-0.13451740230542986,0.43770309327859164,0.28809672057267344,0.8087314333586195,0.4189830338428087,-0.5774947749407017,-0.6610795879067544,0.5415692023231162,-0.4577756989766826,0.42656083953476653,0.18194491877779526,-0.9386512828651375,-0.18513822018822354,0.9157950144820532,-0.8573174444419359,-0.28765180475022395,0.03702937610870504,0.8969325722028766,-0.8657391306326595,0.30917621863722744,0.6235636807157626,-0.030700596661729636,-0.441034559297503,0.026705123029599653,0.32512367078869625,0.720778713992198,0.9032801844119888,0.6345920419026796,-0.6014099192982185,-0.4587232884339539,0.9378746544397297,0.3953705304620053,-0.2776125714525807,0.09571025498600899,0.7747060634926587,-0.6556075218610216],[0.2771909762972104,-0.9002665178548268,0.6097356026984941,-0.46677299948872325,-0.7129612012784137,-0.2649191121278486,-0.032513116590993145,-1.0145453581524704,0.20201305365359032,0.03384788361029122,0.8134080202041332,-0.08185963325362615,-0.3525509807404299,-0.9622039613554986,-0.24748266541238575,0.7740519108152579,0.9491391679441813,0.36761851045853805,-1.1055734979994114,0.5162030433677037,-0.577226171685625,0.25910328267746136,-0.9844511461203551,-0.7282988060614718,-0.08921188491945162,-0.9844981612111174,0.4702692012660747,0.05446227723333963,-0.09480925315502652,0.6239263325966592,0.6072312669801686,0.7822010190407369,-0.6378207002567001,0.31594120505812956,-0.06771265126647318,0.1731412292046728,-0.2632329145380385,-0.31086846975178256,0.5032851179537255,0.6133154860938289,0.0657818634502183,-0.5630863309097791,0.6678197853557136,-0.12614125712150295,0.6867300442173914,-1.013866412410097,-0.17701803664106944,-0.6769524168125022,-0.5263867514833229,0.480935564264516],[-0.10016530003725267,0.40361230807373955,0.02376126064751697,0.6599200335677381,-0.4498035718475734,-0.8464406064323424,0.7404602256403204,-0.06616239093096557,0.8868693683046235,0.23614928552124417,0.6290095031970012,0.7271197168560409,-0.6317693712805612,0.7376583810701083,-0.07767025268636678,-0.2358544918436649,0.043516395011868804,-0.7776857705115335,0.3732757744110109,-0.8425919386893364,0.520964979188383,-0.16879005680810533,0.7250652223366869,-0.41431053531903844,-0.5218438728468793,-0.8933784928074849,0.16110225516588625,-0.9481984224661356,-0.12149111653823842,-0.3597438532691341,-0.9561920065423493,0.641859141002401,0.17463741563233895,-0.422850180214101,-0.9199833594896804,-0.9536045021008981,0.7929504193485628,0.059812702743762956,-0.27987093724103634,-0.4362933770202245,0.4455925209379607,-0.3836694271808252,0.27583104289909743,0.11650886400634994,-0.9363608859697311,-0.4213028062027961,-0.931827648683546,0.28057909409701826,-0.026845540088009177,-0.07774668471965361],[0.00336428304658946,-0.985317038902601,0.3938306228047931,-0.07245367393616421,0.5655574682694556,0.18286438333175956,-1.2307795003814763,0.9158009637821247,-0.24887414561117796,0.852145129039672,0.7506665109407987,-0.15873942400220087,-0.6199701576975062,1.0375249829572786,-0.006474097030012857,-0.5952337180343696,0.8629377142545298,0.390579896659817,0.746828579629986,-0.8261341629438709,1.086743315377459,-0.46730310182466567,-0.570371730434064,-0.14290255221148576,0.6137759971951343,-0.2625280289597691,0.7876631662757055,-0.3989711567893964,0.23741586929657735,0.013191482216758251,-0.6426563809166199,0.2984625196287752,-0.702647773715343,-0.38179122424377115,0.601512567780589,-0.9220925981271377,0.7288000207805776,-0.7148140658651856,-0.07331084308864969,0.3465316820013782,-0.6016240609387662,-0.13717358089343754,-0.5067788606127552,-0.6272513011233634,-0.6355653543954349,-0.634612716739792,0.8357473142977504,-1.2206459388167252,0.45972494417946586,0.46166110933252685],[0.7944593305997274,-0.5036053082985933,-0.5998537987071602,0.8448862457108519,-0.6755032095665254,-0.34679818824123193,1.018724301788826,0.9015116701711475,0.1332229690999402,0.2205743036471949,-0.9678046018227532,-0.10787672586680822,0.05571190704990878,0.33823996972305276,-0.23650877279830584,-0.6798110286396623,0.46253283459814337,0.2969180966509706,-0.9998318279987517,0.11646546647377645,0.39037439202676316,-1.0248365328611915,0.3049020870885296,0.3364789084750801,-0.22495781610588908,-0.5007126301925012,-0.33567843805494296,0.6794191331831368,-0.05778360311183813,0.9464762713193244,0.42783118750103516,0.15753484902282308,0.8574277682625912,0.3871896599574802,-1.0193950481385143,0.4663337557717907,-0.8615855895926543,-0.24356432674293627,0.6220943078122254,-0.9497946500681881,0.9254024156309243,-1.0485792178269888,0.8126085284211313,0.12117354273186426,-0.2600055454262324,0.21409523155793203,-0.372812941953887,0.5763066496046786,-0.9587633745853543,-0.25107464417894143],[-0.5436968237206911,0.8304305707038107,0.8289751621487339,-0.7937042740299939,0.3868073755368179,0.39314372000493525,-0.5672769298673284,-0.9414548923938106,0.4101238701846052,0.9163818681893195,0.031792269516122025,0.8663201849101199,-0.26129606517994486,0.7086332405587821,0.5776136152428462,-0.329967929215259,-0.24582912865285123,-0.72003725284541,0.9808455506383773,-0.4008672224016327,0.04380155023645842,0.5484510458702738,0.15036383429955866,-0.4586614122220414,-0.3723433636453489,0.3063193012838016,-0.08773547868430862,-0.6268983964459202,0.8934674420303578,-0.9281915250088818,1.0451325844056183,0.03988901697687377,-1.0576689685272938,0.5998286517394309,0.7705069732956447,-0.5696403569563169,-0.07361346829571781,0.8879111010658499,0.6389063878330437,-0.11268606696137844,-0.8692492131014057,0.8024504194464878,-0.30644744705148425,0.0883756863468027,0.8331578357663993,-0.7341738332488433,-0.862900473788287,0.5453293161092946,0.6509524633388435,0.8045260069103479],[-0.6718259428904134,-0.12026636799193387,0.7439220964341402,0.6655734175058757,0.3091414541094348,0.23909335094020293,0.2556371843123175,-0.9512633882329172,0.35744065077245496,0.07661101829606023,-0.1303912663021696,0.5060018993801433,-0.6336070213760461,-0.5803803194142281,-0.31053656015248104,-0.6549528624003038,0.702297494853975,0.3233606860335248,0.37813055256208666,0.620262664588155,-0.5931119819417424,0.8394241450548242,0.21356619455230272,0.7287427400554349,-0.7588705718934262,0.3617697487912318,0.6919004505472831,-0.07810926067346977,-0.30883837535645314,-0.06359623048127744,-0.4585913975855195,-0.13834538636513793,0.6581872620528315,0.6715564560061784,0.8057988884311946,-0.1043007372209949,-0.3161286357047216,-0.9645955256135584,-0.665934495002668,-0.6993803222478542,0.7148247317376657,-0.03018355185314672,-0.3131948947339346,-0.42704513094456276,-0.4366093754927113,0.22345389358145631,0.5945944337200286,-0.11984939626064103,-0.930812566074787,0.7017488618369595],[0.4033737717904463,0.45592852933594236,-0.15149908078888139,0.023402592325676517,0.7900682402561744,0.09319934789035357,0.8972099387415787,0.021001972375511734,0.41659610695250165,-0.6661966058196136,-0.7250846686272688,0.8662271261693105,-0.22999370078660275,-0.7189668731428636,0.6638966182790008,-0.19446002533071055,-0.7974443031322145,-1.1071489761449351,-0.8333453138173988,0.2624225680272735,-0.007057024076731688,0.536777408715848,-0.8354951704125488,0.816076816727189,-0.5983031259484121,0.9098542446120106,0.19132200223092072,-0.2969774901289382,-0.9038024494517839,-0.39497898409118426,-0.373323821535786,-0.24362747339805693,0.3158538545532593,-0.3445542676693154,-1.2748033644437617,0.593086691319582,-0.32458983888849813,0.9316044818989923,-0.11180333364647455,-0.407808967036359,0.45046376142915484,-0.4528243032662029,0.6920722605581542,0.3148603322467627,0.4880731804721523,-0.21156357265993594,-0.6455646431775044,0.3753107437235556,-0.4987641526787544,-0.790142471075232],[-0.10195369830891399,-0.012144375003936806,-0.31784334056115304,-0.8517415498775863,1.6221626016407444,0.6663095299594521,1.6693096103078253,1.162895924772137,-0.021678438664841156,0.010321599205648605,-1.619657222733848,-0.6621108319331612,-0.3368487364716266,-0.2766574145104951,0.3306816446533552,-0.12983334166199115,0.41344956417498874,-1.393111690582972,-0.929340641529666,-0.07312013925659208,-0.37814882755037227,0.4831651396058877,0.13276447807502303,-0.41279793009153676,-0.939724280385619,-0.4036383137012034,0.6458024819104085,-1.061514750945203,-1.0362129466290133,-0.14987054466369243,-1.2607378868905517,0.7760315173814348,1.5389226941495708,0.7211908950249116,-1.9825644061423375,0.5480531505564298,-0.9354198417713895,0.8954397488410806,-0.24879810612487432,-0.7703644917457669,2.1379500858919727,0.3761863034193275,-0.8982813721111789,0.7970409845584431,-1.0320853412387507,-0.11099675463959002,-0.3221781128691093,1.9052122615094798,1.0160030045131954,0.9510230720600199],[-0.3691313182673198,-0.5103980786862241,-0.5986481189865446,-0.9649766965965888,0.6668303798341768,0.23869747540772743,-0.16064342797954462,0.13142620718720127,-0.595990065182843,-0.9046383791204247,-0.14589571239885632,0.7432139398902139,-0.7512010898797388,0.26278504804276803,-0.9354720796754197,-0.2328369639684811,-0.3923278028185699,-0.8299403707363521,-0.5110754295545498,-0.4429485370227563,0.4066033700180223,0.08012177174301885,-0.8616480086059622,0.2975139043729549,-0.3253993820410907,0.34362058583558236,0.81224002343254,-0.22316565686125311,-0.7907746881884571,-0.7819720316189346,0.0858413564412912,0.8823879110948685,0.39544895810918496,0.9912444286228518,0.24356382672092003,0.8482404489229399,0.3676982703307509,-1.0100909292342741,-0.22357564666953755,-0.9941378234828074,-0.28134117461114855,-0.7704622810374873,-0.4257339514763461,0.9611587033075008,-0.7407376904123695,0.656367207186565,-0.10986786529510784,-0.008170345344897913,0.38464547209876443,0.07072533706016539],[0.9882149822415881,-0.1901792252299381,0.41677697085028326,-0.13120049648144513,0.5709748982434656,-0.3479657522128525,-0.3130833135168359,0.9052180358231586,0.524758114334646,-0.43772928808225287,0.20786908883770475,0.5896933059754784,-0.7796457794875632,0.5007605598569458,-1.0088293786130649,-0.13261125523579084,-0.673225196111142,-0.05207607150420697,-0.319073557972021,0.3425469563449073,0.6386853954616378,-0.430349913382566,-0.9727641933742545,-0.7461224370569116,-0.24242459139956732,0.35180556008137887,0.8042606516895473,0.3008635849731873,-1.0318576818719576,0.037577256170912385,0.4622455679939324,0.8521521793336977,0.5358811302692441,-0.13193991420242607,-0.11430406385131066,-0.44139283016553527,-1.194292717090223,-0.11956734314608815,-0.966780239319899,-1.257989564492232,1.08635694861215,-0.8423570615029322,0.44814580492248857,-0.44031883049530257,-0.9793942992765581,-0.22272138447538148,0.30525380645068084,0.5413618950903941,0.30017080738143737,0.2733227193374372],[0.4567908964922426,0.02034646149564967,0.7558670814238281,1.0073516346728155,-1.0490840576083342,-0.23767584770322392,0.04929281023422474,0.6730083941817726,-0.4707754704617269,-0.9460053591560541,-0.03825804707014115,-0.22887486985562314,-0.8109238284935371,0.8888161949403458,0.4461512843975622,-0.09649922222733177,0.38614169135967014,0.8303574735286164,0.848794728779544,0.7803699767977986,-0.9924641679217586,0.21575756390358652,-0.34034749743142045,-0.9922482948613256,0.6927327434857125,-0.872908411973387,0.36655117486876393,-0.13871682884525188,0.5372721114934577,-0.0011407889497037599,0.5990109313800909,-0.2789101647978167,0.554038376010396,0.16264778681033182,0.04925208857195261,0.5792731413100438,0.985269282204726,-0.032958862368661745,-0.38243329853406455,1.1455578260659511,0.13433367811016914,0.6559076079318058,-0.8699184798149372,-0.7521544724178291,0.9198337990671996,0.7437397430661369,0.6427963044415114,0.5354613931990676,-0.45722137175381017,0.5545302814968001],[0.44064058978447357,0.11278295950973989,0.19052023086930234,0.17873571053091575,0.21797292759098089,-0.9018578002957734,1.5995460274621371,-0.6851572996413174,-0.17757895366882023,-0.29633508827841937,-0.5444684669219242,-0.4837552606702623,0.520083648646996,-1.2513269351425178,-0.6675770920192509,0.6030375514203625,0.5909661331786621,0.5137827339590888,-0.1538466540709817,-0.36319919676469553,0.736492508349824,-0.13263992778859415,0.33435110592055395,1.1001854833037321,-1.5882727983842408,-0.16005467008115556,1.2332672734192678,-0.7701290100889793,-0.5075999337814818,0.577913281174285,0.5265540753963363,-0.09315866425484863,-0.31610955659966916,0.35195467587326296,-0.5350649207723955,-0.32132416976371075,-1.073502271306772,0.3401248394662986,0.6297991852520416,-0.6461808912902083,1.337301443257105,0.5101509980522826,-1.0075064063334846,0.9329483909401339,0.03620942577620123,-0.9514146335113877,-0.7162712744188854,1.715708299411595,0.6892892436253136,-0.5378335067904265],[0.7640895638219113,-0.17206120649944773,-0.5851912489055725,-0.2898671265121733,-0.7975984261635171,-0.2969189443545097,0.021145473354667085,-0.3793283632188441,-0.854587573556165,0.48755028294926633,-0.23109815852861504,-0.8681919157518684,0.8258170943430574,-0.5611058656108383,-0.17702356305098435,-0.8377218051744555,-0.475239484216805,-1.193895064249128,0.11112023498200453,0.2005335804029224,-0.07761471394549145,-0.8530883094438786,-0.7375102569223406,-0.4370238708368735,-1.1907043621893134,-0.13159109126203983,-0.5097691688000693,0.7164600095322929,-0.8843481489611272,0.6237195947913661,-0.30744245693401984,0.342834371721067,0.6128309296379667,-0.5772272067738325,-0.7538473991418677,-0.8372363498036156,0.587244332839747,0.7356080030478515,-0.4268612654602685,-0.7854375443533325,0.9910388104146473,0.6595848602541681,0.40250670719989945,0.577675991736652,0.9505401582915379,0.2533313887449946,0.3623254709968291,0.8405997546651884,-0.6995282288589328,0.9572500478139685],[-0.5732185907486234,0.2184671417894575,0.5982659380417745,0.6466305156175945,-0.8418448788282382,-0.6052189866013378,-1.5205763258164757,0.10636767752029065,0.01975344830774642,-0.8819146883914667,0.4833612298070394,0.46990675966820583,0.19070979462957624,1.1646520632873805,0.9855783982708766,-0.6360109612735185,-0.8482753731776422,-0.11210018782241078,1.1201617298063709,-0.07406240927440243,-0.01639399925010608,0.27243847934354315,-0.8158445472064005,0.4858914025991637,0.7878714588897971,-0.6926687652570512,-1.0484471605641248,0.5873353086601064,0.1531770747232998,0.33198261701878423,-0.154754956782935,-0.9293293304184104,-0.3230726048522514,0.15962301462448988,1.8581677614485774,0.5128872861933748,1.09839479250234,-0.5385404499973135,-0.5362883924250537,1.707196807321623,-1.4212247140593914,-0.6831388377412615,1.121618765175101,-0.4015707307400156,-0.3926429798121736,0.23797836794544208,-0.3065436054484273,-1.3416088681147338,0.8344232149022639,0.8947616028604104],[-0.49231356453602415,-0.5746198064151585,-0.6353677546951664,0.6257937922670357,0.151835768178592,-0.17212627354757304,0.20610725930343585,-0.10572834642808288,-0.5568693240841254,0.3550330138734676,-0.6654022328995437,-0.6796319197262803,0.2953933574750278,0.18833227297041427,-0.770876505465487,0.7904372252923111,0.5066408283407998,-1.1342519223649465,0.4634613681942421,0.2801306186869845,-0.07177004824609674,-0.9991487384879733,-0.9034085891315653,0.12359523658345159,0.012441386468083657,-0.3532135395805383,0.33281393727834047,-0.35467359268380894,0.4931727577794619,0.9599900946936312,-0.6467605730492313,0.36346698231764657,0.3645227218536704,-0.624285352960256,-1.210719669525314,0.3043868495650949,-0.4050084626131574,0.19624183235334522,-0.230666928187823,-1.090631885507579,1.2247061892243494,0.5780551284910689,0.3590813166577961,0.6751541957203966,0.8893076879133932,0.06844354703097778,-0.5004379981676387,-0.17489967206532223,0.6434663763830689,-0.9284935646606226],[-0.2455276379664729,-0.9853976183688555,-0.24044415334419403,-0.47218069431305487,0.5849185566610487,0.37791943469294237,0.9916156819938949,1.0841115350165529,0.8657146784879637,-0.27280226280254344,0.43187508494411686,0.4381000741673765,0.4073243273591403,-0.5223470269351371,-0.02848249323619476,0.8849178001629362,0.3275517525702928,0.38758204179841144,0.6466379893307393,-0.08587281120672419,1.07590011427407,-0.5006342153862194,-0.9516373598306501,-0.10108666135490257,-0.5140235298510059,0.164730563421377,0.40416225444515497,-0.8992287654043076,0.40949582934532514,-0.536759308152123,-0.6106150475926538,0.1685621898581256,0.6697968318592205,-0.1701493246486239,-0.7282227597815921,0.8290309687500087,-0.006651720115539876,0.19859802336613475,-0.5175533628151157,-0.5829536036403207,1.0652778458347651,-0.6250659994518551,-0.9988416783595102,0.6046271623849647,-0.7896593280794934,-0.5594146406180817,-0.7313452307843099,0.973707915829989,0.42274950078732565,0.3033435340889697],[-0.3767861091443611,0.010133700554965056,-0.1447720150708666,-0.8096107213097955,0.6372118798362194,-0.1062941149851485,-0.18233135475673154,-0.5598001092645452,-0.3512724803922682,0.7929923803276345,-0.6366435643528192,0.6652190083175776,-0.8053508466411117,0.20890482300157975,-0.18603104236681722,0.8082505196489292,0.4656516287685086,-0.29846509547058026,0.5236685375000697,-0.051480511774466074,0.4304591921702455,-0.10942167748081043,-0.556864282861884,-0.1089207047764022,-0.027134338744610964,-0.2082882934668464,0.5420154683981777,-0.16966150867671248,0.17656808566706542,-0.07656499464141726,-0.4538072633288771,-0.4882679498399923,-0.8210182724844794,-0.2965640350804424,0.6099553025973055,0.314521560365152,0.8654237117459083,-0.806592848827537,0.5277568943456586,0.5317853536577554,-0.2149413030226087,-1.0251726845457365,-1.0252750737262413,0.2955725272896787,-0.7913775518387176,0.06438675186772733,0.7236683827188988,-0.863020856878354,-0.6297378493326576,0.7738649392284404],[0.015425017371328701,0.7810916583827895,-0.1370196082404299,-0.10933711748092746,0.827070326874402,0.18796163289171375,-0.03991668511653859,0.43236213015636377,0.5160825413010162,0.6485726470994799,-0.037452593727235965,0.8059754788872234,0.33617991020811316,0.6080075704003772,-0.7313829881709176,-0.35296608209246694,-0.3581694269252844,-0.9184928121562572,-0.45894655573100807,0.9521065157874614,0.8194440696942306,0.3081174190736547,0.08065923073162228,-0.11071001445312044,0.9414161571622481,-0.06519121896468673,0.025397277728021667,0.9547576807876078,0.7411754389156594,-0.6987908452839678,-0.6844824321068931,0.43837007351620166,-0.9152916160904403,0.1147777417299059,1.001985773128932,-0.06147407883435608,0.012329775786610476,0.3316047372691994,-0.30063286627860514,-0.01849018669246965,-0.40962813343877297,0.1906937335900915,-0.2654430315051402,0.4040236917832943,-0.3461563424843897,0.9881053724991953,0.48655116595252945,0.7029151823356629,0.9906946126695747,0.27722261351793936],[0.5115192557400292,-0.36955917881237854,-0.2025473622465377,-0.44547931549853026,0.16359279661427814,-0.7412852164925985,-0.839303449096577,-0.7336256895875201,0.5592841699990999,0.8635488214489158,-0.05540062074994748,0.8764007887658358,0.260245002332227,1.1822875679207216,0.2103199705042842,-0.589517149284364,-0.9213164890523523,-0.6756602315739703,0.7527624049517418,0.32279192601178724,0.7777510069360442,0.2706733628110603,0.8350729755879682,-0.1491241586684975,0.13617748418193582,0.6998604941473433,-0.8340287725698096,0.6837198705898192,0.5090480085548165,-0.17279676157292517,0.8643772285865798,0.5485843937845619,-1.4134975936439458,0.8052923723440402,0.9538858508139741,-0.8529786266459374,-0.6506737976018724,0.6674751476530528,-0.1839154362076099,-0.13669652015680658,-1.5094247851184497,-0.6692688340542389,1.1968736413878645,-0.09651365550422064,0.2938771625327204,-0.073953310116627,0.8832349906378202,-1.4682697071214164,-0.12543980631066112,0.10657057097048599],[0.10869062250186076,-0.38274322217688145,0.6446252952481496,0.39713968285636064,-0.3192442260120911,0.6349831602521063,-0.21500695160226418,-1.0607898712521386,0.77252252783427,-0.7363810388479367,0.5801473134294933,-0.0015426732471894293,-0.00986679714895899,0.6265809319782323,0.2765760017165823,0.2995587523287042,0.5472775814634124,0.012999277689208241,0.5185321835515625,-0.38186752328811385,-0.9154047676716749,-0.2554103793626773,0.021293655538916573,-0.06659789759703916,-1.0456519042462955,-0.15446920075921536,-0.5668077664165911,0.5998334955869683,-0.21008039470686424,0.8285159423135321,-0.778273292995795,-0.09035363994373286,-0.6292984037786146,-0.6750549680292706,-0.35827007320100585,0.04411976613327795,0.7996496341222281,-0.19804416323423163,-0.8082612654035735,0.23620222945111266,0.38196663355195754,0.6643747119881341,-0.9567836525160637,0.7798864990825476,-0.29467012834400635,-0.06130900205941209,-0.7632530630955131,0.5760759881967569,0.4393121088940576,0.12340851704565041],[0.2885930749471224,-0.17605132588827194,0.43347657432469716,-0.939575364132699,0.274901654873952,-0.3833494086824677,0.7833142330230604,0.05891775481829856,0.18427947429005634,-0.40048952094729684,0.2993842191673334,-0.5289897874708283,0.4714322506528897,-0.15694393819603075,0.7525504647437713,-0.4349204342440234,-0.9147899432511005,-0.6560426297501231,-0.4620837950570913,0.6868149764281608,0.7780538578330349,-0.29915746307054486,0.09689471638501627,0.6418043836639685,-0.7340697689793533,-0.30276613703136285,0.5369933970177703,0.8976580994611519,-0.976811813656133,-0.5966450212928027,0.3545395397127451,-0.9923853112077363,-0.1826822018441773,-0.8855293566795129,0.6447816195187446,0.18202467093986383,-0.5839647887727337,0.1526443977959242,0.9002186106529465,-0.961606657511333,-0.8140722864773395,0.7629658083461981,0.8310900545872939,0.2566489095806628,0.908539039255312,0.3062533193469319,0.34119665272192,0.7297558009915689,-0.254215554481253,-0.28354979028742117],[-0.9391473144915885,0.3492014358129518,0.4900590586739543,-0.2723052635617791,0.6512405478907958,-0.18494670826360354,0.8281310442596906,-0.26525247964251203,0.6013626330533121,-0.938141496949078,0.5525183625183177,0.9717787672851053,-0.20204169868007027,0.19203398283322437,0.6031948330969714,0.6017870044096111,-0.9666088500870277,0.7966862565877184,-0.5322021322013889,-0.8415893022903893,0.09028254597442813,0.33357338990705376,0.9563256218353497,0.38612619385468055,0.7635380354427811,0.20621154135440428,-0.8455093185760756,0.6217153276932367,-0.09723834738731188,-0.494432312517586,0.5605478172226166,0.6906972890085773,-0.8461365209137762,0.7097022967185411,-0.5210544520953011,-0.48508720711254405,-0.3666078874483317,0.12621075513873553,0.9027114861787621,-0.7098585662195547,0.7408871341894121,-0.7398438341795208,-0.9105021667129989,-0.3126927870914012,0.43062106319421267,-0.5966790339973791,0.22019419382923186,-0.24603535102421584,-0.5746042612910975,0.3655522066419786],[0.24324002926609703,0.3788360221824178,-0.543848539218115,-0.6163077313255324,0.1472748511479622,-0.9074262601092729,-0.30818592496183894,0.0886341979195375,-0.10836430166032844,0.9514143910039021,-0.17626012850085074,-0.5680150446095876,-0.9294603143584896,-0.7176892200573298,0.34238486851645755,-0.8021672850727467,-0.5697417199234248,-0.6944981291961981,-1.043690849161288,-0.3322086161343961,-0.09985405378064975,-0.5181123226956195,0.519050574148656,-0.2749059193693289,0.5727881561648483,0.2876994403083337,0.974871982078323,0.6044662186475424,0.7413275773526412,-0.3066784440162475,-0.8428371648284717,0.6599537505236788,0.13473064528707687,-0.7519304383422367,-0.5481300868983703,-0.5349301959030899,0.14791744305265453,0.5891628990352528,0.6026637570086192,0.42381547698122884,0.250359028843878,0.26514882222452607,-0.23268456914731744,-0.33799460514134044,-0.7025962758887883,0.5528674167668198,-0.08151874614938745,0.4305894638949998,-0.5173789831581806,0.7148033212267796],[-0.5832633699494898,0.8331732623168583,-1.0513742939732273,-0.11178625277251386,0.7103817181306461,0.3420350348775271,1.6671829596626166,0.7545515398059693,0.2895179881421551,0.06297412638000412,-0.3151758477377851,0.5019821270346371,-0.942502223177331,-0.28502704718563604,-1.0500124633751369,0.5812573059572603,-0.10586205466769501,-0.6192483247407028,-1.6567713858292332,-0.8379653623195742,0.024941027524021338,-0.9292925639054049,-0.5868158901897693,-0.1652023343164943,-0.25970573490127696,0.4514898517534526,0.8949080897696885,-0.9147639064797671,0.2863360404003965,-0.16033579859653346,-0.6804053813300599,0.15354938894045309,1.2602696402391131,-0.7841498866037174,-2.144247428414095,0.23748836971802326,-0.22974181711518588,0.5605147282695754,0.2576942470132257,-0.23637699572980225,1.6717208705249083,-0.7607929438783632,-0.1358980570364885,0.9355828094522392,0.17039190088222778,0.413205947316362,-0.3950253729674047,1.9586219031590857,1.000797153722948,-0.6670310438074133],[0.4291587210689556,-0.11664604872062685,0.15762794535057553,0.41150463365829565,0.925476055571226,0.750284256255543,0.7097975939341058,-0.01138797145742565,0.18341840585883679,-0.5562289512997884,0.07258793018979186,0.9271143360179668,-0.8125561363875167,0.8571871813386236,-0.6323521860000996,0.56107677373517,-0.6766802664068033,0.18859902894475464,-0.5474328936102201,0.3561489872872258,0.3583164967111979,0.473527401726059,0.8639638290079286,0.2386431032065689,0.1151902949603569,0.16080796697070857,0.08343212575892786,0.8872827692769365,-0.5239865625371743,-0.5046603687061286,0.6401351179107195,0.3977120197852118,0.48257482973702315,0.12789867492836016,0.16445602143120805,0.2834935813427334,0.0474692714587503,0.816123246770172,0.07446524804737724,0.961524674288124,0.9381917030864337,-0.10467781491425515,-0.18534845706179848,-0.17896462705768548,0.04144276853255564,0.22040430730178037,0.625317733941366,0.19968847587113153,-0.6239624622624618,-0.2681869805058213],[0.14329050476385774,0.28570897965135816,-0.444868711009721,0.09939517963899239,-0.8308103009478083,0.8447180931155054,-0.8667362583829132,-0.562930143372158,-0.306593294865706,0.8993290839792931,-0.851038645086324,-0.8368192439341101,-0.4888581413490391,0.2711540192054307,0.5378708709759208,-0.5978405765377215,-0.703959194493929,0.07285651799824595,-0.626430484541604,0.32998209328701006,0.07761324394960313,-0.5183933724786148,-0.7012900163084104,0.007661352526687945,0.33435200588727854,0.8504323707623735,0.9396533600810856,0.8865863589484969,0.492642092618963,-0.5994672272140886,-0.6673938032750963,-0.3405977455120888,-0.7106097162198066,0.9840508750510133,-0.2097441155248951,0.3455045404604006,-0.13664699062937324,1.0369986823273354,1.0324577637621575,0.4583336085504794,0.4051855941780825,-0.5223738505873493,0.6760296267148436,0.6335261575644606,0.17192733690267661,0.2664372509739954,0.19571828466779528,0.08982070786337124,0.38166312055253737,0.10207406562072517],[-0.07046633338926032,0.19080745855496417,0.5972479430074445,-0.5119864608677241,0.5928610067602487,0.08833119755366702,-1.688609382497732,0.28003052994777794,-0.17519132173128124,-0.2898466515064221,0.038898759752120614,-0.2465724797478451,-0.9431840459059592,-0.49113826835027646,0.8154420374583505,-0.3494375989820753,-0.1449792643722956,0.5675618412024488,-0.39003894379076076,0.3163955074521856,-0.467404349368876,-0.4184120858780496,-0.41817428088598324,0.01699869930848939,0.9423694621082309,0.5721171321517043,0.6377610776105893,-0.5100057307935273,-0.3269607874802306,-0.08280126123454144,0.28609022731889727,0.17207900204438797,-1.279594683986672,-0.2645226240629543,1.465229912103297,0.9114214427540642,-0.6618297880768993,-0.974825690019247,0.3824756025236052,0.7489970205942854,-0.7024316254682179,0.867487077534521,1.0589883998974245,0.42853950740996166,-0.4049980234047564,0.21327658171696437,0.5522301412464677,-0.8222879919725746,-0.25178842284747055,0.25521930532124737],[-0.6486040072394647,0.002812761306717516,-0.682455560244947,-0.04501512109269456,0.899989345148873,0.4369760138614029,0.8720045400747544,0.8483533401175154,-0.4076633512019358,-0.20106261539427883,0.004956656384050253,-0.42496973495295215,0.2834579452959603,-1.0110974495377316,-0.46686450787024525,0.34224638596340695,0.8726819100021972,0.07955964803879524,-0.11440505467240021,-0.8378862447529873,1.1153469433397176,-0.6291894983650997,-0.5088407771624425,0.3512825410154897,-0.816611741154218,-0.21048660153430457,0.7935380103015729,-0.32788266604954763,-1.2183195701339689,-0.015845372352911415,-1.2520858860992117,1.341076064059956,0.8187785986209732,-0.26351777533523646,-1.6142462655370504,-0.9904532160161089,-0.9454326690382846,0.7360269111208623,-0.3149870766784981,-0.793664516377126,0.6861431095326114,-0.4782073339363541,-0.922213748933838,0.04675141198298457,-0.057783736107091456,-0.9991207654511728,0.9183903455095465,1.3288361116796226,0.31240488162953306,0.3348186637981069],[0.1810974282488762,0.16287750877785975,1.036896768363414,0.43544379830336716,-0.16018832552611983,0.9587997644990146,1.4181244166278426,1.1425703738254038,0.6627400020689915,0.7679528019709312,-0.5517711748602927,-0.9955421358933738,0.15596900032055752,-1.0271850048614952,0.40390623618176164,0.9002131709104708,-0.707453122509431,-0.3680655346132245,-0.11055572966392349,0.23041084949878962,-0.32058267205866303,0.4431948726080472,0.17650985019001683,-0.4623356022207525,-0.02518428217143083,0.11557837642673914,-0.4743785586702697,-0.47083766053416587,-0.8886063177038992,1.0354552963493033,-0.6891752708932459,-0.3622511195809741,0.3475473967111644,0.41928402560313033,0.24949204757714086,-0.28114907987281884,-0.4368804488524669,-0.06903981901069568,-0.08689953865084758,-0.8954768006356013,1.5463499025583718,-0.6213932573472984,0.03773440760704683,-0.9619284962720658,-0.818943127585998,-0.14419511866748821,-0.599179063768735,0.8761323108814604,-0.7075803810486847,-0.8001614806185229],[0.6316030984988515,-0.2454417127416539,-0.31912496027544424,-0.16851458710272355,-0.07946365930065084,-0.9806628703226044,1.0802436432352465,-0.12192710831415658,0.5039648979561864,0.4325512583958908,0.508043454054426,-0.6103214965833487,-0.3766318775982167,-0.5269898652458058,0.5779473192870334,-0.8512277623572857,0.3821508564012416,-1.2790616545124047,-1.1290032124073455,-0.014084806879235369,-0.9178130616479685,-0.5700197251443225,0.15266346345972795,0.5202301747986005,-0.5805930654891731,-0.2739236883010996,1.0695624327861109,-0.7912666371687006,0.46441641483874097,0.133153035282642,-0.3506075562211064,-0.0010568648106507263,0.37905293501829296,-0.5821527019593808,-1.3278951927850757,-0.8724023900274599,0.285871737901655,0.4017958541555792,0.8296251395217997,-1.3667834885386025,1.1449332685212785,-0.6933713556891108,-0.14401989128875856,-0.7502988070062875,0.7992169216092758,0.7648089371327494,0.34860634279434843,0.9015224453737976,0.31389140120789105,-0.4950385337728794],[0.3616092999549317,-0.44925874686112666,0.487403592633088,-0.3912605686618674,0.4438532981738452,0.8763467422529055,0.22770758515041223,-0.8000464004897863,-0.58185364729498,-0.9342573655114095,-0.09460317706570695,-0.7241552073324913,-0.9959025469867577,0.8406363267450391,-0.7727763267616885,0.8118087454942234,0.6544446197529402,-0.5719842733099652,0.381048821730232,0.6963038843784405,0.8010049395378863,-0.9434876443758257,0.070847582608142,-0.485421540201071,-0.256070341645657,-0.31742350231871463,0.5152418266855929,0.5148402428524909,-0.029679207082143857,0.4220734648747992,0.6531161917428261,0.5253003981122288,0.24544810403189485,-0.7402913616432926,-0.43601792522498806,0.9460491611061942,-0.5831077981178661,0.28153158295502084,-0.16279513011752952,0.2557036952394186,0.7744213209881735,-0.4594961704336957,-0.5989033077238772,-0.010618188461604082,-0.24012857659335332,-0.5883060764742467,-0.8467097581001581,0.30405787651638266,-0.8789240025555606,0.07743671285288785],[0.24428089109529225,0.251726102325714,0.07230684863746914,0.2996465688794449,0.7359073496884095,-0.9089497452837269,-0.6822204740234776,0.0491931473345056,-0.2937487776810151,0.31724678577717114,1.172268274027046,-0.683228666919839,0.9958900980545649,0.4671258193165817,0.11345940902166664,0.7787091392907823,0.4488049064448679,0.23179092787773592,1.2222892328547512,0.3566765176842614,0.31845287210017087,-0.46771483181121765,-0.9581451386934653,0.35007072373535086,0.5113139635632998,-0.17229204582501303,0.64901630375343,0.15681640054763754,0.18803594983783195,-0.1005928838750421,0.5986296917347493,-0.8959228990636179,-0.2535158787152658,-0.24285732908835547,-0.4954804651603097,-0.38095062770760085,-0.16368114611956372,0.4747929791890319,-0.46820325113343575,0.2547848699204315,-0.6657307878862598,-0.08699738621261191,0.00868242574305196,0.9178229401224751,0.8843852137714048,-0.20539823901159518,0.8626828357503109,-1.2977723899808609,-0.691510356492611,-0.5924528818228265],[0.17697588636083916,0.4308675974859907,-0.7994425056861845,-0.11825210014568673,-1.1304528134632277,0.2798361326596846,-2.1881763646301207,-0.46995019731400306,-0.8573194068221105,-0.29524019656618233,0.2831484337939573,-0.8156036170582149,0.8136511009918682,0.6289676466379588,0.11855879589423834,-0.6702841084001352,-0.6874670475737087,1.040323216933622,0.4190159600606563,0.31362671440597994,-0.039735053929663956,0.19204557311436574,-0.07419928488902061,0.897595850737551,0.9640716174640089,0.8318169132809743,-0.8584938724789459,0.234346107137591,0.7795151994549538,-0.43972029502528837,0.9802577508802852,-0.6741202872507298,-1.9252669463009529,-0.08623243480952608,1.5359444726436433,-0.7499468063115975,1.2629990402423326,-0.23557413760181356,0.7253045989181492,0.4134439918508235,-0.5927322403717408,-0.9300315060566667,-0.27412807765767183,-0.7290069078626423,0.3621353935621777,0.7148373920021426,-0.04209818453875866,-0.8730742642352924,-0.43978848425920125,-0.8815313700502464],[0.4384379664566245,-0.16054719218280802,0.9624335233152486,-0.0922911181018936,0.10273396855381947,0.8015929543573656,0.5547090466311918,0.3462583160374628,0.8778734654838937,0.7726543461259774,-0.11010482451270898,-0.16620217612028285,0.3871253683503305,-0.3379356787689239,0.07710578969883243,-0.4013212317565658,0.7696257220089728,0.9162278141574239,0.4519553620071887,-0.835864935463959,-0.17194759961064537,-0.7531213081696703,-0.610295973783635,-0.2732416454234163,0.3506020954699985,0.4762355303041256,-0.12471628678039211,-0.7609294791735605,-0.266528788681619,0.3885670706703377,0.8415233350526111,0.8396876189270538,0.6188311838620846,-0.18036375982588396,-0.6030439775406372,-0.5451568823679872,-0.5203261282828233,0.949577683784389,0.9855201684336078,0.9873535015462968,0.6318036478132555,-0.08043190401722065,-0.6641878806291076,-0.9211493563648493,0.7183924764447883,-0.11107997015977696,-0.57711493985937,-0.7294770722665217,-0.37058034885151236,0.8894992440462294],[-0.830604968798779,-0.03535700459360711,-0.6015312991792369,-0.901585532041037,-0.3398333291098426,-0.43520427930084227,-0.0859810094662568,0.20478391558266967,0.11389518005128418,0.8440206925563298,-0.8438460386059011,0.7569106370506052,0.7558175145213866,-0.8523958375082133,0.938319046696863,-0.17045578308214007,-0.308456311111421,-0.2058783339750401,0.1563448172733973,0.008583985020215361,0.6901598171345367,0.9256756106033365,-0.9031591884008064,0.1905907034750575,0.0943470828884367,-0.4571011113627302,0.9656484896208414,-0.5461292493440604,-0.9514388903385381,0.21650419005142374,-0.4541327700898354,-0.6342895790945905,-0.37158425123333544,0.8478527210118202,-0.33594773954986507,0.42617229364916187,-0.4964060764068166,-0.36836116353693177,0.797468878311745,0.268170219533563,1.05870238904344,0.5831618325958042,-0.9096893866845693,-0.7054805743843259,0.24609087815500907,0.6161758314986723,-0.015481558847093829,0.4432754697611813,-0.14738089242240887,0.2574007109572998],[-0.5854613144684476,-0.20281773064158976,-0.14089790991940282,-0.11200089834144748,0.05189262233474635,-0.17542100299217797,0.9401300586062533,0.7445297941375129,-0.3590228913768931,0.21479468323290019,-0.05247642678836273,0.7825054806734238,-0.015398308292007815,-0.7462016772872408,-0.07968449328785976,-0.47397989374383037,0.6344575506331673,0.5940434745394765,0.38740711442518433,0.6399236144287346,0.9155935842862363,-0.02118121487089838,-0.5654499758895517,-0.22676035278333434,0.5088867882732627,-0.6541508401786316,0.8395334932082158,-0.6707102848833173,-0.4637022394106127,-0.9766085303733656,-0.8676748393083925,-0.9022521911688435,-0.6454803435132146,0.23490450029813426,-0.8241431049636654,-0.2124038544093846,-0.8746194114995769,-0.2970826621505025,-0.9806645191138411,-0.09734873505684442,0.6017393299819098,-0.3579117338595074,-0.012773606886684087,0.739531966055226,0.2995928969291332,0.09246998935088149,-0.783630483796077,-0.41934977584802074,-0.796227585010318,0.3325162911004992],[-0.046714706274968626,-0.05910838470530808,-0.45389317166970333,-0.18516643039372885,-0.8588765973679017,0.9387639730512439,0.1636318708098362,0.20818767439018637,-0.30903048779736386,0.7865113665192583,0.9412535610170693,-0.3169126190092856,0.16449067456145125,0.7724713026811418,-0.6474281867284828,0.7738699198707141,-0.7223310647169751,0.01990720660232808,1.1364839278491616,-0.6474546813608303,-0.9180511425117395,-0.7320895829998261,0.8297119828626135,0.9286119385327238,0.8977681164366451,0.12943618976869686,-0.5713004272716832,0.39688022360182773,-0.04763887128550739,-0.4446242586990033,-0.14821794700055912,-0.8181257533919767,-0.5989940963431742,-0.18856401493273453,-0.2612856339698864,-0.5187720261867732,1.2088367854759805,-0.5505958487135876,-0.1823398063402678,1.2898388682631947,-1.1609330679927836,-0.699751804793316,1.1237928809457602,-0.34035881640466037,0.9499703909129005,-0.07119517855996436,-0.6240123787276418,-0.17375524767598396,0.734509316181036,0.9925281716940799],[0.7840522714704934,-0.11806490367332924,0.5116828481033351,0.8230513445102119,-0.9359901849611382,0.2688793989158948,-0.5116718930579237,-0.24188755771874806,-0.37421654973111507,-0.1666841299287983,-0.8666071360675306,0.9126407890406585,0.7459448448606621,0.5182992625489453,-0.1616840711690172,0.9091863248501222,-0.6129209152290234,-0.9069131911735103,0.6138341636128782,0.4961729102417502,-0.0026943644386761573,-0.8388875936421966,0.7617135151583099,0.4805726192101887,-0.9951954757451684,-0.439368740010234,0.7460248154889793,-0.2634174918280912,-0.16498090852081543,0.5140904368715746,-1.2828165382536885,0.6278421557555033,1.0937679450824427,0.5064942996521709,0.3281948797121367,0.09078182986101627,-0.333127923393547,-0.9538460358714015,0.16719911637538626,-0.733215749563259,0.6792051646033522,0.6647558861266836,-1.2024385692328161,-0.24804861139445372,0.6914962910980808,-0.44710501717062007,-1.1065526957358645,0.38826993008906335,0.7552874532679955,-0.4727818929449103],[-0.6876831197881413,0.5426309327722084,0.22500787664522653,0.6947781628820567,-0.4544235897731771,-0.99460951846922,-0.0843652290068521,0.46289988434857177,-0.907327046015001,-0.7370098519846572,0.9049959264506249,-0.7335362998300272,0.6670934143520244,-0.4101988055769392,0.27094501793531633,0.5853136549502739,0.6257852575990903,0.604797694963376,0.3919046063772109,-0.9952101509101889,0.5109746680519659,0.2532065358066914,0.8079812802972639,0.07134350173739192,1.2101291920110504,-0.12435270600355867,-0.7737053882477632,0.19055113580248603,0.3536181214018982,0.5200836161703419,0.24185059530147007,0.7678863803601357,0.5261805067907194,0.835526590769734,0.502900403790868,0.09547015338131128,-0.6186780832570097,-0.16363107108139816,-0.3776709306241937,0.033328760869347406,-0.6026240958725455,0.6638523613109253,0.8823552162147883,-0.784742101666575,0.8005899356818555,0.06448977802822956,0.2875854382352119,-1.236059530970504,-0.5653211540235584,-0.18648589160817605]]},{"matrix":[[-0.3881805837909074,0.8545476556094508,0.766381513738882,-0.3697592975789402,-0.20589813604278914,0.8274776124802294,-1.2645712628631813,-0.16236234386927664,-1.1530364376982196,-0.18666474350930326,-0.6911615110941881,0.7388936676576371,0.8055288680365211,0.7577332989811696,0.3878861649805735,0.30305865566427437,0.6652842653904054,0.010890597663036322,-1.4423144029263835,0.35808816564566376,-0.733987201476386,0.7567142583745892,-0.523466362676652,-0.7390775334787107,1.3043655174043387,-0.4507533392319768,-0.4134228051634181,0.7722915505497977,0.5937288439665197,0.7380254546639284,0.429690912000625,0.015303464760501193,-0.7865965973595137,-0.329033961856905,-1.134781901284196,1.1055252767961459,0.2050292294483748,0.8567675957451029,-1.2680657294175144,-0.9306734731442894,-0.30389414041189466,-0.0020066631263920757,1.037086327428375,1.5023149471310264,0.6294175316546156,-0.7065970909150864,0.14184530591479602,1.2500195338751547,-0.49945466569343105,0.5888371807911204],[-0.9541720022995882,-0.5227349939846393,0.42356129568459566,0.923993358312744,-0.5899032438481427,0.33068924713000436,0.8736759291998843,0.8318636611656363,1.0939125399547747,-0.2519899366902384,-1.2526663425219677,0.7691271257069673,1.0020979259295257,-0.37988350209797955,0.9672513842093728,-0.7490708737395458,0.7061438934569471,1.1072745696792556,