{"name":"Music Embeddings","description":"Trained to generate word embeddings for musical words","inputs":120,"outputs":120,"layers":[50],"weights":[{"matrix":[[0.1899809816448419,-0.6517832094827573,-0.5008839493059505,-0.6381169165583308,1.086119934440751,0.6867016405119664,0.9883850138608248,1.1991293865682215,-0.4955731094032896,0.6349283295383348,0.9018101750543467,0.5835039107521639,0.14145470040868613,0.5318322385963506,0.25046108040360165,0.5273891365279756,-0.7013578143734226,0.7868534161215845,-0.4561399465403059,-0.27312010799808567,-0.3020792037179213,-0.2629170756409854,-0.11434515237787332,0.23612346677276497,-0.8133043317270522,0.0439269039167478,0.2014299506782068,0.6588110805097737,-0.10937222009737319,0.3017799266413098,0.6338706020953654,0.3168331078807152,-0.6518543896019315,-0.6574427236212846,0.265485966671246,-0.5230968256281437,0.6435881421878219,-0.5574935896814114,-0.16340913157176323,0.506828719048738,-0.7483346054807896,0.3115256880870567,-0.23520115195474223,-0.2584507792731452,0.043289569660179245,0.10351659960643254,-0.3945783042604755,-0.8335044884402292,0.011670155088617707,-0.40697031954472745,-1.096309856863416,-0.7770256104629376,0.6468955206148628,-0.4934169119136788,0.41812145932342604,-0.0614141358655048,0.1488075291070683,-0.05526693739950149,0.34210932030520513,-0.4619187808140353,-0.07291018473952032,-0.38461020229071774,1.0437106241173795,0.05364912397784831,-0.6058969306338536,-0.9161541951495238,0.04739348339277722,0.26182708909897634,-0.12049081726175072,0.8336342481721066,0.06960701906653374,0.26727947998002904,-0.906025081873118,0.5507391893569078,-0.9359103849876136,-0.2699990986795819,-0.21602422085096337,-0.35885817750338955,0.41157415517947904,-1.236856100482318,0.3672383851850008,-0.9042174895727331,-0.15941152319919766,0.39113656767784977,-0.5874940022226871,0.3676592493089133,-0.1187150219401653,-0.5329238856313764,-0.603221830042761,-0.2771421780605116,-0.11979465261135368,-0.5927350701370011,0.48964316370367617,0.26469257709904814,-0.2696869614777517,0.08416583976825356,0.43551095970691933,-0.31649787233136006,0.5986048684905639,0.9408205342872821,-0.6783998923922869,-0.2120958143658983,-0.6501816583618208,0.14219857759662702,0.37350343065796904,0.26985142580769145,0.15372050490594752,-0.020780093616029324,-0.1456789520870746,1.1097134358253018,-0.6111280214675908,-0.4372701365269282,-0.5919234681451663,-0.15288543112613245,0.6709265286796601,-0.5496256443155095,0.06147787862060571,-0.1645146217952152,0.4018219166119925,-0.5606916530597342],[0.17231078045872153,0.2500337595641613,-0.9745655510943296,-1.0584106632943515,-0.4116453648618657,-0.1594391927758748,-1.0896206970714586,-0.3909878063668391,-0.29482549888249415,0.3623222324462431,-0.7303818451625905,0.4685036325546332,1.0873769285356676,-0.514033663320222,0.9494628666293644,0.04554803789522079,0.30944722429314614,0.9604042006372961,-0.8510916053958966,0.1339257663756267,0.4503856354968134,0.6303702918384516,0.4174454283375893,0.32052049690091083,0.3497911969026904,0.21331163431225897,0.7336332184548391,0.2651870049025376,0.16462868645323306,-0.17980519923686342,0.8109884547326601,-0.6850110875921805,-0.8826941805374049,0.04851240755826447,-0.5201195706741737,1.102777577613109,1.688506345861781,0.8460763328701411,0.9916655162307692,0.5160779589641155,0.3776617234048467,-0.6031077598181742,1.236847055743907,-0.08563023152863103,-0.18788892931601517,1.4925036211629716,0.35750647953331577,0.41602533948789827,-0.7586780540477114,-0.07632856539218852,-0.47682491133267807,1.1136569674576857,1.4173445231595918,-0.5653615265860854,1.3581719440093194,0.6587662079456307,-0.09024197152379454,-0.6443669157903305,-0.9857293365333939,-0.028246752269983025,-1.473481317648604,-0.28513326064902444,-0.37453853932376585,0.4163889344717752,0.8861141612459322,0.08912970624869115,0.479527145753153,0.033546159629553506,-0.36547354612515653,-1.3711343300276395,-0.8802846252266577,-0.089844085735744,-0.40839511950605745,0.09404627435297862,0.41007610678296763,0.7487536540710336,-0.9073576792770235,-1.2900353883002373,0.7133005709282075,1.031664485082929,0.2664122069142466,-0.19793939809891972,-0.5852125159451835,0.6495087657019428,-0.15235408281225316,0.03076893793350559,0.4192851908135527,-0.34544014683677265,-0.713343444994254,-0.1906538172698774,0.030967487085038138,0.04632590914340396,-0.051405099493677615,-0.14908618462122497,0.3114759005916376,-0.4664646897862799,-0.10173909927935597,-0.11792301408509083,-0.2615692953077245,0.5502766189320207,0.31269095342738634,0.5090240609310701,-0.2424336995945241,-0.3072968929918893,-0.9317858475890985,0.07830238545767668,-0.3947545682349595,-0.8274714672981884,-0.18842093395735024,-0.6855109461460562,-0.7685027288029813,0.0433661889955519,0.10077198608195251,-0.9693867607377791,0.2465973906897538,0.7263040744796874,-0.682955992999791,-0.6518222270347509,0.35540988376836485,-0.9799752939415974],[0.6496841996142426,-0.6564048700919844,0.2610602630596258,0.016923361129297397,0.5550505618753561,-0.0855226878795193,0.033068128556938,-0.27514206536276264,0.3390388138520771,0.048729193726260334,-0.5015883023653027,0.7578177347634583,-0.4098355844388072,0.5029924378754428,0.023501240917971636,-0.4287493386223974,0.019674142903849196,-0.15634006793273356,-0.4291661105661636,-0.6242882554401296,0.7713889959191851,-0.697708484072901,-1.1114997763028538,-0.1837450083583866,0.17749239698587188,-0.07331286203239736,-0.296949725161382,1.2654015674809047,0.49308701957261686,-0.781059076166587,-1.014857087663766,-0.5140465975792854,-0.7709456207685759,0.08834580120908948,0.603093812719229,-1.2375188222139768,-0.009343716625992463,-0.6321568688706624,-0.8327698947546773,-0.3305688317617869,0.06520219668904761,-1.314249700092904,-0.27713102476285834,0.2951463324728196,-0.9309009319727797,-0.3253283238197983,0.17555413122342128,-0.576865079609788,0.4555946363857012,0.5703985854153578,-0.2950557728547325,-0.24871983317603533,0.6624058085257372,0.08696049549604677,-0.22691113341489375,-0.07870017135920113,-0.3463028282089391,-0.923315397011055,0.2088372331998622,-0.25473268192832077,0.37126824155514215,0.11464136261187215,0.5637020219113058,-1.0556973624617916,-0.37959683738800704,-0.5866118006221941,0.1629623254053502,-0.7672213559771701,0.4781282929732013,-0.0897826232088272,0.04596203045832043,-0.406992502743251,-0.11224947936107076,-0.47449645122934836,0.1890064275402107,-1.1054036839464196,-0.7200287514734658,0.06221108579671894,0.15973339696507022,-0.3485939938795545,-0.5421097083298225,-0.3075980810612721,-0.8324484244662382,-0.02228998586141781,0.639553068932097,0.24646351360483,0.5064664455030298,0.5104860749078287,0.9603173686038393,0.2740588101693717,0.1672582950871257,0.9720926511417832,0.5111277753767807,0.36493006824855406,-0.005742290749621856,0.23892705039271697,0.2523084602021864,-0.4919363123392284,-0.6307399843466623,0.2951098403591699,0.5010931015415517,0.31630784406201595,0.5488979654354644,-0.5028330818762525,-0.10826611246369322,0.5676152394797136,0.4381795649720598,0.2153685668947011,0.6635131410378887,0.9446172454215536,0.8651077706871275,1.275286408962,0.9217374629572754,-0.6659575058206599,0.019806344138739898,-0.09274110605550454,-0.23006610508836126,1.005054585220763,0.2778502695014796,-0.5712850354703463],[-0.5101486737241084,0.49215958617288225,0.4512536304563257,0.7810082557201987,-0.7892676533694907,0.31835168890757104,0.24188088544251318,1.0719268168712464,-0.6930117314291335,-0.5960884362669034,0.029245571388997877,-1.3037442653858372E-4,0.615952004687895,-0.3300710796981785,0.5839846775598921,0.47958234185289006,0.17703801389582152,-0.15002204723642357,0.7789043713249089,0.0731134177051109,0.32855199191740825,-0.7679761126110461,-0.4687013269607858,0.4397593811314995,0.1689673248647376,0.15737133585179736,-0.7705896597817423,-0.2912209770599774,-0.5971655444822315,-0.021321676651042426,-0.018924392212299256,0.137750573946949,0.4461380460010447,-0.6305915473858293,-0.5267315734085731,-0.537420214727616,0.5350235732364325,-0.168506426280618,-1.2189394373513804,-0.5021414071231366,-0.5025403525797977,-0.9633401129528287,-0.6664901141375564,-0.18093846902285643,-0.1875025431843234,0.19805548484291255,0.027706225647087662,-0.30041852988035683,0.5535494956454856,-1.0822330192455116,-0.2009193800019664,-0.5168240823552505,-1.5042443291644307,-0.18238221215344105,-0.6111521915069922,-0.6919596803055293,-0.19997674656593648,-0.32689541888006146,0.2380748100825777,-0.2778220719430201,0.04711744620926759,-0.249254017186947,0.03661026410624776,0.7090462163326242,1.3595957620901487,0.8298344877692475,0.37731954665770906,0.16286338270131906,0.49702807376636937,-0.602367026492109,-0.18060302634791306,-0.01615253742664687,-1.3431705811094694,-0.5361852937091827,-0.4750611935371831,-0.49952827554081947,-0.7751472376237925,-0.947601332105486,0.16262041050129486,0.4364231395537794,-0.21230142817515327,-0.4030153865229672,0.7123286835020569,-0.21993227561886036,-0.7231779953278294,0.20860539739593634,-0.13882944006152198,0.5005528194603821,0.6531231847550903,0.20463715340757835,0.7757911582869719,-0.15446292834415148,-0.14453587210416652,-0.07182426123688693,0.008294282277652854,-0.5366251614085649,-0.1737084262479956,0.5805993736146834,-0.19816227455808616,0.321550593592169,0.7297188692993306,0.16869801606004692,0.31546031867307145,-0.3331062283848233,0.1670986819746051,0.5815982531680468,-0.1449550248045608,0.4090375954608454,0.610384074415558,-0.22379253841786834,1.1249454519130506,-0.3694220961763085,-0.804974365304219,0.21611458357793234,0.9959314599620283,0.8370702693001084,-0.8155030950675575,1.0478409750984647,1.0531898449219146,-0.07376827433060185],[0.18577427870074442,-0.49168803661452365,0.054635301059561346,0.7922959526530081,0.640615148808522,-0.025245572159410142,-0.7765429151328388,-0.8399628402225691,0.6168109675980581,0.012487400437900443,0.8967327558163344,-0.665184384933856,-0.2859868549112522,1.0718329946865477,-0.13754135776362852,0.2826772430593517,1.0235646080199696,0.4116915809408389,0.20991784285195525,0.23957415480962987,-0.6275659003308639,0.11210303994579904,-0.7308024421186416,0.5316002396145282,-0.3565940543909012,-0.8968802686693231,-0.19878882921292665,0.8921881454342887,-0.16088782537274268,-0.45174537346703625,-0.5414558191503026,0.6817384135991891,0.2900677702317006,-0.4399415294288094,-0.09170988929397829,0.17434992036098468,0.5173699967196752,-0.21278195518655724,0.5914192560632996,0.304265612493869,0.5769383949012248,0.1976659094250033,-0.8812078785319012,0.43702678868251266,-0.8420105624364111,-0.9289433563795149,-0.060876977521183075,0.26222585650165803,1.5848615171945883,-0.04210351577600079,-0.0030305394680859694,0.3931107883081209,1.1420150846198673,0.7924547821787814,1.0542921844025488,2.381465547033663,1.3527065477366533,0.599720524201533,-0.5393027586332422,0.30825720305986337,-0.048440367492630906,0.2115545063917072,-1.1095809273237094,0.26462589266183845,-0.23147801753831349,-0.584608964836217,-0.7750739094564677,1.2571386040074932,-0.11493870944048443,-0.03818748289609313,0.4463697924530977,-0.5098614468767981,0.17915787790791204,-0.8164381384313409,-0.7777683623766424,-0.7962415037740137,0.1712026993151713,-0.9072331632677951,-1.108303472097463,-0.3949865280977449,-1.1773118711804333,-0.14567784090504932,-0.24928979433301296,0.19477103184183014,-0.8931667830605596,-0.6011770325401566,0.006773074946605167,-0.29459652829604005,-0.01212289573168763,0.21171224329322147,-0.22810205360614688,0.3107837003701876,-0.052211683744442516,0.031934799874815054,-0.0562855381107498,0.09291335139806425,0.06649284189782065,-0.18025246199072614,0.5884677456058821,1.0266684126796022,0.09393784544636219,0.09618440123946345,-0.7743164411668869,-0.12320361676766697,0.3839317574553386,-0.4484062831195085,-0.7738997050995416,-0.5675278080570424,0.3060817298148121,0.09427570186986148,0.11540636278493627,0.11393718068438274,-0.6947489204041287,-0.790032287073365,-0.28016573062315775,0.2144183668805254,-0.12466707717718722,0.6345798787686628,0.47333142906174197,-0.8222078206425797],[0.6954245659195343,0.27792499923753433,-0.8346489664270261,0.10643318993700476,0.2770693950765465,0.2606543937784836,-0.16571694049138266,-1.036241092538639,-0.8372688967480556,-0.02644174476262285,-0.4656126542936172,-0.20232412497695088,-0.20086915957710397,-0.6476529860555741,-0.4027267874828026,-1.0821047592789204,-0.6490359903198922,0.9992206341176447,0.6676616469672484,0.7818145068909206,0.14951201761878122,0.4234338160502324,0.2784683786883922,-0.4489238948133769,0.5534173151745495,0.6078878842558924,0.4106083751635416,0.4510141955017576,-0.1360149062645156,0.2171930588019112,-0.09154061092147846,0.37210154619002705,0.7559225710441033,0.015627819829415655,0.3165212641761387,0.5242338624671503,0.8323580251378073,-0.8196332967114299,-0.17284759030059957,0.21530095385198178,0.45014541171321837,1.1290853539729517,0.19052962160523296,0.4963505411695782,0.5644729024399221,0.035929248143808754,-0.3688370957831726,1.1234665212166337,-0.12969397260049909,-0.5127164722650522,0.09599032023960045,0.3996335947327783,0.19266121243053744,0.16619991490201574,0.08413444310416475,1.05367846511928,-0.06963979557774182,1.2528871132093338,0.08353649798142984,0.025362233137653713,0.03141611384612741,0.26982510315378766,0.38987670321009615,0.7405581865903473,-0.1798830130616554,-0.28980398594427537,0.7382126164256796,0.6788461902395806,-0.2281876990219641,0.6192740589072118,-0.35422005400226,-0.6347096174894541,-0.1980221143642403,-0.46906694237988056,0.40327651135756326,-0.02765485548228032,0.6278809921814832,0.12162252983913223,0.32498447386742096,-0.47865793194364564,-0.7186042465496332,0.6649350930733613,0.4584134722620621,0.18766194838458608,-0.9340182317566358,-0.4016787441724676,-0.29464972912307497,-0.252340242628019,-0.7366099635144274,-0.34115719234014896,-0.6909535517067894,-1.1935363799928895,-0.7424078408142194,-0.3739402112206585,-0.5055119486035163,-0.8959383044931294,0.21371654328407833,-0.11953093659983327,0.3421040009617793,0.24386581680145272,-0.5342872081997304,-0.973471637102202,-0.5210507586251488,0.6370990848137242,-0.9676103713513614,0.462714920396765,-0.41675922903551466,-0.3470581896075179,0.42879474411046115,-0.7147084803007729,0.28525829955409854,-0.27025541982065093,0.5020976356602437,0.025013869389549387,0.43951172680258743,0.49768550306063614,-1.028703324671305,-1.1848225829485508,-0.4719083403679226,-0.4431558700770003],[-1.6157248852711195,-1.3950202154300368,-1.936679077260561,-0.20499845204136877,-1.5541884842698506,-0.9299958498249039,-2.1330552491866253,-1.90973720539223,-0.8532171231891461,0.3625262111575504,-1.1278845798600428,-1.765098906191698,0.4266842062784113,-1.66505290248985,1.7237051194164934,-0.7997831907502881,-1.7631763683973187,4.0745991386259375,-0.8214180690151585,3.1085246351835085,-1.5469913629180956,4.279940515160827,2.966130814528135,-0.28840427965438586,3.7136491807744045,3.6368051670215418,3.02746882036943,-1.983306705939837,3.1342262841758872,3.7342499786759364,5.268841204616099,4.111259696496175,0.9980409173272883,1.9929732764719135,1.7288915975472492,1.3547371570594677,0.8483964590516181,0.2802988277438495,0.5303914926011319,0.4422685560454692,1.2106712205840173,1.0955815717457205,1.624002788329401,0.10114265925070264,-0.3925069402579004,0.10595375236138647,-0.08165982210508174,0.5034167232231561,0.2726736512629202,-0.2987408125507972,0.10295521889775648,-0.26742686445941644,-0.045785208942763875,-0.18692736224730838,0.23532121985679996,-0.2400899950079024,-0.3886233980320723,0.14748385716351903,-0.5056655209645418,-0.6977907906524232,0.8932830863597031,-0.21745252001067814,0.5897134029870263,-0.14593624527776472,-0.3786738420078152,-0.15629541139189312,-0.41166295198615455,-0.10945543553497492,-0.4089613613193911,-0.3534879373475964,-0.8311059663969176,0.5417153486813723,0.78195051909105,0.7893640907962608,0.3687359241038775,-0.36855395645872746,0.2022019770554593,-0.5180112406260706,-0.1849647119096293,-0.7686727879388625,-0.8569864714895465,0.5243835651243325,-0.274219391057301,0.24268506197715597,-0.4167633830861949,-0.07541779533324248,-0.20915658833143455,-1.092640119235567,-0.27676161980034963,-0.8442418053145668,-0.4919434719649505,-1.2616028219359672,-0.6161499037436429,-0.3974215041968329,0.13068145285359636,0.6890887286163816,0.144781903314664,-0.3339257993393945,-1.4231074085473474,-0.27216237240964625,-0.12253385179841932,-1.4372088213587864,0.05218561861826807,-1.820656746789138,-1.381924619702017,-1.1159759496057304,-1.607555706642791,-0.8599873683674356,-1.615296448509644,-0.5605259687641923,-1.7827875346636377,-0.22932347402569334,-1.111785654594358,-1.366467164766446,-0.2052830792927056,-0.90942331831557,-0.6574973344409925,-0.517173344140424,-2.0384441687923185,-1.2766990991330613],[0.1672231167404336,-0.1885186641645793,0.3643107624136369,0.2603681655145763,0.8185568266135558,0.2065707308992315,-0.5642664096510385,0.7940611518332509,0.7386777562821444,0.08930036660346001,-0.3024102173653723,-0.2563864495557847,-0.6062396960835703,-0.010869367990613285,-0.7597001422097631,0.0980923376410759,0.5583573329101083,-0.06551028242066526,0.275399598957931,0.08975113553220906,0.15831001545202172,-0.7710536639625609,-0.2610609216601701,0.9160733201319736,0.3624095821535084,-0.42098371524310535,-0.32126861691905556,0.3500445450348101,-0.5930850716918581,0.7291452532927487,0.04203814145399936,-0.05466136553918865,-0.6791164243959931,-0.8716280392406128,-0.7311407466156404,-1.1342019033911155,0.40605262704470213,-0.31967718067248,0.7976757276117125,-0.4446128526819014,-0.3309936695018937,0.700283502430038,-0.6737852559419566,-0.4284105342474442,-1.3356665896205473,0.024659611342379296,-1.1223049089211243,-0.6381753305878229,0.8615097300471457,-0.3811073877007499,-0.8304833979408933,-0.24836038275028655,-0.8932780704378526,0.4785370460601054,-0.8343905516446675,-0.49485793828806063,-0.5589224045461222,-0.2917378298745703,0.06595590913709722,0.7145082479280975,0.8535140964516685,-1.5429305136477638,-0.490759494071232,-0.4935183635469426,-0.31420508913008477,0.04319718368716574,-0.15063794568007655,0.0635659820498793,0.2848834625147303,0.00793854634459056,0.9690952302401853,0.80382189046264,0.16790880605821878,0.04597229529158141,0.45875409876564577,0.12152706956905383,0.46062648928602146,-0.2563500179221467,-0.3801447975378821,-0.36192672708388646,-0.0066390319015599605,-0.2702411340299342,-0.11217791872930159,0.36197790206865915,-0.02765758149197711,0.1363213169219848,0.5384830076784554,0.05700365806753424,-0.105515723748682,0.471475322600989,0.2711103694946909,0.16739710897133736,-0.2615166110912516,-0.04409602827882113,-0.7287673864810259,0.46187037148661425,0.6689979378434238,-0.09771198244971945,0.7302254337711535,0.918303536945083,-0.06089789695004616,0.48269939072867873,0.6655828202931914,0.04541752481153105,0.8379375817541196,-0.12278836562468719,-0.2780458266771274,-0.8439086714719198,0.20208732293433085,-0.0015524249089548872,-0.5161772724117022,0.852777406774056,0.4426136393716297,-0.5335640227574859,0.737694838580102,0.5707230805774727,-0.4909805727432054,0.9502553920747411,0.11271990515793771,-0.030650023870154038],[-0.03485733102899581,1.1451676399680069,0.26002334315560655,0.774346035238047,-0.36266668226668813,0.4971767955668762,0.2218037873911376,1.0163393956763844,0.5893638601863621,0.12293350901069272,0.2717075959957744,-0.4387811818658434,-0.11614854433611756,1.0442412259527996,0.18621858409160327,0.5104445844876576,-0.6010907286299793,0.07188214296927715,0.19887176877184937,0.1372031244619225,0.6081675783303376,-0.30301788727929774,-0.2699987813407125,0.1700394319085914,0.07017825651726806,0.32556643170145505,-0.166570338212977,-0.12190097739574737,-7.743830003344504E-4,-0.5847102807382986,0.6165928367401866,-0.05733309455349778,-0.04434179659067522,0.46193238419477034,-0.10603520340205749,-0.24363808207917761,-0.7758966794499944,0.46471761886936325,-0.5039918554074967,-9.429927938127817E-4,0.3027643895686428,-0.31879330147370877,0.6478405465911341,-0.27129311057547617,0.4333128134980442,-0.4622989806428902,0.5862582763219115,-0.7294836164652077,-0.9205609881955851,0.5036413460278927,-1.105793576870533,-0.28173930325043034,-1.0388717890819348,-1.1169319345940334,-1.3299940137999076,-0.08730188374425159,0.18445679221408878,-0.5952221079376784,1.7026938316817954,-0.1341441020500448,-1.331869490942368,-0.6146851586165503,-0.9007078543619403,0.04066005576335292,-0.4072060215302511,-0.5730524979775709,-0.5173348310997525,-0.7386978200918266,-0.37446838080068845,-1.163152268137658,-0.13994129885589512,-0.3315060939919506,-1.3450478983003256,-1.4147628246737634,-1.0805747578431986,-0.2151920891719722,-0.9009385350656448,-0.8687846820736121,-0.3388824090654315,-0.010519684748543506,1.1925156008517235,0.23988904362999447,0.7139160579866594,-0.02964234244774608,0.3925579416267852,0.600170116023539,0.14448968649859836,0.7163744994605409,0.5893686070803854,0.06826778599112057,0.1411481446816991,0.15086359549452286,-0.25105279507651623,-0.4672109353440666,0.09788594762406827,0.5190288107392709,-0.02592964231715693,0.6373063850170546,-0.516322869164867,0.09056047984352997,0.6024011484329718,0.5468095930469953,0.7848809092796316,-0.5047227470492903,0.3924258629443654,0.6275237926163203,0.8248062380635315,0.503534531366333,0.09291287152594474,-0.22855331035422555,1.001735522504087,0.6034422132450139,1.1646506540390362,0.21727521250887544,-0.5924968669722538,1.1315503284421737,-0.6420004109420755,-0.5998679374729724,-0.3441670481549986,1.023452422756932],[-0.22076433326360737,0.23568137827999328,-0.4736212329187122,-0.14366800460565865,0.7636250718254534,0.8397365336591325,1.0060498931373467,0.8145468827045528,0.0014460974915718034,-0.3053852484879878,0.3762994805310454,-0.4789411110484469,-0.07437710767707588,0.7415996582304345,-0.18590797633432393,-0.5895072048652223,0.6503808740665298,-0.4568319781628542,0.6958669375375508,-0.3628891762810467,0.9008553020207233,0.15737388835826147,-0.2588140004485254,0.8381358513715973,-0.3942978592263775,-0.3070471672579406,-0.4098678430892298,0.7500944627216397,-0.2656617178313614,-0.28622923538481626,0.10528050333146556,-0.4411345910233206,-0.10608719993107481,0.2247506963251511,-0.47827210540645193,-0.6877680829686025,-0.41394293713349956,0.05071721080457051,-0.4478451162924713,0.23551670108907696,0.22316319385431907,-0.28309787547235876,0.46474999956134516,-0.6735632030958041,-1.0398938774634319,-1.0225433860543347,-0.8608737437938847,-0.3482947643167767,0.6197862237786047,-1.002441094139632,-0.962344666052176,-0.5504097355413451,-0.44733590716310284,-0.6347830180046555,1.0248723812842488,-0.2435817547346072,-1.0481469785977213,0.2643369990415412,0.7614307793848771,-0.18120514013688316,0.25126781700101986,-0.01560322341441936,0.9263518025698357,0.892353199947069,0.5628375392652043,0.35260873984219565,-0.4034266634923862,-1.1565016299430406,-0.24684630692327958,0.46399877529628725,-0.3545227443135792,-1.2507770042087811,-0.3764798490242409,-1.270599759545614,-0.28866657000909046,0.05514881722281167,0.2487217502731604,-0.5134111970048867,0.34982271878321286,0.2428065058262445,-0.19381732831174286,-0.03955852209312451,-0.06158166757862378,-0.3359960511584223,-0.29268906800230615,-0.10196855274443896,-0.14878652691367336,0.2496765945371288,0.22483797959235938,-0.09200581660829783,0.07692644921215878,0.20504614909704033,-0.2806360938609548,0.04725423957045133,0.12216217743612288,0.010831541111559945,-0.28701478338222913,0.19443098962213415,0.5571268742314127,0.19504007101685591,-0.4465633186010661,-0.27878879665882744,-0.139727740760048,0.2933351954725157,0.1296643027224563,0.6751476838493304,-0.3153997272265658,1.2451957975722001,0.8242859945861167,0.07289049590849887,-0.2662071751127401,0.40402677637957424,0.38669011349024035,0.3743705222620379,0.9627353959783844,-0.7703625495660014,-0.34815500664391535,0.9592611041331145,0.7520352604974729,-0.10276279101037379],[-0.12371817249731588,0.02980470418805145,1.1680846865773553,-0.7034761510351585,0.7954461282003372,0.3268637956077793,1.107805335814875,-0.26215221991102294,-0.25043158827070516,0.5036066074769721,0.16219085556361731,-0.6202936747604176,0.6006683848014108,0.405542048315135,-0.15402222982396035,-0.5880004569022513,0.30468220748362346,-0.08743678679594415,0.281855164205531,-0.8939227413235494,0.32438225957611294,0.5711140651065224,-0.19915181822279635,0.29959602827216275,-0.6409101447602386,-0.9935682694286696,-0.10260945531282611,-0.2817637669604603,-0.43449939847132485,0.1082906266416283,-0.07527317656928662,-0.04761649831113709,-0.30349412436676354,-0.4203306701872419,-0.4209297869546847,-0.030865513190632486,-0.15634280872861334,-1.0473160590043153,-0.9646170820167611,-0.3318732972695856,-0.13951365206482635,-0.14762141139720036,-0.29982287890119114,-0.33023982754140085,-0.1811371167696335,0.17986599719892085,0.00452046311944621,-1.0580512790528191,0.6752366075333656,-0.06442037448935298,0.07115300745328236,-0.5115772178079514,-0.7877911203658511,1.0925294106488785,1.3677686554381903,0.02317545465533027,-0.27956153239064147,0.05583845096198424,0.0018951672925272144,-0.9954396869791801,-0.5656265959713963,0.3802659350554336,-0.6756116068541351,0.1786947167507081,-0.7545286000687694,-0.6622253256947771,0.24099377805247432,-0.7198485507329144,0.37601523756628796,-0.16393120490888355,0.2396295564627646,0.6208718757748668,-0.6810807939743447,-0.3149533804204375,-0.9191404636631662,-0.10477897710998635,0.33740755088975877,-0.8275488797660193,0.20300265054716285,0.040636426566774735,0.7676675725970067,-0.008554028914736138,-0.037345414810167406,0.6982135959351342,0.020465330812419524,-0.7492125986522616,0.4975312946117356,0.4674534622557212,0.44576838458211193,0.3382779614067493,0.34788023961796655,0.4828084703817157,0.44070796962954645,0.9799049652599153,0.32570205411288955,0.5966411997557154,0.9364945168222382,-0.1996388431198313,-0.33985904595803734,-0.16225115607329607,-0.5086222942330477,-0.38523856348308577,-0.04363109785982115,-0.6076592062087244,-0.5210412143421969,0.4324150337889348,0.7353288710676645,0.5388272690497738,-0.3231694034250177,-0.009969661343388255,-0.7042248560409433,0.6008143572552206,-0.6500481575127949,0.8385592380275507,0.43738461849283367,0.9765966884768805,0.46800121645662535,0.021967940687719935,1.0214660859635312,-0.3469451360171156],[0.12411456197010547,-0.8174162359625264,1.113822674640037,-0.8239573433188189,1.0416711765864957,0.7528719761681205,-0.10631145204725723,-0.7497414679900379,1.0900835268200897,0.11463206501141558,0.7119421119919106,-0.1322738376309172,0.5354505290802454,0.06019127060544146,-0.5339656217897771,-0.6402334005546483,-0.5264662966835268,-0.5883358859121872,-0.617860627132529,0.01566031332913424,0.726086781013109,-0.09963340232074724,0.7383574545808919,1.1045367110672784,0.13323787752356875,-0.6666746677327483,-0.6774696432350451,-0.3049489474364185,-0.1333618993476085,0.4471801449113052,-0.6294757489481552,0.8460559210918992,0.6682379591189874,-0.7588561692488814,0.7828200255597482,-0.6803397301004135,0.8388755637672238,0.5480100732036286,0.5651918392392625,0.1851695975484515,1.1189340213683021,0.8219754194964122,-0.4790057976499285,-0.6353122293302643,0.7818803223009795,0.4835492202620257,0.6361185004806986,-0.34337485717311605,0.10235852784805759,-0.3422357314970645,1.0229110421596657,0.6665165429794865,0.01086074240235538,-0.0648074587404392,-0.014745270595156635,-0.08279226978025064,0.32340129458968225,-0.01874636372320505,-0.33976305131113665,-0.35363734439245775,-0.39812584902616005,-0.11333301224790608,0.31720356221203105,0.009986482344167028,0.5656129080473163,0.056383388076880786,-0.8785234056195936,0.954515329881742,-0.13491896952598414,0.8972896901415606,0.2804307100162909,-0.7274463317181562,0.39303837562071064,0.29270535976762374,1.0740823409085363,0.27042696262473964,0.12088076962045496,0.16326053998074128,0.8966641229443536,0.19569642213662047,-0.658156434241718,0.16839232762010536,0.3916897193311634,-0.42584431673177514,-0.3785684747623331,0.2184045499137231,0.9177029094928847,0.3601329496614109,-0.30216493020349455,0.46705250909611823,0.03732415479557097,0.9795078177450055,0.6459154126163448,0.42944180020233935,0.34989656509451755,-0.8117808252473484,-0.21266602670794812,1.000734836926704,0.526595617470036,0.7728933321089551,0.4249902004812164,-0.049320228658893475,0.5827708383966571,-0.09319915489540308,0.3053158457686175,-0.7992541705648758,0.25790262441819956,0.05738873661179499,0.927065761326507,-0.18831873138788077,1.007254602763409,-0.1153178790237816,-0.8359792977732272,-0.25905723514668566,-0.6083897419173399,-0.5072676858036315,0.11441358612117364,-0.8645197804903549,0.14188980157263864,-0.664231775961888],[0.7553245844257112,1.119845362497382,1.6150533322803717,1.4744627377226358,1.3816254163248924,0.27372353510920633,0.7595988106897288,0.5419742730783056,0.7380136885202745,-0.05926377343700912,1.470269737045295,0.5544079997245629,0.06961223721152227,1.5574643906421266,-2.3689743511654986,1.784882233479875,0.4146213092377708,-3.445413035260101,0.004830188460920064,-3.989957750839109,0.8456154124068888,-1.9431257737737282,0.16980696390554695,0.9715636338126984,-0.14556628685877027,-2.143950150996788,-3.594113211607442,0.07783597240863457,-3.211831051754984,-1.715800857725101,-0.1379959263317698,0.48341072302466226,-0.6426698966259143,-0.623706623296183,0.4686740936799665,-0.22556234864712876,-1.3546643651010573,-1.0119072872676749,-1.0065119631186668,-0.9811677794620485,-1.3405130158778307,0.04999245561798066,-0.08239321991420234,0.21329055605821728,-1.2705900547613644,-0.02068930898636319,-0.15876559413849786,-0.7843276513241071,-0.34781617220409194,-0.08974367757883753,-0.33045399587293606,0.3469077351317567,-0.23098067686659232,-0.47811891845864135,1.1349739067289177,0.5835841040938525,-0.5383147938404358,-0.23849643697575368,-0.3394719745777272,-0.1434385662793906,0.5509339091804242,-0.57186145283849,-0.842340890246963,-0.5343442812985919,-0.16314830581038228,-0.0714265169363848,0.7760150470021624,-0.4370266382465,0.26206376161821376,-0.3041198876430409,0.6191529935027584,-0.07825413881214004,0.18166964432989807,0.3394873812955007,-0.3558179264752721,0.3997629193230796,-0.6293528587105874,0.8562404524166095,0.3120989698793054,0.6307070908852763,-0.8974273733414238,-1.1345874760619468,-0.440001520883029,-0.511320976152939,-0.38189935104595796,0.6972927377868076,-0.2891257181525907,-0.3141507067942366,0.06631935883907977,0.2028957309793086,0.6048415693536191,0.9564895733984939,0.6020129330299603,0.6725687855790808,0.3106131668964986,-0.24061150714728147,0.09732868321569077,0.009287829461947889,0.703790385935808,1.1712491422803646,0.3136783290003969,0.14323892030117533,0.3390004652081615,0.6928262586958102,1.113907531098495,-0.09591022926492987,0.18193643073313168,0.45371376852932105,0.8021212327411594,0.7244171347074987,0.1494538412388519,0.671411781139554,0.37922598459491647,0.23696266551271347,0.702078911015673,-0.20989000950425507,1.0338424538934783,0.08667035085420721,0.8052897186778604,0.7278458256546613],[0.8085773710185085,0.958991228317565,-0.02717450528495781,-0.17336491466986995,1.0093195964272692,0.8324453636386424,-0.03975199241124846,0.04076986249161695,-0.4393126894062909,1.0332245943760678,-0.33346539022358906,-0.41164578186881245,0.6919153939007945,-0.3467986408075054,1.5741447079497408,1.0366055811837345,0.8134898172653315,1.1738522356055365,0.5699504563674824,0.047836071420406426,0.6106712141689787,-0.6793017420872717,-0.3972014754901561,0.9385768743155434,-0.22675746847537356,0.29908279208972705,0.4056675018123275,-0.09791175705244057,0.09392618167950502,-0.3782544948557874,-0.06435267737894967,-0.03821330178920115,0.2778355949326049,-0.4516533935503971,-0.10321781340884824,-0.11192551224820922,-0.4179324789968458,0.39947242733438976,0.2384503431022002,0.46689038623263934,-0.9453548526531467,-0.3719341822241155,0.042073658030704605,-0.4919992978676653,0.5185328308976455,-0.4391110039751158,-1.0159563663070226,-1.1748641110789546,-1.630157962683417,-0.03148983265580973,-0.7668899294587355,0.22764953456992548,-1.4016004966463862,0.08601331537556613,0.5008291149176939,-0.7542144999189456,1.0192438201027916,0.04314583417855461,-0.5552472204814144,0.9141258114393943,0.6882428239063023,0.34096457647657924,0.15388611692647033,1.0802731714567966,0.11503970209531975,0.1714463489056908,0.7569939771788773,-0.8085760655831334,0.6089804529711269,0.23234620969502387,-0.32654180872162974,-0.5857813636445585,-0.19450401361413835,0.09863770452965169,-1.1436158691664495,0.5956721263406768,-1.2081908382452413,-0.8985824391654417,-1.2170374912112425,-1.4702551994377502,-0.35126338413019137,-0.5112660270510075,-1.1028241066506381,-0.04980265818356408,0.06295125215710588,-0.13083100543617837,-0.4141193066790789,0.7357601225220091,-0.18233455121792647,0.4324922355723434,-0.41298271399518854,0.3026603470595594,0.13664310057868195,-0.14290101490035248,-0.25142936243361436,0.1355377996577165,0.21118100860734634,-0.275808788887899,-0.6762281034734269,0.4612662723375878,0.9344676310692532,-0.1584901942105775,0.3011036832974015,0.15802575937867616,-0.6666225165960526,-0.6775719654753734,0.3217655340593432,-0.3946843306124909,0.10325224194898852,-0.6445438005675999,0.5791816759310477,0.7210514350428021,0.674952174924293,-0.056901299642439375,-0.2384718530894672,-0.46292575051179036,0.9523916414909495,-0.6055850774568334,0.43762596978622476,-0.37611376220223564],[-1.015687460326173,-0.03766165560585196,-1.2956416169277691,-0.5219275342948362,-0.4509019915240228,-1.3247987913849903,-0.8520042101567886,-0.5772561964305614,-0.7751797523660486,-0.19284639973166073,-0.6589350941459362,-1.136807921998861,-0.7534712816040656,-1.0443163148018604,-1.981815748762569,0.39015660684988024,0.05794368024855218,-1.2973161558414132,-0.9935630037760041,-0.29328616591131346,-0.11769938410589503,0.348704247593492,-0.32107154631527346,-0.5339558965143043,-0.39718912389254973,-0.40521200745909913,-0.25104777004917755,0.373184253766716,0.14794252929613635,-0.6029775476138115,-3.423428456267557E-5,0.6785253532111839,0.39665131187057445,0.5874844666239207,-0.3159881465707209,-0.4739674898824339,-0.4273530248000349,-0.09949163553795382,0.5344691213793012,-0.035480333473392425,0.44303231385603997,-0.5811034983184908,0.6242141962219029,-0.24930430695774833,-0.8004193121582952,-0.25590868456707894,-1.1323834435208942,-0.13917028543487187,-0.8369350753204768,0.4973060321727442,0.4601076308044136,0.785704230651345,0.3918403123143141,-0.32106358595090984,1.055368662207863,-0.3985110942516798,0.4242954671226811,1.127848427250971,0.3351763727607692,0.045969784050106786,-2.0187127071006685,0.9111975835475655,1.4041700801757264,1.3571292730702484,1.363639532762225,0.0811489751073321,1.4112073262972205,-0.037866529707140086,2.3204245575566453,1.4248855372793947,1.7964258727731204,0.7700175817477197,-0.9632373986705999,0.5377940175049117,0.8344104155988349,-0.09602150362915567,1.2038042439910093,1.3233905947905624,2.1033532169248126,1.1006456597523813,0.9968121108431607,1.7012852209749445,0.24446065771858466,1.5760663002300581,-0.9569756016278264,0.61513535263382,-0.034476288465846223,0.31496354050944303,0.42023023749682425,0.1512531811463403,0.5799642466680068,-0.4286834230202007,-0.3462194376706954,-0.052998203371813137,-0.0851925457600721,-0.27436297740437937,-0.29555627130638423,-0.18724367988440854,-0.08689086184596609,0.47660855195057333,-0.3404956899446762,-0.4928957289250055,-1.6116871032414997,0.02394294299998001,0.37975574962930864,-0.8251103177702288,-0.49183253437127017,-1.0615156377683825,-0.3212325485399165,-0.6663419168526798,-0.07306715624999771,-1.1650890299987116,-0.7015377949354262,-0.6948042415427904,-0.11280712937795687,-0.5459877147613215,0.24724791987658773,0.29660398894929035,0.2607821777493189,0.19068852872411168],[0.5711659908768704,0.11684630337088363,0.1807368237084593,0.4077367870273034,-1.0509592851047298,-0.7831530989407905,-0.5976703578311179,-0.1587540999994472,-0.046617652502863524,0.13590210396931093,0.5066553952392304,-0.922749126364984,-0.08491831177260442,-0.4096164988067986,-0.7376162089668902,-0.6507480048719859,0.16129503811095677,-0.18093387250350199,0.1483808296384778,0.8342332729451322,-0.9439407092528457,0.4080060003953023,-0.06509342846458885,-0.7884174078769605,0.9857487543075899,0.495818648132013,0.4607212249355531,0.24514861755067516,0.8020041210994211,-0.0013653076809578635,0.3520130098303462,0.4889381635444848,0.5922553125746873,0.20785249362523978,-0.4450107633537566,-0.007060236994275324,0.9500793007209759,0.24577831952461063,-0.3767522590837737,1.3290685141979899,0.5706173394754278,0.3981764451388983,0.3039404073238944,0.4548798950312509,1.196381481472317,0.7941485992631441,-0.2708960721725172,0.6244738707844537,0.8727213472219066,-0.1471358429431418,-0.5765614237052287,2.0107587913053795,0.3733818131804874,0.5465320542179133,-0.570028639046732,0.7966887003875591,-0.16326044076627896,-0.16628179073113178,-0.3732085660374086,0.3634731498332013,0.4563103698021208,0.29937431373759027,-0.7362223163623088,0.24859803536338598,0.2386347490095938,0.8950516219682925,-0.38186144558807894,0.26894829975129514,-0.40569441208845375,1.2206056713582618,0.1463474366125054,1.2901856668325344,1.4767952638194881,0.08362765652547527,-0.5789627830541917,-0.6375191967413429,-1.1749497885329485,-0.34959598506436756,0.27571561466426503,0.7879627824965342,-0.47984959051497883,-0.07639953822695959,-0.7529066378755138,-0.2820699800396221,0.8548659650148,-0.7113811290972418,-1.359736234066244,-0.3352649097456191,-0.5308369243111911,-0.24490797615280274,-0.4199901485666631,-0.41027473668084313,-0.4987079972697903,-0.44031616351399305,-0.02023197041899725,-0.4105338203100498,-0.0073018546345980885,0.11470002699338552,-0.929686035994619,-0.22678550150708807,0.5241764676148722,-0.616535289135182,-0.6477526121590299,-0.3982797068649009,-0.7687746012716979,0.43625082328099807,-0.7859465250447965,0.09868542766741077,0.08711619369904809,-0.4089447112747221,0.32526065701143037,-0.6512494600259576,-1.1725438172986442,-0.3847827421165997,-0.15460644408820037,-1.2127708656550364,0.2225667759289722,-0.2626127885327604,-0.41960877585431056,0.1634293045164856],[-0.2549995331862021,-0.9203830979690193,0.4126056676140789,0.23261488875579858,0.20400524913295384,0.3258927691234006,0.1768751436517577,-0.26162571140154695,0.19413469496598415,-0.48917367191437017,0.6221278272507007,0.8015897797467488,0.07785389447746092,0.07032914714380914,0.1855007683530024,0.007773261498303307,-0.3636542710689248,0.12834750013439708,-0.8926085370624832,0.08041096032626556,0.5709425690471694,0.6551237977884079,-0.19052567049983582,0.8402352722054598,0.5280258603257326,-0.13216302468380678,-0.3872655815142828,-0.8391015173725092,-0.23817821660643376,-0.4298825470613985,-0.07648850810410934,0.1325863430343463,-0.0889746783452639,-0.018610839512825723,-0.4470230037520893,-0.6323877887412592,0.7440170459853571,0.38412190681044595,0.23956105697952493,-0.14250670640865082,-0.4852374920497235,-0.9547403165118508,-0.228504713907655,1.340841449835878,0.33444262976693645,0.7304281067419124,-0.12308108783151493,-0.44131145115455583,0.10104530145142318,-0.11480912464995022,-0.9930973336727397,-1.5884287318435737,-0.6429405923837388,-0.09052725982689808,-0.24239031172817244,0.4440829182479173,0.5679183474177028,0.21213603205386392,-0.34051174264522976,-0.8257506327784917,-0.35482406735795813,0.2878282309425494,0.4800928047107113,-0.5823584595731711,-0.12888459167827268,0.7701843476465065,-1.2178927338245416,-1.3284591752152384,-0.27518721901130283,0.09169674279743734,0.2740534700858621,-0.259465540463753,0.5371247044392794,0.7280121387525381,0.7464699467006758,0.44174259015736306,0.2752720021816343,0.02744393607765573,-0.6365036466169574,-0.07059987168734477,0.28670758849508776,0.3166235572699976,-0.27195581413440084,-0.11686769861121883,0.4572193556388108,-0.049372534812583774,-0.3404323585528861,-0.5060557692300568,0.1479108492540819,0.17815920010633157,0.1678368277183078,0.07206305047416277,0.43115094003309,-0.003669404003141953,-0.16485461276920646,0.4038009067629521,-0.2891694910998122,0.09098202171621786,-0.23046651688511743,0.4057736192344602,-0.08763841942560821,0.11401135614993237,0.298463296779396,0.327864836068658,-0.7838990259485057,0.1258601578790036,-0.6560521610134076,-0.5076275832266128,-0.5752139617276544,0.30879549235094395,-0.23188823690631458,0.16736451788407727,-0.13946706169062956,0.7981366034906126,0.6163820643932514,-0.7840351036841073,0.5876592689193951,0.1899211961749713,-0.8151455725261298,0.41595978110548804],[-0.0745136781989629,1.1116079788107582,0.04380490293895572,0.8915237851115245,0.3432499345795608,0.23619786015466054,-0.026121431473969677,0.9864834151794226,0.38477977915910616,-0.1404819316585756,-0.0621050385037036,1.0538177444875154,-0.3093418777061994,1.2445283717967295,-0.02610891370502743,0.7180079250705853,0.005044019800937277,-0.6866736817804908,-0.3189728796856846,0.12341882895924204,-0.23897777504776457,-0.8557611559203199,-0.7472995303578831,-0.3821165525216465,-1.2228932690957581,-0.13314850511703283,-0.3879441581662343,-0.5485943049567841,0.6594171379618192,0.1726562162417209,-0.7736916538282423,0.23437740787219896,-0.40840651475318734,-0.1414149279195931,-0.7179530738270414,0.08429478594031188,0.14997956753115566,0.37830237534188,-1.020259902261962,0.4339245948903456,-0.5236808146396107,-1.3716405507230325,-0.9391465658433924,0.41303030010958697,-0.7496322715690533,-0.35221902110736636,-0.6158281623331983,-0.45501533469789035,-1.0215233460818411,-0.9763536224167031,-0.1467319806114315,0.7321553698669147,-0.6930632443266427,0.14868621903768867,0.2840414643249896,0.2578787486823718,-0.18145249883764916,0.21933232910447786,1.1125083055836609,-0.01395538036039843,0.21411505060169492,0.3710659219277493,-0.6388429933359137,-0.20572788922323923,0.09280455522497287,0.02156961260581585,-0.7484820073122253,0.3121034104566323,-0.8001799905094998,-0.1299359746687609,0.5848431245233298,-0.406922748805494,-1.176146093630895,0.19433586203069805,-0.15615188805889296,0.4499199722855755,0.5587040366103836,0.2314344437740676,0.20068909588908568,0.5046159781046899,-0.6621684859796,-1.0908835818766898,-0.13421495891184876,-0.6642945680901814,-0.11122655684136518,-0.40607216156035647,-0.49744628702675614,0.015734392214183848,-0.37533126052657567,-0.2210980660106079,-0.28780555828959636,0.5158430953955452,0.30368383654482095,0.053471823233456714,0.3852844606846058,-0.19156419647540424,0.5927762948089641,-0.12858396996925814,0.33547381000456994,-0.38849369171431797,-0.23347403705389025,0.3859884783843604,0.029868224381417577,0.2685932955106239,0.7690471333487259,0.17680508304068493,0.7232833133970016,-0.04397498034450265,0.8573462540999253,0.4214502855537751,0.5087646882612396,0.7771628667923842,0.2945381561088957,0.5545434207223103,0.1853970854106619,-0.45128803505516607,0.7944818431450689,1.1550723619364887,-0.20772293369903505,-0.33881171625242384],[0.20989274639373018,0.95672209726034,-0.052393851786811454,0.4403066640518664,0.45229879267351764,0.10272949030203367,0.890821229216234,-0.5581361362783176,0.3343846408151448,0.975904896948207,-0.39181190968268104,0.20986669302712746,0.09733666362082656,0.5316102796255667,-0.14062064475463962,0.6476253318700825,-0.03652291037496189,1.0698530508270847,0.19195094439696314,0.2771493505398056,0.8194504560612178,0.06446995102808739,0.36308186368058326,-0.13004453092775772,0.3595543717869139,-0.2671822479851965,-0.6249206695613209,0.22593636059525457,0.12388352759774816,-0.12348776557959293,-0.2512271495831992,0.22398275993639685,-0.22581938821044767,-0.27104924830463073,-0.5612920867800317,0.314652672139189,-0.18339871408254027,-0.3087765088585777,-0.7182907751215739,-0.7168029122727796,-0.6496606405023244,-1.1573967614521166,0.06901697953197519,0.2608278031980778,-0.14631698963719914,-0.9611917131732864,-0.7220856078341192,1.087047299931659,0.9814524859962865,0.1950724368769569,0.599097496364995,0.5222662797158687,0.027317455618376407,-0.20647319275020326,0.8073018031156913,0.2642720308471855,0.037825827085727085,-1.0707294654032007,-0.20085344924205828,0.15493332438326388,0.5860436584197505,-1.7050555552201652,0.6634510057346383,-0.3176825193736917,0.36460609223083124,0.08214299762772968,0.4740785477002005,0.24012096935770855,0.11746154361534987,-0.35150436389915324,-0.18680938639502132,1.603376652598637,-0.7149515808377599,-1.4020576426507567,0.5703962727250056,-0.06316471530742679,-0.8824028524586635,-1.1476027751883187,-0.8910041836037073,-0.967691060554305,-0.7904303799147547,-1.291684606719037,-1.198697656438333,-0.04956684748903897,-0.3571079669076686,-0.7086717944353937,-0.014210836866667957,-0.8778899761960866,-0.6702662531847443,-0.1276257177346004,0.34206874854510727,-0.20611089046964085,-0.41845968129229055,-0.22166315136025977,-0.38613795522846606,0.6104363249203751,-0.07649503975035353,-0.14265152531892528,-0.19192115288483524,0.4357623733497012,0.23914982688892406,-0.14815277998165738,-0.516216064505934,1.0183719138761176,0.5072964708802804,0.6262643435794163,0.11560471373535068,-0.1840637599792347,-0.6984346193054941,0.4412709771443846,1.024750581510314,0.1907581753504159,0.1316004346509903,-0.12096044910263971,0.13999157721391825,0.8832528897201849,0.36967220298507836,-0.11872847034027857,0.3079180350077348,-0.4389814862147166],[0.7472895682028005,0.4669694562026411,-0.33625003803296893,0.13411843948493662,0.34224830850617793,0.012884026585587299,0.027366930786485905,0.8362930414412284,0.5842768170035464,-0.24897824428762608,0.30814813665977314,0.9294165935678194,-0.52263512463748,0.4893851247318859,0.02393272448154212,-0.34891414441838986,1.0653989845486027,0.35196995990035046,-0.003986669903812693,-0.14609805248593913,0.48802984902987046,-0.04254577677167429,-0.5073628994594758,1.2311319732154202,-0.095049324991297,-1.4217880658934163,-1.1475273648124016,0.4290679829238251,-0.27222674339232306,-0.019236415858685577,-0.39248618852560235,-0.8747062463592469,-1.1068177070726601,0.8152616293865518,-0.48046217188487733,-0.0502857443825609,-0.6451650590397792,-1.63271717295826,-2.309570319647288,-1.072115358722137,-0.4601425252943118,-0.702237592596612,-1.1202860671395376,-1.090543209214535,-1.3836179836549358,0.5367335106705737,-0.36153226572860797,-1.1991967559713612,-0.6198579219257411,-0.6692674464841816,-0.029471304269996723,0.8754055075003293,0.463409148846215,-0.5260239286560767,-0.7973188010611602,-0.6495376494005185,-0.4397129830972206,1.865399278647487,-0.026545864728606965,-0.05742322557373353,0.46010537073308616,0.38108947933791326,-0.39504354228105404,0.07156031250243831,0.47225880874715115,-1.304774273981937,-0.922893488305588,0.4194954018229241,0.8096949358794475,0.02046339009162464,0.990726720952046,0.04890320407327711,-0.417793480673322,0.275258001555315,-0.16790632553353657,0.6683552308846431,-0.2251819456999791,-0.40933596037493586,-1.0475189632610515,0.27047554256774664,0.23841421461015203,-0.9352003725830204,-0.1772444306891659,0.29418107722538767,0.2725412247758183,0.8868318171353184,0.10310024583047928,0.7239830837870843,0.002694644227315153,-0.06965493270849397,-0.12340938797035818,0.9951198293079733,0.04420503287941925,0.6967828667572497,-0.06978375515196417,-0.2621360131326055,-0.2372253415349,-0.1902008196625064,0.06632236995022422,0.3163829243235381,0.004941762212352499,0.8031843110877093,0.40346195261810813,1.0258923342198787,0.02674197532387029,0.6265508181196673,-0.5279777506469603,0.1804041911948928,0.805730276900257,0.1176111633714014,0.6762244888582161,0.4586949002510573,0.6749788467918414,-0.6390050821781657,-0.6626110166244885,0.3574102072709907,0.7479205493442256,0.684490396099799,1.051753778266817,0.9801422633382431],[0.2626844437105805,0.12073058874503574,-0.7391905929677486,-0.6811730316419425,-0.17395901629820718,-0.779311910128574,-0.9128337273893877,-0.7215172021085737,0.45793860535833725,-0.04452558629655579,-0.5596945100229559,-0.8830009139722764,0.7271883351872771,0.11734774109555084,0.3841949209029053,0.22750921857483228,-0.8661808863675696,-0.12229426659764274,0.24378542768864495,-0.3890943763663714,0.43187600441141977,0.6774006075546383,0.10424834683141956,-1.0419271200231286,0.05211804209935848,0.13573560093424583,0.490459340573385,-0.11349020988720988,0.34829585335644186,0.2579358518974646,-0.5055617259665292,0.0398670417297272,0.5426355643902369,0.3809275060062631,0.08704749833619019,-0.6225386787767414,0.05497184952018812,-0.10129298694848789,0.32559554346634717,0.11468917952310702,-0.23460727114838734,0.474524258252048,0.2771644266353523,0.40064599497366005,-0.36523638195458275,0.8182530393475371,0.36556568647895443,-0.12619820677091936,0.7181094525550406,0.22859257305493963,0.6304746739812801,-0.20348217556148035,0.5334144975510726,-0.023289497298145275,0.33062805664359546,-0.3050260754863871,0.5513389553549983,-0.8061248051536328,-0.43987553744252395,0.8758943522278292,-0.7179710768060144,0.38012053182409544,0.34142642371407217,-0.6127021214496576,-0.6740974682773389,0.39811264053097317,-0.6818443110180498,1.0225579695263254,0.2192490702041043,0.028443249633643017,-0.5859343378979963,0.18150915172534762,0.040396378229764975,-0.5716911466161145,0.5937953673605718,0.18477033745200733,-0.15788993468957618,0.34689458818588254,0.1030757453686028,0.8634635204016095,-0.6500209724331835,-0.32178597758948,-0.6406691445866595,0.2122698614448704,-0.7777678798060682,-0.46808601102992153,0.7926366077825715,-0.11218860897473722,0.405168025242269,-0.06755279015044742,0.32086041233427326,0.5571563163935892,0.2723698491624846,0.8987420407165104,-0.28347157723945465,0.1344223172491076,-0.18720194445887142,-1.0039074754051118,-0.893572438930928,-0.044229788551938994,0.1693905176960244,-0.7610057771859787,0.8553714109199981,-0.009485801131174072,0.8267688612213897,0.13979611579100934,0.7068473421159719,-0.9537021777703429,-0.8214432860697916,-0.20993850021072477,-0.35297170343116796,0.7452888931311561,-1.11883222215984,0.5686490535299535,-0.788670973837231,0.3057172114736177,0.7369868505412925,0.06268244434056267,0.45021058405904585,0.4234148272222787],[0.19890446304499163,0.8394272788436504,0.4666886213967491,-0.08816195346932112,-0.1804858118341506,-0.5391529116940391,0.767327439489539,0.8957320882735721,0.767707857683574,-0.2837241678325309,0.27325720538124393,0.19908685597274142,0.7671122141468228,0.5474331161070208,0.4917332232995197,-0.40468933820021974,0.8684597255800001,0.6188216820530182,-0.2616474478974787,0.04011908129942902,0.5169797974993092,0.7523928047738244,-0.45545705977893164,-0.16452593049086287,0.2669507211358741,-0.6591611454539751,-0.6806763870099423,0.6200337751082928,-0.7978873392618333,-0.387869779479051,-0.504905668480254,0.6499176965355536,0.4616793701422431,-0.4257345228073901,-0.09193288379558219,0.10603989530076736,0.026650172609874206,0.996425142902604,-0.3165102981833875,0.6279666290739123,0.3755258584047803,-0.16565631934246686,-0.899249894402227,0.8529417301840186,0.6006282456223975,0.005345546902318388,0.45902673379289216,0.035227963341604905,-0.21836334166936539,0.9776441950326803,-0.4725486349768319,-0.2863974749466471,0.9567312661919594,-0.5778748931676042,-0.269961736023789,0.19055712069413452,-0.3147873879888479,-0.5829697804486361,-0.5651264297637794,-0.37606097441282316,-0.5227064658427933,-0.009432271200564031,0.21564583320512734,-0.38881984663380237,0.19786755692334348,0.6621729799530081,-0.574547984316067,-0.42879127636007236,0.5474299791226823,-0.51114887942686,-0.16020679343680333,-0.1945298485991557,0.8867128957535597,1.0015264021719539,0.49533986462014923,0.1992023968547632,-0.580066783913825,-0.5586725826471794,-0.7214842653165271,-0.9622657741025847,0.5435616255977019,0.1337280835714339,0.13921619451610065,-0.40149596098968054,0.5210377952064493,-0.35271289086671515,-0.13827348903030295,1.0169486646485637,0.09605146651273745,0.748898590045298,0.4681300073331697,-0.8619477689764877,0.006822350699222342,0.8559598489686436,-0.4441887785285512,0.9361889548155907,-0.15474422810282346,0.944330256763508,-0.6390126983240677,0.7882030230890584,-0.016120987513334354,0.17981649509299386,0.7247973850767049,0.4701860271290514,0.14239019970818287,-0.17577031719752145,-0.43839351149679356,0.7121840325346585,0.7721776281310739,-0.018672382887175334,0.11141269993542721,0.8735996606847471,0.7990738950306747,-0.6664696234344953,0.8482178343193014,0.22509867066927838,0.37993336125725596,-0.40858745333690893,0.8394277524724186,0.9423997049712313],[-0.8234526151640982,0.7404273325735693,0.14258161087862306,-0.5148302557811542,-0.28244967123364334,-0.61914988087972,-0.23912175328796112,0.3786102082155582,0.3786110192400702,1.102873462869629,-0.41213304733237394,-0.7700047689863576,0.5915044373936376,0.010849167114781896,-0.2778741339339907,1.1464300661277405,0.3494085820306864,0.5995084942891431,-0.035307092613868114,0.9523492694583396,0.4409963214114247,0.8281368768275293,-0.6456576810200042,0.43828005281711174,0.543637822220841,-0.5346783389180998,0.8044039500312014,-0.055656521487439846,-0.2975807197131261,-0.21364694274643486,0.9105887823008906,0.9647791853553157,-0.08530745774002775,0.20723712065492075,-0.6603790678051695,0.5023436814423586,0.6666388880602713,0.7152700464842967,-0.4538611234645262,0.8011127695346744,-0.3468608198499027,-0.7244671425213698,-0.8088139324984659,0.7284851828203721,-0.70633218385595,-0.7485055316496301,0.03678006939751931,0.5023196446170582,-0.13864389254825762,-0.46169020697292584,0.710370355954898,-0.8041877150695781,0.7950407614877689,0.393184603372047,-0.5895594655643318,-0.6264555810449106,1.0163621638007636,-0.05810931672918907,1.1808410602623274,0.962041623742012,0.9162290686300391,-0.7022320992462732,-0.19223185512360405,0.7356180710945956,0.4895539155129955,-0.01891148130722563,1.0627059453803551,-0.4488122206397304,-0.8378201950313233,0.0033950365630528636,0.8476891624330098,0.6170826203281911,-0.245194283993526,0.24577989854426183,0.7690790576560559,0.11758346132937131,-0.0833088838142738,-0.24211065984957936,0.7634040833309023,0.36103360669707624,0.31740621816900016,0.7318895114796916,0.4549254853129217,0.992854897156822,0.7794962464092723,-0.35943658159277003,0.4066107251995915,-0.45654807969586525,-0.25940733461599264,1.0331967558912276,-0.6509593655476226,-0.5356592477705583,-0.153829318704859,0.0715951684639033,0.6372681024616986,-0.4994380163929029,-0.4220248643774014,0.8007370973599047,0.592004387742232,0.9070619644639789,-0.24728139496022983,-0.3624988654054154,-0.36760453471793453,-0.42601405998796726,0.09876275073572983,0.5894219834966592,0.7331890782010868,-0.7136316665044049,0.8994604651601634,-0.7732649659920996,0.862682831141556,-0.07232698176748749,1.1473350271195086,-0.5841057526599815,-0.7258400605100769,-0.4414967955801655,-0.6172017320126926,0.6351393877553696,0.15805121051972168,0.31305670311531214],[0.48349272024425394,0.47517327697646006,0.18688160005101373,0.9747666139559567,0.5068178350531676,-0.18027640585556126,1.2087103380177635,1.202660950425524,0.8408185955531807,0.12371772197432622,-0.5825218365934982,0.3505860185168964,-0.22020487949542944,-0.02002253186348287,0.014379571838842448,-0.4458556021065524,1.1484561673292806,-0.681248328600703,0.377131918091152,-0.4234248003926657,0.17874961019438862,-0.29672186975299386,0.4854315173474834,-0.47595741488061094,-1.2568973544254074,0.09076329216091852,-0.31734751156844826,-0.1301308234023763,-0.5671946030815314,-0.4948004556567324,-0.6281138188752764,0.6281244629560766,0.21777788668912537,-0.8176777255392876,0.30118573025163003,0.07713788478874484,-0.38921360986090037,0.540164343515037,-1.085968791690715,-0.27423705258646186,0.7149318846100564,-0.8179552228869958,-0.11917614263194716,-0.7419199265147911,-0.4446354561176296,0.20719831540423647,-1.0201109328476177,-0.9331158358378034,-1.015033788827038,0.29430473670965573,-0.9353747130013614,-0.6472136613914397,-0.22811468078053068,0.571077487467616,-0.4759371316493646,0.010645815955709147,0.26019184318134264,-0.47944132805809403,-0.4678700583247576,0.00621254764318615,1.0059685745064075,-0.4639898972970651,0.652339166160606,0.9487597648188871,-0.6322758530871059,-0.49744490058226043,-0.3738042831047757,-0.14737660087317825,-1.1441067931501598,0.14471740061230226,-0.21082882607309633,0.006732610885510853,-0.5341977958515902,-0.5692655178538417,0.5429646509175083,0.38404377430951087,0.33337481137303543,0.36501008070536084,-0.9295483563393799,0.2719636749743626,-1.1158478755893082,0.03363879549715857,0.3591977569976704,0.014184700407495372,-0.05608832461580102,-0.8112401316952738,0.3706872643373393,-0.6068008061949097,-0.866743578830299,0.3814504789465546,-0.07144881299103042,0.7181117019647376,-0.004873776079835106,-0.15903781468609693,-0.16527737741432488,-0.2203560743518262,0.8200197334900159,0.35563441805237594,0.7006579914625521,0.9716245415053436,0.6350799253532494,-0.2208846100105123,-0.22407082675287948,0.5289400850111191,-0.6170577061676429,1.0363313124859501,0.9481299954226295,0.036076017531508305,-0.6004816050726337,1.0325186419222128,-0.12396456863993682,-0.027870274935219062,0.8903302800144918,0.5814906772873759,0.2175511316170079,-0.547584194407008,0.682252263814482,0.2659037386107864,-0.561486610599642,-0.14511024245288684],[0.16295601799256945,-0.34098171849577485,0.8130239635629345,-0.10246384474585479,-0.06591324284354466,-0.43774639810388727,0.2949880780379308,-0.8413892210666053,0.15970648052456457,-0.6140146135442931,-0.673876698613218,-0.0187438002144016,-0.21837886332652712,-0.7581750874466836,0.5828147231441776,0.6659470735415244,0.6171010697283396,0.09694940579031629,-0.11114479538683755,-0.5342664417223897,0.561436713567992,-0.8893461932974422,-0.1371943224898094,-0.8130920848089472,0.7103460675736288,-0.6358357602193283,-0.43642614416402714,0.19297362451208352,0.836868512704425,-0.23151236988930643,-0.5875496597113843,-0.2350466437379843,0.11079740207103875,-0.7012544480516044,-0.3543848610677641,-0.5738418924059686,-0.34687813582548,-0.5500228771952974,-0.7936989564726561,0.5286869947542518,0.7076950266374304,-1.1625252058452815,-0.4499080267697429,0.18648698905497582,0.42458000022760334,-0.2865569218264795,-0.52391266679344,-0.8503262932342966,0.7998214333925231,0.6959917005558717,-0.4172091816567266,1.4488005304238034,-0.010241425680776472,-1.375642157660905,-1.034568114124501,-0.8423053154707469,0.057678948360429916,-0.4974044899850917,0.13049845156007747,-0.6187195573783087,0.10943676756022862,-0.03159530531194828,0.04242808292275013,1.5990599881478293,0.10685786462561501,-0.17694968694142824,-0.44849809858176576,0.16129735742941076,0.6984424715204772,-0.6594671671675022,0.9975003479798565,-0.944400611400289,-0.19263377922641806,0.9162526131817684,-0.39759908991312026,1.215608145638268,0.4276142568145504,0.8093573162112071,-1.3614163326888993,-0.33395269986983,0.6223838431129709,-0.1687760844991479,0.526738135422769,-0.805760256600305,0.4375418695869314,0.35530016273989157,-0.39767479381329673,-0.4133698237697892,0.1582792181197761,0.5451622426206217,0.27947984333440545,0.5248145396602805,0.48813349057571015,0.349934340857599,-0.09989502813428267,0.2451205670530672,0.8193813075999551,0.6993370101545927,-0.43912087578809933,0.8459410067327838,0.1384347336835807,0.3531208564120144,-0.2654189295421059,0.2515922112469916,-0.7330198511718874,0.6762252614780452,0.7618730970010127,-0.6552272126468096,-0.7259355038685288,-0.5144141003285555,1.093032245551035,-0.318636835330517,-0.5750332977422704,0.31368411892216364,0.9725941652632472,-0.5327492339249903,0.723575685198112,0.6084401697813558,0.6582606842546023,0.7755958074225356],[-0.2549243111274962,-0.6247415950899001,0.6212526407108022,0.43359811217053984,0.5251078933819121,-1.1234964261936546,-0.8439880808593193,-0.701429419876393,-0.7514883873910364,0.7717375055261956,0.14471867498150812,0.6067017812403538,-1.1355588249438968,-0.864484417722695,0.41862654746112526,-0.21101730755452694,-0.6037870529950832,-0.5816217565409844,-1.0165305056012588,-0.449592560972928,-0.2154793482226309,-0.47362475902344736,0.2824037740653796,-0.11927724857240338,0.5893442100280869,-0.26393556376745475,0.6788858352412628,-0.8689423729654923,-0.1446980841178096,-0.249751957722042,-0.4900307359106075,-1.0086687222930433,0.8149819038576631,-0.46645253556356386,0.6541077164899124,0.1534255877364774,0.3905770808123197,-1.051541126651812,0.38883140299438534,-0.800847331958765,-0.4123095075975371,-0.23140639735245702,-0.1503886015522235,-0.5377177527115516,-0.3287107082112124,0.39283673594818996,0.5295117238618189,-0.5105533541993377,-0.76915105992667,-1.137560408820536,0.5625674801272122,0.13041328355891055,0.20237409913918622,-0.030109799901131173,0.11148643407631213,-0.5804181770032346,0.7639709892656767,0.39261847637009534,0.7020808675274546,-0.3152667245938383,-0.4028353247544612,0.35687378446895673,0.2841266048416929,-0.7283098771021752,0.02988759886833067,0.6806201367555113,0.46352329698664285,-0.28695040176100656,-0.17195256388717917,0.304417195703975,-0.61543949731995,-0.8406943184200741,-0.02318096557927371,-0.6985949314831414,0.5078950187340503,-0.6872682308397259,0.2968052319804631,-0.5502264926120145,0.19185877419569455,-0.6603264661090287,-0.3880193908524002,-0.5425438416443762,0.06673527179415732,-0.7692100950417795,0.525416437216164,0.061551499882891006,-0.07624660581796598,0.08822199970069274,-0.3624268074847101,-0.8702288048339389,-0.23902298250742024,-1.0474426836665605,0.6048403343716453,0.7686608594001301,-0.7353097464277839,-0.521279047750449,-0.7451291537399675,-0.25994185549661514,-0.8845530878548,-0.5018852224387513,-0.7754122375910413,-0.34830825444845775,0.6038286210885078,0.2695795565347102,0.4617351195545009,0.6572642448923451,0.34679578394493155,-0.2788898915446527,-0.6309805355940443,-0.9117905852953784,-0.18389538312310338,0.20549264151197708,-0.3236733029143646,0.036707905630199274,-0.10542282228599735,-0.3296472908523047,0.12037146347498862,0.6995081387021527,0.3574689385621777,-0.7729412016572526],[0.4716459305996234,0.5404755657158098,-0.3110769739749692,0.5358592864096976,0.05366960069339266,0.19812459174402253,0.0771499469692758,1.210344235706254,-0.5868026695860276,0.055633285266802196,0.8898588794309823,0.8145696864005798,0.019648043000015145,-0.009063385701674384,0.16431226275732547,0.7801518955106106,-0.0030331987266483855,0.1112097942102541,-0.32677397359663246,-0.2560533182564045,0.44392594180619477,-0.850665864572588,-0.874507208476058,1.2233725325045166,0.03897450613346548,-0.5333077450505301,0.0804299775684576,0.16467884221132195,-0.22230465843896396,-0.3853148766205915,0.2351981776854583,-0.6843766469350553,-0.01219668811996826,0.09723008097169268,-0.6707803300750006,0.21089527513604528,0.6495554866623222,0.27606580285986737,-1.008258731885499,-0.6734890938460151,-1.1733187839404138,-0.4542316450233944,0.49465405687119135,-0.350419750963025,0.017288395496867517,-0.2323098122178143,0.2969474156275141,-0.12236156317149648,0.30324456587227877,-0.4144475235209528,-0.9500899006103515,0.06408277302805777,-0.793844393801294,-0.6330390187428627,0.4857728291058112,0.522900954800668,0.017322738862562713,-0.9801011116825423,-1.1516752398181176,0.29628159918061764,-0.5459885932659747,1.2571757857161892,0.4760493702196068,1.234625796761011,-0.28999167328345854,-0.5115560149864349,-0.9205731549660527,-0.6935502953067932,0.4657743657928261,-0.7748263718883714,-0.22061447370148954,0.11021734490373618,-0.20425759614318967,0.498111822167777,0.43177545562930064,1.1200717573007448,0.11939512691131507,0.08328375419158449,-0.1412969577712717,-0.018681376380290826,0.5865145808595987,-0.13267030151882708,-0.010784749046962043,-0.008653819633784945,0.31601581454520644,0.28583985709502807,-0.05825478832044036,-0.14766124800924904,-0.5844435983667868,0.16505657877656874,-0.47836462211281217,0.484156043404074,-0.130074344283277,0.12021281264715504,0.31736435882443165,0.15612981017543515,-0.2925225727882942,1.042364158216887,0.28638375740105126,-0.6062403823075895,-0.3530368214961242,-0.29865211014058646,0.5998151965232132,-0.21232926674138286,0.6359635966083096,0.6838790700965902,-0.37106998635414806,0.7435017837297622,-0.426631327246045,0.18540206461941955,0.3023079874948144,-0.044247568615606095,-0.6533373167665811,-0.49039626286039306,0.0643790564701569,0.5571458935647483,-0.6619450473201167,-0.38390699807210876,0.5533512209674936,-0.4035628488334794],[-0.7701559921325228,-0.7154615491813873,-0.7298099641053125,-0.40473765473476214,-0.5733200568377065,-0.5395894691525934,-0.6813146526982282,0.8981927614267177,0.5853744995554778,-0.2972978521553959,-0.04394171987879524,0.6163464883390605,-1.1912623981100816,0.17188640048575848,-0.11503920653505383,-0.28076634459733957,-0.3311037931027216,0.9126984969550714,-0.1052469820383279,-0.02713305144765156,-0.9336157542762212,0.10071190622610976,0.3949079055343602,-0.1393004605580912,-0.6131565906569597,0.10368459215453636,0.01863980714651215,-0.8849679635920128,-0.2494423381189151,0.1120534878250897,-0.2989313963745546,-0.723004995855891,-0.5034033573235039,0.49832629124152217,0.7853169244524872,-0.11008207851428058,0.5832491388028237,-0.01508921691485448,-0.8914263740024427,0.5658788709093595,-0.21711291495799234,0.648398105902389,0.4405545052689852,-0.9098409566192294,-0.4246556448753698,0.7065538357099208,0.24360909028787567,0.16888448708040105,0.5811623887450834,1.155177719387409,0.48592479210016554,0.7852420445467928,1.1341627044282478,1.9651559334014237,1.3541974507834709,-0.9644329738578975,0.4220777070250553,-0.12520578316701378,-0.10483836381562564,-1.89919149448558,0.08608148631390954,0.9121155400798947,-0.03224205010808315,0.4574998939462043,0.9691424369778048,1.5856448027895256,0.3471213676332636,0.005316409658362348,-0.21323790764235345,0.2749853211675098,0.5451551085084008,0.24969984791984953,-0.3449674781855377,0.5855041286468672,-0.6720630110359582,-0.9064933662185637,0.39445909628917164,0.46296415349454767,0.27324619750526086,-0.9712872672568591,-0.4836902516583001,-0.8638773372886773,0.5568798615167917,-0.09164762676803166,-0.5934575727768853,0.5274058048997785,-0.06821481739213067,0.0020211186559710775,-0.4433894054068279,-0.09446087562739774,0.3952191163221109,-0.06995404718625989,0.8983454830589139,-0.17505359822795827,-0.5492487999303176,-0.24570075401028924,0.1096598298272446,-0.47381688280843987,-0.6109699093631283,0.5667528313787983,-0.1676834130242144,0.353835748435592,0.41427246787612587,-0.15406747223835127,0.41803768914213263,-0.4190005699674511,1.0637412534267536,-0.31953247938917356,0.02457344144349584,0.06866445678710763,-0.6952886921774258,-0.45873784157453273,-0.4378717596504909,-0.3832744351990626,-0.6673779936296323,0.8549643018365175,-0.7706493411511218,0.7507286506153278,0.8410685773878485,-0.21052949438462648],[-0.7777761578726793,-0.6899658757755996,0.5073530654774819,1.0014808033738523,-0.2374533045679264,-0.550314874435863,0.7228525776352585,0.35982570992209245,0.8305522949978393,0.5542745184952956,0.4837123463351915,-0.10974476973353588,0.5799314027659888,-0.06150332063668196,-0.020639756727636845,-0.2452022973611509,-0.4176616747996313,-0.7390037552122225,-0.25542919924249313,-1.069272543328235,0.9112032691587967,-0.31390544944784327,-0.11116847304768274,0.47977354585380033,-0.2040371880915954,-0.23005189993172726,-0.3271969732616977,0.29656303680860535,-0.21734878831783075,-0.1773752924447064,-0.043824600786199,-0.13377169567720196,0.44982115441576864,0.3586433453354559,-0.29888670321002053,-0.6053251370948087,-1.0319319440543706,-0.6315327955019844,-0.4592680142697922,-0.25016195507122335,-0.8240877680173759,-0.6796518776578949,-1.3742769891815394,-1.0434677915512518,0.17013857399243826,0.8746576712245703,-0.021133410285611942,0.7636544043697407,0.5467364654371994,-0.4820078265635701,-0.13470647567618993,1.2970099453184423,-0.150281197260938,1.3391190610839996,0.519791997536127,-0.9910493302515527,0.9144493571795059,0.822707798281418,1.0994142618906002,1.4348926789183423,-0.10399613584267818,-0.6448515045007278,-0.3825649218129352,0.72087068742495,-1.4393497288082124,0.04839135208716833,-1.0405843421283347,-1.2366596304138116,-0.032463461272644656,-0.9316989890166948,0.43337029070322086,0.5090892805030494,0.18370196153399815,-0.4699187550382777,0.26321073511877774,1.3717712571318474,0.31738877851761466,0.9820185985937538,-0.4510351670451017,-0.7021061209255776,-0.3631744266668698,-0.4664149502116653,0.06997694340991387,0.10857408611197261,-0.24777158986669354,-0.9536909663725149,-0.7030676729483557,-0.5181713628866472,-0.25176680484863206,0.7387745600039008,0.20434104358672917,0.091090581660464,0.12260787449014257,0.6756508089631088,-0.6569240032656486,0.04616850763581733,0.09822772873355397,-1.0098696104580014,0.4891205361737711,0.664355242611732,-0.5687215739260224,-0.840377002373712,0.7381083526131013,0.3683042201801057,0.5785476398236473,-0.07074417796523652,0.18456585235147605,-0.9464377645207804,-0.8166201928923923,0.8392426858137123,0.3702154482329572,-1.4406674089202057E-5,-0.12154482419500139,0.09458577966438154,0.7846269282099346,0.4304043373166329,-0.4654719922291532,0.4469550378034383,-0.33727470521485164,0.5547417419527355],[-0.03546962132599704,0.7601840910214631,0.12041203338946116,-0.49688572573453077,0.0044089795956070345,-0.48940587572202915,-0.18138460581699767,-0.4863261594194928,-0.776728331505994,0.9996964345724768,-0.6306676599299815,-0.6497845639473697,0.48535000655421423,-0.09201678253037726,-0.7361029155687889,-0.7230394535002417,-0.08317591423562876,-0.8384815181314482,0.5209427654117255,0.3485567401338723,0.3850116601218149,0.3446753277679971,-0.03145761673341861,-0.3744309460510756,-0.970734149022976,-0.8513510429275434,-0.4607676513612791,0.14877036558208068,0.8961506780768097,-0.9533080548000444,-0.7371479153466237,0.30730265268130674,0.48719603093008945,-0.2102864357919583,-0.4195817182642381,0.8391429462487799,-0.7646604479092572,-0.4054269745125305,-0.7001575907618631,-0.84688023011106,-0.8860140262177145,0.8020764789730958,0.04609534466675029,-0.3194942235890288,-0.4151165831252473,0.8187687793384244,-0.42153441139967823,0.16457197514999342,-0.26212546232060435,0.6462295416995534,-0.706085053638927,0.5000113145646657,-0.7434591842927543,-0.9871805131175067,-0.5237795561534319,-0.5214480570459705,-0.9071783008872741,0.05480738171797259,-0.5389697692418293,-0.9220881150746594,0.9763637045632141,-0.051799621803498105,0.6022191695574013,0.2721537030563657,0.9793649926127962,-0.29211169719666225,0.3517064320433154,0.6638655768923148,-0.9271727010928243,-0.12902225329876232,0.9916986431896639,-0.5300765442831328,-0.6304933003099106,0.7352851752682851,-0.394978655317461,-0.02997780858911982,-0.7363843951329727,-0.15273526649691893,-0.1641233689839915,0.2188726319882459,0.6692238639262734,-0.41328041041792807,-0.6399409186621391,0.6668150561204246,0.9769350488799848,0.0913424860236765,0.06883364515461929,0.3250258232109935,-0.8441649585212325,0.9443807020210376,-0.43627579359843005,-0.11420824678150078,0.8898492435540306,-0.8414482693527243,0.259737268760573,-0.6876674491985925,-0.34619429506148913,-0.828648066839475,-0.9928832792428768,-0.35551541158929223,-0.5692482397024686,-0.22692571279655938,0.031136222136529737,-0.644271564235797,0.35942377566337386,-0.922744448848104,-0.6033445533659196,-0.2541888674914847,0.2692097727980313,-0.6389193914122655,-0.19327955267089575,-0.17054846897823103,-0.9428934258904377,-0.6650058275113656,0.4485094834827488,-0.9582861818840283,-0.7749663315854317,-0.1346987171231107,-0.13526557183543594,-0.3002246160851219],[0.7636110934031112,0.6850220460244615,0.6021117985523622,0.8321606977324404,-0.029502390614645234,0.43772926454936223,0.7014646407845259,0.6912204441519246,-0.2586012796906533,0.09282538063312572,0.9453310540807537,1.0056426218309324,0.19344257110551122,-0.5464981484759966,-0.2693658366638649,1.1317626498805233,0.007691342100765204,-0.2570237587857374,1.0993396523841006,0.5927588743085265,0.9717586659023764,-0.8654165451220615,-0.4453805633572415,-0.4641742261309765,0.8200079541250356,-0.08386136166261465,-0.8060370777097811,0.31197147781063306,-1.066057381556882,-1.1923767220810193,0.1353481670395501,-0.2541604592394134,-0.9374531614277487,-0.6589436018308782,-0.14821763573854962,0.047758086118726874,-0.3014462304098677,0.4578541017951738,-1.5367976349659476,-0.49707886208787944,-0.6230630039059079,-1.4128423380941049,-0.5661347426759652,-0.9908118848173916,-0.6456009357632818,-0.7726060605697131,0.5297590578683726,-0.2562847206016416,-0.7105925840682222,0.9309838328880875,-0.09895752124030657,-0.7317680648904299,0.15806746764098997,-0.7032182400263352,0.779136011240292,-1.139884819194365,-1.586382169729373,-0.6440257866446857,0.2696057200990695,0.5527278474110177,-0.3869280164441909,1.057318378974883,-0.7551783282472851,-0.031153423123738113,-0.402329816411665,-1.292300242788147,-0.17226327035404299,-0.1806069509071119,-0.16556087687072227,0.7595951749703987,0.890477039156586,1.1966597163202826,0.6312951444396926,1.236758103534646,0.0013874110450869785,0.4226940612031637,1.3776646391238252,-0.6679131503281224,0.24667878897094436,-1.1401134990214599,-0.0721921975102863,-0.32669604677254194,0.2826771947736259,0.5681489491329281,-0.02213242067103978,0.39813766101161613,-0.6006599688794997,-0.11607341418785137,0.8131033860341267,0.39748955876678566,0.31648392817172166,0.5791365297534644,-0.12811186358416157,0.2894523816369509,-0.6006364944741388,0.1649809695528037,-0.17349681163264088,0.09033004355507025,0.32841703701519764,0.3279000148388319,-0.3790099579087082,0.5936976440740448,-0.7281891259300474,0.06952157719315226,-0.4131276313547795,-0.451971668160002,1.0873347748744058,-0.49593320499225635,-0.5519701383735042,-0.5986990852481767,-0.05031221769067842,0.18058674315826143,-0.15437830990281462,0.013823910464625026,2.920549860994152E-4,-0.11277307200884217,0.9188447425843788,-0.16043241589459115,0.9449394146677993,-0.19781067581822268],[0.3241412398634073,0.6920489866332773,0.9421902962576469,-0.4460180491416251,0.2403402617332728,0.9558783029063922,0.4619512622750606,0.40560692155988337,0.32829444919380396,0.6348820760701267,0.8530745215237452,-0.42669667835859143,-0.01553921616308894,0.8773252021366327,0.24827998560640266,1.0883825586938642,-0.8003642007282803,-0.18474931266858266,0.6652327001595919,-0.2182892730466203,1.0766823584237764,-0.1958195628295838,-0.6156520526842052,-0.2946915326423422,-0.8985577544445511,-0.80718429614272,-0.13188703207466623,0.6082497502456201,0.22643030386476057,-0.13582749168429992,-0.3171668837994927,0.30926517041141965,0.19322629133935362,0.0480242629231138,0.047922554893092446,-0.04318727922715833,-0.490158880598914,-0.024373081488593913,0.4455891919686569,-0.6077356153897134,0.10543597859174479,-0.3081353378670614,-0.5233817552024287,-0.6397365071951082,-1.037161934036896,0.4127790782390408,-0.3494765614378071,0.9268829272059124,0.24475726106003598,0.24896103550108056,-0.7892316885619516,-0.09691867023361597,-0.2720464428114153,-0.6437989337789615,0.06369357570972911,0.16146335811006662,-0.2387798480646436,-0.895664331357211,-0.35988633878538934,-0.5582647844744977,-1.1786644533683908,0.6228963441774282,-0.6226973968879338,-0.7499776004789309,-0.3044635894953171,0.5590366921795846,-0.006506395589653135,-0.25381673640248026,0.3894339101108199,1.0245696789954948,0.09787837434578434,-0.7559821057536424,-0.7486004331257904,0.06989695704774146,0.06879090455014494,-1.042958726255101,-1.0896365552516998,1.0375345264859899,-0.469764623223997,-0.9058252690510964,-0.49229309532717214,-0.0031614827492602677,-0.586298985203987,-0.9641010652936406,-0.2993486462809509,-0.5560280774543919,0.20403697138562274,-0.008067817110554468,-0.8051854721559444,0.427695402755442,-0.25877449334718594,0.3713892981045986,0.3183326080889703,-0.15932997401442428,0.12252764850310599,0.3404850296962723,0.11750653955362414,-0.5311638680466692,0.8486303716445657,-0.07762055262540951,0.303368298631089,0.5427558811705968,-0.04841253789682646,-0.09794767102004429,-0.5699427093574512,0.9923689255891309,0.40102123289360886,-0.8703543760734753,0.9733809145085314,0.45309719597856685,-0.6846512977736359,1.222591380184011,1.0332331384325908,0.9996384885010458,-0.35815594802403,0.040564166431911776,-0.22522847659497738,-0.7391029921027492,0.6632829648466863,-0.21995652655912765],[0.5153102481689097,0.7500138791253607,1.2869790548506053,0.48641027010318166,-0.34204072902721533,-0.035493679704116154,1.3191025145359412,0.49016084525290504,0.6540078376780633,0.09866061577218291,1.0153487981907912,-0.31512611847191846,0.546935952690297,0.576989578213117,0.5887959265312478,1.152835670268529,-0.5616510421288915,-1.1943100757633958,0.2103638799885929,-1.4262492849599588,-0.434603586206416,-1.475507192048648,0.43561271210742625,1.2731142499881922,0.8534284974007929,-0.24532556654237564,0.2876329531941009,-0.22877001643453054,0.0010021556605961362,-1.0030472874573142,-1.2774441217391546,-0.6464998465674228,-0.7128550533659297,-1.0445085171074049,0.20927726749262793,0.7819610969546724,-0.44170405545835856,-0.5143347522301318,-0.223778328459288,-0.3328025138837781,-1.795192200961092,-1.4415446567487238,-0.13710280401979894,-0.13696696772453937,-1.1803585263730303,-0.4484006899533624,-0.16132934963502504,-1.0027531623725165,0.5398279894683664,-1.2872034930792144,-0.15209218471989389,0.2840627207520658,-0.17493828341880574,0.911820145152972,0.3655204767450008,-0.4948337029563324,-1.0672938137238306,0.2628026701783049,-0.9883192730416315,-0.11841334166360007,-0.7938696519951152,-0.7980480917944515,-0.49181727176598233,1.0736304802899292,0.9188686243935376,-0.14299644791204794,-0.8418439916477329,0.009724911882886546,-0.4654859620616689,0.05820329860303451,0.9611445076358208,0.6170534369777567,-0.6573652622869257,-0.6614717613351857,-0.48259812227081655,-0.3278336079178974,0.35730511312917135,0.8080101441365313,-0.6315255311925181,-0.6657614904829732,-0.36883243342897815,0.3727508361986283,-0.09062866835822075,0.12114242885916035,-0.35391244665509825,0.03888489481592182,0.09697686809452855,-0.23995178453491323,-0.24597985018615692,0.7388506332508217,0.4231848954319441,0.7541327309918959,0.3070399139210316,0.801624620583516,0.36763280053277453,0.6163651116394734,-0.0217740125422859,0.8041981454668827,-0.2417400760170917,0.5313305150602666,0.6364400898977284,0.586992213226898,0.5876292367211758,0.16269038086128423,0.12554479824096745,0.028025531080775948,-0.2650795602400418,-0.27466890312296927,0.9610509998899724,-0.1172097360628275,0.39815316786025684,0.683560088261374,-0.04939975798464662,0.04106704482132702,-0.30902970036386984,-0.29426118741833523,0.47296763824755966,0.43926432902567797,0.05020657336733679,0.4497379489777214],[-0.4796062568951932,-0.6937563667451228,0.13227933660991922,0.22341999741184218,0.42498582383822037,-0.9821441056449373,-0.19335449485368264,-0.10773000094130052,-0.7015827905801466,-0.37788692132432367,-0.19383515516228692,0.9256266633360155,0.06306875179699667,-0.38516588298448096,-0.6137096191543114,0.513581755110941,-0.17683387390878844,-1.0209369330393863,0.3904172505217177,0.16084980358031964,-0.028981952985394594,0.36980059547568966,-1.0057703219988376,0.5184511310325075,0.1154628114139578,0.44234175912717266,-0.5315204783165391,-1.0398936574876263,0.41025589630317305,0.0639040368357887,0.648190846026326,-1.0550733067852263,-1.0771396152108652,-0.28262503077261925,-0.9483240160271044,-0.8155175618138781,0.40927904672485454,-0.38420474927414844,-0.2576741102749642,0.974762315182668,-0.3698570835010965,-0.33601801934110426,0.6380450321175383,-0.05670178305523057,-1.0283790785026858,-0.9314239329656002,0.358743741155465,-0.30184196167391764,-0.17309386808165506,0.7423852888730446,0.4451919796315415,0.03766316364379277,-0.9883451951180958,-0.24828192089087212,0.776522215441299,-0.27455073371974076,0.8354466202439493,-0.29776485345919845,0.35312002548720295,0.31572960209898815,0.5332119521802308,0.3452524911794028,-0.24663804116530552,-0.6127556889682143,0.17642528974382574,-0.031206825073383574,-0.2148947438717956,-0.5566686018324533,-0.8037772791664699,-0.5383879211386097,-0.8921302807802688,-0.2516339584592724,-1.0079728869122575,0.620401101233009,-0.41657147917783516,0.021379316098977048,0.3772959714347954,0.752014142625427,-0.058740744254642346,-0.2359188442887653,0.4484896815184292,0.6166087120469043,0.928243256963203,0.3877325950652568,-0.6093957517841093,-0.9431694833705689,0.45731398271884854,-0.5616391262414487,-0.040379026424102404,-0.20120649563959056,-0.5953863856833174,-0.9579794187135382,0.40653384342497534,0.39381481944657504,-0.9906177162505818,-0.2644648353807469,-0.18609597934560937,-0.34916772547177966,0.4628792804730225,0.9179659759768874,0.6243884259771136,-0.9385616527369741,-0.2530639422740876,-0.9738938147276998,-0.5244256813136542,-0.3178975692285841,0.25235260173060653,0.470739792809291,-0.19435650320846007,-0.5445703037658685,0.9083149146386481,-0.23999325617842987,-0.9333256766430553,-0.9915017602020336,-1.0622806397188838,0.3943466949257908,-0.9043061623565334,0.2390173461855847,-0.6244455988975767,-0.48351736208200663],[0.6698654904990486,0.9556775612909265,-0.2748306276795979,0.3765190050572083,-0.16565409631111547,-0.09484337657254831,-0.5623074232648282,-0.5142421199908215,0.15697404100715487,0.08579318748267402,0.5935569120580177,-0.18260133887750404,0.7401665854931024,1.1790883977234043,0.6826554730414043,-0.01780350057547214,0.4213795092989005,0.43865377245272974,0.4197458736517378,0.08796154340184482,-0.580007713627104,-1.3160934945780363,-0.8135590344011998,0.8280426932986205,-0.2894779542472881,-0.06245534150529164,0.5140600859576003,0.17107796032500075,-0.3504989698070676,-0.4688986504695232,0.9559127261788469,1.2321569827474494,-0.23427890105086177,-0.6897884382237501,-0.8364209229096606,-1.7167237371123079,-1.0903774923302985,-0.4152153216721153,0.22753498006582118,-0.2552671620058453,-1.0203309339822388,-1.0227222062007033,0.0056816683031061235,-0.10741055158060613,-1.1918194531535449,0.23116751118567766,0.1320694534447748,-1.2675979049626078,-0.4573672230745419,0.21378080941221372,0.7278317450117824,-0.6429870867344522,0.4338217853135,0.5205797695012929,0.045754185048387734,1.0210821904431329,-1.478161865797526,0.09149819578303983,0.01499540987438221,0.3709876993813659,-0.014234201437261184,-0.17325370591993686,1.3245471871130994,0.34087889790314313,1.0881417426039264,0.4281762188057709,-0.16104283459769425,-0.08205957383704056,-0.8742289447445651,-0.539418832787158,-1.1325422724819105,-0.20397869589578818,-0.2831375199699082,0.15154384843027513,-0.09640864207943851,-0.6403783532853973,0.34346905766598657,-0.3066709213242488,-0.7538426867442359,-0.7924966063181746,-0.6769319811126892,-0.2968850285857222,-1.108400489974493,0.029192864928948358,-0.07741170499451024,-0.008694880617357497,0.14782596694007,-0.6268185639800423,0.5966533958110238,0.252144059716831,0.28374446446062074,-0.18939835901954719,-0.06064856840809108,0.34929299853600315,-0.00425976070843368,0.45859043655600656,0.4073304840874892,-0.6786111780613384,-0.11795768137226358,0.07679401670179041,-0.36704385304020376,0.5819188006934138,-0.5133991396466691,0.17480580142451987,0.3266642965467434,0.8078619599955367,0.2093165209657101,-0.10489164014714529,0.04205944312153235,-0.28637377799884317,0.270789818022699,0.6883114867476772,0.3150884902154297,0.6362717542761566,-0.36774708256691074,0.6677200172886388,0.671605893523616,-0.5894370758002871,1.1647690315544874,-0.006062133847738233],[-0.27742078010715066,1.3636353782529467,-0.18572807954326284,0.6108895246603631,0.15904709379948737,-0.042236609089831546,-0.26258125629740564,0.7287898176168593,0.33357919860707697,-0.6732634874692699,0.2949038597745304,0.32287224817309235,-0.18457064567411285,0.8885375740700082,0.17372701769317545,0.25613570978157785,1.108746369856588,-0.6252950635144904,1.1426843718493966,-0.9149048348443398,0.7911428745335379,-1.0827792167174242,-0.6807000074480717,0.9621883813377415,-0.6071338786262622,0.2473876697074632,0.5061233658117528,0.12322125491864053,0.2951081616532595,0.2580387702950076,-0.055235570426340044,-0.8518279563975102,-0.7948512115314146,-1.3267243505566066,-0.4777407518987275,0.05574767741037486,-0.6976902058543787,0.3238243874833047,0.487591452767538,-0.6764256534916194,-0.553067249820312,-0.46265809231951904,-0.11918899069277257,-1.010757491904046,-0.655164095700944,0.8690850611805289,0.09405026520278763,0.034389357440163366,0.6450856702209211,-0.2751481618995167,0.02226999858058359,-1.1850642267210336,-0.9529947632806433,-0.9718328058366877,0.5698323377600053,-0.22433672285598466,0.005700666289779935,1.1110907962379952,-0.17495060395774825,-0.31711205456799163,0.03851280694946992,-0.3977426976549551,-0.08580921774512558,-0.6564498001165773,-0.5957941253242723,-0.38182922902052907,0.1534386952545067,0.018650171399225975,0.32392109437261735,0.9370838255741946,-0.17888977381265533,-0.2698363311219068,-0.6251905438713802,0.18384777578690023,0.5530571724269258,0.06287727445345645,0.14506974259677802,-0.3716481015387773,-0.36687310443115195,-0.7688467518873119,-0.8011779106122481,-0.07889025210409988,-0.5935119398216778,-0.9487271923723418,-0.11581045163162147,-0.11833290357396317,-1.0548871353336398,-0.5313350063183288,-0.6412926546654264,-0.22926106071366498,-0.26900049081903593,0.5123558299295639,0.5949989128761947,0.35283870732140415,-0.18164626904238224,0.3283190029278228,0.4109533090595214,0.02459698774049574,0.0740276179609031,0.7386459976999863,0.2330950942415337,0.6431340420387647,0.129884435316196,-0.37190428894560146,0.33555841656903596,0.618829524805162,-0.09791080568755553,0.01991297761762666,0.7695666116155463,-0.4763823035363882,-0.33603008366208453,1.3840179855693642,1.1447502229952855,0.4307246578751225,0.6160714735739982,0.6040655178481112,0.23202039924678022,0.5765646998476556,-0.04976491241614007,-0.23123675627879264],[0.060182638334839715,-0.15501852180635137,0.5886443149263826,0.25394097926885234,-1.0887714193798133,0.8583381304888782,-0.7661073727233286,-0.30502820088561217,0.4857536684125313,-0.8310768030051233,0.2849354188432092,-0.8511703374265641,0.19071122484232156,0.593427481522273,-0.8884126009479542,-0.9687446065068254,-0.09864594952300934,0.2340744123302943,0.12160894821592177,0.1236869324590352,-0.6768894273709744,-0.7000985386723422,0.04752043287927631,0.14714200807503294,-0.7555412325682692,-0.8401150624509831,-0.5092200112343366,-1.1035386454795548,-0.481841070860844,-0.7531756058044066,0.5733030086169651,0.3812831005446091,0.633039145298516,-0.7810284653867469,-0.14634867768560572,0.6824880549466108,-0.41224716301759085,0.7625054422971634,-0.16436271303668176,-0.16905204888498473,0.18280474755045267,0.18524725112378124,-0.8445119778289542,-0.2981314051529118,0.30228778756098745,-0.632470809330761,-0.3029203027894131,-0.29465111443503955,-0.2520306645399334,0.2558171706690622,-0.9318362132220606,0.20742211718968287,-0.48869759239699817,0.43719732437867714,0.09629529249011445,-0.9736955902709322,-0.6886477695422182,-1.0607640226804815,-0.8171355220831331,-0.8327398697996106,0.021134513161042694,0.29323967277590673,0.4011838996739087,-0.5725210671244209,0.8315120487752499,0.25260752682678794,-0.6894210225909981,0.7553990033684943,0.02270802383574155,0.2439875376020711,0.07160775221878363,-0.4365110792145141,-0.5701154211568126,-1.1088579987407705,0.44730107277489733,0.4918181704254471,-0.10121243609394052,0.35194826251095884,-0.05028133908072397,-0.7588961648033345,-0.47660867773977056,0.2973319550656409,-0.6996189452416577,-0.403569588500103,0.44939029691142834,-0.16827285865400693,-0.0809070089995109,-0.3450419634883487,-0.9567688872567242,0.4054392844965449,0.504153463731352,-0.5821298589888018,-0.8625233810532422,0.4484928376185829,0.2117957082877709,-1.0002263913089395,-0.7119258920554721,-0.5269712752081674,0.5604463357141654,-0.19792382642788783,-0.6638991955548914,0.05538332920879024,0.06741996751780516,-0.831967248427584,-0.5667171477167154,0.06461814053995812,0.6571024154565973,0.6261089116738979,-0.5591712032742463,-0.8683911207795337,-0.8714582186826839,0.1217110788782969,0.48638701137789553,-0.20329575433242966,0.475578324039512,-0.8209925651346578,0.374959300135197,0.7623234987298748,0.7370036207094751,0.15474588358801605],[-0.036888468403696646,-1.2944662865526184,-1.651360061111241,-0.042877269379656975,-1.6101770053620048,-1.3440548672815957,-1.299590117696495,-1.2915087200332924,-0.7095480024365224,-0.12933141568569725,-1.300227704968608,-1.170769195047447,0.15649857651083351,-0.9715424527059896,0.5348992281312477,-1.3050644141657997,-0.05280963164843062,1.0393557014313066,-0.7149063273456406,0.007991477007582641,-0.41147104962207887,1.1215763214590109,0.43737495476417676,-0.7753436564379128,1.2625592656181903,0.39955628702139645,0.6392150887951106,-0.6975082853657479,0.387640600338853,0.09040011127857986,-0.016817897677211698,1.2810573077170928,1.9465456949844744,3.2065987571916983,2.3969793705507896,3.8941653240593177,3.429083712667426,1.582363124228764,2.8207363458480277,0.9889176582511195,1.2867807109342155,1.578238396312362,1.6176724310016597,3.178396415152177,1.4161574029948591,1.7356005043884293,1.5819432996466898,0.8081004977015904,-0.2596312533078547,0.1757198027131753,1.4059831634326199,-0.9365683257916907,0.444554621321028,0.1206476614504662,-0.44601050387530927,-0.33052073403723753,-1.4665528863853368,-0.24438753794764906,0.4813580414055925,0.6586143777069304,-0.36045113457580824,-0.42822063608800903,0.03639917813525916,0.19705568521646732,0.5527730221760487,1.0073799794547138,-0.01859046355500075,1.1848912910465634,0.6190557905907819,0.7701763714788226,0.08116111252386632,-0.7894337867453851,-0.49887361996723417,-1.4962839620275123,-1.0262811050268281,0.4308690628341982,0.4736952226681062,-0.5996119428025546,-1.2006424987155087,-0.3115118019183631,-0.6935832673555041,-0.346008721212507,-0.9175331703290431,-0.7967549219054884,-0.08862160633621444,-0.7980275007578723,0.0865303913070707,0.8301195842977298,-0.28161739338770114,0.21019307609487403,-0.6290730401568139,-1.0299081435406343,0.06423373606942424,-0.5922724609640179,0.07408348980381926,-0.8168014250140865,-0.35064880415486716,0.18071261202442848,-1.0598162517564,-0.03549267489492814,-0.06678304868966824,-0.4146472056277463,0.021563020233296593,-0.311900632663282,-0.35445967917134386,-1.2515432926575025,0.2712360478500498,-1.2354311564317735,-0.17896957436096692,-0.0666704251084798,-0.08342427189318523,-0.051413478707009276,-1.0506875474495887,-1.5044370715760487,-0.4211241228720903,-1.695687806050564,-1.5653226623441658,-1.1832052857007227,-1.1818714571941524,-0.0711781970741973],[0.803548055673161,1.1185997990282917,0.11912355672477094,-0.4411197953575275,0.10221317469700282,0.475985932243649,-0.390287651219753,0.48118179985614756,0.3659024813478154,-0.0645839206941824,-0.15261725139264096,0.2359963436713656,0.18769493975475057,1.3407457467090342,0.04850322220044989,0.9976913163854253,1.0128028421723403,0.7089818736212219,0.3465458983718021,0.5843278604430862,1.4203196305128563,-0.22921456556753364,-0.4533544691194119,-0.24342253130175362,-0.32554741209079885,-0.5504400119078577,0.2781970897143152,-0.3634760932877486,-0.3304955799747918,-0.6576478645054938,-0.5248766242954271,0.6245804099554387,0.10196979144332108,-0.408478447903714,0.34990910326051144,-0.7606800769287954,-0.33103313676218954,-0.7271091206732466,1.0042203870769844,1.3225829823315391,-0.5304405413055311,-0.5758832973629219,-0.9930388877191542,0.4760789157137758,-0.47165194143891254,0.2336543421882088,0.5205462256917074,0.3401028874190514,-0.0695164941330753,-1.5048572792927282,1.2767592869413198,1.2162018912611157,-1.8576591004582956,-1.0251036836781944,-0.02633938321081141,-0.1496821780389258,-1.30679118535778,-0.9763829474676019,-0.43295047964131117,-0.5643528724322492,-0.08215328819328115,-0.6039202758598015,1.7629139069220305,0.9980061175847265,-1.438962139043406,-1.1237479034082545,-0.8093802327772173,-0.3958179282849518,-1.2925810610877813,0.4733406760098178,0.30880948542431147,-0.27999083424555954,0.6313100620286868,-0.20604228231924648,0.5588696539231243,0.07516582064725329,-1.6315563654614131,-1.1454523770429283,0.44431031288991973,-0.12830069767006722,-1.4682275028084006,-0.4771248123323645,0.062413012663051125,0.2942198306708834,-0.12253202299539798,-0.1705079887435347,0.16465104789013416,0.22534379008336472,-0.24099140692831078,0.012941477830483722,0.2696933485213967,0.6487758604893047,0.11121013301501939,0.24763151735717762,-0.39138481866999875,0.20074263641724102,0.20710118495449567,0.6349820544581329,-0.01186241697114759,0.2681693598454318,0.833762550120153,-0.3631031920611771,1.1775492979770177,0.21837062887421468,-0.28411994516379485,0.7642348532227178,-0.5742468033899409,0.3290637352562597,1.193675501216536,-0.6107688772563101,1.036487707705028,1.0550375944925552,-0.4555332308773988,-0.433952611450049,0.6256324267161374,0.9570739044437441,0.2631017734410363,-0.5128382476853365,-0.5202381638573873,-0.34542400776334475],[-0.5576185272621507,-0.23881891075499298,-0.13291930639754385,0.7482938572737491,0.09692320890228716,0.5304219908407529,1.212131772750595,0.10105244201669879,0.4365122539928911,-0.07112107439467437,0.8864959507497613,0.617036356961801,0.37809758430504486,-0.032695850294514266,0.12672050810179858,-0.44719001340768744,-0.24791399541447076,-0.9636272147173873,-0.344639553183476,0.1322178106429759,-0.17285286960064108,0.5423753253080758,-0.23422237356617262,-0.5659717520325441,-1.3863781770606278,-0.13615868062709616,0.23862812663772387,0.9094080613577541,-0.32195335348952575,-1.1778312693321553,-0.8960797849252105,-0.12211850289012645,-0.14140200267889733,0.007785290184801741,0.3309162447253175,-0.9657918579030285,-1.4092604379292815,-0.18723075652741175,-0.5450313400980461,-0.20216295144152321,-0.8950405411510827,-0.9141409524290518,-0.6038057955284111,-0.5894396998648529,0.16514156808875505,0.03910698034021005,0.9303468765123754,-1.5679353063965296,0.4668600908029039,-1.4144936165008193,-1.2361202912779448,-0.14431352017915677,0.6149150789339585,-0.68904641112928,-0.36153727662242247,-0.07697122126646926,0.21364530647457305,-0.616788568216396,0.4007554013915008,-0.7374597397087701,0.8320541573269651,-0.41628295939649435,-0.2927313411256399,0.5561669102889665,0.39623056206858914,-0.8372046733750936,0.4772010813791072,0.5057982113574772,-0.010925477230612367,-0.48913200543805213,0.2894715014844239,0.754916754995164,0.3573263354475806,-0.2355240312134899,0.9143174532724395,0.06125803207265814,0.6097170694016216,-0.35527125534092985,-0.0021470030054323926,-0.30886721870158884,-0.31370515723752435,-0.8791603807058983,-0.653191391216164,-0.015510068600623046,-0.9858306675510697,-0.7850370616433268,-1.1322238855781988,-0.8324016161126688,-0.49142874730670605,-0.28465470983762425,0.20795050082375904,0.7155411882612983,0.17470924140756233,0.5197169776809669,0.07745910026586762,-0.33617838971373076,-0.1952695214274305,0.7055419350031809,-0.07683142708563216,-0.6085588823858571,0.9797520852569608,1.040973360434028,-0.22378462289839343,-0.4579732735170146,1.035599030546627,1.040313712164415,0.4239816462598633,0.3587528275693301,-0.3936803245309302,0.08869013888675163,1.200315727686383,0.016956182033562157,-0.4343191754042743,1.031872940685888,1.0288766799970739,0.4380793482820195,1.2728116786767534,1.2837255114003119,0.7654919060932001,0.7894429443751233],[-0.4403603034449713,-0.12318966398573399,0.4280878462790932,0.571367960745515,0.6868109511118067,0.2800281636616066,1.0921259791584517,-0.3357521393551743,0.970305640607625,0.6030488539144035,-0.6215622097233419,0.7034913654916292,0.31184112921180535,0.778992490246814,0.8886090073413335,0.45598263414629553,0.486663749481997,0.15393578491530926,-0.4149402827900834,-0.06884951600678625,-0.6225000514954669,-0.9784748758821283,0.16331279073966098,-0.416852176899333,-0.45548585059292246,-0.9267644586547858,-0.1567757360484557,1.102090834430759,1.2106862742776892,0.4685809484855407,-0.23337956967425835,-0.4884006160992126,-1.0469711501590195,-1.0581623127671962,0.6059764628008539,0.20465142829685287,-1.1352297238187508,-1.2885192463949673,-1.1901764037496483,0.21548873378335592,0.7609311250169523,0.34115252215041375,-1.1491916581998027,-0.4063873429499828,-0.9203142723415967,-1.2643090907741055,1.1547199153184131,0.7200056296887899,-1.1467127029364204,-1.3386587069421243,-0.9062619630757227,-0.5699392194130701,0.08863951197119933,0.8316324651585849,-0.546294700631423,0.08879585809545273,-0.20135055672540342,-0.7305864296566293,0.26037867174924173,0.8236928212985767,-0.6808699777379003,0.3706602360262123,1.086124491425523,0.15129679690746298,0.45101188023439415,0.5967907099018684,0.13211665663261465,-0.10271090724718923,0.13162994143361895,-0.6267942147838812,-0.22652423727333695,-0.09571269639527126,-0.4026910257717345,0.7721648018424798,-0.002951092305290675,0.3057355959495299,0.4099914890799954,-0.3155548727550513,0.6155277792603758,-1.0863113738733055,0.20461750235164125,-0.3184456878292141,0.014095151945631466,-0.25368293345562737,-1.1140201939092225,-0.42156007492816633,-1.0829555598689669,-0.5997525516684193,-1.0732150100686093,-0.03356514958246261,0.19899284351900604,-0.7272943506265874,0.13553284920189604,-0.03248167411590518,-0.33302069348991153,0.07875709658607079,-0.1839689251212923,-0.3178731896569739,0.36848385035361636,0.14628764649472667,-0.5219833306156089,0.6723515261066831,0.6413354242892498,0.5755639286252673,-0.12057897535722685,0.17516031588701772,0.7877932312189716,0.6307373366907741,0.6044908497870084,0.19056768296890922,-0.1036951452090417,0.5488937860548663,-0.3902598658287291,1.0796949579839252,-0.2640368912515082,1.0600331579525657,-0.4352279905054606,1.2654755512444555,-0.5897852162596425,0.4656643590713309],[0.4203615809273869,0.20449485533628292,-0.9813858577197577,-0.405559588582955,-0.18526707367883155,0.21075455603082693,-0.1698221879436575,0.11491046117399184,-0.7091342440052649,0.06460079283996109,-0.9111381436465192,0.20065647216066967,0.1500636616502123,0.18042078650497634,0.09031560505139345,-0.9106005305639929,-1.6196650407091282E-4,-0.4893823876529237,-0.6646097068759863,1.4789332873162164,-0.6956307886413454,0.7704881213321556,-0.6036410842144018,0.33185804191298834,-0.08328848114812105,0.5095941656100178,0.3970125705842768,-1.2431187298566335,0.8188538860787395,0.06883300076849894,0.35223461460981237,0.593592383184939,-0.18254201988869212,-0.04560558908784641,-0.06558106016119343,0.48934918927413396,1.4336010640206438,0.3718421566101848,0.47851267341520853,-1.3624298267719848,1.2955503198570044,0.8784013536868469,0.5717244605665179,0.8954755948727213,0.830501144570017,0.3380270843592721,-0.45439576552744587,-0.33324354974786297,-0.3585078711932826,-0.5304247775610623,1.4392830907342515,-0.7312513618364632,1.4151090267152684,-0.3332143815282687,0.7264744148336494,0.020795970931106897,0.3952752689899505,-0.6470528992077398,0.18954972568509318,0.27085229879838946,-0.23027056122309478,0.6310132254519389,0.33603030218461816,1.2709762785248004,-0.3267158354128175,0.4103808731454616,-0.14678595513056597,-0.2686162723479473,-0.09041201996630283,0.7984841118583411,1.2218972112625814,-0.30113407342602466,0.7090979671603626,0.03298351263638845,-0.020403559453944942,-0.9162320685923455,-1.0399840950368968,-0.04500294887853855,-3.393611667064265E-4,0.5358085825210142,0.25717307082270185,0.746689959007536,0.8584194447430534,0.1762433262967881,0.668607286289738,-0.5775798414713643,0.29612817625323246,-0.9187294726546457,-0.3690277371461793,-0.5927333708814185,-0.3879521217351986,-1.0003624925502097,-0.500912322037111,-0.25747362628585463,-0.11230744970634199,-0.8129184678637359,0.5444101781541089,-0.7954956759003353,-0.9156354680102853,0.0932195660103671,0.3780758765620184,0.6017935110880758,0.440042112972646,-0.7219140903759437,0.520329301402748,-1.1400899320220652,-0.24874827103296232,-0.5232229394404243,-0.6419201211558675,0.5846878369089644,-0.9233306066665362,-0.6825499097014031,-0.17753001314534828,-0.16223425948320297,0.5424063122167272,