{"name":"Nathan Bot","description":"Trained on Nathan's musical preferences","inputs":50,"outputs":2,"layers":[50,50],"weights":[{"matrix":[[-0.8960915442403126,0.7105972568161728,-0.6580730261178231,-0.43049499604238783,-0.6188643339463654,-0.5267290883146335,0.6207023274715351,0.7839606130926482,-0.43704708520036734,-0.691177153055506,-0.27697024373189144,0.052315701943621874,-0.3015328344323965,-0.045994114068360355,0.026191386528759124,0.01917906966732904,0.08087264657169349,-0.39707361233392996,-0.4462511526793027,0.8641135219634505,-0.4798389091215024,0.8100519586860269,0.5051480454890868,-0.07167880745867669,0.8613628772752351,-0.9543765330086666,0.988061951973859,0.8227295765029787,0.997738035365368,0.5877740555395561,-0.10560074492089014,-0.31342057184580807,-0.020696178764133474,0.6114417472743802,0.8047282546104774,0.09522093085186216,-0.8532637168453976,0.49743568087293805,0.6962620493319704,0.8360454812750787,0.6884501563273273,0.714707001670669,0.31693993708603463,-0.01455977488927039,0.06530347396231563,-0.2702685665586293,0.11506040683219489,-0.9489378260009292,0.8623651110944259,0.2221577320106881],[2.2979712916755024,-0.06528681027194824,1.7876408160482289,-4.043949953139049,0.3694631261041851,0.4108838768584515,-0.9675101239692373,-3.0576642668320764,2.3936866250171263,-1.3371151160523975,1.1428954495640444,0.503567788100504,0.5345896035925979,0.4157678622856211,-0.9037105553109988,0.12927623221657902,-0.8645280447126803,0.574421928102256,0.4766196837119561,-0.16820881208770536,0.7273949381375708,0.7791288664237535,0.805254541862056,1.0888330991860993,0.5517683399022277,0.6117465256478437,0.059397953743214195,-0.7356724590032374,0.7300545248223043,-0.5084209269766201,1.596055270682441,1.3922829723789438,-0.2692359805717702,-0.03595061820308176,-0.7532424023921077,-2.007924228534681,-0.897759849727107,0.0729899355357079,0.2505185722837224,-1.4827760931281355,-0.9434391005994638,0.030008526210390706,-0.1548407591076026,-2.9241847486397776,-0.4410852477066913,-0.7407288585728367,-0.14646186606251255,0.8201825303148428,-0.05087255689637796,2.023804434301579],[3.9198584514011783,0.7468586682324219,0.9382655291172581,-7.216384772562115,0.7366850830755939,0.5814024882347381,-0.82637683893689,-4.300063042653745,2.00433241668986,-1.8551900721983159,1.6834401067416307,-0.0807053390946486,1.5492837831831265,1.4127319308528918,-0.5488155027745973,0.879109213216536,-0.9463950904553108,1.0958196812149992,-1.1949297114393154,1.8486384105092135,-0.8895301945180334,-0.871042183618153,-0.8043815499023104,-0.04261814730768798,0.2975281974511695,0.5786922955928443,0.08342137260059194,-0.8037704795683004,0.5436972321303041,0.9437613677131683,3.9619470104220103,0.5710610364903269,1.5795806492737356,-0.6348163265067736,-1.4283653427926721,-1.8911918312159886,-0.5431222576080154,0.4366597687519664,-0.5420511684752517,-2.243621969648038,0.5062147556837154,-0.16780931302538146,-0.4344806623906973,-2.1490281834734883,0.038542502751156456,0.1875341323715402,1.3435167289261567,0.4704826157348912,-0.3002279300216844,1.335116945573804],[-0.1374526491978863,-0.9669943653020092,-0.4423667359599048,0.0429267271478683,0.6615201638968158,-0.3126185142733592,-0.8317040006462938,0.15550977711044175,-0.12293965242305717,0.7299985622197498,-0.8286643865822405,-0.9856656006454968,0.01878028952746798,-0.01515013122804612,-0.9428750129901536,-0.1662332642783516,0.26298138760376377,-0.015729939735667442,0.4227846517719737,0.6707266507731422,-0.45502425465593693,0.41682310441831805,0.2356706042501239,0.4534928509642428,-0.7449045155875936,-0.2001213442644433,-0.060024941052864204,-0.43501240818986664,0.8175017543204072,-0.5313743632102913,0.5333329159310275,0.9501170170139134,0.5933111545546785,-0.9796925069802813,-0.9436035761002287,0.881739776913654,-0.6213788423759276,0.6495881577180115,-0.6340307042544489,-0.6916441798848973,-0.8692912461438365,-0.3393917490830948,-0.4210057428176068,0.1866518878858305,-0.6499791164101372,0.4109521387693568,-0.9971003976033641,0.9665659529747926,-0.8322562915895245,0.3638259030892594],[-0.41139440590961024,0.3607042492635824,-0.10238958898253839,0.5154022601732859,-0.8274509362912927,-0.33700006573020713,-0.9704614807566012,-0.5293661210764833,-0.16684545993339356,-0.9697474337308561,-0.12187163129718814,-0.15871118589654984,0.6675566221946793,-0.6552702767277357,-0.114971625852631,-0.05900558135200132,-0.9069525229594925,0.27158492443383786,0.5535736589158053,-0.9103694256751128,-0.14365304004511814,0.15326723053745572,-0.47045041321596615,0.6737978474137988,-0.22001831372656885,0.6287475993367326,-0.3893837779567968,-0.03947840646007588,0.3313995630638759,-0.2254041674205171,-0.0998794327222738,-0.7473339871670781,-0.5471976072366592,0.35440509585483637,-0.8943534857685115,-0.6119786216011036,0.7821373261340341,0.30789376312749434,0.06874596830476831,-0.17427197584108034,0.387164451257741,-0.9846741059634858,0.008169564487500315,-0.4158310759807992,0.4387408170326117,-0.9428736744775649,0.6753713211922477,0.16632483600254025,-0.128717910640912,-0.7909708023005428],[0.8002073062000226,-0.46628874467202525,-0.2791108190671221,-0.8558741556654785,0.6498979042778039,0.8352581333780068,0.7060026266787982,-0.49675220248788415,1.243064784526871,-0.5401764204107742,0.9014134988772059,-0.67565174670581,-1.1378593311073906,-0.05198829489234991,-0.22638429368557475,-0.591014222151314,0.6030232054187613,-1.0138166966788535,-1.5523593513954559,-0.10376014375996721,0.8075120987576871,0.04376431597538836,0.8540367374456843,-0.11482563242633981,0.8046525338442941,0.1253628497811555,0.6401578760723853,0.8959742732975237,0.3149363440112414,-0.042518927731940125,1.2284499720097237,0.23428403429828543,-0.6681715270108862,-0.39363783052565965,-1.341760576711125,-0.6911316983158561,-0.803874063419673,-0.41275282187500356,-0.5984593023615835,0.053437421254534476,0.6058983975567817,0.7525437267471624,-0.22219696220388957,-2.1232220688541115,0.9075221450473413,-0.348296745946887,0.13240455724189268,1.0802444445741406,0.2245578812107737,1.0546013621301593],[-1.007025786110664,-0.41886545296375033,-0.5688278514189394,-0.27778097516237005,0.2713944254842075,0.23718228075745762,0.68886462781028,-0.8126151309517029,-0.74397113797627,-0.1593478266629857,0.7422422268746494,-0.3578250231285415,0.10738935971930179,0.04862855895213335,0.8930312522270806,0.14613346238275876,-0.44972037528209297,-0.3395083715468376,0.5647769623704774,-0.19310796268771288,0.6909699119727334,-0.8663512888352933,-0.6146807805298394,-0.5581516891730279,-0.5267278034422499,0.5761220956399241,0.5090203610920027,0.41215087434063546,0.8622440729431141,0.013011358659791073,0.9015873999788887,-0.7157408674699992,0.21080242633205282,0.38997046182403905,-0.22059123941271802,-0.6820481848086426,-0.21797653431704142,0.3904764175035811,-0.7071899414502926,0.898887317435796,-0.8545307829842262,0.18798934549983867,-0.01062245610655867,-0.9406007826411424,-0.19795262916778053,-0.8330227248976977,-0.19985179769179126,-0.7224653408351724,0.24385807390700237,-0.7024117871790665],[-0.4059896940586459,0.3364841045867635,0.3973032070715753,-0.089893593265386,0.6655391317890471,0.28695544098604103,-0.032053452362692025,0.9749160217770416,0.541580102062268,0.32642075631446704,-0.21662253463546483,-0.6864644510345844,-0.22749245414484648,0.07154406603052565,-0.10895022840134888,-0.6323117805970158,-0.6981146785307054,-0.092806421652305,0.2891087169752723,0.021751342744999968,0.47202589102423137,0.5702205196603011,0.11723210161083167,0.24497680057336296,-0.3270127555591294,-0.47039597559706653,0.26833176470538667,0.6542352777070443,-0.2720233702808272,-0.807263241997268,0.182294723505498,-0.13918968474504143,0.35029519647334567,0.6043857281753297,0.8735065414876845,0.09091479320717567,0.7117398380689969,-0.5504791711905306,0.7872838132484841,0.07295479529635132,0.10977876458701083,-0.6154993139720968,0.9352413885854588,0.3590057241893365,-0.006095328719525348,0.5579066060571902,0.9437001182666306,-0.6138176181795844,0.19760622530189945,0.978554836245827],[-0.12729052337661195,-0.4051507592649128,0.011085065468329963,1.6664611274811023,0.04385502345038628,0.5906169364584205,0.04976117340050545,0.1221430480060279,-0.6297747569254438,0.050431008388791124,0.8077353796600935,0.6794779999969741,0.06483394742431503,-0.8622697250930628,0.1698692779914124,-0.40504353277816096,-0.30492398285342376,0.37846190300671384,-0.5728709322418223,-0.7587556310381705,1.027836840390555,0.13674900421384215,-0.8098899497147274,0.1293040707484061,0.08827784466820833,0.6370186612356656,-0.5698600396889191,-0.37042610410623866,0.7048133601041477,-0.1848954597604212,-1.0056341191249245,0.5148303796401584,-0.7190974362968072,-0.9227646132114258,-0.6778832567810235,-0.20197550526647154,0.5372379129315543,0.7869791765795519,1.1139710223764814,-0.030160247830528838,0.9803862043303677,-0.11945405526897979,-0.7132548198894667,-0.7829831229905376,-0.7507830325095057,-0.343517372391116,0.18225799861635394,0.5730946723293471,-0.7299864137287224,-0.7198399513913947],[-0.20774699509620898,-0.9304562792355044,-0.3154759474546361,-0.3785533238973064,0.5988993563414251,-0.43410532053747,0.7534200945069042,-0.2828406407052147,-0.1448350933969948,0.6323388837883571,-0.3851855359426439,-0.8264306762877285,-0.484165785120028,0.32306203400617656,-0.01374078011555892,0.12404585198575042,-0.9729575667815339,-0.3382961830806106,0.09433246034380806,-0.5768477954995694,-0.6361297410384048,0.13853064721256497,-0.9996351452739768,-0.7771456033100613,0.7594285117460208,-0.03697478813264361,0.10945170465949619,0.3957742067955591,0.3798567081314241,-0.1280947281766304,-0.4986636116455218,0.2877304881051907,0.3123168113824126,0.12406971872829847,0.7834993246518075,-0.7641261409687569,0.7208127845857398,-0.11712717239094107,-0.4517768688506664,-0.9425350425644523,-0.20617045427347272,0.6237712718338797,-0.833390418223705,-0.7334188013786422,-0.8146411943029838,0.4221667849881861,-0.3173277513022413,-0.8246791521244163,-0.9289544810163468,0.025661854573445345],[0.8620529984208147,0.24805750079097474,0.6406606514456851,0.46446883534908556,-0.9754633434740404,0.9939881872561679,-0.15989263245303512,-0.39893720994049386,-0.6381500273685536,0.7389474620997457,0.6466750830290557,-0.42610725159981105,0.46746797423486103,-0.08090642575232156,0.5950458299284226,0.22281896376484983,0.5932166538236712,0.2131307567333307,0.4257276217534776,-0.07887246473245153,0.7902671631121952,-0.8408590438062519,0.9302915357853763,-0.09919410940298072,-0.48186973042115055,0.6366959699456799,-0.3939895280687539,0.07843379033252988,-0.4173176634252378,-0.08380843562493817,-0.23233487064205924,0.8311243208432565,0.17570368643111586,0.2582001579028261,0.7972401657784546,0.5929225780054658,-0.0801509876779631,0.9100200163466577,0.9372390305024637,-0.7828909296680745,-0.805182586999322,0.3911242840371987,0.6262402695988072,0.09000718650278743,-0.20478708700027362,-0.6832698622800437,-0.13249173375723583,-0.15650442852518634,-0.9335459732514532,0.7548352316447783],[0.12450759480070492,0.8512443346255366,0.15885095939307817,-0.20947720997164473,-0.34453107605467104,-0.368163452356824,0.170975008872878,-1.029408735667258,0.6116873987813601,-0.5954762663436647,0.6019967135318137,0.2529798949392897,-0.6865248586677452,-0.7235032550653877,0.9375598005851715,-0.6207195019799107,0.011859591803874801,-0.3210803213150703,0.30573731792779896,-0.6753020830064156,-0.6511439310820241,-0.6471311663915015,0.037987552093726645,0.05047428156894339,0.8635768264390463,0.3829478759762531,0.5972192419829804,0.08779298582007135,-0.8282909503497198,-0.7389086683217891,-0.45976302249362555,0.5562121191773592,0.8454390017525127,0.6234968129538921,0.6777021599755625,-0.4431857213113335,0.887089294267428,-0.565025590924569,0.9631987239988362,0.10151262257818612,-0.5849055694443377,-0.3266712791175101,-0.24409462972736298,-0.916106113884738,1.1827583623088347,-0.6685719217580106,0.20145645726022113,-0.11766194591522995,0.9086214961559465,-0.4361348740338035],[-0.12109143443514465,-0.8474908894549689,0.2270501576946105,0.6557319523647765,0.5266742171096715,0.794252114435962,0.5842763824849351,-0.08054136849918647,-0.7620460574826754,0.8799048203409161,-0.30656363283049176,-0.003461563866994896,0.6345979901978169,0.6445899259166401,-0.48832993104713385,0.57910508395651,0.9549407826093509,0.2909278352761599,0.4685678044833981,-0.6146801572663403,-0.3902393653211747,-0.7100257030550305,0.33749317193835776,0.2703404878278088,0.6254354520430914,0.6226158553430043,-0.33701622021823696,-0.4183387448471559,-0.16479901321241336,0.6283252504642012,-0.6188885835142255,0.826428446981439,0.307583182688009,0.13116326428214287,0.29519150244842957,-0.6166337904378176,0.42628010678025047,0.33816083177675166,0.4031256292982933,-0.5325007334993483,0.28034379868455034,0.6414122133699867,0.7310724118502904,0.8525185354425917,0.5875518595390583,0.8984147120234003,-0.7194880006486162,0.9547181655784759,0.22872641982483813,0.02993034247533357],[-0.020040817912504415,0.7924803553776872,-0.3342770448504976,-0.16349166815462496,-0.8793438385832176,-0.8892539105546361,0.015916383766411166,-0.13432132798586316,-0.3503173121518338,-0.6324528496169565,-0.6742877847219103,-0.2765783445822502,-0.11509399561375121,-0.15689520062020013,0.7403052556273211,-0.03217266407838667,-0.1766926140424965,-0.8822817711923285,-0.27133878241328846,0.7958270417868102,0.9564677441046043,0.1810372384291413,-0.8491352785504149,0.027921121891343673,0.6717050865559158,0.3531886262972845,0.16630238982197482,-0.20013060831996066,-0.13182454068252195,0.554999085095858,-0.7893321363081569,-0.8845381492795859,0.07893753954687499,-0.8149762308936562,-0.9519601931624331,0.9711801433292045,0.5429209273139421,-0.19827256160368203,0.8621266893325346,0.24733140076112026,0.0654343952161943,-0.93289687449174,0.6435947973448505,-0.39692410549122076,-0.7966034279817572,-0.8952425642995384,0.7472508643341478,-0.257322853450654,-0.673540204806729,-0.7721464337039043],[3.019034038483419,-1.1823954172485935,1.6219372655171458,-5.856302259852357,-0.22543942855131613,-0.7393328510973489,-0.667737137193465,-3.81700357613988,1.5414312633510014,-1.4577152755774483,2.164553421300609,-1.1659494898943257,1.4223662207076313,-0.14520161780259006,0.3333683131713986,-0.3222210473880509,-2.9044239487887156,1.21118300869409,-0.6252331531821707,1.8514867989948076,0.6017556554294539,0.28251841875419403,-0.09992658948642329,0.5203884823579681,-1.1312196503179903,0.5629366519035751,0.9235860460877181,-1.0631348940145255,1.2227338334958755,-0.2922538773802553,4.336582670295384,0.6514280912959806,0.23535843289426445,-0.3451076619698649,0.5761012704752985,-0.6394669741730378,-0.693116724570024,0.0953549799260264,-0.28003996111724905,-0.7053406892654184,0.13209881146089017,0.36096232114521276,0.26706451203381837,-0.8650895117771804,-0.09356838903782629,0.2822771504639373,0.5902149514639824,0.2696269150973652,-0.5228767806816129,0.9445380261941134],[0.480179849940694,-0.8579569352246832,0.19004802960493009,-0.5600266353633065,-0.4272751132273988,0.47905175012520207,0.6181885019871112,-0.2510344451912964,-0.4912076752966428,0.8784732393604938,0.01394345422542983,0.6054022344832901,0.4957420199164528,0.6797682460246449,-0.6876408778736018,0.5546661281167871,-0.7560744552158523,0.37421163922268086,-0.2425828047775235,1.0387144654519618,0.0945978214585226,0.8722607966536852,1.0871275428322131,-0.37678111828595273,0.9635828762804503,0.09958943912948123,-0.44713128261725565,-0.605669265413943,-0.450309795664019,-0.9351812365858589,0.5983797272907051,0.7216941639601621,0.8445922268681676,-0.5151536149511976,0.4192017033142303,-0.8323175383635577,-0.00696547347944734,0.19574865847784303,0.6120780653289642,-0.05928545383945363,0.789404910018681,-0.7270611599806964,-0.19463574334352088,0.665224547517851,0.6383096806245209,-0.2364082074203302,0.4454441733447867,0.3581696092261958,0.3488701245665084,-0.5824251530593986],[0.9307609614110037,0.9917882562386032,0.7591174336772409,0.5138815718734374,0.36854891973581766,0.13674240984740996,-0.27062043216732434,0.21953014566998758,0.15017651726340384,0.16108079735579814,-0.14208066034424374,-0.9104115171136452,-0.44794865627745595,-0.807400378295738,-0.6138469145869334,-0.20223764610624828,-0.21414175164472493,-0.7820055539348719,-0.6814068537523071,0.9607496087973928,-0.9934463696499495,0.7139174202893773,0.6845202243393885,-0.7340542218472078,-0.1017297240255178,-0.6441509418750689,0.2753346109543503,-0.9234392758184959,0.5689762676763712,-0.809243638823658,0.5941817418623168,0.10849044963117055,-0.4837568583900535,-0.54669998210014,-0.7166105425778345,0.1793051421816034,-0.8366132722342161,0.5418543843445648,-0.43196213700487895,-0.8521737980185606,-0.6946781246321397,0.9405049529478093,1.0014987026874653,-0.050570151816739344,-0.18498099820567795,-0.9940193269429708,-0.9428444450409669,-0.5079105886175163,-0.2171384966170136,-0.6573507753392497],[2.5802229740649603,-0.5948813699523844,1.9070626545885214,-4.71716965674903,0.1407864212290948,-0.938139333284505,-0.5500177265693459,-2.423158149812539,1.0672922651929977,-0.839824991340658,1.3710414260423336,0.22196832589188825,1.9483715426557797,-0.619879195932465,-0.40611064459469726,-1.118931752308864,-0.9800946970298597,0.8395088248928085,-0.22484333954657681,1.2873680879933396,-0.9669325371588043,-0.9536467878018898,-1.1162744946478038,0.5610987765827039,0.05363828070419269,0.10392162895927066,0.33474066126030255,-0.24033578701322672,0.3869246197766246,0.8107861798047543,2.986001946528743,0.032905464831382486,2.1203455997662632,0.8564117592532288,0.8679311540734257,-0.5150686176977927,-0.2533343019006735,0.5983033526213493,-1.0495187821934606,-0.09128211481653657,-0.4328258045725711,0.028768514057653388,0.22178270694295468,-1.2254468036398571,0.1350925702108965,-0.4979988822661434,0.8591769378395548,-0.6567295780025553,-0.5386072310177854,1.1336199603043158],[-1.770172014944336,-0.610013705749049,0.02328487632988208,2.9136037203832132,-0.7549553122161737,0.7697820446500121,0.6510395645833696,2.373053056701786,-1.150670454827782,0.6298994181187185,-0.8200897206716838,-0.6523658790399286,0.40689626329333933,0.18958262999764774,0.2393421780932486,0.35924943976847507,-0.16002157367810232,0.26236684584606085,1.3749701591903623,-1.3805828130255615,0.5918508558358224,-0.8363464802654275,0.21801260142131568,-0.31073034127819366,1.0559270213378154,-0.7121377460570653,0.03827834725145291,-0.7471364637422688,-1.1326024293318668,0.9277406544987221,-2.235914818098296,-1.3224330452956914,-0.7735161111288357,-1.0268039503411512,0.9650107466251991,1.1870704702743042,0.4091925662537889,-0.5249251012214942,-0.2565876946632745,-0.43756003607114724,0.6173511772977262,0.4596226215464693,-0.3939991908741209,0.6268113528215786,0.653652045557471,-0.847018337851388,0.5757686580720601,0.7715161850809894,0.4665309865483137,-0.8609017000611757],[-0.9941928095876281,0.39709022686053375,0.7785016689738187,0.32448606238866873,0.10843534582718366,-0.7622226976550897,-0.054240429066550695,0.8850594535922983,-0.2717626852734649,0.26723394855669275,0.42596707728961475,0.07289757720386597,-0.5831402000771208,-0.4572546991837215,-0.5093157200648168,-0.9676420505140809,0.705022705280212,-0.7824249903028737,0.28159825714081255,0.2125333376881478,-0.4938705574375879,0.31499647697290434,0.22498091313884463,-0.12801931711318237,-0.02521441695750978,-0.6119332300574448,0.936461234174065,0.2766800586855638,0.06556135539583335,-0.026703501567145065,-0.9488225213832723,0.7518114240898909,-0.3173715177870577,-0.5008454124202892,0.6487677041151113,0.7024701497237741,-0.9922715419563597,-0.8846615998567318,-0.41778287339138603,-0.4944328655382586,-0.6348659391056123,0.8456857777680606,-1.0105041416527156,0.9949075206640433,-0.898960640587132,0.6001078565065893,-0.0769958997905851,-0.5395525842957877,0.3626945493848706,-0.2854034150218202],[-1.6777958034598737,-0.363152580055458,1.143147718638463,5.235878594717808,-0.2302494797748645,-0.317732305078939,-1.5046220794612066,4.74825226405407,-1.1505534273056741,2.0565845560299274,-1.0833918132365943,-1.1211845264022555,0.5628721331400334,-1.5152166314535702,-1.491337646581792,-0.9522118313318602,0.5610903374268777,1.4178381822769732,2.39851407067565,0.6636572266892383,-1.2438664469447573,-0.12937369943998106,0.2285702983940423,1.2070048630327186,-1.0297510620603323,-1.0399210726349577,-0.6064454237300473,-1.1020691268043055,-1.5957614286173476,-0.623171339695861,-5.054696804148255,-0.031158767396804565,0.0549833234958346,0.14919175921912645,2.839407525695041,1.3436031190725282,-0.9955207999203106,-1.539153377172791,-0.38652558550877086,2.0766534918728325,1.7468334648244193,0.27760895668022045,-1.0520153659170175,2.930293542851047,1.0782726836115748,-0.48576462033136897,-0.12900839449742116,-1.5337561277488094,-1.1066118376369931,-1.1975729676675069],[0.9889941690767141,-0.10657783019150567,2.1312677111196803,-5.707441632237938,0.07322998528917618,0.8037360327594061,0.8403559467958742,-4.978879627126569,2.5027809403354992,-1.2733921337177667,2.1901150360879913,0.31721897776958624,1.4708379509836071,0.5430908107047352,-0.3362891310121702,0.17887354323785268,-0.6109329083300372,0.8132381665806204,-2.230281991445784,0.46229781778159584,0.447066743188315,0.2724050282860663,-0.18275389624479454,0.287585599931688,-0.8913422254829827,-0.5104745851596134,-0.43220914919219483,1.019441936740006,0.6600037852779308,0.29552685386178607,6.070467649006158,2.434220034943988,0.8710875882866055,0.4088251940761154,-0.32054118447254143,-1.99538146104025,0.001538720441375601,0.3314998385207431,-0.4115301671301799,-1.551958940117327,-1.4553776320807426,-0.7936838477424683,0.9854403143272756,-3.3499455917454104,-0.6646452700705545,0.3748050484111259,1.3705486672786178,-0.8388859864741186,-0.939350518039104,0.780584297713797],[2.2894325538731843,0.0037010437035876285,1.6318690808589988,-2.9885232721954194,-0.4807164296245753,-0.010279836705151407,-1.2453311590151745,-2.2907864855025637,1.0879720228090541,-2.0217140023521076,2.124300753897859,-0.9176001051637703,0.4234659283438256,0.38648493771230213,-1.0132715038998394,-1.1231819823523457,-1.0633349155175573,0.9759181159051561,-0.6561913999487723,0.6416664357901635,0.15240601570168746,0.7316392819126363,0.4575438574037323,1.2360846279810591,0.051510690367146714,0.02111055442518689,0.5995373590839321,0.22427399890535568,0.3054523121584059,0.19025626374960933,3.642043918942004,1.5000525110034777,0.950894111790956,-0.22857376705238347,0.2743456665020342,-0.5816279162619964,-0.2920191447526035,-1.0905414049178568,-0.11508756499642743,-1.297483328976704,0.41529101633977883,0.0207676627592096,0.6255454267193402,-0.563818784570823,-0.6108806121480027,-1.0444017374740493,0.25788814118170406,-1.101761982155539,0.21321669816417058,0.14497409355284913],[0.1131728523758034,0.9716281109563148,0.9856090076616241,0.9917867295604839,-0.5599170875193814,0.8422683923224552,0.5767315943123047,-0.6018805894997927,0.7607276643190588,-0.01224336305483303,-0.5718314234363848,-0.5400309822735722,0.9569888633830864,0.08683362043594244,0.07757074468743771,-0.5123095131845631,0.9589511450768717,0.4255652685167687,-0.059632820225764854,-0.4788446462267679,-0.2828430080769827,0.3818111222609117,-0.14642598474910062,0.6821973845561196,0.23815388465854745,-0.7936640785427669,-0.19390350407796952,-0.343922129141608,0.9617359136190163,0.5381510416646146,0.8621611986743962,0.9826518904343201,0.40256387499957624,0.26980752889545623,-0.9231581876976976,0.22603838197831774,-0.7874561399897753,-0.3652291193960311,0.4518144934152616,-0.2531677776384827,-0.6596257369347417,-0.5829255733312637,0.7995371981747088,0.4532265898797542,0.053198002574464893,0.4506043840034916,-0.16577849935010888,-0.8310536380219263,0.5342749268634154,0.21533221035054753],[3.3528083353744886,0.30417372943790083,1.269914626527802,-5.3966408155550445,-0.3577190185803305,0.6636106971719251,-0.9532154782116633,-3.4741859004493,0.8082457833224943,-0.2476983777493995,0.9463396547864652,0.945365776585328,0.18609468648591132,0.2777903250751539,0.5983020353183358,-0.45980556608091233,-0.8563322689838662,0.34523264163808925,-1.1205138536657298,0.16367582095408897,-0.6066279349240329,0.266408302689063,0.03731802068584071,0.700184495497963,-0.4260417021362257,-0.9209331733523161,1.1071102978111822,-0.6984025262533979,0.1025477939565412,-0.8407811187757045,3.455162398855287,-0.29574288704259044,0.2513120604223185,0.4514010875135622,-1.281629858585771,0.3751735409877832,0.2850060693811962,-0.4565281142878572,0.3859498360696521,-1.314818264652179,0.48052843361451136,-0.6656584334161431,0.2850829006557498,0.28806932868312257,-1.0920590075047032,0.21913103180941443,0.2509719950006344,-0.2747372610928251,0.44027992149778794,1.7109584920331113],[-0.849531213555447,0.6060500936998167,0.3634748233371061,-0.7964095657564598,0.5667567562427175,-0.7497554455721591,-0.3937342443098326,-0.3765494670316983,-0.8606847405850071,0.3195020137684827,0.07094359506647041,-0.6706536587634427,0.8592161832042343,-0.22476356947964946,0.12192103745229446,-0.8503481730524663,-0.4708804854804639,-0.1791369373152864,-0.7195271653087533,0.8549511079550973,-0.26011732926984327,0.05609072401961017,-0.8205255577402528,-0.5815394260983194,0.5600921517915538,0.11571321560693071,-0.685868071303579,0.023533682860037704,-0.9921048856950992,-0.43811561783578135,-0.6895515813031406,-0.49571172707398076,-0.9911277472173781,0.09962567326045436,-0.01241321309295937,-0.6375467953993245,0.5200993034810718,-0.7199814037480928,-0.6274361950792318,0.7599310042952412,0.7711287841397121,-0.22437809713346435,0.9815213264479488,0.9559131562019292,-0.844640240129023,0.04085480928279749,0.2091712034159767,-0.4546491814386655,-0.7821450396820803,0.7104629166396521],[0.4449955570281956,-0.4455041093365775,-0.6173910168661356,0.43887956295517666,-0.3235796789806064,0.9634017336027244,0.6087639317173873,-0.92696130641273,0.7538146318159196,0.5121232638412262,-0.02364713612164532,0.9649914683897481,0.23584749446074665,-0.14690669615070803,0.37056124087657066,-0.8752590882459587,-0.17373351811515064,-0.010688381123611236,-0.09006407953377503,-0.5837212634319193,0.7230024831943717,-0.2763256481262746,0.491985971979353,-0.525827481346196,0.9242615352794111,-0.5519018003081205,0.9752480848199047,-0.7681879083435978,0.5265299908614554,0.9088130587301186,0.8718266574861041,0.9947917592420361,0.34018860058121375,0.8842996806565846,-0.837597593224074,0.8258804511980775,0.7755629442488603,-0.3782437477469171,-0.13129684348638196,-0.2706663194541698,0.8920596617041127,-0.22367695196982104,-0.6599964505919782,0.5214316462135969,-0.26381392558693695,0.17741407249373253,-0.12588650539852944,0.6372180589422863,-0.35501047002551883,-0.758720197482992],[0.03174976843782242,0.20101588502400414,-0.06496814126107603,-0.758785533243665,0.14922704693583727,0.5330562716823872,0.7526076579351338,-0.7009853055215445,-0.5020097423953906,-0.9207365084444358,0.05701525028878507,0.13537954575670538,-0.3889070138956332,-0.9146902997968603,0.8648580716219496,0.11274737806805299,0.33650860447797604,0.6383118637830634,0.08858633326538587,0.44796326939051945,0.17628651652190366,-0.783495854670293,-0.9773336615364886,-1.109222619430481,0.6063315998127499,-0.24846624805828735,-0.6462517393143979,0.2089910284915984,0.04941263090241971,0.7063660195185928,-1.0146812238605565,-1.1353517580351937,-0.0742241783181765,-0.9942748648264288,0.39980614134071235,-0.3679333001014432,-0.9954471725055052,-0.5375886504193882,-0.6043172619450001,-0.20029878047593475,0.10968678629810623,-0.10455203165003836,-0.08391450036439944,-0.6990728659148058,0.2952975484201547,-0.7853728670715932,0.3350679732537151,0.6941483909604979,0.18859997232520015,0.5585776564993713],[-0.6312000597660811,-0.4978141297321869,-1.032025956960725,-2.117604771610057,-0.014220534020818038,0.310519868506972,0.7082349580281714,-1.404111978667159,0.8153439678530492,-0.5089422929750183,0.9994124321830914,0.7926253985753212,-1.2445334985942433,1.0545993341761863,-0.34658743465036673,-0.32324892212849016,0.4793076984053956,-1.2316736879850303,-0.20373677773851664,0.574789455523505,0.17690280797041452,1.0947242413906078,0.5264141109548433,0.6373373218627696,0.05116262870849373,-0.4515798661368621,-0.5265216091956672,0.9763131902316887,-0.20266205495363385,1.036959107786971,1.1290890101512028,0.6891509877400511,-1.0695311913775647,0.05245573583134032,-1.5471154586383593,-1.503084625587885,0.2529270196832379,0.2034560825759527,-0.13828420189027985,0.3784439162076858,-1.2458847256204009,-0.21811849213636386,0.44151337300622007,-0.42090828058016216,0.9432869294187194,0.03576013587895129,0.8425158473963165,1.2065946087357649,0.3128397338623009,-0.6522715239916578],[-0.3674376754269394,0.10465330660809853,-0.09942058173093249,-0.6634670088497144,0.9561089506048069,0.38728781159192455,-0.14677455948320356,0.3671698378627213,0.434725478377351,-0.44948117090746326,0.9749939199086631,0.9700288247116872,-0.38016979987481003,-0.6574502632823327,0.26901608623809,-0.7077729471814902,0.7783940895215815,-0.39843162755137584,-0.42657555237691647,-0.6306757077162127,0.8029939915482204,0.4641516607029403,-0.23462943985090068,0.6700017255041282,0.6576013995543786,-0.7863019179274331,0.7921277689313518,0.8947459948094757,0.7529004613108501,-0.5944553300582437,0.8968221350100951,0.3965172579835935,0.9204277740896285,-0.17880075227925785,0.5878876692072278,0.6636782209003401,0.24266592279865953,-0.46715010991507816,0.39553924002943397,-0.8098671421478592,0.8966122615694211,0.9001708282670028,0.26515873055622313,0.7550150730677831,-0.6187444944912346,0.6750730912240839,0.5566981345993737,0.643946564025915,0.024777269916507864,0.5559669634236492],[-2.4237044716290015,0.9301002084579105,-1.229486993079213,5.061966382633705,-0.839066396022814,0.1429362493942402,-0.5718971433305341,3.8387123298910772,-0.9990995903770771,0.6473364175820906,-2.0367209726826068,-0.1469721507884574,-1.154076368452292,-0.04276397445460607,0.5729513995708069,-0.6735548484792612,1.8743731424095338,-1.4899041823559023,0.19703865490856334,-0.49318911133262294,-0.0031958316162549417,0.5788819093683436,-0.43737305107490226,-0.3139816686754432,-0.41693169156352805,-0.029062715434318487,-0.6777585566716563,0.016729482817025056,0.8115765426127695,0.1883699202452647,-1.7922353041398902,0.12449988615362369,0.04910875359772219,0.6746882189216603,-0.22398176122949723,-0.0033447044859923475,-0.908765185244517,-0.2970330282219778,0.972231819323673,1.2042143381056118,-0.9150397931894404,-0.2205851779212077,0.5689834242649537,-0.569473121961725,1.1323721122329855,0.05191164837485241,-0.8872895070334512,1.0321634893652447,0.8633958675677946,-1.4874742028323293],[-0.6532347276216899,-0.7224439457222169,0.11992496651052748,0.5755211823544429,0.7758860082332396,-0.39222437542398075,0.6203114875855178,0.3075677268902595,-0.06690848266367806,0.12760409512291526,0.3245844656683962,-0.3993603109982129,0.7463554952989578,-0.6209145377749128,-0.3941195883258144,-0.43378669422065386,-0.7189861085717841,-0.9711445562689179,-0.7277232206154219,0.7790149656684863,0.4705356621556372,-0.22842345847989756,-0.7233944526827668,0.7008513950020117,-0.2518071646264704,-0.9080521341729021,-1.0089258711772693,0.25514615532089907,0.6787975954607816,0.22017291109722006,0.6074146805611053,-0.6611147544581095,-0.5980431186047579,0.2104273675275853,-0.5563512146889295,-0.24323350803368116,-0.7863017267380525,-0.3284820319663718,0.11575951905058748,-0.062335421842216236,0.2631753928282249,-0.11439286811913361,0.04994173663908556,0.6822092822001312,-1.0430795120773013,-0.6276837086966787,0.7925420883913156,-0.24888495451221557,-0.3879947459760538,-0.5178323396577856],[-2.917287861541323,0.770488514646422,-1.849467374728358,6.998170845482614,0.3178319803166825,0.6008142828436209,0.1453519271021229,4.2876974570772965,-1.3795309959803594,0.7950067716758453,-0.9506469604724573,0.8175001469310255,-0.7633762230851111,-1.548787156644739,-0.7291193122185089,0.5157600933905493,2.1955823674160793,-1.6108315373874174,0.38629582405707175,-1.3756383729243493,-0.9617927071047979,-0.5495768498040888,-0.09676419234159188,-0.2565704069176281,0.1558430667856093,-0.21138006043900148,-0.07652329496692256,-0.8529184476067846,-1.4999520775069466,0.8921608732050282,-5.81114872112276,-1.3693296822661876,-1.7818492870664508,-0.5018577070643074,1.4487540030183748,1.334107962110337,0.7525275372634163,-0.35612786768689836,-0.021193129421431447,1.5660221998427926,0.8828840151357933,0.5732445985343341,0.9090055219233788,2.680402680178283,1.1492918371465375,1.084184169081162,-0.14908636636613076,-0.7485661808572918,-0.6247299496706336,-1.0167936183501192],[2.1452146930677602,0.8298772889097611,-0.3848150431321116,-6.852385183255004,1.2444257718862142,0.5208020713927459,1.3399894949293776,-4.782265708538606,1.27065532518041,-0.8327078673652368,1.9709632578493566,-0.2445625532152996,-0.9351651987695244,1.8950819517827489,0.3023904712793441,-0.215939018219558,0.2554618580601903,0.2595147572953663,-1.230383536297114,-0.6553636763786874,1.162622939921057,1.230166943963636,0.7155761392669199,-1.2707982989093973,0.979517265970628,0.5454935209784897,-0.2904430900275632,0.3782782784487502,-0.6342865824541835,1.0756536750928731,4.573912257550121,1.0493506101539574,-0.8974726895571981,-0.6192617271640863,-2.1013704024547724,-2.231949632358756,0.48688407545947243,1.1341486522131503,-0.49118044547864853,-1.0309600155452878,-1.749134455264151,1.3470803932031512,-0.10545080522836738,-1.2230271979597727,-1.2483465856600309,0.7882142846594545,-0.7011972759699311,0.6255818605113855,0.19791265829942012,1.4004437922160544],[-0.7494117293417683,-0.10236179885953738,0.5583504216981692,-0.6211766508085697,-0.8846474275025297,0.5482905316112824,-1.1042120767470778,0.5055757884273152,-0.1266340572991398,-0.1953964046580736,-0.5014245910382163,-1.0253318776544003,0.37925490634491704,0.12955058061999655,-0.87562137213457,0.4185811981743757,-0.2887876981688432,0.8834000030520885,-0.07375725047362508,0.7882434400078716,0.26567265374409454,0.2233183068345231,0.36408886568240206,0.4978079993670008,-0.33286847957729127,-0.43544555510976957,0.20749319140751676,0.6599429278852671,0.06542176632738848,0.8985739589598484,0.08903410351778204,-0.629196987114183,0.7610547175119204,0.5065952664991049,-0.6236489180403929,-1.3719821191869828,0.9093360829435313,-0.22926427911854455,0.13150414344342606,0.8893337052994517,0.6473334024812654,-0.3389713996485409,-0.10464193203683084,-1.4891174892175234,1.215926847715482,-0.1695252591174703,0.33593913976030026,-1.0245382201992934,-0.5281047737380988,0.5485739209039944],[-0.641556219963025,-0.4437276012171796,0.7760923310851849,0.600351902581005,-0.5827234570198924,0.41082142909994057,0.6352017758662475,-0.8105353067140433,0.8290669448980446,-0.547028596805047,0.9565371993037866,0.21303359304145592,-0.05352369304854923,-0.2748775694427504,-0.018507552498863225,0.22357173911311906,0.9436903332871146,0.8612172654028832,0.709292883639466,0.9093292527932445,-0.2653707728006265,0.7834837238740089,0.3773977564274455,0.7326792875208031,0.7997333090187249,-0.27614828687788023,0.8914586039634772,0.9568822617953201,0.9853517234900644,0.7507244372272769,-0.5607295282042066,-0.35945453316336146,0.41265409687370014,-0.48281548656021017,-0.8594627994368931,-0.9484804772754308,0.3872061525605583,-0.1356796117215436,-0.7383128210348979,-0.25139247935683257,0.5529335663669641,0.28866601337201975,0.31541478701731845,0.36802491053403397,0.43711545603120594,-0.43007325831603277,-0.7978786496056003,-0.4925747990975142,-0.9113688852483407,-0.009826159764682318],[0.07141770908948718,-0.8162933568210912,0.23519562319262552,-0.47763112139039343,-0.7595287661794057,0.7945465086967461,-0.5156213485192916,-0.12323015558202687,-0.4381565374727764,-0.8354520093745968,0.5671156681899696,0.31941851811088406,0.7886220726762487,0.8163547207627216,-0.7369098369694731,-0.1151786830906478,0.14298490828441646,-0.5810735283974541,0.5565583969460491,-0.658778412929698,-0.5546258984022829,-0.43195300724103164,-0.7081152583248675,0.8892940565421394,-0.9839802435920743,0.03731301753048454,-0.3257514452788847,-0.45972082489813265,-0.442435925104566,-0.10638158143840543,0.597092138465302,0.633417234964618,-0.3846064817241232,0.2554013435226294,-0.6667732480357483,-0.5360291622067967,-0.08265609880808235,0.4341329770656314,0.46220910804779064,-0.9241624721119117,0.8854155075709818,0.23719975211087035,0.9955791416030104,-0.5199939667368944,-0.1876852485821227,-0.2938935987700009,-0.19449008485386896,-0.7111872348219587,0.07191770307609972,0.29432017972412167],[0.05366975784121006,-0.488231021446203,-0.6069185676143858,0.47233209039842533,0.37629143143098515,0.45948822779096093,0.26923361807823676,-0.19165691150859285,0.5823780118243663,-0.13406276204290132,0.5376582876686732,0.14968098743384897,0.5524158674011722,-0.10445729316647535,0.08951339547480931,0.44630316351598726,-0.679611393479,0.3126595211041973,-0.19731804121396682,-0.2734290443459625,-0.06891925541629264,0.2996708120098267,0.3410517763220222,0.9441048013370757,0.7666647842444371,0.9011553201460942,0.26217931241393305,0.4370500526877532,0.16107809457841316,-0.5280678990450342,-0.44788254035781694,-0.5980166824128228,0.7142162384423083,-0.1706359142305413,-0.18893923989278258,0.6378359939587281,0.42372018644969295,-0.08995259353210065,-0.5550408160219809,0.905345650077465,-0.5039885837087917,-0.33031711327029795,-0.41717570472461296,-0.8890855293791149,-0.512702566738676,0.5181020231418868,-0.11575956916612273,-0.22347381955413845,-0.5219960247024193,0.7069584593959397],[0.29235582376973956,-0.5754523843897662,0.7010572081228093,-0.8405888101633734,-0.06486379532552715,0.615091832542623,0.5382041770643831,0.8496317433105427,0.2416442653667322,-0.5234889122242397,-0.9001707812468885,-0.802332582397716,-0.2897623068311089,-0.41071745457708314,0.31015663759496054,0.25101762295233077,1.0072907951083916,0.3006643019731152,0.16035971656851522,0.7606050158007134,0.8711509011504996,0.23335084100142925,-0.3035199821193173,-0.7850698235573079,-0.7617213703813462,-0.811380191053961,0.06101762425234931,0.4553203687884201,-0.5303476339906913,0.021991967654886053,0.8799972725720389,-0.4653652850510384,-0.6656897639226201,-0.12428114059515201,0.42640390831243785,0.36176082579633256,0.5455133795793351,0.19853669364952745,0.09401033484896416,0.6657610510514982,0.5047875393632294,0.841259936192238,-0.08646000686189184,0.9740409172440808,-0.868700138746913,0.6023629829649095,0.4709511905487687,0.7871011469998542,0.024430214570007384,0.4384657721958025],[0.9571535007704454,0.3117302290918591,0.8624944138864973,0.07669334146163477,-0.9267879168409988,0.36034241040193293,-0.7317034539813821,0.5739506854041496,0.9611721951301403,0.5569840148524217,0.1986284344396526,0.8974333207021172,0.06153718060209775,0.7455170983320892,-0.5845942256389993,0.7145257303027829,-0.8097171839149196,-0.3660612718952518,-0.2168991371842544,0.3810246186857713,0.8839701189595895,0.3167565519319963,-0.0742510055562322,0.6788326853713728,-0.33493670308710255,0.0012516793668809097,0.23806375040675926,-0.2608512040453048,0.9209606301578696,-0.05089700628752677,0.19735053659883217,-0.5729434950633696,0.4265474704388567,-0.8719001475800425,-0.831788599201051,0.09796839712393172,0.19159492049460955,-0.6456538169861169,0.44889891018240186,-0.9144357811600334,0.27660084282907627,0.8134994631394054,-0.8241872587014534,0.5373297314121028,0.4971339946821618,0.7618590027405235,0.8856091647039719,0.28943833648535955,0.5221734879897857,0.9400849201884292],[2.370172990233927,-1.137273907365403,1.7913393358630905,-5.030780435630345,0.35452847432013745,-1.1054092853716995,-0.5885445257344386,-4.033162343504026,2.9267558127012148,-1.2307616663689647,2.8422638956677058,-0.6137217110735458,1.0105658870028842,0.014648407938068283,0.12039897102690485,-1.0003001388167467,-3.477008987770596,2.5444459785735485,-1.0492105310124635,1.9894740831093214,-0.08861020023368638,-0.9516651330488495,0.5662146155261244,-0.056103288196782515,-1.6349962601484298,0.6952240421780748,-0.6391018361304902,0.5026607819328329,-0.3218892612229313,-1.0881455999568546,4.423596961923989,1.1710911353758466,2.283719251577187,0.28843943454187754,1.3318664993422027,-0.638948783381865,0.32470435964590955,-1.217930320054106,0.3319159259929691,-1.4136962537218278,-0.12701209598278912,-0.6021367296133219,0.7421574813853911,0.40295162549843955,-0.5729019111575441,-1.506437113064536,1.8484505724098492,-1.021302959896102,-0.35515151186701505,1.9572435199402947],[0.6473830756376633,0.0034342065973049663,-0.47764435178576525,0.2962150803492848,0.686622355233335,0.9574323372586686,0.5925502774980055,-0.7210497980911307,-0.7954158647127549,-0.4284810668586033,-0.3264858187149817,-0.20626956124359114,-0.8972653121472719,-0.7694136959332543,0.07806756416598196,0.6174656319886546,0.07313505210870973,-0.4758266319957913,-0.2500752209190326,-0.541665247979056,-0.8424113451355805,-0.3967062549663627,0.5361306317478042,-0.9375859551835558,0.24130556422377736,0.5274998081935681,-0.379362586990557,0.9822127061057622,-0.6173445665140392,0.8819630357015955,0.9331324795011415,0.22215404977103917,-0.036635191840504074,0.6807207153213154,0.8391559960317795,0.9337041730290808,0.8104137554966205,0.4791959791854522,0.5906131337344992,0.9328462329031195,-0.4301805870428237,0.13112068681925473,0.4683793376866764,-0.24826399773984348,0.9921182024447519,0.19489614129414295,-0.3801071336450706,-0.9224733915016877,0.047528475634287096,-0.43827207844313104],[-2.211530569626012,-0.21682430845660675,-1.5383698386074038,5.763035900655357,0.9546448386702876,-0.08234020893665667,0.44950071800837227,2.835330873571784,-3.0642422116347574,2.2511504762772345,-0.7326851537294894,1.1302057208672716,-0.14787841227977291,-0.19212921940975833,-0.9336867133733013,1.0210518236217654,2.5810448229601963,-1.3815911199977085,-0.6810856957856077,-1.5691605138117175,0.12150582345913225,-0.49534937609411595,0.8741342890733558,-0.819478036982847,-0.14996981155003958,0.19630804414719333,-0.5308096771204629,0.7808951016861383,-0.6912232938953795,0.9722913687938305,-3.8292347071161013,-1.192793778860444,-0.763554804457148,0.13040105468177046,-1.0452049153084497,1.949123812281219,0.7293541009117995,0.029076873392632697,1.202065907083038,0.3277074362054282,0.32650499807189376,0.05360818923836465,0.5354171501739197,0.8396844665485679,0.546888242824307,-0.12840740841209133,-1.8170523962470673,-0.1675799670322245,0.31539375025515726,-1.448725134635836],[-0.8261708082507025,0.19321665644456668,0.5761053511138086,-0.528164498172766,0.705749168290174,-0.011313991295760164,-0.04964227724908592,-0.8015337330115315,0.911544412051596,0.553582700163761,0.46378739956858217,0.566950634521414,-0.029229696011056076,-0.45518155671804517,0.34114693975169946,-0.1538525782841688,0.7445105490877972,-0.4734651208525804,0.3574001663979335,0.9788303336254842,-0.9054616135904753,-0.2779638128771048,-0.2123789900853673,-0.8966214648571076,0.6454992390805909,-0.9402738760864423,-0.6620613158469653,-0.3939608296991149,0.47256345666894467,-0.7036322673523484,0.6135344203469444,-0.8791493759294272,0.9949393153321847,-0.028653637520334976,0.45340942190928835,-0.0500786252570406,0.7283909956245792,-0.7816056508225507,0.5426917522265523,0.7189614549888537,0.1702430615768303,0.5501887510629823,0.6304786063973284,0.6946219222842379,0.8583884232921755,0.09191871458217399,-0.23809154369503505,0.016921304996160142,0.04947476299880038,0.20963947732341406],[3.1291626623767703,0.1567678808927273,1.6573654477630757,-4.422953287904953,-0.53292399781726,-1.1272290171433232,-0.38668099455850685,-1.8753522857910656,1.563945859708238,-0.05911615302761868,0.5153097262940265,-0.8907778462536383,1.665556141228434,-0.09550426497452898,0.559528995503482,-0.7445569149572269,-2.780859986011146,3.1065990791504587,-0.20154531608081674,1.0407587424640485,-0.4776734774392228,-0.3500320491571309,-1.4697799805784182,0.5427975047196624,-0.04211402547079793,0.17586084557481996,-0.2176075714845614,-0.5078393298194264,-0.3070984728003018,-1.0493671160673752,3.306361057048917,0.6452815465274985,1.696494260717535,-0.052319763514400874,0.22027945558001708,-0.025213856645612678,0.3576983618968496,-0.9451030650825931,0.5299474392129159,-0.5279987374921477,0.5060702761136713,-1.4927097889001189,0.05447559130381156,0.8093990879871713,0.056805943301104805,-0.4072222715557845,0.014206097153087644,-0.48407177458200973,-1.3095472200624776,1.373910931894196],[4.158218260049432,-0.5684290907292533,0.3650089603376702,-7.864831463835114,-0.27073675316911494,0.44229860632619067,-0.5274878089908848,-6.189600585941574,1.0767439018520046,-1.3715807890924943,3.2124155270203434,-0.7944411974459656,1.4492552983706175,1.7095871793761517,0.7830600606349323,-0.027182525302180096,-1.6023604740185082,1.4699343496544606,-1.7545661018546497,2.0998398547610035,0.6055497095119254,-0.4312992455906619,-0.6467837547712045,0.9239923345450312,-0.5824658443798028,0.47267210858933234,-0.0135429826352029,-0.8699697752274432,1.304990360751642,-0.32108175359880486,6.406218401932333,1.134690352542773,2.2501512947371105,0.5610747475981237,-0.3016869298365032,-1.3034264143125296,0.11510833615507407,-1.0375448072049602,-0.7536804296293454,-2.024328958086932,-1.2843036284361304,0.34814155860248736,0.1777329875037523,-2.317932922294339,-0.042726214673885626,-1.3746039538417683,0.9242809542516806,0.8964396945484769,-0.39700657246614246,1.926200989114262],[2.493290153289442,0.6667056923440634,1.447191791077228,-3.4969216464448527,0.12157654678447082,0.03187451448792992,-0.872200953339049,-3.8335559979957177,1.923610995104935,-1.7853342247619632,1.1931108488746558,-0.5008484650346816,1.1935613506593876,0.9435913023507579,0.5000546881148874,0.43111450638344173,-0.6832306609443285,1.4178834346399403,-0.546107599073486,0.38093029341276885,0.15542263309191415,-0.0025655687083124498,0.5240891386680013,-0.2914749651326162,0.18453314039626773,-0.8232063179146892,0.13941590805993295,0.1010540737903893,0.2623608386465291,0.5881420714733093,2.5809578383195757,1.0670006085305364,0.2764816670242546,0.7366128072340408,-0.8774300867906901,-0.9858242657095294,-0.4602074275062251,-0.8195002528526185,0.8191275250689767,-1.7659171909970175,-0.7151021163623225,-0.5752291327931907,-0.4425650035164668,-1.2336232060025996,-1.3771732128432193,-1.4427518370351697,0.7856459636105357,0.8743138805456372,-0.3943791366859947,1.6392980529728485],[-2.8907074939732467,1.1588022635620066,-2.2327586300443505,7.772400605787966,-0.22027275875574476,1.2727070447881015,0.5809164230860887,6.351701001758258,-2.1171870342634955,2.3172915461520285,-2.7186827558748874,-0.6097075702560057,-2.0117839514025477,-0.6149584459498703,-1.097716376704763,1.1934978254240036,1.9321348334811435,-2.743066408120419,1.0000890694478144,-2.2458064947357066,1.1852189776228204,-0.7291137870246596,-0.34832814615944485,0.39754367485306163,1.0475087156468779,0.8261463072044594,-0.07139243265677814,-0.5200388203033712,-0.9456651573719498,0.5918078765214251,-5.538804373896432,-1.0475240332373985,-2.2226195147088728,0.6725637890921654,0.031196694077378254,2.128947721310523,0.5391555609073647,-0.5191785464791884,-0.2418710904466446,1.6818191223728207,0.5547305268321331,1.1422542574075554,0.2851906669104129,1.3176937684706305,-0.5408700278829405,-0.07461327598311181,-1.952554090763603,0.7539105020792991,0.9619005947208751,-2.033961017479198],[-4.03140870729966,-0.5808576190337029,-1.689035360932219,9.496517633656792,0.40966985356178376,0.28233804288914144,-0.14589524721886207,7.3699474702054815,-1.789817100853395,1.8911899204967866,-2.0301593320954967,0.9680318333582235,-1.3095633274147098,-1.5324114616487083,-1.3076960619742324,-0.5271016494565373,3.1789213598387325,-2.3279145682383993,2.0777557173203363,-1.8151776667925261,0.7489747240301889,0.613218424023803,-0.5248872317323934,-1.2194999410324978,0.7238811612511072,-0.08987149488680793,-0.8114664820934646,0.8213974231962059,-1.7776469215001343,-0.3340148237847971,-6.35008074691341,-1.7408093441616976,-1.3371731452821272,-0.6138215672304607,0.056301625070158234,3.172130150567985,-0.5390655535366345,-0.4596207532663152,-0.22699968502540185,1.3348558162293431,1.32367882099611,-0.1816114912891603,0.11182390114411098,2.586718662324029,0.918880376581675,0.9692610356323067,-0.9872180961452827,-0.8131693321391472,0.5646487650587872,-2.37748832746184],[-0.7110735534049908,-0.12002329440320118,0.8877850956505117,0.6934798505573864,0.18671623016148367,-0.5072274465057341,0.8961864382309197,0.5870150621210796,0.48543347806835485,-0.4403661678041824,-0.4453474428729927,0.8245520629693877,-0.867192381389127,0.34962136269903393,0.20027335078581246,-0.9896955249737597,0.4715819855904669,-0.0253217818165302,0.7913374214556682,-0.7310013065773713,0.41353850476650583,0.3693599431818528,0.7996766053479581,0.5263806235232197,0.6487971986900344,-0.4668490145860993,-0.12909078796951676,-0.19159825326874705,0.6960431535074274,-0.2688006499396514,0.5890110388286139,-0.9451638273298953,-0.007945908412202331,0.40582987041263874,-0.00909853985955739,-0.8633088913301329,0.9408740881218148,0.3920449953259237,0.10302801249061858,-0.20748566942860935,0.8685339503881446,0.7003816658575877,0.6869202080082932,0.994563971001856,0.15540988769845887,0.6112381770476001,-0.3528613562558808,-0.08034486387775568,-0.5129844932559778,0.11160580712702972]]},{"matrix":[[0.13533813523548335,0.1582622004838386,-0.8781910974350208,0.8100078240163046,-0.09073889165100713,-0.15753065799745847,-0.7337395449455728,-0.565262017835563,-0.05612758896114285,0.03365757439428607,-0.3949652516513554,0.39896631169042024,0.2805331515531835,-0.08355507335076032,-0.09101893948154274,0.5274170552836366,0.7865683605547561,-0.9920586271118539,-0.9609966592637567,-0.5657824564005777,-0.7608961716975129,-0.7511111963650438,-0.4724199291499385,0.7460492441861368,-0.7492956480752407,-0.5508485351755052,-0.4110759842794861,0.4174786465853131,0.7773629560234271,-0.6504151362882097,-0.5496027090873831,0.7598340167040515,-0.1182865219410251,-0.18199753660164375,-0.15145960923252913,0.22581398059639032,-0.7371400310998794,0.6967594570954655,0.1132411283517554,-0.9078600011491731,-0.011882141934545,-0.610969366068416,-0.2760988690573655,0.6231018961980955,0.22987569883652467,0.9305747082066971,-0.9324772556592873,1.042261241931663,0.5246312494117873,0.12349918748220756],[-0.5253642857307774,-0.48443671029197094,0.8495166469542323,0.4060030138393812,-0.21602330160080482,0.7359109393973061,-0.3577848200342145,0.789417182183833,0.5626608627257688,0.656846797876185,-0.8727475926546213,0.8728223253076673,-0.29678029826316005,-0.6128874433647019,-0.17970781587020468,0.6815889577861708,0.31589360504177494,0.27356841656470776,-0.8868745734659352,-0.8977168327106055,-0.956498886204924,-0.389959736007055,0.9013149533331877,0.7914812295617819,0.6012525324209139,0.37209292241737457,-0.2924726573014634,-0.2341913624229686,0.7998180410305324,-0.41761373216361347,0.19720928020257084,-0.702469939793799,0.3036128183767439,-0.8401222948420107,-0.02834332482755048,-0.5458209357668331,-0.1768476057460243,0.5074721274000461,-0.827397569906219,0.09686447766780591,0.6231645129158211,0.5642456291558163,0.6996454454866686,0.39299922890010447,-0.00861109998215395,-0.07671166825977987,0.017126594096835302,-0.49304769494232203,0.399309837523931,0.7934687395338896],[-0.6852210033482574,0.39331660472172114,-0.03582356539328243,0.3738381892726755,-0.7676341524844562,0.4655488944453245,0.8651126116079928,0.6255212276836059,-0.1274160408443948,-0.20013957042799438,0.9091364525268606,0.5407636607667969,-0.7718629389654303,0.044118840248327816,0.7653664332321022,-0.13654127829786256,0.09836844020580321,0.7005862954580934,-0.7446251015390043,0.6040103869749561,-0.45770471253480677,0.8502180177574473,0.5302817711366288,-0.6609764653763497,-0.38829143753555473,-0.2640268081578799,0.05763380469334959,-0.5567538290937536,0.1783454160726326,0.3687979218494304,-0.85323375622316,-0.1334741439844898,0.41083379996085984,-0.6448444405802246,0.8707204742501338,1.0235931964492917,0.8053510000914341,0.7393853607134927,0.6986461524555692,-0.07266400247991173,-0.5066419437186983,-0.37445778152450104,-0.9366583243816436,-0.9310035249117353,-0.3367965821633685,-0.1544710365876257,0.3131617090024168,-0.5956342446782033,-0.37539065431146723,0.39866205377287744],[0.10335378509411139,-0.5228442847540944,0.04319244586355788,0.9722681227671073,0.5463912959639013,0.35566789594862547,-0.4597384472961789,-0.37796837838081004,-0.9941993662529566,0.2766106231231965,-0.7436133814772137,0.5542571930146225,0.28663704025309844,0.7430248896831467,0.2204100604527542,-0.2221373476202759,0.0316007655289808,-1.0012670638442265,-0.18615949802893558,-0.5243481165603902,-0.8042400102600178,0.05265768526275841,-0.8658237542219577,0.7107122331287048,-1.0143897252169085,-0.2786763602021204,0.8863908172390923,-0.10171195977600453,-0.9163378861586494,0.7388548694215398,-0.8279549503583642,-0.354406243485977,0.8092451577324216,0.5151138616091806,0.9919037156405267,-0.013770148033116141,0.982847523645108,0.011658058188040245,-0.7570992975265312,0.47081587321401924,0.029543939375065376,-0.5847970356634601,0.4069930953905432,0.8377649643902182,-0.07047541908170768,-1.1243330912709701,0.4370378167498754,0.8350188991529277,0.13476893260027345,-0.9563403701021027],[0.6431713255689422,0.1563608694015327,-0.8548076663465969,0.2964873794232403,0.5915920753609187,-0.1255775744047313,0.6618473206698352,0.024071984753240846,0.7124295518552842,-0.9961515782689276,0.15861060927155382,0.6927431569887595,-0.4461814382427155,0.9447272723528796,-0.9498561791462217,0.6549239291567028,-0.41382878589565664,-0.4606189740289847,0.7378532754010684,0.5389743357102519,1.4358523800026983,-0.1466404454413412,0.4074758652126134,-0.8572662210708208,-1.1727230243697426,-0.8264873352547324,0.05709408632188895,0.6807837416623524,0.3909807496707122,-0.46071724272797054,0.9582089002964783,-0.8415182045603458,-0.018180062148579458,-1.4049694796636876,0.2842878570363716,0.9320343782504344,-0.33245201238051514,0.12359888916612141,-0.965061806763207,0.13669423507263315,-0.3447653278233828,-0.606551656644436,-0.2253790088861276,0.666721222662454,-0.29441027342162746,-0.9158488609816268,-0.4706936702580079,0.12310022789636631,0.5771197922122556,0.9005661711194756],[0.7871799290452364,0.10853051515989783,-0.1244046514067812,0.1387191826683342,0.25807199867287534,0.4681379034710783,-0.39389680311561814,0.8957756193102253,0.5076651273132913,0.06287612114434062,0.7784749081049261,-0.14375266172260126,0.15880735675780228,-0.7264942006453671,-0.6856767291294699,-0.7447343628183404,0.8691097093186149,-0.6399082667579656,-0.2019110795004079,-0.02764445999314403,0.2770396240754038,0.9857717361456243,-0.07852836145017976,-0.7295307772389114,0.4975914918918614,0.1815231085101913,-0.9223640138962582,0.5341696823695276,0.6424399534650558,-0.5259332956736325,-0.49970570270480247,0.5341263582314433,0.32752391819721804,0.5879916699465338,0.894988068439294,-0.1906660049756744,-0.6192129457370944,-0.16846947665779838,-0.501921641835993,-0.1927824479673435,1.0881750978354796,0.9579645472055512,-0.5422614541154167,-0.3559428135516718,0.0017076329127684452,0.9283989630466315,-0.44066987511024835,0.014702248545404743,-0.9054284064312392,0.25948200691569906],[-0.849417066235524,-0.9539337067929005,-0.5541753501688023,0.672971639432989,-0.8484579883831225,0.4586953905944005,0.2876584717010787,-0.3179107589373261,-0.45354287832999035,-0.8576337330193842,-1.0042786977810292,0.2373531746440488,0.6668933065024101,-0.8694222466817597,-0.6407923859396559,0.4458258408306196,0.6606633619785653,-0.27528721548270396,0.7085279925711758,-0.14874485307796437,-0.8014620010702753,-0.5423035700611911,-0.9189473896447035,-0.17685469576581778,-0.20577395634641957,-0.21615249233305486,0.16033533575343423,-0.4646856708829568,1.0126624585730901,0.7328392751396663,-0.29863776863053176,0.8502089603371921,0.9000681534374977,0.9552823222110458,0.4254723818531461,0.5794046277782446,-0.599638659630607,0.8431955824169385,-0.4906949252815351,0.43342590404054504,0.30974915966086647,-0.2364297581095514,-0.41306052233681667,-0.8300080194963096,-1.0095516305623835,-0.08968138607846815,-1.053523239915041,0.7049200064045814,0.9142050598296556,-0.28973765479537456],[-0.7563208016101743,-0.5954260910156736,0.5201284478490296,-0.8895687835901189,-0.7218712066537213,-0.28330730656744635,0.07174679932217687,-0.15909206014473826,-0.09985819044780028,0.4078964937173243,0.2599800104690086,0.9124508032534251,0.37856177688496545,0.2219669085595759,0.2615268154819217,-0.4672027527255198,-0.33546811742582466,0.775858960281788,-0.5026429881243629,0.8216839706726277,-0.07351272831236584,0.9918504276687767,-0.401340018987682,0.7506419705119491,0.7020347438194866,-0.38701289695657215,-0.20944824895452405,-0.7367054062948972,1.0942353564852008,0.15847953563776887,-0.6794144468212162,-0.2777795080326683,-0.8572200936180404,0.7128267171372284,-0.8299969006782636,0.14351833051813745,0.768576428122992,0.13817295004542046,0.7940977038639392,0.8530763457886045,-0.4096358961946396,-0.43183680569503263,0.8935397922848867,-0.9546780378983768,-0.715118846563876,1.188386168633552,0.8410915869977201,0.1482035680963058,-1.1750427419689118,-0.8829224279176545],[0.02046186616315557,-0.8982818511368997,-0.7101926056691918,-0.2034372995300001,-0.2741361727927025,-0.3869529800365021,0.30325509432787584,-0.8263076532200212,-0.5738061165230929,-0.6923969562055802,0.015282722648615498,0.8615435240642249,-1.0305513924792356,-0.5724910869913439,-0.801146383842652,0.052082970810719206,0.43071463535284604,0.7682448945294252,0.12324503418600456,0.3180643636589051,0.6805536844895306,0.6372797721120654,-0.4090298312234632,-0.0913573139452809,-0.48603473992335405,-0.8898045084644922,-0.8242950105642683,-0.07732436734428882,-0.6935841002567523,-0.9399117357507052,0.34795922612207986,0.08174125967802968,0.8156325593202239,0.46890436853093664,0.3700443504287472,-0.4431732313814859,0.4588348137074361,0.7622495964280646,-0.4094442090336449,0.19937370643463634,-0.5328920513460631,0.31018227659508235,0.38319797937475997,0.6946747261027527,-0.2385545807084396,-0.9019656917175286,0.44864280442674653,0.43599649522295286,-0.052025885678507605,-0.07059026196215105],[-0.7288823034187726,0.5009491919480554,-0.7983179596918278,-0.42507571229022084,0.8243289282334579,0.7766700482113998,0.8201976857800493,-0.6703801389492059,0.5683732999879938,-0.8672327547358332,-0.7587667281135493,-0.7878701349345372,-0.3451648733990632,0.4603688436612675,-0.04084754828217025,-0.7475581719784531,0.49192501782644643,0.008841672636304665,-0.4517738550427618,-0.22971517248120027,0.8420767602275655,0.667508921436198,0.17878779908599526,-0.3376161949927486,-0.13854190823848228,0.9366055204905198,-0.35423901903926924,-0.8054703559030439,0.9791806672736423,0.6038746142680977,-0.48717156980385684,0.8485187308065748,-0.8470974835987565,-0.47968557162178915,0.3069539023193672,0.4868159699125458,-0.5162138809980918,-0.5011311407801317,0.6186119049675162,0.20520004538966666,0.27454538039064547,-0.7700373607968256,-0.8023912098824267,0.8069718030906039,-0.07925231003624565,-0.4859638017514262,0.2538058533926768,-0.7502015451811599,-0.3764404051701781,-1.0208238571594341],[-0.17034894402848327,0.56425035633672,-0.3903593281838414,0.7474456996761091,0.37605644795836807,0.810065677312814,0.017843352307329672,-0.1204497437713694,0.591279712866215,0.16087819067979464,0.49768193218396345,0.006931653930913699,-0.16598668791178117,0.996975471585354,-0.17813141618641234,-0.7216445903315348,0.4590277168864846,-0.11191474267681659,0.7594266346572,0.39677586003995347,-1.3516471036624995,-0.15747989963755304,0.6825899153059193,-0.8995155311168568,-0.12664086920063147,0.47751552488186394,0.9757721096156156,-0.5827332117742332,0.19038982883225455,1.022984396327432,-0.32257786528720156,0.8251144053593724,-1.2673262770030602,-0.020711504863546254,0.052736341279583515,0.08751115269433943,-0.0138815325607206,0.27414744855711637,-0.12763203110181393,-0.6245308399802014,0.540921892193473,-0.5722254002214413,-0.599688240354838,0.13328746331044913,0.9743118572129015,0.14595107783363753,0.7769002134244813,-1.134096010159165,-0.2674983141252081,0.21057156762225457],[0.26769129302556827,0.1406908637217089,-0.5706507721463149,0.5614069883921344,-0.6482304485635138,0.728910696356473,-0.7174593736086973,0.553151062497754,0.907502489793912,-0.3245756362674881,-0.13308546930288306,-0.043085871908664065,0.8139807296576866,-0.12807228550449332,-0.6451905231379024,-0.7879047736122102,-0.79452105966262,0.43173076788234027,0.6604547430618449,0.2990356397873307,0.054630990887811044,-0.7139766913711274,-0.8513081449066158,-0.022979893025791225,0.5840198591661415,-0.10528140808028974,-0.3392537762580744,-0.12244161577868085,0.6933977121616771,0.08944592799032694,-0.694726074386251,0.8681583294214207,0.042644864915431555,0.8420140701686494,-0.6468792415242558,0.7243069255716941,-0.006207199234501241,-0.6443256035322165,0.6457062848916585,0.09668247359105617,-1.0466381747321831,0.5784346885705547,1.002337089786682,-0.6179292907995373,-1.3269872974178614,-1.057785864219374,-0.8764635237706075,-0.3059748510611832,0.7806057792939333,-0.836357810001324],[-0.6046528060293035,0.15430993309423224,0.2628216528281709,0.9797428615243594,-0.8582712331350492,0.9029242066642037,0.6931684124504669,0.9205400803342867,0.6920028402144058,0.2480695099258122,0.35117352315923767,-0.14457978496117332,-0.7177767040362888,-0.43385851439497425,-0.5424452449249815,0.7091053621685496,-0.05810088951968871,-0.18383518773257737,-0.4639478060395818,0.7418050596507019,0.9448231929241423,-0.8463918682171384,-0.371967821807221,-0.8447289700605702,-0.039908512250526995,-0.5578886179360926,-0.4311999622379506,-0.3091148966114623,-0.6158499510017862,-0.6750788652650308,0.5281520155883743,-0.8394548159224899,-0.42388226148843633,-0.23861884948604686,0.2195461495432695,0.2839984871673556,0.8418969093321319,0.14924559472929763,-0.3375361604439019,-0.005519007781279078,-0.9354304246397248,-0.422347412882815,0.6467599606412014,-0.83811695681328,-0.25095966479561893,-0.8923441974905114,0.5254781578898828,-0.060280890101021,-0.5830651480897358,-0.4583094699500791],[-0.5381786772620867,0.43469618736113974,-0.9748770090270735,0.14383892908353046,0.9265016822983334,0.8836677165848453,-0.8556387287927875,0.2959507695531564,-0.49301167954465486,-0.5419856132854718,-0.41279571383826585,0.3985856466593227,-0.39886031014495754,-0.5285143753488684,-0.16818508859693745,-0.03586018834219943,-0.2342745240640995,0.477218433233666,0.4627896917064577,0.2569175409121174,0.9947828384069755,0.6431749962212997,0.0902505213181409,0.7673306676431815,-0.462545840392561,-0.9546535307058188,-0.6087008608713657,0.8483880003994924,-0.5802015472185813,0.8395077923548183,1.043720365000819,0.09883062840897332,0.6583490162534549,0.5041508748558294,-0.2812671305753601,0.10307353233310633,-0.3204676594175219,0.6649944287448354,0.38311574887753114,-0.9344519112669626,0.33465613495646906,0.03530485861070756,0.30371810308207264,-0.7096038053686653,0.05480763333211935,0.2548365330490614,0.7162442046763082,-0.42514880805846256,-0.7950782917108338,0.437626145111808],[-0.1355419318995506,0.8600421539468898,-0.40054324444583805,-0.7978932685721546,0.9950114576580382,0.026420708821740076,0.5613096660749374,-0.28455724712620734,-0.9101844960933898,0.18615124752597784,0.5453805542235038,0.33871128590975697,0.2953720198799562,-0.5144754054115118,1.0856979631553132,-0.7349971191886009,-0.8628460687872284,0.9598063545190852,0.5277105644588357,0.37288895976496095,-0.7163847968650658,0.11097541321943066,-0.12262964286190754,0.9193929138104376,0.4236273158558794,0.18559480470761044,0.5168594216774163,0.756568241461871,-0.388424270811692,-0.06105481184654444,-0.07926541834330793,0.00971825606770774,-0.7350284236719108,0.11023056276361573,0.14287605273030232,-0.7059109870421757,-0.14149492912637193,-0.4346144221776389,-0.9283677496367575,0.543474746901711,0.7238093624351489,0.9846422835316472,-0.6741276236099465,-0.7787392470947421,0.528909352935829,0.7251353322181711,-0.35815934160930546,0.5022521013749499,-0.9395242490590406,-0.7453905024878278],[0.760899644027641,0.23083117572961434,-0.4889859088125663,-0.23259692449137603,0.5822814542833016,0.37420613681616166,-0.7844899535309048,-0.72051208884222,-0.6898820923014954,-0.8528601257168432,0.8545391993511307,-0.21405893511145546,-0.7817325284669048,-0.27254977468891656,0.7242963566243636,-0.43943463016336803,-0.7206549232450252,0.7371773588075851,-0.9492221918247972,0.8603166288992559,-0.712237808000861,0.421195867970648,0.27162438708901876,-0.03729350896136067,-0.48172811449545033,-0.44534966140569227,-0.7203932184327575,-0.44708810986847536,0.11558907159649442,-0.21825112797424234,0.8198739004449324,-0.31115085359219335,0.6620239848319334,-0.77536339062463,0.7403829289600907,-1.0332378423965656,-0.07338628241103098,-0.41715635639556703,0.8483454520153451,-0.5631673050097087,-0.9765075415635064,-0.08539525161087193,0.08894043531817898,-1.0602039912607963,0.0023177331289256317,0.9157243722487474,0.782037894415069,0.10014906404173848,0.5566597243998673,-0.7763505848401601],[-0.620101884711186,0.70245605382907,0.21665715706596977,0.44650295752024993,-0.14409185867627508,0.5789993209466991,-0.8095022811467275,-0.8386358206907143,0.7949500055403538,0.19631545011269147,-0.9926315580935221,0.6836045165246983,0.27783590623830295,0.9964273777644128,0.696037839596072,-0.25938332071572207,0.5198085302986409,0.7183143395335679,-0.5430062593823817,0.15204290556993025,-0.5760132117545474,0.19505463170219164,-0.8555820084082248,-0.6625706325454209,0.5707193970121772,0.8055239086063506,0.6866712535119811,0.4724906799958981,0.39377894815352255,-0.7372184745417459,-0.8488286275872963,0.3900400805307305,-0.1960677826578943,-0.11700480313935747,-0.8654798907786907,-0.6404716557323527,-0.5871938592176769,-0.2553904311745634,-0.5842658131980696,-0.14740423619443876,0.694603776664739,-0.8132222937008355,-0.5718815143044559,-0.8978504506254498,-0.10398120201490298,-0.9732225682477366,-0.021565952326259956,0.7991809015953482,-0.656056594394166,0.5348602515989239],[0.8599128189466613,0.6469466431195434,-0.11391020905419999,0.7326446983604058,0.5487845460353865,0.6308475241181504,0.6450074816156353,-0.08891755034961311,-5.90532416426691E-4,-0.12667628948932486,0.04013251031844678,0.3618499676885168,-0.3189748056259407,-0.29775790291270293,-0.9935424922602814,-0.6639573364962138,0.5091900740854084,-0.8203443456045323,-0.17503067500689368,0.8932127213646731,-0.9209279748960316,0.75767540121987,-0.4484074717742152,-0.9857794923809508,-0.34225079771607875,-0.04413867852971467,0.08609570613006137,-0.4137196342968149,-0.14054246186958955,-0.014905880750072611,-0.7760561170360902,0.21745081880573763,-0.39344521879522787,0.08821992969063804,0.6425822558312911,-0.2974727122749499,-0.008967386291643318,-0.9124812917997478,-0.31443698287188077,-0.09885536679922001,0.007795865529676737,-0.967032032921126,0.10388822997704543,-0.6345097757885849,0.7878343923227806,0.181249421524327,0.43243442073527366,0.49612335228482174,0.9119696202870193,-0.36264935655612096],[-0.5286486784253351,0.3743558343970285,0.7202355130729109,-0.10643025795431196,-0.9383230369289347,0.8905561838416025,-0.4072164538998227,0.18035903463576855,0.1262328521283401,-0.28063521672800745,0.901407375216937,-0.4788848992737591,0.018369142350030395,-0.859150699241425,-0.6769190662679954,-0.8677849880680384,-0.34167212563587174,0.9201310726856271,-0.7970425073334416,0.5304537753406711,-0.033919621623592855,-0.4039317717554169,0.21318850091416103,0.33502901077780883,0.6390551002900665,0.9650329298169439,-0.44122653319298716,-0.48433618475771517,0.28529405027817456,0.15697677475732863,0.48649938398199255,0.9461842538095268,0.05980783579370464,0.47490332575017946,0.6395101020503265,0.23898482810440508,-0.3703734359820523,0.32310541904522333,-0.10705222533911465,0.4564554653347115,-0.38427358672039186,-0.5128023735332585,-0.8720480978362017,-0.987523574835764,0.9983672728579471,0.5319615214620581,0.21863140156774125,0.2707891084552495,-0.6792379234308524,-0.2799469726919351],[0.6357546621077055,0.9661039983441654,0.4923153254430055,-0.39599194197146637,-0.04727697951570699,-0.3639254869880308,0.11715872663750508,-0.25054040552057055,-0.9087248435755736,0.14258764286077166,-0.31868072708436096,0.07208818496768662,-0.6103238511961925,-0.8838506924384654,-0.690662385686131,-0.5856563155714611,0.26861078387455345,0.7178379848690822,0.3016539457799597,-0.7845766918770969,-0.3437694296096455,0.9888783249972517,-0.1243880298790994,0.5570929125437443,0.5605502065573233,0.9589568547484782,-0.5647623555494897,-0.1760545638358865,-0.8258991333851358,0.8798328548416087,0.5322977619745005,0.4640508825104386,-0.8792953379162923,0.0568739302869175,-0.09317217519697524,0.014597487142888306,-0.68260798523549,0.7760359865972825,0.2206383334550588,-0.04269639848804688,-0.23103739854984612,-0.31637889419885046,0.0051930773876763,0.5989839113971792,-0.16801409539282622,-0.0637576554512056,-0.25188423875173455,-0.5222719900085947,-1.057589382128413,0.24304602327027083],[-0.4642883286071357,-0.012094393590091939,-0.8177986733325402,-0.707412375922872,-0.946854432571299,0.7558837117159694,-0.5453627546722586,-0.14474553895119774,0.39519911536785973,0.4215429574114271,0.31037660937741346,0.7928054824933194,-0.4386264077040487,-0.831594534632879,-0.40709583838356994,-0.6310547255479361,-0.9000900079385599,-0.2446800967598398,0.424114755471683,0.1740066388940356,-0.08150904196695871,-0.6760670485658424,-0.7042674626337382,0.0871024983599361,-0.00878440162149029,-0.8140915706468979,0.6448657133716992,0.35263544279351594,0.6873436760331246,0.3670139022718365,1.0561190559950142,-0.9264365611774578,0.2132274711307812,-0.5762034154617166,-0.7983812887957837,0.612253280650345,0.21148871777335596,-0.9393044855484107,0.7798597151779566,-0.6410820854967387,-0.6045125161584384,0.6272677938684798,1.0826840003121698,-0.4881245220260889,-0.9374358076422781,0.0026926468001985194,0.7253365219119001,1.1274193594314317,-0.21559760133643296,-0.5370848000427455],[0.025130790045923817,0.07257020976917601,0.7311861212885784,-0.20580756507400857,-0.8812152552904602,-0.8651644392300123,-0.5485675709941854,-0.7189204907838491,0.9320925405864205,-0.8484565505439384,-0.13085895993700558,0.6527262944019236,-0.582160742013855,-0.76898520776009,-0.2899625557669259,-0.8023753244798695,-0.425047596528686,0.2217224529487817,1.004770888008239,0.8354937892912113,0.14615757697116394,0.18951650987590396,0.3504059435093793,0.5598831655624659,0.5479735439511354,-0.3760707988480088,0.44845796559882534,0.2756218720704421,-0.7936940370930898,-0.6381523572536592,-0.9918224155442772,-0.6867975493561531,0.6712502053301019,-0.021062442845892575,0.2846634514411154,0.6094462528706719,-0.99698769667462,-0.10430062280032637,-0.17258571536344933,-0.23291969418701608,-0.6571473066304052,0.4057340253877001,0.40833672909169183,0.963487264761211,-0.11422472690715077,0.07295071475098588,-0.9517119490741782,0.6634125995284755,-0.12487667741968261,-0.5239882861210141],[-0.6529787135300239,0.28080433068937505,0.7047869805014298,-0.04258010838240938,-0.7782972861928041,-0.18460954841150362,-0.7943406847328311,0.9139927269647375,-0.4298735215863947,-0.21688557479468093,0.10756388207437474,-0.8441913549435361,-0.0014811106037143594,0.9483020863333934,0.24866696920542886,-0.456940431583905,0.675789993480893,-0.16556174279851554,0.8456624252688929,-0.0030376672521979994,-0.8161238142305776,0.8452799213417713,0.7457758661229243,0.095403719565153,-0.7451655742631588,0.20433706957042005,0.5922441777469576,-0.5715543581144528,0.09075685967694737,0.5721477412697555,0.05923068598462037,0.30674606157143247,-0.06908510352563804,0.7039864262378056,0.6647648618994842,0.3140716686166833,-0.2456734370007908,-0.35609264212775776,-0.6570260739865311,0.1567028766973352,0.7902663151388168,-0.043638399079885676,-0.8873376299870646,0.8769976528274808,0.26568763951603247,-0.6556874379879395,0.36679597388809715,-0.03221419935842712,0.20611504857451468,0.6192101946934766],[0.057115880793654324,0.26120183594022794,-0.43837627227587844,0.4752712540992302,-0.0652205768921333,0.491087221020032,0.8390804427336286,-0.2927160860002467,-0.4901491030106411,0.5079443542676254,0.6392871333806976,-0.4130805447902526,-0.5474577442455657,0.5406697410840924,0.8594727685292359,-0.7770255743409176,0.7124292602813348,-0.11477695044413412,0.46432831585665224,-0.03145266569277354,-0.40028650487664963,0.2457142259241421,-0.84763310384694,0.9743350007580128,-0.1457809356210898,0.7513935893722469,0.7439152712642984,0.7607505967334083,0.6421929308558051,0.7036962539435804,-0.3900545626662486,-0.4306399288176301,0.4032513568593314,0.08130693124468091,0.7177234859279894,-0.8301364355308326,-0.01310025153684472,0.7219990826282437,0.22770564275938915,0.5726209998877447,-0.03904055086254294,0.811979931589227,-0.9860539820578414,0.11089601871235757,-0.8768237054030742,0.8652654458236898,-0.9448852426373385,0.7252824166988322,0.8880327599296876,0.5583655748236014],[-0.06095245078706798,-0.2995077258824009,-0.3942663492082409,0.3979616170365419,-0.14426780448094348,0.5191562859174682,-0.650759802760309,-0.01853941761869501,0.28737056111239273,-0.33986546829207215,0.07198233031428228,-0.22043407890179414,0.4488642553571407,-0.049538473352311874,-0.9779606162342638,-0.321625364571836,0.5709981725300062,-0.7782846711276882,-0.11470214135950668,0.12513467334251735,-0.478055335946668,-0.5252224460700385,0.6673598681677685,0.27286846739130277,0.3651458003916123,-0.744133348884099,0.07192135085988026,1.000319338181145,0.13608160282555865,0.19938686484350504,1.0671721913135295,0.8558753445575252,1.0682211282645275,-0.39850685792289203,0.0444176275603302,0.582827775661734,-0.26606478730169014,0.02490904531132981,0.1228030572579149,0.652608150993097,-1.342968631130662,-0.06818057263735268,-0.07979354415056279,-0.9084364962085496,-0.08415848513441332,-0.8987215778588645,-0.6977317240343227,0.8190962119637171,0.3617463607084345,-0.30263511896099765],[-0.5714145712704297,0.1529854385986598,0.8234231289451154,0.9750082186123793,-0.10367185844187436,0.7088639845951785,-0.6270540670797974,-0.7740669052256397,-0.669255092714879,-0.037261398577331066,0.398154577001295,-0.24369957306458445,0.9377808444862641,-0.306583905974723,-0.7509521325077364,0.8187888572072503,-0.559294024735702,0.7940051219294614,-0.8245405039645973,-0.28569968444376564,1.0094098138869596,0.0191168981695976,0.1693383009414475,0.7689657087873347,0.1608046353968112,0.19797817151974667,0.4894122470917127,-0.7265738523113286,0.9921768385030982,-0.29681697705911486,0.9801657826782757,0.7990300805381128,-0.37312291337524023,0.5364942732974537,0.8742253951649139,-0.033870574673814255,0.09515987927677182,-0.956683891426666,0.6972058420457695,0.11557070214898325,0.46451673816878564,-0.7605447946155092,0.26174887412330944,-0.47523780125148063,-0.46895090747997004,0.6002159809373363,0.43442338223860694,-0.6453951085130849,0.896955016520097,0.3165140695934128],[0.4277567664690962,0.847491035642451,-0.24652666095617115,-0.663138069533378,-0.06920638392497462,0.6598684268021225,-0.7424181971081965,0.21349312767718875,-0.5676749987290234,0.7184418635521677,0.7464528597590218,0.7491103625403577,0.7452979803312155,0.6318732112451002,0.821339239193355,0.30554515420710526,-0.7581901506006798,0.9714766116306801,-0.5954500064161831,-0.3136286716048963,0.9089724088745613,-0.30660260371345943,0.839600051856275,-0.15452039246002172,-0.926047517290778,-0.0841160062323139,-0.7735683838308832,0.4230697097052637,0.9610809655980753,-0.4661137981244799,0.9453318655033973,-0.033718708535912835,0.8857241971823193,-0.8467479958347047,-0.6609251499895471,-0.5987314479395455,0.8150488354392309,0.6457947607915172,0.8735566605488301,0.7649067876609547,0.2638250737575365,0.2800362231046334,0.7276445592506023,0.5132179995115439,0.06043356948136616,-0.1948998490736543,0.7449014001568882,0.8305296482517988,0.3746118352791585,0.14388439547478074],[0.09457491747772724,-0.6184374189407402,0.6947882128210053,-0.5842507357022777,-0.5912112579549671,0.8390111470138736,-0.8750611983206176,0.035656661170127786,-0.8693402472763362,0.6752252447916307,1.120689065166056,-0.6639133298522192,1.039791872446689,0.7744105239080411,0.2797668048171554,-0.32803983730026376,-0.5094006163895894,0.3302394454673845,0.5896314775239921,-0.8455330722880714,-0.39675764664986696,-0.9456116955836696,-0.7403095186062902,0.3690912633179815,0.360758621072715,-0.01026186221355281,-0.8276396798210744,-0.5799199495897928,0.6815599961944677,-0.04123495414600036,0.2620042582386141,-0.9151594609748358,-0.5631813973980767,-0.5195587583183309,0.6421557140096164,0.8862154655275469,0.6689622428273378,1.0446320924491743,0.04780292463492137,-0.2622955824847641,-0.04975078073749152,-0.6726433054800701,0.035309848239975516,0.5052529213903055,0.4268511228055944,0.7921689830835273,0.48280996419638017,-0.34792494526600176,-0.3789137870554976,-0.1847327194857407],[-0.3193684881935603,0.04563308067030809,-0.09509497596278085,-0.4703954266763358,-0.8915897523182901,0.5709687140120561,0.2472517350811003,-0.4951470153096712,0.7738726229580716,-0.537234145320643,0.6935576691722023,-0.39045876162149384,-0.4704083104479266,-0.2461280893756449,0.36405835174874757,0.8167492253480307,0.8296277029412813,0.354099930200463,-0.4549086273085211,0.2988581855607054,1.076394086549358,-0.12327195923329283,-0.7868746582381919,0.5035463009665696,-0.3133297029293883,-0.8059106239199739,-0.10791101760425877,0.5885644244753968,0.2650767691807687,-0.5202117522372891,-0.39133471563996547,-0.10375455687942706,0.2200844216089501,0.5456238252961311,0.768610785474127,0.2662210492227553,0.1038942940862567,-0.6184420417694256,-0.20907363713216381,-0.3583168762476373,-0.7198507080452116,-0.08966838908477127,1.0298093289274195,-0.1953099019675862,-0.8942566125141217,-0.3288132447732314,-0.3214613578824657,0.576566338673853,0.6675263797525436,-0.35815819249746594],[0.030034370407000913,-0.5811577866670753,-0.6380110765486539,-0.025899123439593687,-0.30008259133583515,0.00940451162073391,0.9250642613764624,0.03960802788130404,0.9793467225206242,-0.2382743955663971,0.19515948978148284,0.23368486150987489,-0.3659317052521838,-0.8607630789803943,0.12497934534241215,0.5245267033346129,-0.8042399769686595,0.9224454255728951,-0.4398634891032353,0.03723867812084981,0.9963267414701331,-0.10436160715150077,-0.20083907700085818,-0.5980808240270772,0.5015626008604104,0.5855348079764583,-0.8843160734531877,-0.4219630658880335,0.10256850479331285,-0.368388580269381,-0.4132010792352184,0.32568802444132344,-0.15336721352485097,-0.7908594682526451,-0.8414504780474318,0.1016472768019906,-0.34653384461294195,0.44649365860340084,-0.4227652559135652,0.09386646908059994,0.7655144031496649,-0.9952666146059547,0.07548928765118879,-0.4985878118577987,0.5844295073086508,-0.616980223426823,-0.9847125690124839,-0.5321592671043387,0.07735341171144748,-0.7301950021216871],[-0.5531211985719777,-0.6922197777660593,-0.09243724875270519,-0.8317096771860888,-0.261634234636733,0.48779319955860495,0.9226348847000261,-0.853974800592859,0.5127832071580036,-0.2832876435565387,0.7579492915894213,-0.14269597692148173,-0.812390867908724,0.04872889077341625,-0.36177303409624123,-0.5822816845449301,0.07720535283092296,0.025205077929667596,-0.3300887199380283,0.3471319731665454,0.4048226027864973,0.588314396463714,0.4566045043039083,-0.6120443454827718,0.6645097491025208,-0.033650914418143885,-0.03048743350468496,0.7561059766800422,-0.7940497350310536,0.19734664568670357,0.7820229068709084,-0.4494286983373992,-0.1508266909418287,0.5491454447089649,-0.6191954602182165,0.09592889330809683,0.024954123113894167,0.6714635278915924,-0.20432321844627913,-0.9562726772994885,0.9658281232493253,0.4818388850424806,0.1764725822002254,-0.9511125054003142,-0.9500789174048138,0.23346150602768292,0.06185593102184408,-0.439820138720155,0.13549512066898473,0.5178893483937761],[0.3870412513318163,1.0282175769777933,0.127573505732026,0.3038274560512879,0.28446265940834453,-0.03783259994919061,0.33104707534364036,-0.07067152271945659,-0.4951115693702697,0.4191323180586247,0.43313180165275095,-0.7080793129543255,-0.45614081605510626,-0.6692596133467685,-0.7557714831455932,0.7436521182282304,0.6391614691277537,-0.8693629146013496,0.972461056461313,0.07132757014756196,0.0847588142518743,-0.3546854136361407,0.3454768980035604,-0.31681087468167896,-0.8825508618567827,-0.5667508330873969,0.6781662537271236,0.10479964375960772,1.045884346384505,0.475773817145571,-0.9176615538814634,-0.7654862695809769,0.18063198929446722,0.9907542705436043,-0.3511954227208675,-0.022478540684843465,0.1935466415189782,-0.48593112543858313,0.011675353159943535,-0.3886634433380847,0.6033752835340356,-0.08403975001042192,0.5341595405535682,-0.19877780097678385,-0.24485257409667877,0.13157927460899796,0.4230414101028609,-0.3591211715772006,0.047667944795062256,0.17235268616522503],[0.879159851737218,0.687822671028706,0.9132423344040608,0.9717169581796101,0.9050262298718403,0.024981665839102794,-0.9827203056483896,0.3881777419538114,-0.4090851152886348,0.858472436263364,-0.885957279326534,-0.00515419006011538,0.24762724243972659,0.9595993050265699,0.5818047838878594,-0.7642546090125732,0.9475123930521326,0.9537367646071618,-0.8084539875773874,-0.3584180176242546,0.6319311312231548,0.15679665404606744,0.4702610125779601,-0.859797003303512,1.0220642436499423,0.5244823693879134,0.7789184681906421,0.09753558485960022,0.359277346755838,-0.32717002697469727,-0.7765467686170123,-0.5222649244760764,-0.04579992155267151,-0.19457007175496635,0.22622898428814497,0.25648310937425417,0.15175471034083712,0.3411862524233007,0.004549239164537999,-0.8300033076035795,0.15602058847589978,-0.013610850396716003,-0.39211754973908725,-0.4198744924450651,0.8358210278592663,0.7328219429995881,0.8313255198067264,-1.2011263272790977,0.053741973377410275,-0.7412139554670288],[0.655295755635336,-0.6554413557961128,0.8267921912960207,1.001097111263573,0.3222013091529049,0.2297038371877603,-0.36274590086795677,-0.18587885655298983,-0.5542331846659937,0.7679608162378261,-0.33080197691586266,0.6292941162057527,-0.428681221771885,0.279541741408607,0.3175193564101391,-0.4783633479237264,0.026437476126420306,-0.7301745665541299,-0.1995942433742516,0.11805801670952067,-0.27839768046266594,1.0102023356953462,0.32953981213011685,0.08621560017388633,0.4992079530337293,-0.9348049674418217,-0.777602808727776,0.02303825483925437,0.7130793034482754,-0.8806991442741858,-1.0125404771007593,-0.6079528543287315,-0.5141168069444109,0.8263936768255489,-0.18764463421901945,0.006770818397749293,-0.3550557823398004,-0.49813811147961845,0.5585969484618433,-0.18774311144078829,0.3768179310116745,0.10308398479982597,-0.16340257790643434,0.3458361079400291,-0.5601343544826384,0.5504669268884257,-0.39451714846177305,0.2704066645889705,0.8526635356988419,-0.16183151488395234],[-0.32734770182264417,-0.7555617806309097,-0.88309569135408,0.932898782647359,-0.3861549061493712,-0.951390134223662,-0.9303180173730502,0.5819788408960463,0.5139767786143401,0.875607485138622,0.3107752173944174,0.014193946671581237,-0.8695556629320306,0.721436333886552,0.6498741192563736,-0.7432154036571905,0.12998995359653673,-0.22087397545360843,0.43065926013199113,-0.45223123036123064,-0.49669491934111265,-0.7406895311026473,-0.6962848552532257,-0.1825733910436458,0.9870440296397531,0.03428710100317459,0.895019706721546,0.3903147087364918,-0.43032673209861666,-0.3151740580738632,-0.0320710815238639,-0.88258105637197,-0.2767955210582617,0.10261675968393424,-0.2723624464900286,0.5819247272965199,0.9331189521088218,-0.5880549055785264,0.13541455904523486,-0.21101828816731746,-0.3922610003170016,-0.06701196431877403,0.7798971051084489,-0.22583370026955638,0.2520382929157636,0.6150480453565876,-0.5840083814674657,-0.1105662105742659,0.9109452158224842,0.6008180227646842],[0.039355636119254835,-0.0670605014854994,-0.403635304604997,0.7249973419512727,-0.5759357057573673,0.3307090999060123,-0.05681523688261351,0.7772900393530455,-0.5119384000774224,-0.27396937739754,0.5029734687241327,0.784860510682889,-0.5893482042011232,0.9701074785466356,0.8155313850819218,0.31448921394647955,0.15437635914957068,0.9932176048540758,0.8993134603054121,-0.8300065332739848,0.7152194679252404,0.7567240596257065,-0.028831821334608043,0.3882827134311246,-0.2751623283754727,0.3951907411233947,0.32340760534475604,-0.3534117506181214,0.5965455622627669,0.51837860173566,0.07655304253341373,0.07148190022184805,-0.37397988584888275,-0.6746174978620288,-0.6798143255367665,0.4543016562399797,-0.3570846612165406,0.5999649203677566,0.5039583506693252,-0.6637958620882594,-0.47371013629954495,0.07715555961720123,-0.5754423959341075,-0.04110880064666495,-0.10050477186759815,0.6036937447267686,0.05467688735024632,-0.6474587471120471,-0.5236724861289295,0.5753265800935969],[0.49778942173982027,0.7273876891276038,-0.8890519417388837,0.8131492300005962,0.0836175512426975,-0.6351471804821038,0.5700557639173471,0.3607349047766747,-0.03663891776708579,-0.6251458195795965,-0.008736458167395347,-0.6443381660267937,0.5265856240707383,0.941086148497193,-1.0054002277119514,0.16569699052716494,0.4286418847330979,0.30526295692156713,-1.1342624002437458,0.15316178985405862,-0.9978809477127515,0.7412317971232002,-0.870360697326957,0.515359468684415,-0.3187040363513875,-0.9855027749114589,-0.3301132156610795,-0.6958993313662355,0.2929141219233929,-0.34235522325190554,-0.2133310987210434,-0.9634554972525311,-0.5150792258754942,0.915615001712329,0.4456007702540039,-0.2460898833829871,0.6137083955403655,0.7335543682844775,0.24885536335876887,-0.1525582801738739,-0.7860214549904084,0.12491873380637177,0.07471088681913408,-0.9059191758121965,-0.5849270325495328,-0.6603445719986337,-0.6303702693490458,1.192935636457235,0.9645602988493011,-0.2535707511082701],[-0.7866040568249463,-0.2622878018856418,-0.4301689300671484,-0.4414020650645772,0.48613010624536734,0.25473910559213264,0.13675485253167713,0.7931433348903598,-0.5219305929746194,-0.29808889119435544,0.22080191735537807,-0.8901445843062344,0.4088153414294187,0.04294342743322893,-0.07084489968570226,-0.16026292633330202,-0.20047048819728785,0.579992636200026,0.3368264260850455,-0.22593166441601217,0.9069856065017947,-0.8887847529889453,-0.6335466897700617,0.5169368547001434,-0.6087944003051294,-0.39180052950374494,0.4131570319615319,0.9254340147094027,-0.5478630530330909,0.2729521302168998,0.07778842543658633,-0.7707894417191066,-0.7462347386993244,-1.0680215133459303,0.37453445401603846,-0.8680924221720812,-0.62524867706124,-0.061141384119172706,0.4581984364889,-0.9523493809784103,-0.5634023777780476,-0.3305462117718333,-0.37099246964333665,-0.34645166541280675,0.46134289460450706,0.2600500648716182,0.3096641396915504,0.8531594085472298,0.22107701871408636,0.5133598579372294],[0.34225086694941914,0.8165695164562344,-0.22927823654065282,0.8085288569859947,0.7921103370013709,-0.9669796997111526,0.556106627336481,0.10352283844487672,0.4008476463540543,0.0682133469495336,-0.12662503807633613,-0.8795266418510356,0.5292469840641499,-0.953439507060139,0.4392255480657491,-0.6273431669813888,-0.35053681721649027,-0.01981395254998133,-0.4191073960501686,-0.6072016822380275,0.08961694123311863,0.8433802594833993,-0.045285476241584875,0.48381573559053787,-0.42674212813628987,-0.4160372338139357,-0.16475502382403717,-0.5120969981196088,-0.5639144042941086,-0.11384011153599409,-0.2993616147852391,-0.8735914840814525,-0.900074361664529,-0.738134548334946,-0.8604757008926003,-0.13807928040266168,-0.19526697026496773,-0.7272134861502114,-0.6736545809509528,0.0023920100293186985,-0.01529753135823084,0.028112330329173443,-0.8439729586306165,0.7047353693725419,0.3639941109550862,-0.13477926279015154,-0.18036740609317642,0.6420091862607952,-0.4161981145697604,0.32212988041640944],[0.5466486784404821,-0.7088558425792931,-0.5534075660379432,-0.46356385367976927,-0.030627353090194574,-0.20741694207511488,-0.5179131946001371,-0.00879945496189743,-0.5797073397760694,-0.31128558755352054,-0.5979048361350869,-0.737568297532803,-0.9765776103502257,-0.5939596517894804,-0.4234815561953581,0.08345512451562356,0.6327166241351239,0.8961308259903303,-0.2645208490436289,-0.7286790065234061,-0.48869725030882605,0.20708465860478092,0.284804653013982,0.40228291193557947,0.07684752398881765,0.07446705604367759,-0.2141479661219355,-0.9304306171484369,0.8594652067616477,-0.23244302868569774,-0.913570317114264,-0.9239464340173337,0.6376203468215075,0.5531365291681825,0.025718409499411603,-0.026334826524574424,-0.4322486409332275,0.9139131912498075,0.01347903239244177,0.6696321296368479,0.6710555437828564,0.6830075733075619,-0.6896936202788326,-0.4428256042512629,0.46266113096153677,-0.2754341735362568,0.690899588059831,0.24183731171405803,-0.8726747738256574,0.4616000926621321],[0.9293611882108223,0.272551550621392,0.7504987108482306,-0.39499116792276556,0.4162247524921259,0.1579833914848367,-0.7592213479783652,-0.13395653264477106,0.5266691551759508,-0.04689285672601153,-0.7595223306598714,-0.05231620722260429,-0.8318557190787504,-0.5351336895989862,-0.257265648795211,-0.703075177212378,0.03017651605424613,0.6878289315168559,0.35871414532485774,0.4075698330011407,0.5008041187907322,0.2779040337403457,-0.123299217485393,0.8082474352680149,0.19848527692213241,-0.828267992991668,-0.5386489711588196,-0.2861847266749595,0.691570130795982,0.7740922661927319,0.3124252211786963,-0.03159672799525731,-1.0414088219731996,0.07199377678345949,-0.5865709123352373,0.6042948044838898,0.19132222751941294,-0.7210127140012321,0.032129755942424336,-1.0381831969014954,-0.48800534485964014,-0.28948946344430987,0.21990986173523497,0.3460653684677314,-0.43316528365626195,-0.8017807215465308,-0.37150815861811215,-0.2446939405688535,-0.8322097260780843,-0.09297114781313036],[0.5681225848018399,0.5017881222798988,0.007104564699223478,0.9005883083157007,-0.3067318495466776,0.5035472098746631,0.9951145558822853,-0.9821091179090015,-0.5208454886444086,0.4419426596997339,-1.0977701933744202,-0.4066690303047484,0.41756600730708027,0.8507522859614406,-0.7497386338838926,0.18458483473838527,-0.1521132269372143,0.29577528730169933,-0.18873960019249944,0.5679077501620128,-0.5525368606621129,-0.9720580511283495,-0.9799030361575795,-0.34156080918645454,0.24647168754191906,0.07366503584075611,-0.6878294087512505,0.9016117657876035,0.7844142204153806,-0.4190977558666756,0.7880985829805782,0.9904855173582267,0.731163977914451,0.389118344967197,-0.9814962895829924,-0.4802980104397488,-0.19190855310010135,0.5696130039775827,-1.0544411603331814,0.6457976495035864,0.6481825064263038,0.4469926085903785,-0.09525635782933918,0.015648938991793242,0.24739014822024735,-0.18460332049263695,0.006389056778164945,-1.0723426907634628,0.4901697802630414,0.7139883490517902],[-0.4935802033040645,0.07756539215393238,0.09336628278438187,0.1106447609745276,0.11470566354833611,0.4872846170941461,0.055365553989059846,-1.0624324553382403,0.21477624794562825,-0.5856942432180456,0.3176879485835471,0.20946388180513006,0.04385657090281652,-0.7804173362941387,-0.8698279642211839,0.5196564329815527,-0.4981539019336159,-0.22372920533563612,0.5819893449804949,0.8948656250727477,-0.2192133827432769,-0.502894430003438,-0.9095244975230998,0.9286116109884198,0.17235148777850456,-0.3555319686507637,-0.06457770493973405,0.4417164193229176,0.5251430042171774,0.9224300295433409,-0.16578805827406184,-0.6142565928787865,0.6295720751160996,0.42918107974230085,-0.34693073249403567,0.24323821484918753,0.649530813141858,-0.4759359981628203,0.32106995503647157,-1.0048101846076016,-0.39510728690808655,-0.8587281323573337,0.3639515393985014,0.37024578472429404,-1.35739736962585,-0.12786971012692694,-0.49219028999655934,-0.19043277440912498,-0.20156870563409796,0.22050771422583487],[0.6760193889714954,0.9355418183138725,-0.7521882386796676,-0.38390487279314756,0.6743154292756695,-0.985640683207603,0.16901726438160533,-0.869050467100383,-0.8650544435823859,-0.1585592334275527,-0.28010522008749705,-0.9406561643002548,0.8438677437558701,-0.11821492282738014,0.45070658159171134,-0.3931687698074649,0.10048959142602537,0.3603101288766609,0.18163933379343053,0.002349987427931285,0.5761492021508663,-0.20300096103609608,-0.2743726443479852,0.47793778570361056,-0.7252540903213333,0.7804573716436398,0.29497278678431393,-0.14230417378878749,0.4832283127658567,-0.7875182929818569,-0.8305228948911711,0.08894603426811211,-0.04317976618972658,0.17877071851653836,0.798870606885003,-0.995291796887624,0.8536621615895602,-0.6362070530357666,-0.898734550415079,0.319473128769129,-0.3293922779909263,0.0729952804830827,-0.9465746372773309,-0.23881757593707217,-0.5269128449465459,0.27174078637914834,-0.4360599582457679,-0.3073400268716121,0.28298281583038093,0.37680956275381944],[-0.2966547517435992,0.012670818712603484,0.047438272012604636,0.43101813701298264,0.7206925480648106,-0.13646477655268818,0.1178757546695228,-0.06068517155157514,-0.05630071673452858,-0.20207202715581504,0.3316545475443581,-0.9656666289929904,-0.8999547378394578,-0.22388513139740018,0.7998256345730461,-0.27651575138731777,-0.869706552304634,0.8977357117986086,-0.8406133197357826,-0.3208636613321151,0.11488125174956998,-0.5828108460143305,0.028872323044291312,0.24185228872709078,-0.16453063585166106,-0.6221785019770654,-0.6964196900082513,0.5007426347561749,-0.10854543816117279,0.883228944362877,0.23516211249284033,-0.7349241744874567,0.6669994685680029,-0.7912397012706646,0.7069855328959412,0.8784577933642557,-0.3330114765034865,-0.5556924600786791,0.16680607689891877,-0.765364958893374,-1.1178968343282736,0.26177884584784916,1.0363165248730275,-0.07311337875512686,-0.3510562594836329,-0.12857699145793858,0.6931165894709007,-0.5136019678805192,0.1438562634300895,0.09929515184777958],[0.05046076809974742,0.2543907929709218,0.557917321600819,-0.1311098977578908,-0.18400832265367154,-0.05463525035450797,-0.1577710399014718,0.6707398099590487,0.08718584857332985,-0.7341688794223935,-0.331145462587426,0.41083105835430195,0.3101522549542479,0.5324977711153837,-0.5672568563496648,-0.4534027728692265,-0.44357758383922674,0.6688030221213871,-0.4863926810715254,0.29501929078052314,-0.34131002933648846,0.9417311191992379,-0.21383886061375512,0.32796577323539344,-0.162650323635791,0.941537928829223,-0.4599109528574628,0.1407406917493435,-0.8351275473018569,-0.09679317441608275,0.7760569448555176,0.8342951650985333,-0.7085633894248177,0.6981139069633981,-0.1540001858465058,0.42832330245647593,0.2642882506922253,0.8661504141663414,0.7081953056079445,0.027646425817612372,0.983838557631612,0.9079447451698475,0.6873565173798788,0.17064178185108977,0.860238174738296,0.728527940499622,0.564683228645154,0.5091244597387148,0.5813449765404883,0.5979887314712974],[-1.0333285097060672,0.5248422621848964,-0.5494637650005482,-0.7158560880141553,-0.6567822371856615,0.12413402871712545,-0.5357239577061813,-0.958565212194359,0.031813624241474665,0.6427315488189301,-0.1198450454977688,-0.3014890843512057,-0.6889989033743419,0.41169317457052573,0.46864242331938355,0.605858721598658,0.953934060003623,-0.8259102433129485,0.15921750055779144,-0.8038379107546652,-0.8058417403512099,-0.923378177930223,-0.9650457248877171,-1.0579144057440462,-0.8196123859319233,0.6832138049685983,0.39193513111936124,0.27945506354641686,-0.3691195521077088,0.2746020180704799,0.5708104576046547,-0.9096012201617345,-0.9368233866378093,0.315751680776673,0.37143789349095097,-0.045037887382514984,-0.6144447905927395,-0.34754697743529744,0.6969682737437443,0.5493191266724102,-0.2726388320616076,0.5097178038017,-0.3985518782318022,0.22957950369185004,-0.16019038879277397,0.41805310762836073,0.6641448821552269,-0.39092696198062116,0.41165790403726554,-0.6615671824199211],[0.055146786151315526,0.317350196614824,0.259240243202143,0.9171792606467211,0.34448504867871327,0.6013165858987836,0.9409546720853735,-0.4624287451743261,0.03436816997830261,0.8489088556582566,0.6974148491382941,0.39088467700428076,-0.6711773677014801,0.7716790619292707,0.7251991140693974,0.23434238482013842,-0.1161142983969926,0.4933577228437094,0.6997750124027932,0.8778994568304422,-0.6752502923247167,-0.1365053879759309,0.8951656379383804,-0.6737101150408644,-0.15476625536644237,0.9651042435334355,0.9071883467439961,-0.7180276987061658,-0.5863510280301503,0.02913911298876212,-0.07051308385642134,-0.759998460491656,-0.3109024742457886,-0.09522537627612346,0.15704845805514883,0.6690931665626334,0.3657096484731249,0.40651402906715495,-0.04386313952938193,0.19173783052895815,0.6303108938198627,-0.7145418719404782,-0.7255653772191887,0.09868911560597132,0.7356614023713173,-0.32630883101291724,0.8898004276530935,-0.6540819817486437,-0.1387103581728286,-0.16892448709988836],[-0.21068221223764194,0.3372598528773097,-0.6166921839384534,-0.744315816981878,0.6199886051870741,0.36626472822617556,-0.7401941013433706,-0.01391829766277703,0.8553902632701011,-0.30007491909681855,-0.9404115269851276,0.7386684510452102,0.7394356803433291,-0.8686560050035578,0.0843063437057463,-0.05797873055971531,-0.8890548017204478,0.4537750916885781,0.6966842724077618,0.10941040840269453,-0.7933535611121787,-0.4445062933980504,0.12474864410752518,-0.29126994327303785,0.3946960675151377,-0.8012237064470574,0.1823300671709313,0.8981793988553065,-0.5926463228109644,-0.7290066444875822,-0.9221697896904494,0.16915613911033317,0.9848799650660767,-1.089989877771573,-0.170387860385372,-0.2977520609321761,-0.14859838846509868,0.7222401899163434,-0.9664052998765844,0.37568715233192285,0.48492199881645875,0.7664615507497724,0.04571314612895494,-0.6521233351258902,0.49778170246487063,-1.1255007371867118,0.8719081545797343,0.972128940114014,-0.018438804778078625,-0.15394493089189823],[0.9565174392236135,0.1517837891598303,0.40696440153462743,0.5110056282037659,0.7848662709406917,1.0521039317027558,0.6426157047411096,-0.07063291617158803,0.5175959450399953,0.8408962126661653,-0.25852781217397625,0.7822453515654102,0.0066101620499257425,0.28369012330590543,0.8585966649401497,-0.013586803819048346,0.8544349660870574,-0.677077735040003,-0.014867381615798142,-0.48737369523018226,-0.9239311484661082,-0.04790904794034494,-0.16722383124132298,-0.9786370145294226,-0.9906593788680382,-0.2526789880388793,0.8856872961027032,0.07248991894922742,-0.42213921345421807,-0.10843920785140475,0.6813174876000063,0.8068901270076205,-0.6280098883374116,1.0943110209286806,-0.2743969442010347,-0.9908162993658051,-0.10053549565570918,-0.7266497354644031,0.9299620756232283,-0.3878876731718785,0.19259339623023825,-0.18992745552129664,0.558189096974391,0.6214544316086149,-0.28445271378257336,-0.6395615018673794,0.5483296264258875,0.4461799538778033,0.0854113841048584,0.6796068868955943]]},{"matrix":[[-0.49860104972673125,0.1136423020665509,0.2374287969205693,-0.8253982976792134,-0.7081359777911787,0.5318951396022954,-0.49736064866283164,0.1758110885117733,0.3022815825842495,-0.8621453685169281,0.49410400968428136,-0.9511686982604818,0.8677563526389541,-0.6868691464214725,1.0128193308167108,0.5631635155188454,0.6534013091810709,0.4161468885051808,0.860303163836817,0.7820641166760224,-0.2812342101603286,0.07801316128570221,0.6332178746371124,-0.6136387813986337,-0.15204033073866688,-0.5620692815674115,-0.26160518634662755,-0.7666439459874675,-0.8712502765569136,0.07394606438600615,0.08171328746163746,0.7644494869953621,0.5771584239342642,-0.14302793339392827,0.6226492853534384,0.34182463148356756,0.029391663868069764,-0.907472399610202,-0.1898605885922073,0.835300550453791,-0.1259720296654127,-0.4996174194335376,-0.4094677620584591,0.533552841759678,-0.686117124229853,-0.06869709391644672,-0.4066208251259233,-0.8046608215974956,0.09077954180517428,0.2840383894021852],[0.9505525482102083,-0.8648692505089849,-0.6317350412068535,-0.6350396153683652,1.084364579495424,