{"name":"Nathan Bot","description":"Trained on Nathan's musical preferences","inputs":50,"outputs":2,"layers":[50,50],"weights":[{"matrix":[[0.293637958579413,0.689935995560897,-0.972265979572775,-0.49354148366595973,0.32568573785123245,0.06454169320960115,0.06921082583972679,-0.5211859553409381,0.09295731544743283,-0.2768930336770317,0.0315376961838725,-0.07448758146933043,0.26755672663036617,-1.0109874448794118,0.16613187027148998,0.45562302907479135,0.5684557492762807,0.560777102009368,1.1744240852212096,1.150226272554039,0.6432003294228014,-0.47574001790869325,-1.0710700563829858,0.1144537564145908,0.2644556840897801,0.6357978219939733,0.32710349691762747,0.168613128866614,0.29748080556182216,-0.8047844124575025,0.2778556950366469,-0.09752827354264956,-0.6896647346603875,0.639699020161592,0.7036069670427185,-0.29205471362994284,-0.09247129781215546,-1.1636100346678937,0.3552056231979562,-0.3491437997153927,0.39016899576199165,-0.3319163594292734,0.7836562384410515,0.05724264363429226,0.12908494248550936,-0.4934388278397135,-1.2594358659043803,-0.35129757040632403,0.28396617913923045,0.564691287570252],[1.6186478754073912,0.26606292080279936,0.08935488323960149,-0.5014969450218825,-0.5214774190167023,0.22915219892037897,-0.1047119013532206,-0.6477836202682611,1.3161236609397606,0.04938239546652144,1.144869480536313,0.6491221728947467,1.3671070667695526,0.9113965036485898,0.3519445724429047,0.4078089728455677,0.5822266381671869,-0.7104750584345505,-1.6050987999475461,-1.3510332002337493,1.2941055997250328,-0.7503904707420742,-0.6732839123360375,-0.7230992624373228,-0.02550824643184677,-0.7139625697264824,0.23316520033289642,-0.3056210816910688,-0.1551786684454244,0.7687296532096283,0.5807633170753715,0.7305656143344932,0.7904504116330988,-0.8837294775888664,-1.1928436366967796,0.5801559173420896,-1.542922173039854,1.3251842951528963,-0.8781188477348787,0.1622806099638969,-0.5843143504152232,0.7517024128462958,0.6007747449392026,-0.6049862965228738,0.19853930855016735,1.3646442789059514,1.425266434780074,-0.14130476331971725,-1.3559216588495362,-0.7602360274662542],[0.08497444430585836,-0.6513901915254684,-0.5215407865858517,-0.8381360771278754,-0.8499786392158996,-0.3981773422677592,-0.22547871000508882,-1.0131665101437357,-0.5060603229142998,0.27368191253899,0.6943523254046363,-0.06310775907806833,-0.31055278285100507,0.7634046685651841,-0.6272545710636765,0.5700013724250362,0.4854422134759043,0.027811287491045195,-1.310465837882445,-0.0018321068967627288,-0.6993717081391626,0.9203626921962257,0.9103636867852786,0.035366749256264,0.5350742789895075,0.02829775402080628,0.6361849227404841,1.1573449869733055,-0.6436516561292479,-0.4063464812227376,0.04669050418264,0.48981909049964206,0.43441257751628526,0.005819465235125598,0.5719544158494905,0.5643925328039554,-0.4338093438626454,0.631027315265296,-0.6615075866587837,-0.5940655633775662,-0.2719263326003394,-0.8758145347756134,-0.2064926891960174,-0.9504719930743716,0.22839767614023745,-0.48697907886473757,-0.44752232038326717,-0.8985141253950678,-0.09118525044020383,0.3528746825750559],[-0.8491350262330312,0.8738541273442662,-0.5709336243743249,-0.6839113352819358,0.738052208937699,-0.5486102782373955,0.06961887952333691,-0.8684573036523895,0.11636309894994341,0.32764048209046653,-0.9526037739833509,0.7738457615460452,-0.5077081658267081,0.6397517342254504,-0.16477654552769103,1.0458157745874699,-0.7308945818389742,0.034033159365949424,-1.2135407953772244,0.1676446231090947,0.49911976867610813,0.778294388788348,-0.006860482256990351,-0.9572511463484162,-0.46285951115002116,0.9030111647925916,-0.9467026054188044,-0.36156214461206065,0.3937970206919886,-0.0820628994185902,-0.6692765391935869,0.6912063528841086,-0.18262265705169947,-0.6607018608937175,0.1417095959235801,-0.17709714750571778,0.4226405304930093,-0.09692163606402626,-0.0739137354811665,-0.12968453347697384,0.4179033568921375,-0.8125621845713537,-0.363297745217952,-0.36924543860320597,-0.4446090797409874,-0.21314794046773272,-0.8788564579599671,-0.9335677599234288,-0.5437447866911581,-0.4339704268346657],[0.7461545884012322,-0.8682579126783866,-0.5249110258926251,0.48588977101759173,-0.8756585855072654,0.0036250386823386818,0.3835386054784559,-0.23438235319239045,0.7227187737916928,-0.5299061129745996,0.6648669190946345,-0.4024741177038062,-0.3102161436329613,-0.5982930709094741,-0.08982687241837126,-0.3846529265008135,-0.17909596703225458,-0.5473016550968806,0.42877089238918287,-1.0718893451837779,0.6411548820480526,0.7643942075427687,-0.5467948722643828,0.4312967073390109,-0.4564156521675988,0.028350347269382934,0.1450958408913785,-0.5222362484173332,0.173775135641329,-0.529313618184609,0.19828101451446437,-0.8412091692034146,0.25690068730379095,-0.28005854735063024,-0.019999335268344874,0.15418233621823454,-0.7411801185423521,0.5779577219416562,-1.0444953215000279,0.07341877899788136,0.10245649178910039,-0.9629935618378065,-0.5928610796555348,-0.6606147521191937,-0.21703917787100413,-0.8143985940142687,-0.6254916292974056,-0.6479642275046562,0.2827562832441435,0.5257686314120744],[0.051586603803150666,-0.8103568724748823,0.11463942278450617,-0.6912544131949628,0.7558595666135055,0.3757076400730943,0.7618727753876172,-0.8997887973446425,0.2660876881153273,-1.0918243565561452,-1.014055116523429,-0.5386930922733253,0.6612068354249753,-0.5638199436736397,-0.06333849969244638,0.39733504958547966,-0.8720079131160453,-0.7892174647256168,0.4127679592381745,-0.2240087141488446,0.2654069983108812,0.8306444875225687,0.029389458573225637,-0.5094414232942733,-0.5922877038082218,-0.8770858908406826,0.585132410624576,0.1883162209275581,0.20927151279564224,-0.1359199013816989,0.24552147083307754,0.40912260092539404,-0.4877396199710718,0.7616186957974052,-1.0238984653895162,-0.13301583426083174,-0.08297988337642342,0.6251980647851815,0.7522010235890413,0.32095156641822653,-0.5474529001728676,-0.8686751968513542,0.5889216503901236,0.1060700207197137,-0.11635792132939123,-1.0147436774779088,0.7972225518378383,-0.9567037998049945,0.48991719279894186,0.5418137783935848],[1.1546061438293853,0.2615387551997517,-0.33649466522481647,-1.0184274233039503,-1.2520728143370239,2.1245986653630853,0.0529490359367723,-2.5726620626076557,0.8738555317609729,-0.7552930735658727,1.4907782643366645,1.426352620070955,1.5033835944180516,0.9092812071332809,1.2156375867444023,2.1338609532451294,-0.6127664268765761,0.7929936650757239,-3.486107979667727,-4.458529594086906,1.5944469791614169,0.4155156164046839,0.8457181001350267,-1.6644641879013342,-0.6372147978128293,0.3804247645742506,-0.8763546854369441,1.8642246733760828,-0.34416993574810284,0.9217906819082637,2.7996788035125344,2.274441689798145,2.8654629911720297,-1.3379246347936988,-0.4333158659150095,1.605544489398733,-2.3713772208130797,0.7119604694238405,-1.6573600983602554,1.2130525484587333,-1.7433789269387052,1.1877116254260152,-0.9936161948768104,0.08410253367640005,-0.6149902358714792,1.6972646016116082,2.408641530079836,-1.895807955420056,-1.9251294385803777,0.010825855158987065],[-1.2485188607310809,0.30334588904955806,-0.31314750125689883,0.9299700819061295,0.7003164621304314,-0.2609599563741842,-0.02397730722165975,0.8949221079897923,-1.5500926666244337,0.3678337350727084,-0.20151073442180206,-0.6067529586188292,-0.7468702726935372,-0.36580740390864513,0.05536600502861633,-1.1819480585487718,-0.9604043928195205,-1.0548472581455217,1.3636842402420863,1.2495936565451793,-1.353696562436887,-0.8241224065227495,0.5595549334952586,0.8111664716350857,-0.16525519413794212,0.5260273027502469,0.10740014530514251,0.24263506216741737,0.735180517030979,-0.8300257461191832,-0.3346899081289584,-1.232068720551253,-1.8265863182585778,0.9795747708255572,-0.12275070185516516,-1.5729920833207427,1.8845081748492154,-0.2551310843628944,1.401342800265056,-0.6090936442202819,-0.5096323693475184,0.6118515230564084,0.9643193074642735,-0.16823025187510612,0.6289996951755152,-0.18991656762600131,-2.0385217875846844,1.2023103097534318,0.5186945725278124,-0.014358136896139486],[0.055204342445417554,-0.2827118237000295,-0.23480636781920758,0.6638373220115623,-0.7187254427020983,0.8023374767085145,0.9107998398548092,-0.5301704625673832,0.10716599799699622,0.11239541544997615,-0.6337522355382249,0.3831762712519282,0.48620504773099915,0.5629558989094328,-0.0191449177889275,1.025967794794601,1.115290760382465,-0.2083493475261497,-0.9442108068359615,0.018019916133820875,0.1959695974904728,0.01481456140925771,0.26539087791048815,-1.1349916738277728,-0.5979157529845777,-0.5520540431912527,0.36035541288461664,-0.11115192189159968,0.14865527334171166,1.2938802634604327,-0.052190885131063465,-0.3437447471033495,0.6802665560055582,-0.7172990227294693,0.7403556742035233,1.3184199088748845,-0.8290783332236488,1.1594966732074983,-1.1816636428812892,0.09393922555361396,-0.05454334336751597,-0.08121825506032543,-0.7511685399156427,-0.6133199697916025,-0.49855890484159177,0.0053485803341763805,0.8844645072752271,-0.5423363279272333,-0.4961639096704752,0.8656065200574319],[0.3331618028785812,-0.20290262299449563,-0.27509715458032774,-0.6509187162543737,0.5034920577854226,-0.2645742483321272,0.020746400879478544,-1.0249709571356949,-0.3444683214160624,-1.0433900805082263,-0.41068152752333037,0.8084439169631387,-0.3809220142245507,-0.1733144953190818,-0.9009060710292017,-0.515375258253879,0.010272252575584992,0.3535999912841338,0.7761311050950611,-0.27298770008174883,-1.1007545986775886,0.6471210159154965,-1.107507668608549,0.29783592813207616,-0.2611060916413499,0.38089474589614397,0.4059306598085404,0.035444711343781715,-0.9063452172716544,-0.1400947525651332,-0.3138441078517328,-0.6896147386858309,-0.8372605153673467,0.469101515066472,0.36323733012855913,-0.11331046727641668,-0.9595451124333559,0.5359262450905543,-0.5468673454086305,-0.17212068358458307,0.6329342274209695,0.2084515519139375,-0.6307900605217863,-1.050716745666772,-0.38290498710318216,-0.580167548548074,-0.3064043478758251,-0.6930304085406438,-0.705803279600269,0.6114251982610256],[-1.4709712251285805,-0.8444337691770882,-0.7532515713383583,0.5102879268405651,-0.10666477113970087,-1.825851838192813,-0.19447770060524847,0.018547791136493883,-0.2819872466819198,0.7274326721152207,0.25103145500915963,-0.829040704921588,-0.22145322294516978,-0.17132906197304085,0.3668288912564254,-0.3727185964105909,0.3257708647374221,0.5774269306620359,1.1726983786621235,1.0516083639754827,-1.0449250013808233,-0.19505353312909918,0.8265600272090806,-0.028558172417878773,-0.48326668998785366,-0.14529404101717588,-0.5034903084995156,-0.024245869652982078,1.2423911200979285,-0.9819277687425937,-0.08520301204840597,-0.18738590786893847,-0.7032657038672224,0.424543516905164,0.38029540871709294,-0.8878570637493198,0.9021220710623299,-1.0164264383928556,-0.23339609897744132,-0.13473733561455414,1.1744958067825044,-0.928775274470878,0.8250607467208667,0.23110021743994413,0.5167222839526167,-1.0966949651678797,-0.615779543933067,-0.1950117333926926,0.8084504744630141,-0.08214845596452824],[0.8805972320966996,-0.7789002950327941,0.7667296751039526,-0.8494513314559817,-0.11467872922313906,0.7812242568390465,-0.7680332084008931,0.3331184299134165,-0.8742863173137289,0.4063572029283475,-0.10963122685481308,0.46056178154667327,0.8082142782725665,0.5806754549601489,0.7221258452312105,0.3088403301768873,0.3771073928395473,0.28437730677227013,0.21326931651613829,-1.267370287501106,-0.8558156613875502,0.07859011236043348,0.5527815252732617,-0.6073018087702258,0.6730582513514664,0.11574330123919978,-0.026646888532538403,-0.009903413384106113,-0.4784017892826613,-0.3424884135696953,0.611898394271285,0.19696170137585628,0.6326448662266991,0.07218040104673473,-0.4598105424630174,0.02737404383611219,-0.9631286430883749,-0.11036451778574938,-0.6470316678115199,0.39141754177201804,0.6259810728321955,0.09644950882466445,0.7953281612784457,0.3671679183248096,0.5121528477127384,0.8738840049958984,-0.20967977492222528,-1.2393099163969121,0.08966355962977081,0.512850261173877],[1.1314096706082473,1.270248396135415,0.41996186873554303,-1.0659509728052106,-0.5423157464950037,0.5286131440584128,-0.7195084369612322,-0.6792961057774619,0.3886330885727602,1.034166797896636,-0.02336831739758146,0.7875452845991978,1.253282192597995,0.8546389619186828,-0.0975176375208315,1.0767627818618544,-0.6424641596346612,0.633456658301703,-1.5015878459610112,-1.602942993265574,1.056204739628881,-0.444702080459045,-0.3469418195075754,-1.3820331664973087,0.3436355256700531,-0.12265804522161036,0.07105405495521819,1.238013235604092,-0.3391406341180226,1.6713423842938433,0.023783347773705787,0.8478238891239511,1.1502913465196039,-0.6725056340867525,-1.508018057607414,1.6351088060835506,-1.6433280695048647,-0.6005446903344294,-0.863297930660205,0.12370486246302621,-0.4578690720832298,-0.013820486169048844,-0.2091727614867045,-0.4098629412352224,0.47191510824023136,0.15067019720972394,1.6812043667886791,0.005746820082470964,0.04166694666528856,0.49803329447208267],[1.1281818687956673,0.05649776979270258,-0.7443503552547324,-0.7209980518545241,-0.22845271322364374,0.8696636049910523,0.6767727775737563,-2.096534772962385,1.6982342109006148,-0.3010931108106321,0.4159866661949456,-0.2787122330299323,1.2126135745099396,2.0703235413299006,-0.22767187272351314,2.15692315472216,-0.5075768337945686,-0.6103049610520033,-2.6513159907996795,-2.6394783689511416,2.0348135449599747,-0.07286581836583479,0.3482330692722775,-2.413675744934908,0.7836571454750642,0.7225892370273812,-1.1671940258899585,0.917765517018245,-1.6057570176933296,1.4892625809263755,1.9688022327303683,1.9432451150882704,3.471796350387072,-1.3681352432136082,-0.9104224637663053,1.7757467669209455,-2.6918067473303866,0.717254002776477,-1.0482272770743162,1.1980767988716652,0.22690896169883418,1.0550053378507716,0.406888409540823,0.08640838449366439,-1.0117131582130445,1.3123790642067283,1.6577922460760535,-1.5710504146935012,-1.29199745717423,-0.39438333350251054],[-1.7110660250352878,-0.6628552547978167,-0.5416603514215856,-0.23965480066145897,1.3298723660815583,-1.6000518638330075,-0.823428887655252,1.198217996154489,0.0856190165076362,-0.9964751604977155,0.21912598023841748,-1.0916169118217331,-1.2828894047553536,-0.2112696441702023,-0.9900115365767556,-1.7287686035190482,-0.7228012392464249,0.308792913071476,1.895713592731687,1.543326612603384,-1.4787261124755753,0.1914771933281519,0.2795392659051435,0.45575805271673014,0.059378454809294004,-0.5251519585444435,-0.6304754540881249,-0.5154802731377098,1.0054320358108733,-1.4939734597921102,-0.17543284328769074,-1.9777357488954435,-0.8839333573018149,0.8733454236472505,0.7319807891701234,-0.06380219298896248,1.7902322387905956,0.34294042242122114,1.8876335240468303,0.21287194440637433,0.0382057979186299,0.1894985748264699,0.008236305470099937,-0.7139425042613745,-0.09389306029242749,0.45910784498504,-1.4557509826200592,0.07889387045018387,0.7447276500595168,1.1351658404282672],[0.23756417715861392,-0.4407238356913744,0.7396393033967087,0.14137071347296826,-0.3718382834776879,-0.26208292574991165,0.7094316690108725,0.8814853121370915,-0.3344992248984543,1.1186769487119037,-0.1345410653038019,-0.46942819205188063,0.22188140246416,-0.3820309096892836,1.1851991254798708,0.9953419215323901,-0.42359370317348716,0.5068630753080843,-0.16983249066653056,-0.08277588719846832,0.05683948573151989,0.6668018481081152,0.594279671987329,1.019079216343091,-0.42256559974908314,0.2259021320428505,-0.7671006516573291,-0.38537170943694565,0.31799519477902205,0.36598573417810293,0.6276472259444945,0.600244795629565,0.10834055839305046,-0.7683705628477754,-0.6983114784938718,0.2758752481838212,0.588651784343738,0.4500386285596449,0.4657262304354627,-0.11815423808467243,-0.15533806591567653,0.12359335942278404,0.7326675130848216,0.15846130881153048,0.8008028508515228,0.30112447659911273,0.04791601369963572,-0.5243448068909117,-0.85776735667568,-0.7918751166922494],[-0.46481324243605365,-0.5345688421235836,0.3334706282887932,-0.46107948845853997,-0.579206467216295,-0.3315854847784948,0.8446101312662403,0.9116459444220896,0.9936514559895113,0.9387178763724412,0.04181269111938317,-0.7199879210221638,0.788447616134274,0.5564999461866202,0.22509539562295267,-0.2424034498938731,-0.6815817320220626,0.9938003232718111,1.1330045922873488,0.16753122160903236,0.8962367832708854,0.8063499977314285,-0.6521386918178453,-0.3752326051049691,-0.014011526328785643,0.3827815808954492,0.43737046514224964,-0.024299580829095353,-0.2712462111857351,0.41163807501598465,-0.2551330771498309,-0.355881723920934,-0.444754756306233,0.533177673292983,0.08811706334437205,0.5684962083020494,-0.2408823539519055,1.013301709991614,0.11955014901162632,-0.5649229131548874,1.2330439921918435,-0.6264948309307103,-0.9082523645608199,0.37275243350279674,0.11632311691980077,0.7613681081212028,-0.845877233978073,0.4580862005130521,-0.40031840923096174,-0.0028282016846792476],[0.10976759288772917,-1.1687810330796737,0.8549882396603524,-0.21762668000572213,-0.255170981281244,-0.6820947185314475,-0.5007995899854549,0.694597983034545,0.23801376549159792,-0.3978488922735387,-0.311997883524982,-0.3134357545295951,-0.7081902400872693,-1.2921921611853917,0.5290370291355486,-0.5642873463642722,0.5154436478426405,0.6145148128515253,0.1312338048089618,2.3499934600783017,0.22547874613696303,-0.010949899470119848,-0.4941599010706792,0.9642587857281675,0.01213684271580118,-1.0137992511065292,-0.6868166089817694,-0.06258158539090478,0.6632773494118629,-0.01631563982399448,-0.9134577743268804,0.27199153120269454,-0.946209659430864,-0.5751712850165889,0.17065190238061204,-1.180443393481234,0.40402174871351787,0.0547655077516259,1.1088338045216795,-0.6869933909866012,1.333528039828819,-0.9021528642905984,0.9765377053609438,-0.5631911739631501,0.37209878933836066,-1.2211807919864273,-0.8788077875833753,1.05409096217541,1.5944379211153281,0.5272343246558937],[0.6281005857613483,-0.8347733949647904,-0.7568658404210182,0.6687437914553871,-1.047718325157303,-0.7660133681400162,-0.3767583651829429,-0.030817659300069015,0.45739780126302204,0.4524918369749615,-0.5972655334167062,0.7671440154727175,0.6569739589307294,-0.8451466826934175,-0.09614754955524538,-0.470063567312347,-0.9224662069529547,-0.44854703378348093,-0.2204543508284674,-0.4884416262422441,-0.6635117496351474,-0.6323618491174832,-0.04151645054214633,0.5586596301068933,-0.36924904776099154,-0.42875010073745246,0.32152780298468414,-1.0819129199794508,0.6977916861255882,0.7403388070730296,-0.0052361133976820545,-0.3629600241252634,-0.6373865036750952,-0.5114467378114312,0.1951278082894412,0.26706137940133357,0.18660634624322897,-0.07530058427923819,0.33500318569759996,-0.29260939388123025,0.5153763233121559,0.7989487254435422,0.43882688669777353,0.90771757605375,0.8704066689380341,-0.22412997577178967,0.535905140969539,-0.4080598093926557,0.15840667762678118,0.40928834323178387],[-0.5060989602353844,-0.4057009768338173,0.07033955157638871,1.2504854643912706,0.5939998471772592,-2.240525898309876,-0.019764722573880296,0.9159685135488702,-2.101785432830406,-0.0662682590109507,-0.30591444745382224,0.010840668411762596,-0.9874859960661724,-1.9973803649004898,0.12272293612779629,-2.664206160891224,-0.311789070330941,0.35574756858635037,2.260675014667395,4.107675108685117,-1.7678862121382426,0.4341057967073172,-0.4885869157871963,2.2292441838699677,0.2690949355371367,-0.5027308415818731,0.19925933686810662,-1.5594912025193195,1.0133115860831317,-2.622430675725126,-1.2835477749978939,-1.6414757994512967,-3.824991585856539,1.2444381055778648,1.864442374312851,-1.6010890134620293,3.0614448962671563,-0.9705970094990207,1.2946871200982621,-0.5856033529294634,0.8021218490453271,-0.5643855638296337,-0.4153762988702937,0.39842717373567593,1.177622582763547,-1.253782357992691,-1.7683496763632625,1.6752400523679745,0.7646289166204795,-0.6452074236497705],[-1.6090405785379558,-0.5398887777928492,-0.8928708051249264,1.8338466798102753,1.2432615037274148,-2.0899454706492087,-0.6435446267650918,1.3830848863019936,-0.28310594273528134,-0.02970803859299304,-1.6191661196721137,0.07412834686199102,-1.8309251725867974,-1.6835910387477204,-0.6881544140699973,-2.3825903026193567,-0.7242821097447144,-0.5070194063219855,3.108489083943957,3.4218018534161883,-1.5261542653391664,-0.1773594060744909,-0.8652703637170532,1.1593841907244646,-0.778252398401334,-1.0993098955870069,1.1242043823375905,-1.330927883391984,1.5145346521750878,-2.4887161073884014,-0.8991905774379995,-1.7300493948029503,-4.310780147929209,0.6957385487062501,0.7982570217421049,-2.394793769849475,3.5940848977729503,-1.209635684388451,2.1769830326133692,0.18389582049735964,0.5492899635612891,-0.5721787796735743,0.022761119247226666,1.031065165177073,0.5704896272273474,-1.2162177952542184,-1.7241260746745697,1.5403485951368208,2.35163468317117,1.1530968538197073],[-0.14047142528056206,0.8442936580651036,0.3413124059513467,-0.14106803623303682,0.19938874977464,0.5009446120146365,0.469041820633011,-0.8326207512474022,0.41046870094478727,-0.24997993922204237,0.04947848164573525,-0.4121400716463232,0.5335329676732959,0.8404434794213554,0.06273491803390417,-0.20694420266196906,-0.45880720988561724,0.0020696589111195767,-0.9614305557414167,0.5011978545876142,1.0585486704344107,0.9652269243329207,-0.3667392950875088,-0.05858719135084662,1.0235866392356192,0.3567944644427079,-0.9470739361452125,0.7497727795778355,0.0677458228273007,0.4126128184903879,-0.6782670756971949,0.3245287983136723,-0.36022980854714376,-0.7654102416017436,0.8035148248766568,0.3208388018612948,-0.241378988991213,0.017317685997062404,0.48499400687279687,0.30635384581428915,0.12154124941516535,-0.4334680609972888,-0.11009903077064401,-0.10551194572537174,0.8301608042506073,-0.3441927102578641,0.3192509804871305,-1.0168882669856811,0.10529848747188209,0.7297773721688883],[1.250392061536872,-0.18289726964292982,0.5982069840547777,0.15778628683621573,-0.1766316908382792,0.9389179041904495,1.0968218923648247,-0.523366658294671,0.229067004137675,0.977488911840042,-0.29994110263654306,0.7375069059588442,1.7700609936946226,1.1597431781920775,1.3031749489655746,1.7482416003731707,-0.7701289424377208,-0.9262793888488073,-2.201754094302251,-2.936235739182387,0.7788303930849755,-0.3972184495751559,-0.5885946227378032,-2.137120215452028,-0.48684519153174133,0.4748799592724454,-1.0142732475322287,-0.026111748053741,-0.6330817388712371,2.0385328036034527,1.1802253467310875,2.0801710808971925,2.988518856251109,-1.413026777252436,-0.7692496025752306,2.0841946737091046,-2.7033513674791516,0.7118888115096745,-0.6384718768889411,0.3079416800656344,-0.567884311815586,1.2089203862152167,0.7014222223426267,-0.06416880652139682,-1.075340127728258,1.3409507087910573,0.76938901288494,-0.4667996427745409,-0.9653393927123651,-0.16881265515266286],[0.17116255219005577,0.734167832456818,0.4756309014862491,-0.3787727453347843,0.09888800897853788,-0.888719500706753,-0.23419693170653103,0.016966891916866744,-0.8851159948180528,0.2826474511474969,-0.46936295396793287,0.874150301663661,0.5612964621265791,-0.32374944523900634,-0.7751103640925494,-0.33604587367590255,0.902444825078403,-0.8687093418456845,0.4688039836990096,1.008417163172868,0.09128473840968514,0.7612899527832058,-0.170024705436355,0.889305336557116,0.24174523209387697,-0.7353774989033055,-0.3569869435793267,0.3300833786496697,-0.5379032183542887,-0.34372194197683187,-0.6909412412526118,-0.17543514832129267,-0.9901918960895285,-0.6453220785365921,0.7013595945269712,-1.1471703220946186,0.41593242175994416,-0.23879453464693204,0.7664060457125442,-0.4294532902743501,0.4072870771752708,0.6929703629643527,0.8665846460104706,-0.6428357748997439,-0.6029822606019618,-0.6575895483971409,-1.2157507907349545,0.06027386685256434,0.6299409522558777,0.8538515551910403],[-0.7445199503355341,-1.4853123389245806,-0.7793536668267275,1.0638658707624384,1.2086755337611386,-1.8183085806519117,0.17776397962076793,1.4803339726819171,0.1474014837977195,0.07718297954976262,-0.14633398931026897,-0.05287829737577609,-1.7137427143250956,-1.8661196494210863,0.24884839351669996,-1.6789621905713168,-0.2412952856102346,-0.8847396594802446,1.129128132601995,2.828476091957868,-1.1014195771669832,0.7840528776853226,0.753487483193201,0.37413265807494717,0.8956164572261903,0.19761174854164545,1.199103034267824,0.19381457091630755,-0.250843233386709,-1.679411668857156,-0.907941830695277,-1.2050386782046183,-2.4912417494760044,1.5229381478275321,1.6758498464629092,-1.503661681930027,1.8041964909865245,-0.5393617025289071,1.580540528829284,-0.8046961334675623,-0.03724851736625885,-0.6155564798840932,-0.774011818411503,1.116846842112809,-0.5666924075465398,0.2280326163596141,-1.662158055109494,-0.27426227548174337,0.7190699249182598,-0.6710370942899853],[1.2543997581590642,0.237272610576606,0.09090720297765673,0.12339776248067333,-1.1238132304728408,-0.04697223246403506,0.47303028818593595,0.1725532695554489,1.224587311360779,-0.6494451539280147,0.30491935117700103,0.6837460844333128,-0.5504145948705533,1.1373869653718067,0.029400358781765633,1.056284331284843,0.09886326607563387,-0.24070799137544605,-0.4342090217655973,-1.5245796564407135,0.864216319389077,-0.7960588041210485,-0.013396381482007086,-0.938982143280193,0.04075175346070163,-0.03292003746812324,0.36926805372176846,0.9046890287543876,-0.9335467419648781,-0.4633736456581763,-0.3784160386838497,0.1595906028234321,1.6240015058224357,-0.4528941446681193,0.6350919855995745,-0.1421651023106889,-1.5163425310988432,0.40232095601819445,-1.2069312873627673,0.26123454312180516,0.5240923236468474,0.924149321287739,-0.5789955389704292,-0.07158273763924118,-0.2997447780954107,-0.1412530368346497,0.7253468285637892,-1.132786657355779,-0.6519783552248174,0.7935249786333399],[-0.805713231029488,-0.7465310046532483,-0.4231103792381691,1.2349246896161368,-0.21883272385770325,-0.38196353315944526,0.6715861222529347,-0.016359450615495517,-0.3856746741344822,0.8768790523471355,0.36100745033810866,-0.8921888995932118,-0.8473193658870993,-1.3582251783413009,0.1028972175683028,0.10681095095283964,-0.8576653459262435,0.7770806364480795,1.2776242878947748,1.946744407367933,-0.6978207804258769,-0.4447431848149879,-0.47171375037523355,-0.064513030563301,-0.25156665800371486,0.11913818782096398,0.2791121797063435,-0.8813424130018197,0.8078837639908921,-0.0980963267677928,-0.055005897386441856,-1.3052869885206935,-0.6249668690426415,-0.04008656066969247,-0.27168462456091114,-0.2955169489387331,0.40798711055046,0.42479521040443646,0.6529554585519252,-0.7206856587238802,0.70179065953252,-1.0956022506904495,0.26145377345033693,0.08103420564207842,-0.023358891216353355,-0.8720214794336572,-0.4799593171489895,-0.14882365488327684,0.9237678670747856,0.35724661077800846],[0.15782967456519775,-0.08368984569161521,0.49810884907699693,-0.48211825889738413,0.17479412809783026,1.7061306303501032,0.6905836142670747,-1.3454119575751842,-0.37803491917676185,0.11191709605401125,0.8741351551263037,0.9759640279719819,0.8152570770643847,1.5809784862224674,0.36620142502109915,0.9418808090682714,-0.12607263194487794,0.6295154179121433,-2.0619972752027538,-1.057401893548551,0.4888460011779351,-0.8305118350618794,0.6255429200508558,-0.7801526770761905,-0.04850257714753004,0.3603103681244931,-1.0385305538033738,0.9974958541258768,-1.3425774668595394,0.9571186142577561,0.9813557314120841,1.2699744554488004,0.941055655810967,0.28023075678045434,-0.10702956732544049,0.6582750320503842,-1.6146659317697993,0.4796126114363744,-1.1114926844010031,-0.5500700481474817,0.047886626980403794,-0.46706604149443776,0.01700406145136656,-0.3187884749277233,0.24103692442411465,0.2559465253503877,1.2828716102945996,-0.7766895135174023,-1.919317171481915,0.7419955632031283],[-1.664338684654923,-1.0293027396324017,-1.0523435965982388,0.9197240170574201,-0.20866154251603183,-2.146673914760967,0.3004855312563262,1.8943732773342998,-0.8889309029540845,-0.49636139126825274,-1.2909521704143134,-1.148645826307964,-0.7870309947363271,-0.5450443093804065,-1.5054409212201696,-0.7868817486610798,-0.38481401380585617,-0.40423880568030246,1.6599531630521265,3.158090888930154,-1.5460716942746517,-0.21868046733427862,0.894527552948439,0.8440490803598684,0.8851621240842392,-0.09251833401218713,0.5170767298870155,-0.6801853758774239,0.4032736928038077,-2.211733190190429,-2.4827989215270514,-2.386412372927477,-1.9279801692305565,0.20860231871381302,2.014650440462102,-1.2271512674376188,3.16962656482101,-0.269633886613994,0.7751899650172354,0.19769574389519853,0.28119384563291594,-1.019168931084884,0.9496824373669108,0.1338154482205043,1.0118556814894166,-0.5116642229385506,-1.112144643235385,1.2792450199888217,1.7783890643580413,1.1639042995157152],[-1.8216710605715303,-1.6222586732554922,0.7010172556941343,0.291133586086865,0.09592793636795505,-2.3305527693722157,-0.6195017672414695,2.014085376288239,-1.747657006623097,-1.1712491324858645,-0.701981036117803,-1.52421412484611,-1.703226514521819,-0.6423356888080088,-0.5248087812168898,-2.5543201400936266,0.25255252210385054,0.6135706507108948,3.2622195023383247,4.099157977770708,-1.5584596973957205,0.207923597234293,-0.162800443146005,2.030426912223993,0.7822118250252449,-0.5190912897968006,0.9224769875473933,-1.3863072998937476,0.31346115752212234,-1.0281389321138457,-2.1737016355275527,-1.4066081820502507,-2.8052332041600803,1.9306257215331353,0.6770086069308114,-2.30435882788493,3.285047146333802,-0.38946123013788453,1.4144615286795572,0.09204337917393243,1.1862990069981967,-0.29375782029917297,-0.3633488353392812,0.6374290348542352,0.13173941227133742,-1.9579919415304678,-1.5516669477594232,0.9934298822612672,2.6290846032971267,-0.5443295496859014],[-0.917301149760461,0.09138458815210139,0.5996962981655767,-0.06124878102718688,0.855749778204219,-0.6597094634235631,-0.6457204188006567,-0.5523043946310794,-0.9654956473187738,-0.6760483443331321,-1.0456470640884954,0.10429348784771937,-0.015737174731888962,-0.9491139193966636,-0.555262309467276,-0.9128441000684357,0.004764679847796601,0.28002459613762914,1.1584280835550813,0.5579385363158921,-1.0058430658716617,-0.8762840860527716,0.1536651526181671,0.4861800630376121,-0.39124943329917233,0.42245865497475227,-0.15016727704955976,0.709193085330183,0.0902706341692188,-0.8833425718007343,-0.7466812969766334,-1.297084021221512,-0.14973123428479032,0.23583986655902894,1.0424009085705654,-0.6215285180782352,0.25565654220770007,-0.4607640654754692,0.9710775601015639,0.384760057386364,0.5992490800863965,0.38770502106122834,0.3641901808574094,0.39919038480991914,-0.03279289591336245,-0.3479091223378749,0.5319457740736089,1.0187246027181867,0.26189473532658303,0.9281493692493257],[-1.7192890377813441,-1.2842213847342931,-0.8015912932253161,1.9454295566422093,0.4838404790482157,-1.5674693436261444,-1.0567237439020254,1.7674725809332854,-1.0597794799383125,-1.1647749425780607,-0.02760258002609425,-1.2535096471957137,-1.01373431393121,-2.053922773697114,-1.6452403398851394,-0.9268094426865434,-0.8499076264950451,0.6407294252374057,2.128720849868944,3.698643385488687,-0.9818885463178849,0.37222621292254504,0.8959447125159953,1.8625521578613764,0.21931792447573667,-0.6067988055405659,0.39890858682693564,-1.0097882791477855,1.5145891347022555,-1.7140774137885033,-2.3080173554488477,-2.42393844691395,-3.9108002286565595,1.2411782511194598,1.5422224567084462,-1.84868042802394,2.791656356066052,-0.7180532275876955,2.3081066595431095,-0.061082154413150354,0.12791611916400672,-0.32254199871460404,0.915265176899318,-0.676881023387476,1.0794112440872323,-1.4836276761695437,-2.7285500818224118,1.104013780605411,1.4304715365416487,0.4026612922207604],[0.919705153788538,0.26223046518667975,0.5771936337352983,-1.4388457133105943,-0.05438785016863516,1.7254288852713264,0.7979859917237194,-1.2773516242546321,1.6009228573323884,0.8265539874084379,1.4659056720124068,1.4323661385896642,0.6101982513803178,0.5877375486786707,1.0605525068467232,1.9059078689233877,0.24109849796830873,0.740264357555158,-2.809771519137485,-3.8660793174571575,1.8635890651964129,0.5944356582536444,-0.21142252512787957,-1.7429379332209636,0.9677060098668437,1.0310824180098563,-0.7404445875302534,1.7982322009535803,-0.14751067858424857,1.285267995859195,1.045913203255337,2.043164151502066,3.5163336121963873,-0.6052943287526883,-1.2671479026510597,1.8784343269195756,-2.6673074946538295,1.1849361137924042,-1.5289350131700852,-0.19237712260467005,-1.000599071427718,1.2922959749296687,-0.36634328324301735,-1.1005737788741048,-0.03783989207123774,0.5424899805896127,1.8616369965887245,-1.9874147125136772,-2.969477007148362,-1.4565291720751328],[-0.08281093776773032,1.0250426631359115,0.14933583236072584,-0.22479826180402215,-0.17556591516719114,0.9097960114168427,0.3543121075506208,-0.5611330912989673,0.5235540191019132,0.7390418507161672,1.1322702682023082,-0.4263328133033631,-0.17886591175926433,0.11154517436688434,0.07566251687425793,0.7275933037050982,0.7359398839145207,-0.5854394319568993,-1.0080858835150979,-0.7167084725367343,0.039007496241062485,-0.3404321824422486,-0.2910901259848444,-1.2442793451736445,-0.09521529028586616,-0.10199979037799319,-0.6350796783693656,0.5345213598937458,-0.17819311219010112,0.9780474332340083,0.3188369113710323,-0.271547686408862,1.1427341773383366,-1.0879496755362308,0.2682885035183327,1.022273045961184,-0.4808017005020426,0.3734942856740821,-0.1050563446124969,-0.5419864161238694,-0.5600635129792702,1.1004622607055323,-0.7297839456524146,-0.3609812468042071,0.052206279554738035,-0.5307001344783929,-0.03779793728318054,0.9233101093020932,-0.5713020625203836,0.4613505428408988],[0.24176956702577262,-0.2035036362759395,0.60688106442379,0.9383511072635017,0.4344087607655064,-0.17935526834589652,-0.037060641244668034,-0.4604313864608284,0.4185363012909287,0.5498079502427365,-0.5413007419755977,0.7781215305838018,0.559019857675706,0.6570991759035554,-0.4610690244554585,-1.0796191311614827,-0.9092986713187627,0.06541338642756964,0.3310144688509288,0.23695567996642122,-0.21828321929127334,0.8779107477212047,-0.8661113834983869,0.3788983302867279,0.5780217043873659,-0.02348150486962049,-0.8464602063428106,-0.8578540219156031,1.023520809509494,0.33083070866636194,-1.2498219109190625,0.5535354464363692,-0.7498786212439976,-0.49474432414504105,-0.5943940284444581,0.08162591512265398,0.23533630283298923,0.2248832036708848,0.45159959527901816,-0.2629109090967376,-0.5039375236894964,-0.6141617399634196,-1.0633393632773631,-0.3133517830059321,-0.6464992832801872,-0.29339264236825574,0.10171899589649973,-0.8239844754541805,0.942255422670161,0.2536349848064051],[1.2869178507906571,1.080305833159999,0.010436505375263656,-0.44808396816943974,0.5043497521454474,0.4072717536906642,0.057107469930365085,0.2884222516359567,0.4877359665577303,-0.7350340094245927,1.030067499515444,0.19087832511636224,1.1737840990692334,-0.09715040208547465,1.144039049059611,0.5527266714407278,-0.6193911458174104,-0.14714387998293824,-0.9224775284622271,-1.3702992177143287,0.42850726783068177,-0.5914370565135962,-0.9488275428352145,-0.6628648261428551,-0.2461035208680763,-0.42458974050672843,0.29103135192893387,0.9633731816533962,-0.3300585670148002,1.2444921708377519,0.26497986457753236,1.365792571386984,0.8213058169188956,-0.3244559046859938,-0.6294638193467172,0.014769069031245748,-0.40745012717792317,-0.33112211933304614,0.3865389232522269,-0.5592244871050712,-0.23863297661685084,-0.26721430609745284,-0.9494010618619434,0.6917608793898963,-0.9129595384818386,-0.4076723538654685,-0.12794538983521223,0.1124469970253163,-0.34394349839647326,0.06270460927010989],[1.1822451513427286,1.0827667495649647,0.8817877329678443,0.38706126173530586,0.43725202198036595,-0.30116720010481834,-0.007225056439458085,0.16067410663542275,0.903966560759691,-0.7813279796509849,-0.18226564215407406,-0.30664253316534856,0.17093179006896234,0.6495631621609579,-0.02413296964089497,-0.25809358340251004,0.5090614488687042,-0.6932872383565979,-0.6531422442185193,-1.4681408138759313,-0.25537120127082963,-0.5695770975611671,-0.6820058934423043,-1.051481213006343,0.5954141212540349,-0.8717757792896463,-0.907350370497698,0.3367150819255187,-0.3674826574474719,-0.584605396185852,0.19124803771274243,0.7075971941190695,-0.1614132862631942,0.6761363620683004,0.2984187542409957,0.4552479066403619,-1.3802814869538318,-0.6171087269460361,-0.4423753336822428,0.09568040725703238,-0.2238492355569706,0.9794554172043062,-0.7621419273573269,0.4455688057717271,-0.37945161786965553,0.737832212464409,1.2579419808707024,0.5729349789998766,0.047931127514301744,-0.7045666603886197],[0.41698957758505645,0.2291547743238279,-0.6545191254740532,-0.509393029489326,-0.7164817380163004,0.05824130673202196,0.3399817952060935,0.3153383069383546,0.784171503393505,0.8414422935976076,-0.976494806748182,-0.3937900853655321,-0.7795090393009888,0.5483707225823731,-0.6439470995274683,-0.08906078851820089,0.2449103822663008,-0.25713647453776867,-0.24767667339805666,-0.18676837908303343,-1.0531524446742695,0.6131031374230594,-0.8291094437271045,-0.8776834261896826,-0.3569102136774606,-0.3196103634619683,-0.6407948829357385,-0.8794721244846716,0.43939946224578996,-0.439072834966539,-0.13837517822345277,-0.6908150923771026,-0.7515718405021957,-0.44294534653068335,-0.6784619284749825,0.41110574930572746,0.6137994967593088,0.3033759221546934,0.4681313605375157,-1.0249709424623503,0.2307251262214645,0.49744639562531123,-0.12578073660506048,-0.35696811811638657,-0.2989991402735437,-0.8532300986162767,-0.6248663057970864,-0.3102820877330595,0.2850250824880843,-0.010024176882348764],[-0.12015750641216026,-0.46054000628065095,-0.5449698361583424,0.7940253189118855,-0.7263109797754856,0.467914795324134,0.31232479162446103,0.5233303984368382,0.6669124002534385,-0.15484938785424604,0.8873842418873399,-0.4232332255004123,0.8799186851046231,0.9864065223639336,0.7100131637480076,-0.22475295152457891,0.8970552793423303,-0.10478339661618409,0.3511118672027503,-0.40522911800408773,-0.15955422415943935,-0.6211551843957532,0.0863611645095146,0.74933561764461,0.33641129812552606,-0.03663933248400517,0.5967122801501503,-0.2134979844717695,-0.24791820821718882,-0.47150978443512287,-0.7211005830816716,-0.7269304952022886,0.944039854260609,-0.19701453048091627,-1.1376908469199996,-0.03677941077338305,-0.8223235815289577,-0.6305267662841,-0.38990934014705053,-0.2205045342791759,-0.6213045591289266,0.3963318287759192,0.07778373607720843,0.2682779759221721,0.6786280301572005,0.30003602023418846,-0.7610251160999191,0.16259223850116836,0.6156547590637245,-0.6889056098346332],[0.07800873615178366,1.076593642154504,-0.021354361687879374,-0.6660644071035722,0.7281026322635953,0.41837387093498196,0.02460971273444915,0.4609765232097979,0.4351705424979157,0.7860522818372088,1.0249298873794424,-0.03627673951468856,-0.5942341508339053,0.04472571524657006,-0.32725338475216237,-0.07353551357400316,0.3014419220252738,-0.4972152317751751,0.6670966019530852,-1.0479227610649704,-0.5745760226567287,0.2742346676901789,-0.8706045685694449,0.3862665472282161,-0.011451337355245042,-0.5958991483147443,0.30588909025207633,0.24296929922840962,-0.0932302557132655,-0.6433208250512399,0.2358010510689223,0.631300598001365,1.3091049199491671,-0.7839682463697111,0.5608299356665216,0.4673195583186576,-0.6040909961473999,-0.4720800997004906,0.659576628252767,-0.06468843575505621,-0.23189314289334084,1.0292688404804415,0.1356175878147337,-0.5058716731288841,0.8379498182218341,-0.050710561699397166,0.19624881217729065,-0.20970756889084666,0.829863054873457,-0.3342437425089402],[0.40490923153828484,-0.32125561767159755,-0.25966324705020694,0.7548389304404368,0.7105877538007865,-0.7259864902979429,0.32442436040422784,0.3634502738408545,-0.8866210367093338,-0.023345675382774506,-0.9121066263211004,0.6408702691676944,0.43017013625728845,-1.0414474501525146,-0.016325536392302734,0.27055186235262113,-0.06185659411189101,0.3672133783859632,1.1100093961019897,1.6750961064822898,-0.7347854265107343,0.6440352972662492,-0.6738693405781677,-0.16340539964814593,-0.03779259880786163,-0.6669492093709459,0.07753591874209749,-1.069607051864802,0.8801250450328667,-0.8597280212818097,-0.9708839967678028,-0.7748975125862644,-1.7027246868863546,-0.42534304392796735,0.9679648943003597,0.469635095931615,0.5444456923107515,-0.595712304956198,1.4297405382191055,0.08551161426175152,0.5987767083951412,0.28294319370911236,0.7045109768673479,0.6278978435321393,-0.7227701405385992,-0.6946134893275541,-1.7082651170859386,-0.1820516402378753,-0.07838306712617747,-0.3017546157877539],[2.073837606321451,0.007055382483399769,0.6872756831636161,0.14324138103300232,-0.3894880941882845,1.4561312045459092,0.8039030908131004,-1.2324716300875798,1.6101728331177938,0.4480823100076096,-0.005340438408385237,1.0895394453067888,2.1306070984569208,0.5724264924643993,1.6327407365041446,1.785682646236379,0.35474265330393556,-0.16855097331515576,-2.0265652295889334,-2.819232861370294,0.50649571032128,-0.5257624823031245,-0.7715923476188912,-0.954893204428441,0.4031709717697102,-0.09386637535324784,-0.011868925234260043,0.6764076504751451,-0.6614378614170786,2.32967369303317,2.132712818055626,0.7570204273658149,2.299265440300869,-1.5919172859687662,-1.7018402290436876,2.0067693085045555,-3.161435844276172,1.384419716405711,-2.4883970471603343,-0.2035186902084656,-0.3248261251528465,-0.07274888538312306,-0.05889695298133997,0.5046660637345239,-0.040946274666571074,1.784772964122778,1.865859442008166,-1.42465896138452,-2.062914024374032,-1.0109403275066184],[-1.9330919125235013,-1.6670410349066325,-0.6664293242638565,0.06270038452526155,0.2115421491043402,-0.8307882275683593,-0.1928796812198649,1.5752203605865949,-1.4567152327350554,0.03612868642334689,-1.4522759953934743,-0.5386650597131881,-0.7676598516835843,-1.6988925733360143,0.261810510682811,-1.7209101797944275,-0.7238424352877106,0.1346789757227471,1.7531604024414846,3.0381604158052014,-1.8232126315991555,0.6125963330775115,-0.945070147224273,1.536896578870299,0.4153757245340805,0.41365851644741963,0.6949090199250948,-1.6096799218201159,1.2677281124589699,-1.2508247066475742,-1.1892823757738022,-0.5611071627165443,-1.671729253254975,1.0682029522390943,1.7040258774122385,-1.5681391209813715,2.5365900335269496,-0.5229787556420095,1.0286364941448285,0.4210951482142405,0.5512923959729169,-1.028931828220135,0.550560544926865,0.7997928095242838,-0.8124200420446854,-0.4158216293647798,-0.9958935259381413,0.8626450577507631,2.0789364502987704,0.18105861863318962],[-0.49854172992629564,0.7302603353764952,-0.2796367384093252,-1.307988791620462,-0.07366207956603861,1.1488921838869048,0.49013095745045315,0.1694083761381227,1.0373327871568,-0.49998747087091067,-0.25830551482169734,-0.2993890197732888,-0.26784462976859125,0.0691637237352322,0.33739408704950224,0.16152294904109,0.7156792964143565,-0.886606259689882,-0.8113710273704365,-1.8698683470134758,-0.3555389982719056,0.5675734705091874,0.2757051491410517,-1.2600522855258676,0.6676212982347551,-0.18123745516290396,-1.1857817542292417,0.7504511017060216,-0.024357718319665263,0.668609944304879,0.9084242045836464,0.4704956813555033,0.5295029728124803,0.13823502108034347,-0.09602113786154362,1.3528277860814388,-0.5185572574178237,0.6951056113116857,-1.2223400474993376,0.5274934902109157,-0.5036603240086206,-0.008076279004364726,0.0349694134917226,-0.020892899834159054,-0.4873722013746574,1.105618291115466,1.4697092070174247,-0.5850100689398742,0.3357008198717994,-0.09393927675658756],[-2.0927770287349823,-1.27560477084295,-0.3262946614142554,1.3330763918929986,-0.36372827605971275,-2.397374151503668,-0.5346872377622286,0.8561539845659788,-0.0793459182383704,-0.18883678436844065,-0.02959176010315993,0.23659495723027854,-1.8750748526220316,-0.5211076464838058,-0.8088725438535332,-2.2247507670741387,-0.6386735202858672,-0.1456330169446401,2.998098932465544,2.9463472653281335,-0.9330195524479564,0.7360624245067808,0.18569501066281133,0.9230938184083828,0.18795032236053788,0.30402766315635416,-0.25064259638959907,-1.7208229623957563,0.55772827852825,-0.6317036103549731,-2.329454230725515,-1.3028780729111522,-2.292420573487286,1.2271691782420764,1.2459352608552963,-1.794360090176142,2.243755262618247,-0.8860487886911816,1.8202491860218042,-0.8120998775506045,-0.24485290657536457,-0.30801644429475644,-0.38745201682745056,0.9011473582466343,0.5681301954111562,-0.12170351510220528,-0.9945425685108807,1.218345962923723,1.235667011980734,-0.6842822003247887],[0.616492558684557,1.3131862295623895,-0.13753857686250315,-0.9489968145002124,0.17746314648239772,1.266777100086353,-0.6621325428968472,-0.4507195389731551,-0.40799209025018673,-0.2215033016354446,0.5419912376053825,-0.034800395121865293,0.7901762906261635,1.137017860610211,0.6017760671049517,0.6126209232408016,1.0127720750637044,-0.6537064962244112,-1.5171467886324603,-2.294074473281607,-0.07980578079420705,0.39800115656552054,-0.1261730038992535,-1.6781946013209403,-0.49189166660154865,0.7310585109406164,-0.24069750786143673,0.06286033333122402,-0.6698272831711317,1.3193953343860516,1.4095757705101375,0.6979043264974808,1.7950685451905346,-0.23784058798356458,0.14154705974991447,0.9766707655358283,-1.090589962853623,0.3976262340330119,-0.7753856246557534,0.3468880649571482,-1.1655152918862794,0.6440991916892073,-0.6775647306821689,0.3705970880329157,-0.5213596625978026,0.5814686503870513,0.8861609372089111,0.15208975692542306,-0.6308475522952176,-0.7602690993114724],[0.8686200177290103,0.3834558937481574,0.16515928197459598,-1.1297793455149585,0.07750850006886785,0.4236793187549219,-0.6639450416109458,0.06640408997914635,-0.23805760304471593,-0.1881311684901383,0.26426996256307306,-0.8296770710499095,-0.11554958915054682,0.7654848836441656,-0.8030926409589355,0.11467339819748668,-0.8701368152339144,-0.588567469121406,-0.0834834562806146,-0.552105164207318,1.3261063214203583,-0.17360941446475492,-0.9672715569466124,-1.1531199411441244,0.4386730487374274,0.8866700987347512,0.31386564161806774,0.9733430586634157,0.3930890898736219,-0.4391772666897389,0.281756980172414,0.8622820496997643,1.4051729359137977,-0.4134495762880661,-1.2516677835607146,1.4452578605720445,-1.4593771231802655,0.9624595578185388,-0.21400069931082236,0.33602179509805635,-0.16313253270271755,0.40019776976733434,0.4884058706606826,0.7439883586880492,0.7102202805973254,0.49126583587328937,1.4396640950854516,-1.3547653008596525,-0.48998993814315384,0.6037517545552857],[-0.291355049096312,0.42846363387062364,0.8164821848362205,0.9439680097915678,-0.3497927406663537,-0.9896502573677858,-0.36839013463801135,1.3673195004362568,0.1422820970090553,0.4914369933144682,-0.9291128080341878,-0.4896217169579314,-1.197254839068912,-1.3177700316604208,0.6378343148432337,-1.7552379594829406,-0.07191918650774923,-0.7273968488972081,1.5449577165334303,1.5955479556038867,-1.5382138542753774,-0.17996913878170884,-0.24512678631480506,0.572608745276613,0.14997837088773813,-0.5640620411393523,-0.5478715550180785,-0.2978310777849334,0.19998522491360893,-1.2899260950452893,-0.21194481032023252,-0.6690527767062434,-0.7586119382608413,0.7885108611548438,0.750074441476548,-1.5929042548052323,1.3128730622616094,0.4406764599351191,1.7246440561569143,0.5320719687835394,1.484718854567869,-0.02208370249484297,-0.8368785305881387,0.5650108304390049,-0.39432238194631847,-1.300804456148792,-0.7080911463963736,1.0960787151295694,0.1845213820724943,-0.4276019357365758],[0.16723970641749636,0.49658617265236377,0.3252571734410333,0.4967712130723391,0.024936032614864514,0.46723563159621634,-0.6719332019282891,-0.46096229819160034,0.31778928646511256,0.5645144307643437,-0.2903339503255193,0.18466907335631572,0.20839033509786517,1.244730355014176,0.8176524638516248,1.0166465178159072,0.681871052181837,-0.6716487803531918,-1.5819204346850855,-1.155381619662529,1.3094833247423125,0.9441116040735495,-0.13141814119564119,-1.6011318646547938,0.9138579269206213,-0.9210135791913038,-8.560557911645487E-4,0.47003570878321477,-0.10911088670118542,0.6528003926145818,0.481612720282893,0.20999515303999092,0.5055832236519691,-1.161446702396354,0.1260820286359937,1.248193142260109,-1.2978691034586307,-0.24160823671921336,-0.035350882932493444,-0.3650113235095698,-0.5812479647673607,0.28193328921819066,-0.7681016931040145,-0.5473842834249202,-1.1011322537545702,0.9685919960187838,0.9082214574637468,-0.1936206469733688,-0.8388613878232133,0.5618867184448956],[0.017525013685538934,0.04206033382273892,-0.08691136000544983,0.5996303829298981,0.9540481283981562,0.4842350444902698,0.27573962061747936,-0.7867235299441154,0.24827258207636854,-0.2006145393564689,-0.45086435145239023,0.8096006524319985,0.5866767298057026,-0.842062835791885,-0.7617868811042409,-1.1129708794693673,0.9457825920658788,0.23092157770282157,0.5746884976401718,1.1379082634686026,-0.04994848266673176,-0.4144938229379016,-0.16199745620893077,-0.30335977425430577,0.6346523458869079,-0.26253105717200387,-0.3627726190034044,-0.1611384080337068,-0.5728378040783617,-0.48905819541382994,0.4604763292250996,-0.5533092721101323,-0.5264450319045446,0.5845399291173311,-0.5247616143638181,-0.2942997203725957,-0.3031830591363283,0.007559497630835921,0.43801437404778876,-1.0214941279111027,-0.8901359318302903,-0.33048079162069943,-0.03383703825616914,-0.10484668235441648,0.8041200848271409,0.014899872759258985,-0.9148619777217765,0.6729940400412712,-0.3121301883832283,-0.3383334365996341]]},{"matrix":[[-0.7688203908314766,0.11592372761756473,0.6440234856788761,-0.4512716400459075,-0.4918166458394871,-0.8999696902002537,-0.93687231764277,1.0442559024231945,-0.3100066887254108,-0.6735657759517306,0.1805619974523482,0.48346119371627827,0.2946439828162845,-0.13010328909057725,0.01659929351655127,0.7774235973839736,0.2976709341833051,0.46013746291442764,-0.07884458716222899,-0.31377417700654414,0.4720687850855062,-0.05807908068986218,0.2527441989832445,-0.09575942080430325,-0.022961756446372213,-0.8237376099006404,-0.14992467880686924,0.6676027880656531,0.6922142872383008,-0.641726826519222,0.25054054739280557,0.14669136979268682,0.28837165506601353,-0.5733494136170777,-0.7288389660372667,-0.3783031571178683,0.4273713751253159,-0.8008592109822176,0.11978659029122785,-0.3385732676429001,0.8702174767310703,-0.036312044511745536,-0.3225972081252028,0.16837444344129085,1.103266038148143,-0.30994407854487643,-0.4233541665235607,0.019754991706357306,-0.8427204317465764,-0.9247841961393846],[0.6834560941966351,0.7020031238918197,0.8262229170215181,-0.9042523970223704,-0.21520810454483455,0.847791112047482,-0.4037642119057843,0.7627451533831812,0.873841594669741,-0.670695933004455,0.3686375468087686,0.5643042275265281,0.09671733246090615,0.07750322346212676,-0.343754689621085,-0.4959369819002293,0.472545002095197,-0.08314228180330395,0.656550881303203,0.9043790269919327,-0.13658919644513326,0.5792351726169994,0.48052431686264513,0.337959716371602,-0.4337973166870363,-0.6706132784458508,-0.40425862772932497,0.6890230987464585,1.0116069408726296,0.701652415131656,-0.3699628087647172,0.7071525492093603,-0.8237100806545953,-0.056476648230391516,0.22261644367282807,-0.3801494075706073,0.547318577637856,-0.5667429542046756,0.2038122408857825,-0.7011616498905912,-0.14932714402560035,-1.021291270465039,-0.05965681602229403,0.41663971449347065,0.24678277355055148,0.1264498868227535,-0.16856851390269828,-0.17990989405293822,-0.7095499776320159,0.332735903898849],[-0.6278204638263875,-0.9264154185175384,-0.13581968990029736,0.6493515803681175,-0.8505651236019172,-0.8724527904684286,-0.5546580487165766,-0.958350113006337,0.6064656703569256,-0.14408434537870804,0.6303050761305897,0.0899365046503832,-0.004010587864692361,-0.6164463326527722,0.5249704669695818,0.6365540017513007,-0.7059758716059898,-0.12845256733510493,0.06736485246168122,-0.8313700298299372,0.40201309530241586,-0.9393157868183467,-0.2788737226094433,0.0749025149475917,0.8648908308598879,0.5805989224828925,-0.37760158286568485,-0.8933379318475676,0.874906921133233,-0.6725345436540472,0.29171905095367395,-0.953964770386415,0.6057567939097663,-0.6701672360371874,0.002172363748406261,-0.4945469010930531,0.5391453182128985,0.1716219310446655,0.6971297822142198,-1.024161477777279,-0.5083038141246988,0.8935453774779935,-0.7736330116809044,0.1419589018976327,-1.0017455269829638,0.6199423300688477,0.4762783899671668,0.696308746066813,0.7587524478594336,-0.38603545280437984],[0.2203093341935911,-0.45366781090806313,-0.27849549777823956,-0.38932205202922215,-0.05502024528498777,-0.5917860938728366,-0.8834580868861259,0.80845313472647,-0.9571119448115938,0.8123761559120106,-0.16619504688151807,-0.20501098195756934,-0.9061574403924384,0.26448744141620295,0.26565442530662303,-0.9425213797144186,-0.7905283938246279,-0.8459154858532109,-0.5339363905774825,-0.6729555359880187,0.11100310174168976,-0.05279776060485399,0.8336583848955949,-0.3975738754289835,0.12764091878384862,-0.023896890483524273,0.7144359299552178,-0.6210384402309881,-0.2795713189862338,-0.050501025092602854,-0.12041131920905766,0.09190040420572151,-0.23345954976119446,-0.9454684280916409,-0.3569685738325762,0.6417701897766271,0.39266062809042246,-0.17079015839262732,-0.4687676422793648,0.06956943852425583,0.09635375231174954,-0.669257630727949,0.19455279296937206,0.8238863754497419,0.5143547436590061,-0.35465284775053163,-0.21990152411081343,-0.957044858160972,-0.5106482219636026,-0.23156278152298662],[-0.684924722540401,1.2108170347434568,0.18572220073374315,-0.7454563960605548,-0.44536276312232576,-0.12462825525052128,1.3308166568483315,-0.9729432050831062,0.2368251684031981,0.4432312124826479,-0.7896863035084656,0.10929475050288479,1.0281698029761162,1.2176655165103731,-0.7383287542197257,-0.413130137155964,0.2009217254999101,0.018085654123132653,0.32260828459448543,-0.6718172922276968,-1.330336785316877,0.10174712507075433,0.9224660381239934,-0.4500004869862609,-1.1857349825860242,-0.14661135666991687,0.10929590005666348,1.0130567353557218,-0.963418697312164,0.1716022512886802,0.7436284049035158,-1.0557728531304404,0.5886315932962132,-0.10150668874560997,-0.27564243480644285,-0.23688591214385965,0.35044372830807086,0.1228009053928683,1.0461485825338805,0.8392560560343334,-1.0468555714281649,0.9585664398452541,-1.1863993188992683,-0.6980910143150857,-1.2536580400894746,0.2061749995696861,0.40257003176092604,0.621534774829675,0.8266510854941298,-0.9278193886388038],[0.11631265270311579,0.23747275597117767,-0.5227526738335295,0.7157314814599358,-0.8173420001646948,0.7894211969821434,0.2759768336978942,0.5410147079002668,0.12264010989161934,-0.5762075535822649,0.5266011336063544,-0.7273170833741446,-0.07818554424387292,-0.5485003347315324,0.29986132519588127,0.6521201903227825,0.79220393252604,-0.2619959470838848,-0.2875386125445696,-0.6553433966027237,-0.6697477746543976,-0.0418330671903967,0.41593217886224765,0.9236114743674563,-0.03840816520572338,0.4973464733766811,0.21773611885670588,0.278062173469284,-0.9085546803728508,-1.0848245995195787,0.9289720487973215,-0.9633399584594021,-0.6450147983013391,-0.3772259678918628,-0.958033741330811,0.6127209921615006,0.3827483665197816,-0.5971945079080874,-0.368103651601562,-0.8210782016393726,-0.7532637887876005,0.27138646211939177,-0.8322641760828217,-0.875170618190728,-0.830000893793047,0.5996439766138375,0.7046966556443703,0.6233410437984296,0.6584457714648686,0.9367568485518921],[0.175559722889476,-0.21975115836033016,-0.22789249922046576,0.3687576256087444,0.8448734447154603,-0.6668231109757073,-0.04280203078926619,0.3147899847912886,-0.7046834983236421,0.39972587465121945,0.22137763827312912,-0.6753431014743234,0.21353447364157,0.7958220745425029,0.44509076449061813,0.3436673953951282,0.4076786769475552,0.011256110570866644,0.11939775086128886,-0.28055185703087604,-0.33013728210598203,0.15275598540777957,0.3078365627912273,-0.024319530709252024,0.6940157838262979,-0.09021807850936067,0.3184932268247128,0.47368984810288867,-0.9560681004088015,0.2613989382440011,-0.27975791537844497,-0.4393338241053629,-0.21323576995099555,0.9394487533141537,0.09013272151886154,0.692350871179962,-0.31275560276038056,0.843659324218149,0.8500101659694139,0.4956394222153729,0.9150332711478106,0.607693816307534,-0.5183520203602485,0.12837173387365763,-0.38614266596835034,0.6002542694433701,0.038807202237338315,0.8083791983366921,-0.7841909868129094,0.9303862356312382],[0.5575752525865092,0.7845331359559042,0.8896179724760859,-0.6866077188661599,0.7202501537436025,0.48167956215563074,-0.5224649496669046,0.5273749192731492,0.7241344403384279,0.6204564238543959,0.9884595856087435,0.8358330486440462,0.4283169010569298,-0.8154871632163978,0.36009608150535893,-0.5580010305339316,-0.7705133784360503,0.9744525086435365,0.6079176794650419,1.0991195419357795,0.09159844444597728,-0.45303574404853714,-0.6174472309438372,-0.039573497410217935,0.9844481931699127,-0.7817710243683168,-0.562647420273026,-0.6253306901501887,-0.16155593744412655,0.26814687617926347,-0.3537323497000565,-0.6287654221625872,-0.11854406774548716,-1.1489678316144225,-0.7562002971520679,0.20911456946429774,-0.44030185091511786,0.2067844421230999,0.5803785548928708,-0.12698057847701638,0.08702308405931208,-0.9850430835088286,1.1300157738280325,-1.1137657493482331,0.08287007087741496,-0.9741063203311856,0.7638991017234233,0.9037095485645011,-0.008421587622513695,0.27028624958910563],[-0.29310175018835183,-0.402691115688647,0.4165495552321005,0.6062142472231825,0.19304024211957366,0.42120115660884944,0.5954055659300306,0.13332385123728877,-0.004084163476650884,-0.29499877612929787,-0.4366324285581492,0.8250996542711425,0.91070994767639,0.6570592363142901,0.36030619121262153,-0.43157720177116404,0.9292607798073582,-0.9057878786270991,0.17966534127776476,0.6198210577052309,-0.011726855127677268,0.8885029058733616,0.81412712116182,-0.9507482663077838,-0.868817459178842,-0.9049633319131296,-0.12850174963891772,-0.8184358709244762,-1.0926378522147133,-0.4176862497389222,-0.7403081990793778,0.4738399681775127,0.4739853227171642,-0.9007715602335066,0.15812117933783865,-0.6193481625237536,0.46552238304815824,-0.006874894708749142,0.7091765155662713,-0.4154045940792501,-0.44965540947465654,0.2265556322403057,0.7690105405139217,0.1112957904870933,-0.6784635258120998,1.010952960420439,-0.4824784748681453,-1.1080081076347827,0.4386163274678044,0.304207676066433],[0.3701837666179838,0.23278483353157167,0.9915238443500975,-0.7176808317940395,0.036060403898606534,0.4159429892492078,0.3682479555914365,-0.13865745823868392,0.7685885958843754,-0.07237351683163407,0.5281835412774343,0.782788595779413,0.5082704300343802,0.0353141847987512,0.3316792931159134,-0.36553492593549963,-0.25529165441384166,0.3380584628357767,-0.7263868876310264,-1.6244963113357154,0.20284031919881257,0.9625882785888571,0.3718438821577176,-1.1729697586952235,0.04515821368287739,0.9305219230906507,-0.8219696451329029,-0.31414861255219123,-1.0106064521092746,-0.5167822063303689,-0.7395342048040994,-0.48790489581396546,0.30510292421866214,-0.20494309479245862,-0.7606569411110256,0.9179204192259645,-0.1259767483673419,-0.289026291383666,0.3133668174953427,0.4880505881837931,-0.510120873840484,-0.3408730619727096,-0.0754910830013587,-0.7768567926106591,-0.6921272904649175,0.12800212337140301,0.9066372717994454,-0.6519458243211238,-0.7734529404723569,0.029886408605868026],[0.8340609735812604,0.4534883773143431,-0.49052119927061266,0.1537383873851882,0.9428964494187695,-0.33548893139005803,0.5110276635193346,0.8336381501767124,0.4503694709633965,-0.8516326511828446,-0.1395771864710924,0.232535929659594,-0.7467907078899723,0.20279155647842786,0.06156190508158696,-0.021890656991755818,-0.8666691705908331,-0.2965868481346352,-0.4658608251957462,0.7848059384410401,0.2097852614097247,0.6180032362997175,-0.4289663258741764,0.14783006609368224,0.7627872773252463,-0.21481760895911725,0.6515411367525049,0.6753686409985313,0.5082993554724055,0.418389911125231,-0.5478716603297804,-0.4746041314824691,0.27441213424341826,-0.6588346980366127,-0.7101166029739958,-0.7760414156382514,0.5078206038630305,0.5754169159334048,0.7395195466861889,0.533556643301559,-0.4495134088807352,0.8108113699016164,-0.7938509044283762,-0.3914453007327186,-0.6029080139198284,-0.6701441660790076,-0.5512225485569484,-0.7449345942672388,-0.29129578951317603,-0.035752123535388494],[-0.7411923091035449,0.9289269755996665,-0.36729174965592837,0.7302656297772225,0.27461206246621,-0.769770209597114,-0.6348725644976008,0.652863509386315,0.4571240941397598,0.16370424813412046,-0.8950186850496568,-0.7321755761541703,0.7240069177485794,-0.9795190220909066,-0.2091095501222038,0.08401420195844708,-0.6635738716239932,0.8592021797960503,0.3791792132249826,0.18032375416038307,0.8245546988352791,0.06889388295194218,0.7169845821935619,-0.6485008260828556,-0.8093965869101827,0.808724888985218,-0.894573066785619,0.05798220912336151,0.4636360960033197,-0.005637731430927012,-0.19247485243823886,-0.28655142623459423,0.6536710112765652,-0.06281984301673076,-0.04023556919565483,-0.5262403001932704,-0.289688155208916,0.7782885875488548,-0.524577551681142,-0.6867299292816447,-0.7057718232420608,0.08122351678244426,-0.9106600547834216,-0.12840193115543647,0.9099190218978295,-0.1428917872949524,-0.5632940015118673,0.8356352033301524,-0.7186353015868301,-0.5443302146320184],[0.08432065196986102,0.8898161554225492,-0.7805323314857054,0.20470573071654022,-0.8917703790528496,0.3813227905625692,0.4193215825390347,0.29441239276764575,0.20373247979923317,0.013481778045793202,0.4303021360682954,0.0033715161771643016,0.7555143021694337,0.6523693574489823,0.5258843934398233,-0.5412179057480992,0.2763485547625716,-0.15597336995701183,-0.2590461005226953,0.23196534414170952,-0.8198525223990776,-0.23689284534475466,0.2576387315179639,-0.8782730122322596,0.0034802095555371486,0.0809894027158459,-0.8659977319286147,-0.29680921757433915,-0.18892105812510449,-0.5709226806994815,-0.11676068665455487,0.4342932194676087,0.6340241053685726,-0.03332693347632824,-0.7134177154046514,0.7074383399040954,-0.5491746764905141,-0.6343087603070294,-0.21948974852120398,0.5838568372363541,0.0019424123176536466,1.0003715074872919,-0.8842722791573718,0.0017565062848083261,-1.127532955565133,-0.6140176900445189,0.5880580561163141,-0.26639949346801883,0.3859531086401925,-0.9204937993565272],[0.8050244963909493,-0.304619138005918,0.3742512647431674,-0.02293706553655663,0.5102875671117424,-0.4206650937458231,0.8412930329563955,0.04526941245369196,-0.3815387594073835,-0.8474369220115052,0.40778177656005204,0.10892254348621674,0.5794012579275504,-0.33027272279961367,-0.11691142897647598,-0.7399415634899513,0.7265748308618014,-0.48473608396443213,-0.7013961648046645,-0.8111449503281517,-1.135243445818686,0.29779005255182783,0.9833577126730817,0.4099789156001848,0.04796961544604842,-0.6534450811288529,-0.5479844072213009,1.15819209366123,-0.9291189362718901,-0.6421862164358576,0.3008209816639287,-1.106527551271292,0.12259716043566501,-0.6813889199005219,-0.5698352062599097,0.0775566955946513,-0.6136672242156254,-0.46722148019455145,-0.9039240816840052,-0.04230459823008891,0.5562332642383575,0.8752108824677197,-0.007358477132493819,0.5259281043217005,-0.5897137971189634,-0.18207562571177086,0.9729587902729281,0.7366431612586665,0.6170428271794648,-0.10093055818949814],[-0.2973926910525309,0.19210133402838178,0.09682345137892151,0.20768991259164937,-0.27439756976913493,0.4018444925618292,-0.9125403193687047,0.44830000646085366,0.5522181260612465,0.9221194192454938,-0.7922405474241879,0.020707676554553068,-0.2998200523145707,-1.0480474984577073,0.8480145112080097,-0.004068209605066048,-0.10501948162637441,0.34979363852516826,0.6287764513066274,-0.003580290842844702,1.2583128707797697,0.15586860063793495,0.0742215088283047,-0.43115027550614143,0.42018095166420566,-0.29733155310792847,0.15237250769377414,0.7850043999542009,0.444172184900477,0.14589778389697058,-0.3159493309079715,1.0168976877569862,-0.7963067133822878,-0.9676924027849468,-0.1364590261141821,0.22068193352888565,-0.8844030299780823,-0.6747056192221291,0.6399801262100393,-0.21365355433828442,-0.659474426648496,0.0794865220948764,1.1981629791563047,-1.0653079293694383,0.9717484559509731,-1.1599946624455169,0.29710061047336694,-0.6976122515873628,-0.8905968555781857,0.4579695569539786],[0.9122665624114036,-0.8715819898492767,-0.2796104607014223,0.5695144027484709,0.20011956219837007,0.5738660050257564,-0.1223375741166901,-0.7450672927545156,-0.25586341937900153,0.5626177203624293,-0.1984846538612919,-0.04726703500224646,0.5639107962025317,0.05327379476738286,0.28411969442878066,-0.5190078096425128,0.20046585691426924,0.012394875745754435,-0.562780770660956,-0.07728571379864865,0.5917993951567669,-0.30982970109312336,0.09837263112112785,0.3683620044343472,0.5297928020733654,0.1745822567671634,-0.31072951024488665,0.6309173305556842,0.6024275110439891,0.7690875064854807,0.47276459495838413,-0.2689221946606222,-1.2059037167233577,0.32481288821375787,-0.10740723080844283,-0.25183673889086017,-0.909637735712163,-0.3877431713630783,0.9096129349608961,-0.3946193129533301,0.40046039902289843,-0.3607185449875463,-0.09587619809626866,-1.129785814108552,0.9015521178309381,0.34446212737375337,-1.1270385851003344,0.704395741635253,-0.8261035894199497,0.5618219263877409],[0.1319923075212427,-1.0294154493957914,-0.2755615223256072,-0.335161863862979,-0.806961951634118,-0.2399412409036625,0.4675488214737909,-0.3847406872524494,-0.8143936880835333,-0.43912578516544465,0.27099340597922594,-0.9734283955636406,-1.1435253986370455,-0.07500147810639532,0.4728956509559808,-0.7521043154744027,-1.0717971109218432,-0.6881890341622087,-0.2987716635221042,0.712058542784206,0.32727390511581467,0.8783708998651086,0.11389979711827765,-0.6593623291647446,-0.45427794536775495,0.721770735881694,0.04790467688801296,0.6369055948073075,0.9428056991145951,1.3907886451256597,0.9319393857528186,1.1305847472496924,0.08380983115235832,-0.15461951321080608,0.6607341636476913,0.718571718811116,0.6069781831548694,0.9896369485978843,-0.08901033504199876,-0.20445336339122303,0.8280685025650129,-0.5637189322048302,-0.043639477338874036,0.5896895890055325,0.2858674412361374,0.10807396544424154,0.14908005594152957,0.9504179202030505,-0.2785686328734625,0.0134222267702118],[-0.28870717052407824,0.8630819798012326,-0.6571385341446456,0.9248632962084173,-0.011882887608165074,0.2443479797418691,0.6817030474536527,-0.8299346089913961,0.9082116534077781,0.06682183086374602,-0.31521376599218687,0.08044170592878803,0.16430376337973224,-0.03145029551405472,0.12779648309943553,0.9403218280176789,0.679253968318263,-0.442888047552143,0.919221720848172,-0.014739949491647288,-0.6805200121774635,-0.8511912906678197,-0.5814788743953125,-0.2645965988258535,0.7150753217486199,0.8399130904266815,0.6800484679394168,0.12290520683183448,-0.9602025967001094,-0.7609493531600804,0.9474516125521927,-0.051133561253420376,0.11414071978139428,-0.7214553233862009,0.5149749753466656,0.18184131580901272,-0.8697300338617284,-0.18928653237539309,0.22937306792622833,-0.4941160762736462,0.4163200546076381,0.4597876046473505,0.6415912587822021,0.612969743593152,0.5136712169972546,0.3710618658458916,0.7781550247638459,-0.686518610496119,0.9817069509881903,0.07729111736227387],[0.18664140143511615,-0.6075928399759266,-0.16320529383273782,-0.5037923543517937,0.8753107812885031,0.7868388373139473,0.5398538244826423,0.5930350655076346,-0.9302039622228835,0.42105822899662737,-0.03802828337676604,0.04607253412136857,0.7188609834901242,0.3505313260041749,-0.9184318041184841,0.600785681220187,-0.12275709995439764,-0.7493097010899739,0.5458071905692258,-0.14053224103677092,-0.6165055559485665,-0.9955922251374535,0.5520319951475962,-0.9433301163759515,0.05055440834027474,0.8212186386050646,0.14739641794702438,-0.12741028901648135,-0.1126193838005904,-0.9329163924821261,-0.15252343668222842,0.7522280304075191,-0.565844725966929,-0.1869887990131056,-0.5912067092088684,-0.5431721815006224,0.4786125446140586,0.9305702783166807,0.17609026613517997,0.3901737925357491,0.6043589227563645,-0.3706756161510438,0.24026268694976968,-0.5668594367643043,-0.9159118513999718,0.4610647509668161,0.0703708560687034,0.05498083923567532,0.7613375450889521,0.6599514889772112],[-0.9082913997703765,0.7396846195777749,0.0991901746101839,0.6039008827784617,0.5094706464894486,0.2532362322552081,-0.270778871692644,0.4911857525839288,-0.4907342078906082,-1.0160878553306143,0.35359035685636314,-0.1910973037219952,-0.4852752878288677,-0.6210050073380744,-0.9134474632304596,-0.5334044098404691,0.5494675948502967,-0.8008207109632662,0.9538745611422639,-0.8128846007389369,-0.4389947779106498,-0.42652027457591785,0.6594661525911263,0.08751331038027522,-0.5298674218361954,0.5386346969361004,-0.18246984134006144,0.4007568818471706,-0.5320380812863315,0.47860846974524074,0.03291792873702487,-0.04852993883382251,-0.37472572926757963,0.0547755780113729,0.24536339015795264,0.7521407000393383,0.3496458130129265,0.8021924875910916,0.2940627230161358,-0.04004122347700005,0.5929112048702779,0.5511503023395063,-0.4097688950999696,0.3104502677131016,-0.7933035636043992,-0.18694046730430297,-0.09770449689539343,-0.9843691133607393,-0.7655220382845673,-0.9041638526408118],[-0.4531663851958019,0.2950059549198221,0.9201200094679497,0.8312977840405538,-0.21156756690833878,-0.48486776797507825,0.6419113051320305,0.39798968265057955,-0.494501762355683,0.5293216549031513,0.1138789232502952,0.8375065653406437,-0.682321686590067,-0.18351061750244468,-0.5593230636889054,0.5021315668641374,-0.2555056671526789,0.7240224564274689,-0.14063509896725543,-0.6497315747597345,-1.1397156410758131,0.633833751167656,0.6959621812017115,-0.713295614160123,0.673375937953738,-0.3757446421985214,0.3540977249160131,0.07616508470662546,0.22910077031229809,-0.5732838202904837,-0.9248991794191639,-0.1469186894587744,-0.7058264822147269,0.8967374175892996,-0.8919642230072086,0.18524977701154105,0.29581801361003235,-0.026392564579388943,0.5262172044226459,0.264393243116164,-1.0650760433757744,1.00501394607235,0.5177128930838584,0.25032136858739534,-0.3597044493240464,0.5145072664192397,-0.6225624651408813,0.5770027203682021,-0.20769927285703177,0.4045250982394928],[-0.905189884685619,1.2764184120559108,-0.6663365661839212,-0.5960246181362929,0.7486470799376497,-0.024391605924749506,0.7853364101866884,-0.28457621482483125,0.9075455584483272,0.32112606367556285,0.08081878043886918,-0.4269847929036814,0.9133784488300483,0.3103760757081033,0.5941233061945317,0.5130282324357989,0.17828715277517126,-1.1460799646011017,0.3606639519935933,-0.683782290421771,-1.7803700784134255,-0.43255397225985237,-0.02897624320250708,-0.7878817354863219,-1.2794172041412855,0.035279926483380956,-0.09299056000712627,1.1778656146466646,-0.17806261627638495,-0.8478637534629547,-0.7146040150342774,-1.5232479374067938,1.449728137251163,-0.1845714795862952,-0.2021267591169444,0.7360772587540191,0.16872065277566758,0.3213210771026535,0.8970087503685273,0.6884087032284686,-1.2134541825274756,1.3012474567056327,-1.343447375509638,0.15701343200644868,-0.13334307054300207,0.7411911818449645,0.7029176222136801,-0.9011764256889613,0.49500807771781485,0.1411438316703076],[-0.85458964035158,-0.9083369499717582,0.4365259022722421,-0.043210708004407336,0.3387309141487343,-0.5309723013305975,-0.6213897381518447,0.737938599583314,0.6748647774322157,0.4517896045350127,1.0529397020711122,0.7302876934107556,0.2435061668464274,-1.3394931996211434,-0.5620658458959009,-3.1671472888136195E-4,0.11273165011991264,0.7927167518298375,-0.4773221677476492,1.4059092835668368,0.4210606195769845,-0.641415433198312,-0.5594207701450873,-0.605403192439261,1.4180990259935269,-0.6453356434720162,0.9640565380823405,-0.765848534513717,1.2079914503703093,1.1853356503227668,0.4765403054067683,1.1046268714830423,-1.0225508458808077,-0.7348551432684178,0.23146651169408067,-0.748980820659429,-0.6863087356055065,0.37707777445551977,0.12891276365562768,0.20022234435012864,0.7649963041942676,-0.9023916207187204,-0.018676406186123925,-1.0344536715309616,0.15076803429620167,-0.15920980780880933,-0.7389649689846689,0.8551888389129835,0.40150821504485806,-0.7953600038609169],[0.46889311788801064,0.6383076312717191,0.5865013523844749,0.8216640498461191,0.8218276102990677,-0.7381107532514285,-0.28354211537182183,-0.17559909723372868,-0.14230250948197773,0.6209061963240528,-0.8472754070180019,-1.0152883722235448,-0.08906497521423637,0.6015380403826043,-0.615656328074116,-0.6223349255409681,-0.07198129327479573,-0.1155586060501205,0.3285135803170642,1.117658481769392,-0.4913975784020279,-0.16751064601336046,-0.633289060526413,0.15115568887708802,1.1294139557900733,0.004620327870064756,-0.4795637609508909,0.022676043549796104,0.6902688493166448,1.1536280166487867,-0.30972661375375954,-0.6614984830927645,0.3984459469130902,0.8387149725490111,0.3988832255989589,0.49713002853449595,-0.4486991931580611,0.5099152889422028,-0.5281137988615606,0.9252370490186149,-0.3129176741944626,-0.5705336762796688,0.738657501262794,0.13802610589066522,0.919621193142821,-0.27987127630791875,0.559219162773957,-0.6327865347287486,0.031790331137625555,0.8808058135189536],[0.6521587610580443,0.8653272551483046,-0.9292002719597643,-0.4246445450995799,-0.30859169902886197,-0.44686998912051024,-0.11526248957754659,0.34909541458213367,0.022888369833470586,0.23211256204065925,1.0852164423887887,0.35766578340948396,-0.2948412677845582,0.4810076355144761,0.4545238203178017,-0.7949869707253165,0.2504977792300533,-0.42317505040228437,0.918163476477679,0.502924022152395,0.23806836186638095,-0.22989674504367216,-0.6896747832462989,0.2410676667095626,0.6592301609305672,-0.4909012909671004,-0.1759447328014729,-0.34316948422730886,-0.5016873419476989,-0.14987033148471143,0.24960864235653302,0.5706927616434296,0.4961597832703916,0.6612859761244583,0.38992046938548414,0.5101607984684216,0.9234871841889313,0.028224410572064224,-0.3955274221838104,0.5103188784112224,-0.47053741601970944,0.1988913310018437,0.3082659917621593,-0.9619624441003818,-0.37352582961969544,-0.034365086103212844,0.520783892747118,0.8211177313594111,0.6894183609642354,0.5944757338554746],[0.44325099821171826,0.33682100429493733,-1.0366401913513723,-0.20906422175777664,0.9229884938884972,-0.4853243436740859,-1.0923906337582412,1.0297242947664982,-1.1203313205174137,0.3459779255234204,0.11746181697795469,0.5754884030352432,-0.8143451944649613,0.12326950195588082,-0.7349746115802456,-1.0091346368936998,0.8208035947682532,-0.41301615570996253,0.1966475931716033,0.6886019093645972,0.9573329786376045,0.13011539166806504,-0.6852825780158369,0.886590398583462,-0.4371409475973595,-0.0945366609635183,-0.4576956326716646,0.29896204882458527,0.12025016371121877,0.08794293885538815,0.048449806689113646,1.0995198747724877,-1.23609282522339,0.3200544082844283,0.31847658273483803,0.022785525812634613,0.6913829831343559,0.4541018973079115,0.5140165445328698,0.30879310416143735,0.5350574381293294,-1.0396065317545211,-0.786345352342699,0.23474615032665422,-0.20042948984289477,0.5370314583343083,0.36402280823414296,0.6490931296802455,0.1457711722140631,-0.6282879521433752],[-0.36215852524721104,-0.14129271273426108,0.8090778210276489,0.7472736950886609,-0.3038957412325025,0.8779569127284048,-0.8963454215843112,-0.31195070013563597,-0.8550755156998898,0.2841072705126769,0.8402581135109511,-0.8457926155590827,-0.914173447540403,-0.8610613401737782,-0.7144159965167456,-1.0070590646901234,0.10882300847384016,-0.7525728502464698,-0.22101480691096406,-0.9543629473344651,-0.160117443514371,-0.8411564318235972,0.5255401562517478,0.2780470969789212,-0.365555581148744,-0.3048934001794555,-0.06012700433067332,0.15845287354202428,-0.97346110508249,0.49190199931243067,0.38704655470748317,0.028985020639821904,-0.21214169335156904,0.9449172570212218,-0.8383024230787416,-0.16068638668911073,-0.2106371333976857,-0.6324565536029888,0.35134277151479415,-0.17181500055122748,-0.6753099389747831,0.8208485458683792,-0.7253687204388422,0.3421668264337452,0.9791539063433947,0.8969921421847334,-0.020863179710016267,0.021282892435681943,-0.02832411183411601,-0.14305738066035986],[-0.0712473672128276,-0.3107096614465293,0.8037347048413985,0.6797960690618658,0.7045254510265697,0.40308414685726457,-0.08443349401289277,-1.1904411219669986,0.47784805481428844,0.6025891589518547,0.1914921656576957,0.8450093592052559,1.1748822808997983,0.8079304551831715,-1.1009114290110544,-0.042028202497425185,0.78472818046521,-1.131844995707519,0.9224999714413169,0.16624040711936022,-0.4341826143412741,0.1353029879138,0.6099360879846718,-0.6499661226062253,-0.020320331313511967,-0.2831354098533386,-1.1522125121949254,0.8736923246738253,-1.0315360098550392,-1.4626488784133644,-0.48762090719647105,-0.04499566754888434,0.14414211498881782,-0.04439374292491704,0.20692507946038122,0.1601484777812503,1.007557813055536,-0.5747530922505593,0.49636743814790446,-0.1704140466363179,0.1997828349187104,-0.38796898545793673,-0.7066976459728255,0.5587373462261543,-0.8502896066738959,0.7500211095901231,0.06277291484967792,-0.8128541382781949,-0.4727616330421809,0.5846729206358877],[-1.0640982301611832,-0.1235950049540719,0.8562005270088743,0.6237409745713779,-0.7525630851180112,0.5190699448806682,1.0889842632008682,-0.4144926750988287,0.9636421080602324,0.14095486828174209,-0.6901966393219412,0.7009655878673424,0.6150160530881346,1.2701144175324703,-0.36643390492961375,0.870651864830692,-0.9488477551206597,0.32754206883193576,-0.7790401659228926,-0.23123747666465963,-0.5502087747208445,-0.8285336943815705,1.0257312756514796,-0.023909073153520144,0.34066196700674056,-0.12759005642360308,-0.2857963721229017,0.4090477838703361,-1.0442853474250857,-1.1960335927615926,0.4030842219207202,-0.23525615319396426,1.1741008182325725,-0.3564982059715378,0.6860469361391818,-0.5840347210720181,0.8971949927477101,-1.0056375393702268,-0.3416305238533797,-0.39689881179147285,0.39769941744692033,0.24287787436777214,-0.01019572679799656,0.9467889234640686,0.3580369947698976,-0.7514236210080032,0.2898926194158665,-0.68959803730937,0.04052806369874368,-0.3102030148752229],[0.5015145845255032,0.9563989985955059,-0.139619867732392,0.7740722665873209,-0.6240462649545909,-0.06387938641728337,0.9571408973941934,-0.08055471915943012,0.8450107412719408,0.33789875020641585,-0.3291258509587059,0.30257556678953235,-0.2854182234872981,1.1124427908887777,-1.075434396377209,-1.034605524711135,-0.08520279388813262,-0.3080366594974893,-0.5511528455711739,-1.3093086393253108,-0.1526412672701835,-0.021962560025877997,0.9396808913954712,-0.05396638516567418,-0.23269720219425677,0.7388795647745527,0.5544184416656057,-0.49758791308577,0.1332155913202669,-0.18674150791083083,-0.9778106586257244,-1.0342473564443562,1.1383537242910595,-0.006083412194615753,0.8150632262816856,0.3423342677026486,0.4866783618854251,0.5573441871333554,0.22929984497606945,-0.26691772049306906,-0.3943628520979608,0.5155319455650432,-1.0125795581272894,0.7500208989053461,-0.8302570859216529,0.1587774354570267,0.3777818400218043,-0.8616671071667665,0.15596889438956676,-0.23234979418436544],[0.9546649461798188,0.5912576137527755,-0.6274443319076297,0.34207157840527935,-0.40479174116559,-0.5648849340205461,-0.6056249814582759,-0.15564181244588646,0.9815044245124035,0.4839717491995377,-0.10816932195969825,-0.3981254332638536,-0.1093908241021526,0.4518845166267244,0.8196589235299188,0.30164557082198024,-0.9657750278636539,-0.4431858394303865,0.9699517917457985,-0.24793952528476051,0.11953568738365586,-0.21597789787095348,0.6632039509297535,0.26988770280668706,1.0143446915204746,-0.24808636340562792,0.09165783232570607,-0.5536768168274261,-0.10246213468279958,0.9971006262421035,-0.8721054036964,-0.33745246322544353,-0.6489953294792954,0.16737379258645962,-0.4338568971981255,-0.04687526288195819,0.8128233517974769,0.5275757310755163,0.945187131300783,-0.17095914528688697,-0.1423732749083049,0.5298964230425309,0.8753897102862869,0.6867107780850851,0.5897221733471913,-0.5020135528988865,-0.8100999928997636,0.7166539946632096,0.13246862295999506,0.5149742018514438],[0.4182721136683263,-0.18933284128455524,0.5581505243697003,0.8502630949689999,0.07816369666421764,-0.09146308637236052,-1.0519127086197522,-0.00511062102597357,0.43515223372846773,0.6931558563161041,0.7113802022902623,0.3611198052150427,-0.6746408416682843,-1.1688133944727033,0.5336104469407138,-0.9627332840686937,0.35756061241373527,-0.5796331507442252,-0.8344224306868733,0.7019738278775998,1.2676883472435774,-0.1694894654070857,-1.4644691194888,0.3542081642937863,0.10501652656533687,0.48438087685065984,1.0799532966625052,-1.072524378255689,0.46812918431860834,1.1393755652283493,-0.09134546365590313,1.3790535880205754,-0.9898061988134876,-0.008423249469166118,0.4710138420926204,-1.2679274302609267,0.5493672503442827,0.12486347475258769,-0.7557548270648284,-0.7636391603659736,0.5715768250093803,-0.6861539889871178,0.860221557682322,-0.48564035749198975,0.5819696097733423,-0.4458979675069276,0.5972647623593728,-0.022842756510194354,-0.15572307324729057,0.959438685221641],[-0.5859801677827216,-0.03258927877466946,0.4057945890860673,-0.07548782727174674,0.790834043474654,-0.8257766284280894,0.06859563007466551,0.6135337759355602,0.549482756205429,0.026934405695926183,0.3662271443525455,-0.7155734238857955,-0.8586744525080682,-0.8444963618275927,0.16348717695383372,-0.32922899101195147,-0.19886389913392072,0.836552760969179,-0.02242048672888153,-0.7639954432738861,0.4041270220320233,-0.46046196211742657,0.2085414769391784,0.7615900314494326,0.8099379510676917,1.0316445994495873,0.7769960561066626,-0.5516283230252688,-0.9415674631637291,-0.3865047239072779,0.42540157178111215,0.8498851605894325,0.843255599121339,0.6531128694676875,0.22452692641978247,0.2980276279610027,-0.7544875873475788,-0.8083128998910077,0.8743951736677792,-0.7620725259707533,0.31895341059890847,1.0123475796833543,0.2887360636734034,-0.8420727364218549,0.7615457790831258,0.3970369487345969,0.3571172464062841,0.2889651749509097,-0.017275965337581287,0.15771912864705392],[0.9673740144200782,-1.3189781165997636,0.05024173721469731,0.11234261036485677,0.9397176498285076,-0.047613747191713074,-1.7628897829286234,0.5552112200348577,-0.3059279955739333,-0.6580922619443375,-0.05502704689215194,-0.48994147176876507,-0.6052188857280479,-1.6447436898300591,1.2533065234694374,0.4943959406368338,-0.23205803520983076,0.5282006527386459,-0.8152922137752897,1.467931793740248,1.3993406360456249,-0.09555810927417491,-1.7134759160633075,0.5804869334216801,0.9732323368204735,-0.3076664187223898,-0.6308662448709403,-0.9377694904647583,1.0221187475718927,1.1437276338864832,-0.5176805974550639,1.4693640335071279,-1.1610057142724999,-0.25288384994603186,0.20861607117219888,-1.1056130061989335,-0.07061149947415497,-0.8244419390916559,0.6497602194477783,0.5641377186438978,-0.05299010079471064,-1.2880692024321307,0.7247959161430197,-0.07691236494632969,0.7047963496928962,-0.5553749073165047,-0.6590007575565571,1.423128551714893,-0.4986558798692474,-0.18813516595547836],[0.7733705154208792,0.14174305456218328,-0.83679144315564,0.23042888765012093,-0.3052094594896129,0.3806169791954622,0.15588568307701428,-0.5043263365757876,0.033658072572377275,-0.9023197592925551,0.5905725707963597,0.7242993354504272,-0.6593677969120588,0.9316123597005961,-1.009902735922219,-0.7815866052095329,-0.9159691794401187,0.14082203079049357,-0.19631656413263895,-0.854940338777161,-0.12325669483755336,0.7957008612105742,0.6313413826273822,-0.34862632889951556,-0.9917722861503231,-0.6285490275586023,-0.7725872718510829,0.9087177110587754,-0.477966922794071,-1.06980522822756,0.28393643967556637,-0.784274910584179,1.1221719510365238,-0.2818181351471231,-0.5008334285076735,-0.6949941247927592,0.6337072951706306,0.3884334240335409,0.023787228718191986,0.5707908999499625,-0.08899596788934715,0.2770617604531896,0.42903329007266033,-0.6101102096824633,-0.5479024580323478,0.5546632924253148,-0.14818185087865443,-0.354641278896741,1.0521271384966158,0.777343627744536],[0.41544695616335875,0.7041622432111893,0.4058424322618973,0.5300655926859731,0.7237300795794812,0.45951059382664283,1.3174951600950067,-0.335333841769753,0.7817143254556813,0.8891167303644706,-0.4518613055002903,0.7767083784193911,0.0770616565509842,0.6252834381782578,-1.096063163685228,0.28332999831565137,-0.8770683690227462,-0.1807029363415427,-0.5524414427458845,-0.5624776864703777,-0.09019360786026243,0.0845622632862281,0.9999274871181354,0.4890308180049975,-1.3173284923281374,0.6899773989559417,-0.9753732811796975,0.7738914415527913,-0.31729389526988194,-1.7160191523187298,-0.3601938692974462,-0.1348100541319955,1.2137367155092453,-0.043773449104378165,0.8220883553041662,0.425940828461419,-0.5768648868364912,-0.9795056579119022,0.45169909481811554,0.027120117454300655,-0.6273681178505505,0.9640081381780198,-1.0473280748483196,0.03755173888147111,-1.5624906059758008,-0.4669517415344222,-0.09627227318479202,-1.1053467044254992,0.9733277873514501,0.19760392501507018],[0.8225805700943396,0.2995418159761648,0.661154866178871,-0.2837596170751366,-0.006388018480248863,-0.5881230482512808,-0.7999714638453131,0.4701433295967125,-0.22279665337301516,-0.4260557898334615,-1.0023571627213597,-0.43090526079169,0.3062465118371926,0.939181098857527,0.07537838357320054,-1.0094883488273991,-0.4837536130133971,-0.21679475632476647,0.4720852645377739,-0.4368303457946628,-0.8764842539311762,-0.7909984967790284,0.020567862712277517,-1.0211506210459191,0.03929657448973466,0.7870230208767669,0.48551169199078736,0.3540184752512764,0.24090986851222496,0.7389629610641752,0.8352344025805065,-0.6268430119587531,-0.36057533253299867,0.7072619641298468,-0.3130723244288204,0.5088514168269433,0.9704138892979075,-0.1774690634630192,0.3367967450600639,0.4584059664646932,0.4775913488996999,-0.02706315338901861,-0.26785917692092404,-0.06763110108097713,-0.18677837887515628,-0.4097871689168113,-0.9640674511762626,0.2996357811982324,0.1322185060439622,-0.8144072574482438],[-0.02818176065136963,0.8804629718479282,-0.7589830888996519,0.34078141970291254,-0.13101653124713764,0.052305705707365334,0.9504167197334368,0.5785314088293807,-0.5932195637902308,0.24603167937559703,-0.12388693924323647,-0.7031877109588058,0.9462213256831307,-0.6124479598374165,0.602640034223533,0.044085996864700654,-0.8048635995854336,-0.783795265809633,0.31398963226410065,-0.09071911111642965,-0.9096413887122823,-0.6777778929576822,0.6644888778636714,0.22645654963080256,0.7699733635332646,0.43498051588516634,-0.04805195293415464,0.0898940385401635,0.020875510431403364,-0.9376294887284564,-0.9775608526524301,-0.09720333449955337,0.5136108165212664,-0.7480759853438754,0.5127321198609531,-0.797986577729638,0.9681990313557498,0.955408143605013,-0.9991629299754169,0.6820480914988082,0.1941385082779204,0.6133014475091186,0.13626893228592216,-0.4050867767066567,-0.36510102692792273,0.422530915904207,0.9689166089291466,-0.8644616426376768,0.16502785402683934,0.8815378870835469],[0.8830689070507294,-0.3442752594134872,-0.1505193868041582,-0.2979967780707968,0.2859481946453561,-0.6046375608694792,1.8936581525547453,-0.987839929619268,0.9367401513859761,-0.8149598874625633,-0.82525496454168,0.5278202044143457,0.6113496966318124,0.43932606883127084,-0.397223823518477,-0.4546399404588068,-0.016071958070468278,-0.2015234526850671,-0.1645912567621805,-0.6419746533523869,-1.6558370268515579,-0.8181480897189901,-0.21826378361417534,0.11405200797935525,-0.41977443376306045,-0.052253872628191984,-0.8009555642073573,1.1843723369356254,0.1540999584639527,-1.3084325151139051,-0.5680041570006666,-0.9599364246654203,0.3619906537807249,0.9646530583301949,0.03426420975466462,1.0720748806336102,1.1191438697550526,-0.8841356214879875,-0.38970883271057843,0.05308813938127551,-0.5166351357020535,1.5279260832603323,-1.3008927835547714,1.1995767954733136,-0.8475132130878632,1.147073180649152,0.06319567782208228,0.4289540415461684,0.5506797043056575,-0.7838775848053392],[-0.6418545243339899,-0.7819028251773751,-0.06235040661480266,-0.5291665731886721,-0.35651896120221077,-0.6263780310393596,0.388888959661072,0.7091182040461691,-0.4538809510404241,0.23548951599208315,0.704098809974979,-1.0105516070627856,0.9604841736287739,1.0711201244779562,-0.6790384223503986,0.23037976214066427,-0.44613548694590854,0.39630702394446726,-0.2499562752196017,-0.5778475309249778,-0.43212242851951665,-0.9323405474716143,0.09700561914583596,0.731431068379656,0.2800880738689964,-0.1602209625433252,0.8989788015347902,-0.9331640047397399,-0.8101784417163082,0.7061057155783748,-0.46287624486390344,-0.34917369594730874,0.036664779930581495,0.18090488338668662,0.47776194150048107,-0.31929374802159166,1.0026288526191327,-0.5535847262695626,0.4391997388759292,0.46893072358003335,-0.21281504049273123,0.1997466578432091,-0.7000408142020208,0.25080775235862585,0.02707208367524464,0.47852334490358833,-0.5445160225639846,-0.8866647290542772,-0.4106328216887186,-0.509505981532209],[-0.7487769401451383,-0.6091492579607631,0.35447220664650975,-0.7234151041718109,0.3438425734352709,-0.2186367245317962,0.3484210509398728,0.5547653153478289,0.04667964982735455,0.8361908757533325,0.17517435306253346,0.5152194559446743,0.2913708389218675,-0.49222955664114015,1.1282060025473915,-0.6766707768586293,0.3129177246277948,0.24002853257696383,-0.7477235135052386,0.0809088247124109,0.5160767902967229,-0.5976613944381045,-1.02478077754368,-0.49334054897912044,0.27905475966686105,-0.6838566981542058,-0.07472681714295805,-0.5908868239429557,1.0314753574339033,0.43823193945160893,-0.15777116583550016,0.8961548498196608,-0.5923795556390865,-1.0115759449053965,0.8411193787856411,0.6946278462591868,0.36163258064243803,-0.7373440120346885,-0.02471620604519188,0.006015268965687766,1.093284542117302,-0.29404631708841195,0.9778024893319502,-0.18520926536890964,1.180524102863079,-0.8243089417665699,-0.10946168088596571,-0.7591737402474519,-0.08531656428985142,0.013758444971848312],[0.9962154981764124,-0.12288379717689162,-0.38032250723924055,-0.3315799395897868,-0.8190205719380188,0.05553689858099491,-1.2409610812836784,1.1686335029379347,0.39365168898214675,0.5370370056542026,0.08270105684204085,-0.6703848769201515,-0.24572686049431963,-1.2879558598436152,0.5347816043009953,0.6054457805962695,0.23150941122807325,0.4058227078961052,0.6752182235804762,1.5794898972034124,0.8654233659316999,-0.2950507945261786,-1.524208395622054,-0.5755318183440647,-0.005984985887427925,0.05456752717597747,-0.12804380378355296,0.4677893508769224,1.3253674282536683,1.4739295578129188,-0.024025610794718388,1.4886632850885688,-1.6803504035700931,-0.6718063200518689,-0.07489809307152266,0.6473875234944964,-0.9218374642817196,-0.07511203062173305,0.32553987411766633,-0.7227057789986812,-0.6034694375912908,-1.5227637336164785,0.6022075887674467,0.13834119011391022,0.009479436210424836,-1.304577161970892,-0.7054588569371012,0.39750881729028387,-0.004008894962320622,-0.09722554938915379],[-0.4573060365904015,-0.17163923438688738,-0.6329967848073447,-0.694398044061098,0.8814860208696494,0.24178499518609042,0.11863986261440745,-0.10584740108630386,-0.13181686026989362,0.8244073075227908,0.9476147780205278,-0.8951131950990464,-0.6545803105314357,0.6607949940016403,0.6857701454223213,-0.4935951771753314,-1.0696233833964173,-0.8529618333219829,0.830867460429193,0.023946604445183033,0.5685324780564516,-0.4388333100812392,-0.5510627638059994,-0.143226683958335,1.0263268914282822,0.5462483386401783,0.8322992865948594,-0.343234452442004,0.2756802482028568,0.37261041846430193,0.21699020209989434,-0.6653354924816105,-0.5604234617069267,-0.39937263582381394,0.3164456489245207,-0.4036544101662494,0.5319880682486113,0.2831663742870718,0.21935458064605592,-0.336977494541722,-0.8001442195377586,0.8089303134112386,0.3031518754542766,-0.7005972746774062,0.2592968176011965,0.8692059933672411,-0.21088963024767746,-0.010592816760996528,0.7645474044112631,0.3593190049160654],[-0.025084131141122634,-0.5855271195040597,-0.06476895732917827,-0.22137399338688915,0.330791340131675,-0.7876347986071749,-0.5709740320557247,-0.0731442386966825,0.07383613095822325,0.067672554071545,0.532629531034084,-0.18164293419105235,-0.8023961489110525,-0.8148002057399236,0.6895734954977771,-0.3814814024985454,-0.8262835870266882,0.822705344617294,0.37904589433483665,0.5075525040890866,-0.8305933093029625,0.8692595995854675,0.4243473079140789,0.8866648442892765,0.2808714467487307,-0.43924836296187336,-0.7230078529663801,-0.8616868331983011,-0.8060256781180798,0.27009760537105787,0.6753787715655539,0.18979455363570077,0.14023089469088296,0.21704914390838825,0.3157166938367386,-0.5647202049642382,0.19086358516565902,0.19074717360570526,-1.0512469414074697,0.7004584466823098,0.6430235359529616,0.19430895274713256,-0.48825087278902984,-0.43891931704551457,1.0255558056942313,-0.6931590421285425,0.8060011394779032,0.918453834376383,-0.4431163631471771,-0.48608977597302483],[-0.9814175149338621,-0.5134608432699668,0.5775031898413202,-0.25642447421710224,-0.6612247632595102,0.2071667078075257,-0.5512514014588827,0.5477997350695202,0.5547535404980923,-0.6191149635307064,0.3666493672760075,0.9003561287509303,0.6479364049429931,-0.2546026719611056,-0.09477278665952028,-0.10918036194602651,0.11307982563112519,0.7109878868169093,0.17737353692810373,0.17953092085048977,-0.5676173007434295,-0.5504887092929164,-0.47270853540961544,0.4040698737378436,-0.3485399860436552,-0.07178896358275134,-0.5425935334955427,-0.11621203754914482,0.01862224813683075,-0.7579555817280798,0.4230273631836206,-0.03547317445573606,0.3445252977591362,-0.29129364134688723,0.16123021345810895,-0.4888319804355601,-0.8320108994390807,0.5903159804781053,0.478588447419735,0.39729872923723797,0.647447136790103,-0.6592627718549469,-0.17998660199617572,0.7984677729456806,-0.01568188678126735,-0.6619155444136607,0.4605221157207169,-0.6480404532095339,0.7676561082718185,0.7354033210380656],[0.985560579592228,-1.3177132627189831,-0.747156380012996,-0.7016938701633536,0.006692764097988354,0.014318590822429774,-0.918986444600561,0.5195207805493649,-0.1934796609307586,0.09510574952269057,1.0166314701251438,0.3402768187030725,-0.619810177021246,-1.628730746479592,0.7915218646459572,-0.6864351520080764,-0.8900305839925534,0.9040023548484889,-0.210858872316415,1.395392862637763,1.6036743814660734,0.04087190908523837,-0.14300085222159037,-0.015883428155476713,1.0264866839858704,-1.1096233238879958,1.167455163360119,-0.9223884847425228,0.7583992582840402,0.727101155400734,-0.24854158079411937,0.687372766225505,-1.4177147287018406,-0.8429804666082975,-0.05841213426814793,0.5505734010556408,-0.4897729481603903,-0.16295807012949282,0.23903081792297878,-0.3271712626519618,0.1738059770235658,0.13561453449824346,1.2991945216363527,-1.2615651195695914,0.522793246874721,-1.1836969886965027,0.23441020930570705,-0.15440374084328765,0.22966143918491855,0.1764236891212666],[0.07211367585905692,0.8627257577708498,-0.492090073524827,-0.015776748840975244,0.21123258622506114,0.500952841538832,0.92666579610459,-0.522796271811596,0.2927411452622114,0.3439453835452182,0.1974601760344427,0.7774818186762756,0.5513442730822372,-0.135331129391903,-1.1743614634270905,-0.42004489832829056,-0.025929379070504244,-0.2822900584015867,0.2086768925739597,-0.19011601413849014,-0.5354313679564172,0.02332513506551172,-0.4808822082149147,0.40128999720792846,0.6285524488043915,0.917012875025377,0.0026694203302022454,0.740201105314084,-0.1568411504087068,-1.188939607947195,0.7732000519375718,-0.5129790338966256,-0.06247121195562848,-0.622947577695113,-0.20968180519077648,0.1741931928097696,-0.5210378117503356,0.0012733261164095998,0.5917575915780315,0.07839805990167076,0.46472426502889436,0.9877457601687059,-0.5228669987204444,-0.20801956732643903,0.04037794067135257,-0.4811311147676679,0.07795930634317069,0.07407678159340012,0.8632038903132396,-0.779092945272959],[-0.3689967171343967,0.4518490016924775,-0.15456624355024234,0.6466591054228594,0.4995712838787459,-0.9400370147812859,-0.00504483569036654,-0.01592562763553107,-0.5995324656630262,0.37964059543044365,-0.9992328032851013,0.07681917706528424,-0.05571872521507093,0.08012747395879564,-0.757229192116088,0.6279421108846326,-0.5557579479180152,-0.5678969345564218,-0.10204433298077879,-0.815023897293881,-0.37976062146349426,0.9892871422085573,0.6980233243880333,0.33034277091294656,-0.9433356619467597,-0.29233277692208287,0.2988712850314104,-0.12406296371895756,-0.23690347946674636,0.14893550618976859,-0.9136900043415971,-1.0689147377098798,1.4026662308935152,0.79377657882113,0.5146034652913595,0.05966122121839342,0.5284111262347438,0.35128382158908295,0.20162918512709807,-0.1282778732268044,0.6464589739214495,0.9650358118522827,-0.5435231992224607,-0.28059195431222334,0.2155622258064007,0.09141321684394547,0.8474124612572655,-0.9308544014638274,0.48451893568639137,-0.4375272597866288],[0.36844442725086185,-0.6421753084954821,-0.44786953277070496,-0.20983207407780188,-0.5545100370869472,-0.2599850013030366,-0.16161238823591387,0.9201878410439777,-0.8116022286251057,-0.8214248929108144,-0.33171779064579826,-0.8882250216484145,-0.8192540189985783,-1.1558589561869008,0.293348373566348,-0.07137415168669743,0.7540980564726688,0.2743223198326236,-0.35493754291793395,0.24137371773460484,-0.04369264079510629,-0.5592455508063013,0.6700181539027892,0.010721143867510387,0.34853176146405324,-1.0144726658916916,-0.5860343183133002,0.014857815211484245,-0.17827748906185586,0.6490640308553199,-0.22742904532389283,0.6142653957496089,-0.472725467643654,0.6200315996814624,0.1295778105947556,-0.5043808861899759,0.7798843290762312,-0.936312103542787,0.13753535059567248,0.9700573032061798,-0.32255770961284247,-0.3220179986343321,-0.46518796072584184,0.07993281185944309,0.44320016411887525,0.6905573996436839,0.26358924730828426,-0.8357487335606529,-0.4504788841194635,0.30754856983517387],[-0.39992042441283726,0.15016074651332625,-0.8764239025631719,0.9176743793677998,-0.02211411800509383,0.48033985998465256,-1.8228663350844374,0.7992467928826972,-0.7272730712519531,-0.7010125863908143,0.28196370369831114,-0.16938418884584802,-0.07079680418986134,-1.7135767168558467,0.1789313572753432,0.6418915190820697,0.5276266472513054,-0.04529416524955396,0.20635200378955154,0.35696518832687363,1.2972559313711107,-1.1366084471045172,-0.24510407597984313,1.0015366320268537,1.453464043336105,-0.40541710134396547,0.9002270637414415,-1.3339797138953542,1.2283302000508223,0.15896663005508752,0.6211132736620439,1.4231266958164495,-1.8162287288128693,-0.4747632128855686,-0.06276331019182238,-0.13182148458651097,0.30874557810697495,-0.18988613079901634,-0.21404557198874777,0.5489732854122122,1.0135770900626317,-0.8420862998246305,1.1155526081290015,0.1535201144399092,1.1812394924168177,-0.8504172176270882,-0.7701452435325573,-0.3009493177748763,-0.9816429428518991,-0.31467748222221087]]},{"matrix":[[-0.22877048669641076,0.6733447851303134,-0.7356991448283792,-0.17886773657223817,-1.3571149582660902,-0.13190731511129952,0.28324240091319575,1.170266591773161,0.36017737259782956,-0.9620361204064871,0.09419104374185283,-0.4769522320147653,0.020645640459200466,-0.5716763307203652,0.044657070923343714,0.1187631261203147,1.1083459798960074,0.7103526619230771,-0.886879984074744,-1.0313717447211224,-0.10630268899923324,-1.1056787821210634,1.5639604530084206,0.1716228943242784,0.6398378679191442,0.7192479554020604,-0.6704385696596578,-0.7094833472382304,-0.7017712276156907,-0.7336721675068991,0.4921292880687075,0.930891625199234,-0.04723466474599748,1.6739148155239156,-1.098872442273562,-1.0530057721427446,-0.45458777878197903,-0.7413068288869457,-1.4003506746232337,-0.973570514624323,0.7313775408392,1.4815259246970838,-0.6033569663105971,-0.5480791921530073,0.07070523659421463,1.3117683321408835,-0.5805360818022833,-0.8116274536267774,0.2519726190290962,1.2382860840550092],[-1.011370192239456,-0.30000562897423133,-0.4503589285890702,0.2881063624423658,0.6266451428891024,0.6269276703969457,