{"name":"Music Embeddings","description":"Trained to generate word embeddings for musical words","inputs":120,"outputs":120,"layers":[50],"weights":[{"matrix":[[-0.47314779412125807,0.8800549201377426,0.4352410226767137,0.7732236529427896,0.1059398148223672,-0.47881307233638704,0.17207103519991326,0.9608175794369953,0.6324581460969243,-0.09900613974437811,0.9764014944884909,0.7658358165528316,0.878291655302467,-0.011989246393841229,0.43554276855044644,-0.3380076090799301,-0.07065348054788864,-0.734496209128331,0.8487286045312901,0.6231257233751624,-0.094180115578785,-1.4812127753716753,-0.4359972803212781,-0.7020943832603777,-0.6982229527059947,-0.6940104771410693,-0.14304889833389564,0.8171275776517132,-0.524172738264899,-0.7587306771254413,0.3762003078212896,0.37999973099317025,-0.7669802339090055,-0.7091798543522925,-0.4585416817005551,-0.026258448076801118,-0.16021783153849276,0.36094040548210066,0.4572308127918276,-0.27963716710418307,0.7411520200274448,0.1558743181890484,0.6291029754568278,0.8092345795961324,-0.03426880425401096,-0.13572768787536565,-1.1163957732536602,-0.0317680686811097,1.0905367640658272,-0.3090840267724959,0.5895119656509659,0.9694796385104253,-0.15668941830407795,-0.998439005064572,-0.18258558977660694,0.25419281122304677,0.7725750572793693,-0.637666177559778,1.321582314558781,-0.7136213954061914,0.27221423163838293,1.0057810674700172,1.004849852807061,-0.03139441249343249,-0.291576149452692,0.34836978762922866,-0.4674190924260505,0.8257097894559442,-0.11343106599418809,0.4751051519943098,0.13864222249182653,-0.10372761584316036,0.82105433263254,-0.4947444314660841,-0.2937145416330508,-0.6203540463965115,-0.3983648403695417,0.7084174380442603,0.7694413596073698,-0.12790945722878913,-0.6646216359746678,0.02474257016129601,1.0995031150672838,-0.8324326400424307,-0.42697931102914793,-0.0932351503324084,-0.028884105677271107,0.03075249688510842,-0.5384807271197818,-0.7179977781610324,-0.7551725049592374,0.2833484433344724,0.4623041254878063,0.6015622915123954,0.1036142379644174,-0.00264317279169401,0.04750905539794167,0.4547627098331365,1.0529696045121684,-0.5156133105035308,-0.7864241396659699,-0.8195558731716626,0.014399337022197738,0.758839854062447,-0.19159606747475236,1.032521429916292,0.47835457988473584,0.76275061295326,0.5823972154439987,-0.5588340704511519,0.3188929444709485,0.024340508737331405,-0.5542983641589023,-0.19451673183711496,0.31249693190924355,0.20173103484890856,1.1313151051665344,1.122109564892443,-0.08262840699597523,0.2868158657574865],[-0.34399258229051555,-0.7936976101593205,-0.24242636173505472,0.5069605720752811,0.20252995417723763,-0.20257044923397774,-1.0972046622835845,-0.2886680840900395,-0.5392816347877286,0.04361388288993136,0.3548691913108749,-0.13240641424778166,-1.058061661822137,-0.5661539001036707,-0.9976611197349772,-0.3691431836575877,-0.8138451356714907,-0.35040271374989135,-0.1701629576563204,0.6153779850269462,-1.0254058995649216,0.41061521988849387,-0.4369428147416067,0.7201689311506124,0.032724931498527,0.5178959324704988,-0.7177034267432185,0.39324094175241997,-0.7464797029307639,0.4392595681598798,-0.14494346566818447,0.29777678213702174,-0.291193426172981,-1.1143799972608337,-0.9327469292916588,-0.32659708203222,-0.8917445928275185,0.8122612296807402,0.8761740619405803,0.41749259066026445,-0.5768940456894616,0.19799974691507005,-0.8499153764440546,0.7047934680022554,-0.7588031589354695,-0.2430514085287772,0.8364175959871385,-0.5555408983355328,0.7286158528268274,-0.1133109551014986,0.5943418789225429,0.4549580899560338,0.5963496582166133,0.6898740956353334,0.8254709977880198,-0.3808538035753131,-0.822544614705986,-0.3164344851529129,-0.18586255542906818,-0.1445273922452377,-0.8816721295285805,0.4590597824750529,-0.8956736259895082,-0.915609410014662,-0.8933259453420358,-0.2492939570420883,0.43850357439384524,0.05406289769562924,0.5850105764906183,-0.39999430173619055,0.2687744241580337,0.012185932584566296,0.6878015960726945,-1.1297639507259416,-0.8010275006244095,-0.024326869214692983,-0.359743756963295,-0.8220405199017202,-0.7062586531181441,0.56557876512022,-0.5610575327142968,-0.9764606241812607,0.09366429877224539,-0.7861868670228619,-1.102397190270972,0.8544767421944209,0.13416190328018396,0.8725752983403604,-1.0262663125320257,0.869765188903418,0.3299968513787816,-0.958780574860493,-0.9973646956986673,0.1892490691333255,-1.0950911278990911,-0.5949405759384713,-0.30942888590957807,0.17290621748726404,-0.46912612032086753,-0.019347234242153028,-0.48898736229303374,-0.09921315743076653,0.8979856544515249,-0.2739445059046578,-0.6048119977116359,0.4078248380125459,0.5673738790822235,0.036544813258381686,-0.04558910074473185,0.5766322580865783,-0.4110062635758319,-0.6287441733898583,0.21369513617687463,0.8144773908299728,0.7376642173623752,0.36935734174418233,-0.1264271027812781,0.63588870220618,-0.2435568443631423,-0.18088213857444152],[0.16474032158678792,-3.2757467643940528,-1.1561265569989767,0.16364447823636852,0.04776463808627879,0.2941814677126019,-3.9942331946454788,-0.19003545997258023,-0.00829619988409303,0.40053345953924097,-3.597269090529781,-0.6586546876322774,-0.6009276091747598,-0.5521459484782077,-0.4842248454794802,0.7450808762653682,0.7147415115312611,-0.4742288776509468,0.734756898334137,1.1294579002294545,-0.3958166169189454,-0.1419388558453734,1.2234528186062366,-0.07249277947447756,-0.678159804394362,1.5814126906533361,0.5387289977321458,-0.8126008104731407,-0.19126252746740519,-1.815635622143592,0.9922434194442424,0.1658325027137365,3.045002046085985,1.5394334332748538,0.33445330740300305,-0.6863774532542808,-0.9474553194763791,-1.5559458762823601,0.07272466153652346,-0.21116122039289661,0.3398240328105839,-1.9808913498067797,-0.6237574675965091,-0.6699791913545318,1.6323380697135654,-0.05552727496925123,1.2653073964279529,-0.03584588515248993,0.5088640262417634,-2.0126256609012745,2.535458256434755,5.368049333042131,-2.056628808442678,0.15899192775874135,-0.8143397551369976,2.5110293929339638,2.5479129527999276,-1.7430544260990188,-1.2319515630585531,-0.4169231956778063,3.3609081398402787,-5.331284656101355,2.6059499810897657,1.807567056411156,-0.9018192894933217,0.3591629340768567,2.5955765536881517,3.7749415200345844,2.3052126803774353,-1.374866629864836,0.5283729512004762,0.4107338161011163,4.223493368391908,2.514664357854379,1.8358686138224343,0.010845748268105007,-0.9241436558252772,0.5500057712805781,1.0629738535876472,1.5650603765707998,1.6193695295955606,-1.5125295639333494,0.3479470506024196,0.3627760675881549,-0.763613688185248,0.5750451757923872,-0.9975304085932759,1.4070251618628538,-0.36999192638626,-0.5925209364114581,-1.4515097331923803,0.16398486736500267,-0.26280720158904164,0.24523031767052347,-0.9158853435310884,-0.390300647574459,-0.6668928890719614,-0.7122802046330805,-0.2791440601898601,-1.1628454998734905,0.7846246314122332,-1.0844732276798996,-0.3200380934946426,-1.0792088008177823,-0.70585452210738,-0.5505208647992237,0.4378466286513982,-0.080756545987802,-0.4273116570187989,-0.3553991638868435,0.8143914802173977,0.8090758644348983,0.3498841192404715,0.541550881394103,0.35849010210395776,0.052276683746695196,-0.882973404886705,-0.4268494950403482,0.6651192495105858,-0.034471969678501344],[0.012232791469074737,-0.3842185559503333,0.2308969355616016,0.5330680664956969,-0.0320632480345292,1.2696437900479953,0.508741320152175,-0.2018887812206055,-0.5197501564388514,0.9519125917580821,-1.1927556178177396,0.31081218377075726,0.20352870381820706,-0.12492475596591233,-0.3450306487600494,-0.05990007738510167,1.1971410992907656,0.39812565027935953,1.2630363556034419,2.83945250238546,1.1330690048672554,1.8530828870857494,0.4319476109362783,-0.38535686527196744,0.5904090091171522,-0.27269951892681554,0.6482556903986398,-2.8918705181737083,-0.7429395353312719,-2.3272930645281846,-2.5964341411889205,0.28939143122344846,-0.9237549868390544,2.7892850707467436,2.242580111595336,1.937759751863301,-2.0031151534216654,0.6982087549732461,-0.5242834531595821,-1.4560405480319465,-4.100313400960913,-1.1438993150519459,-1.0877872994941384,-2.2125588793728124,2.0270639315447956,-0.03152538155958355,1.1364750363863363,-2.257597769513091,0.45935151781414707,2.737994206010976,-2.2904902472075186,3.5446532909531774,0.9416049040961677,-0.38052345109791075,1.0938587470709213,2.0887609319703526,-2.304158025705332,-1.1609698993577549,1.5527784384324308,0.22648882680650972,-3.704110189945044,2.008113261675563,-1.2326516691658431,2.343552252592162,-3.0096752873732298,-2.950259792764472,2.3145555913730056,1.9251977489004855,2.3207981889104565,0.5315001412068859,1.9545157475475141,0.7295441420929663,-0.25804404999874947,-0.4429812874615962,2.001323970483116,0.3814973145656325,-3.909628148175371,-2.7690559697366757,0.486028599073954,1.1153321844544988,-3.0059196893251525,0.41219069001366904,0.3740536674017404,-2.626251584890552,0.5032519066000266,0.7570779898802397,0.26850524268792975,2.3646363287614047,-1.2365657239170444,-0.7734472210305887,1.2774446843348166,0.20910420848008024,-0.6324573331454039,0.49315455770938915,0.294379955162533,0.14436599513792747,-0.727542542403851,-0.017081604786725303,-0.0760487491396715,0.39724054845582424,-0.30229395009042903,0.8089365020891054,-0.22821836430774145,0.6064748202649691,-0.2741035284627076,0.05287478410345599,-0.18117995905549533,0.7176786674189174,-0.7640074932776667,0.4477690817591157,1.1032577263793515,0.667059243287014,0.32614488491484217,-0.20763887257381786,0.5776674183562797,0.13562488370254006,0.6525239647912991,-0.04515060549043966,-0.7812352824783338,-0.5619564940374863],[-0.8170873418420602,-1.2063876958938777,0.9276344198713128,0.03187616342191252,0.474498303370144,-0.9645300456575711,-1.5785773829137735,-0.17185584273388488,-0.9426994874708067,0.11162120914537164,-0.07501060174628575,0.59006136565907,0.1960397863401633,-0.6883640923305688,0.3954391864720842,0.9313492447382884,2.7331641315594077,-0.5766350635034542,3.1297641294466545,-0.9839942121185168,1.3179173452543391,-2.608481960881528,1.3148952460732575,0.28286680490493,0.17548459711960754,0.06333191536543215,-0.6927382931329539,0.2767911225573055,-1.401614110815092,-0.46148704782451244,-0.015825065744421378,2.6704196808700407,0.48061692789619803,-0.2800155631790081,0.817105856699094,-0.47556696979454527,0.48347894989419404,-1.0732773852469661,-0.6079859680162052,1.7059025266448027,-1.959134247409039,-0.6053798352452305,-1.12368662785249,-2.0807173680305833,-0.11039938509014595,-2.2624401312393196,0.5137629561960743,-2.20802674085834,-1.854133475108134,0.22502030522730473,1.4807632484953859,1.8186605676509744,-0.7899830609654206,1.3969771667918887,-1.294984065424743,-0.7729859129554592,-2.5734246399253884,0.34193141484692896,1.9961269489313513,-0.2769231325355907,-1.1147383434919869,1.5450819496527672,1.2317657840754992,-0.7919955119483537,0.1369725319283202,2.017317774382671,-0.17279828037592163,-0.07829227920908002,-0.3504783440141522,0.2914822549308593,-0.8585102543009321,0.9618628453826624,1.64725699161584,1.7201441400570425,3.8169785200799304,0.4670741495011459,-0.6608120273998045,0.8874146302719707,-0.7881249925779517,-0.6820372611861145,-2.1804474734842993,0.4435675758166674,-1.8031800316740803,0.2907324005728682,0.32941327537686116,1.1940862818846931,0.9448582991989761,2.1805946619520955,-2.3957692333177314,1.214952182642527,-0.8714421200488013,0.7731254397344697,-2.209024908342499,-0.23761404951170678,0.09024373400551748,-0.8953387988988287,0.9563720534966252,-0.1401827346949251,-0.02990740987700857,0.6393745023164225,-0.6056346576648594,0.1999303652023416,-0.5871160543349604,0.7524433214081326,-0.21756829053723795,0.4404131504230202,-0.4528411087196499,0.19656836941756367,0.6330738783128499,-0.2707123357473843,-0.5043666925103805,0.8305493987990505,0.20438471001785485,0.9294214491320408,-0.557243093792065,-0.7986675576067149,0.8527660716209539,0.5650724369322472,-0.6344663212283447,0.5562161235033892],[-0.16110231700577377,-0.30997380432127886,1.3865706436760181,0.544501334969614,-0.21197485181867787,0.5491120176575955,-0.11043354206063674,1.2787003554368863,-0.09530917658703406,-0.25078814134200067,-0.9809372357934089,0.11806933873241246,-0.4488132772244561,-0.8340499750298316,-0.6364401722911335,1.4505241579604147,-0.7891080954400465,-0.5474803005383442,-3.777712197401627,0.2137528636710775,-2.805989529758923,0.36074272039367283,-1.4407972554054878,0.7769549714261108,-1.7241423263022178,-0.8608957219438673,-1.279098966444595,5.907188530400685,2.072892039774313,-1.6666787583760139,-3.211289233883947,1.5407814851782933,-0.1557861449857142,1.8575473238266167,1.1696563963655264,0.5344622268397284,1.4406319477611231,-2.022011388148599,-0.9909913230416516,0.8336656409634038,1.2659217634627247,-2.5327952081595257,-6.534950039910206,-4.488234203995919,-1.541091514972323,0.7970423366425878,2.9588007887432846,0.4304771165603497,-0.021687133025772777,0.24214073977435385,-0.2879267392450421,2.087930223031482,2.2178528744420185,3.000622221500645,-2.017751291751572,-1.4919107544586638,0.04352508110780369,2.7351783042193625,-2.087114706882436,-0.9621549696335628,-0.8233370684388389,-0.3027423024801919,0.5618935504545581,-2.6058330390767033,-1.366979888949453,1.1434640975303945,-0.6173990793890394,-0.5628399521411275,-0.8570393574390189,0.25202990249120355,0.32151004692526103,1.9408562610999096,1.2555282970701918,1.8614133526587733,-3.228169175813807,-1.6981082552300688,-2.075278404613159,-0.1139357072912447,2.7043786324074883,-0.6249151050187309,0.67048494691404,-0.6330421154482475,-3.318350520116697,1.3166194962898004,0.536811457144887,1.7719907532124488,1.9216649199516385,-0.09986209145993716,-3.630949885934525,1.4974038896784607,1.7105998206318753,3.170746390940935,0.19629159483807135,0.35031003707678643,-0.0057123094382241935,-0.2621893020446031,0.5641033168206817,0.636940509018985,1.105874734833328,-0.49901954971361456,0.9874646670177629,-0.36696391301304354,-0.03193448463044292,0.9602662280096448,0.510586653091313,0.0504460334819912,0.022570950880214775,-0.3477600176388628,1.2468839921201913,1.3331234635823392,-0.2383452910014441,1.4445199702709948,0.015792315056238557,0.005059056586852179,1.4106608148625828,1.281413540179141,0.6183911231578543,0.695264763143314,0.21763760180742958,0.4076067592894108],[0.36496693103010464,0.9812490786473907,0.8225518497542367,0.2884632317378982,-0.053884091877005685,-0.17246864108396903,1.3277722949124433,-0.44550945984363005,0.8302700404918323,-0.2440867151880564,1.179768360751926,-0.13703816159865026,-0.1013783627260059,0.3438081512029603,-0.3121890922137311,0.3616731047205089,2.623043247812231,0.11592467953067347,1.1655667247525894,-1.7076370272110155,-0.4753805702045762,-0.9228340012665385,-0.4350338667586497,-0.10276425207896067,0.6485607749985153,-1.441817908054318,-1.770071959144357,2.38206586934587,-0.6729441156518196,-3.826852135276995,1.1509046780807652,1.2740397808344577,2.1892653558339963,-1.3890802652133603,0.6369666862181109,-0.42895059382545137,-2.0877440537955487,3.9084575943689726,-2.6341428987070383,-0.8359793434882692,-0.7760337744880779,-0.6213517368206921,0.37683819049102546,-1.5005722962033883,0.4936573250889047,-1.6176599733388068,0.12329117790689934,-2.414086919439905,-0.9491188787100622,1.4881700431208327,0.6848936234203743,2.0303128114092623,-0.6425622355796866,-0.6611952750123671,-1.172411666601154,0.813544420297643,-0.1612097083680988,-0.9197092749063174,0.311548252110494,-0.38694061277962893,-1.04808596523646,1.04491749632313,-1.2308300488360575,0.02867458956606264,-2.8837861603844277,0.8623778745214893,-3.3392746601906684,-1.4163752738432842,0.23772130250074563,-1.4698286705681252,0.8977845294455782,-1.1266616874608648,1.0608301823922874,0.7567655096080445,0.9076763744639935,-1.0799339831924621,0.7704955048554835,-0.9664040575178965,0.41399064823345644,-0.9725038639783967,0.5850047317137267,1.129546172652368,-1.2291212886737928,-1.4716916337376797,1.540149664437728,-0.31472488620827505,-0.3258303176895271,-0.8619130213295051,-1.2236267512298051,-0.0731767190588616,-0.3644881430406652,0.5315116365282091,-0.7386639055868506,0.8209347928235269,0.934951550441755,-0.7341873195764718,-0.03718463547507819,0.9345406521271892,0.8236751568875419,0.5704025667208189,0.7831968916224005,0.3972460819161298,-0.07988575392069265,0.9183394785103937,0.4896059453754481,-0.16856132558227127,-0.7631987913085664,-0.20021951540918556,-0.3057140803798958,0.617302084879744,-0.22214488724975942,0.8407027325088191,-0.35800881622361286,0.11990928881739249,-0.18092218522172118,0.36999403003249404,0.017367531874979622,0.21164691952128656,-0.19649884256160008,0.4271352538858844],[-0.7138562651695174,0.7993471371339963,-0.26565796420240273,-0.25338467648111296,0.2253082686608506,-1.0569016825837672,-0.28056393560353354,-0.13678888620346288,-0.27655162792711774,0.6654688769457199,0.3636995349728941,-0.26148667326062225,0.9375444795020375,-0.9618558849886688,-0.7082265868559793,-0.05029376816230224,-1.106474406163708,1.5188217485981397,1.0009818486554287,-0.0044153388235569566,0.19389054018798182,0.7557635628559942,0.7191412349869358,-0.12061840327997095,0.30029373107384894,3.366766185532276,-2.115172994225575,0.6212621588574502,0.7605470613999229,0.3263552463993374,-2.4678915476055088,0.19517098538142888,-1.2348585274360997,0.7786054331901665,-0.7729906655409565,0.7454619872486584,-0.5683060164054319,-0.1571654386305736,-1.426751657435719,-1.1115723166421292,-0.36117159895807893,2.268411244918312,0.33428425199943723,0.7444569399857388,0.36747759931287644,0.06453948473818524,-1.9617812990577876,-0.5531651424056544,-0.7564431527354933,0.41051209624003326,0.7989579865311733,-1.388431182571102,4.0258309369259795,-2.4309373445344464,-1.2419347986330265,-0.26644370457252026,0.32208485238683426,-1.3064964292111505,0.8168687838644401,1.9014239760062457,2.1660628135801177,3.874985425751778,3.82296344138041,-3.196779630518101,2.531977669686345,1.3727298460925956,-0.6305197850693705,-1.2418586828382434,-1.420342194664396,-1.1197395757729147,-2.240302453616255,1.2523363255193642,-1.3345593227706785,3.7138261553253598,0.06035938295131384,-3.156038817303091,0.0897992545074049,-0.6482951574331312,0.4540485117365808,2.402076239738912,0.34958796143336157,-1.6116437499008842,1.8416817750739898,0.6505614258902394,0.7001242729465489,-0.5458065796927718,-0.28573600351301753,1.1113174293474164,-2.0849377793379986,0.6233298728199461,-0.04440225203060736,0.21646965844920024,1.658395268398602,-1.1892447330402023,0.9268546005459429,-0.30523616127008024,-1.9113573090902407,0.3116120157956266,-0.5127856756283334,0.18956175406867712,-0.440018777887377,0.5074102260408049,-0.8372109825460988,-0.82266707453707,0.38288135277661706,0.6089390911485898,0.7320776408791331,0.016196043942283342,0.7313447047304381,-0.4623867353494605,-0.4133768188117246,-0.019118333572093554,0.17817898789301748,0.1745286485729214,-0.07997799817197188,0.7366615225357868,-0.6522205385821972,-0.13659261069190423,0.3858878387745893,-0.8120915359096429],[-0.9663013919839335,-0.9814294330091758,-0.5203228845125935,-0.2953529185695204,-0.39717852539478604,0.48792578880911075,0.06261472670183629,0.7578684107207335,0.3669759427992577,0.9660655216763647,0.053289328813390664,0.07121479258150668,-0.1076374773833124,-0.08299950699693455,-0.8988712697412563,-0.3303712423751274,-0.11945959306969753,0.24860481905993959,0.3677495145341538,-0.7803786088658272,-0.3180756925270896,-0.3484685636920442,-0.48034685346689715,-0.4697608634853513,0.49219872272551957,0.8276897358562763,-0.356462417514372,-0.187394515213153,-0.4275566366730919,0.5871012309699901,-0.12450290990088023,-0.1528664551576394,-0.707581079003574,0.4229653113297456,0.7419238674433993,0.11661405402798182,-1.0773851091233637,0.01346390881387166,-0.7920994769409218,0.9356727316374086,0.17716713597919911,-0.4988453946616814,-0.6224085451053581,-0.07116400317497071,0.9155223090093186,0.7272988786517508,-0.6402184987964612,0.6538731401205845,0.07855325674222514,-0.9693118457385791,0.5399961785243389,-0.9056655150013501,-0.6278252823355606,0.12188572008942022,0.5820294537507384,-0.6848686485075773,-0.8638968151001859,0.9917044482536228,-0.5073898158777158,0.47360441358553196,0.5790412159563684,0.6837838646334805,-0.38486178305036406,0.6615077115173149,-0.8988805990496959,-0.7204357262314994,0.1041270251897903,0.3317844678178328,0.00576600198562145,-0.358487939758338,-0.5132518080708564,-0.6088174402956652,-0.7506379863074455,0.644618966545689,0.037327331607036454,0.9771034503683124,-0.08047889081656179,-0.004016931027629744,-0.5473083999549072,-0.5368998873068606,-0.738763008279863,-0.399344808863868,0.2893071519060119,-0.5353873668070123,0.38774192488978587,-0.9621884754356735,-0.7808968918366938,-0.6768338119751072,0.9677248368847535,0.11182245376959069,-0.5153852027596738,0.6327024194323012,-1.0325395487406124,-0.1156275511440483,0.576803709632777,-0.7909232635296469,0.5354982253483377,0.7187065589370648,0.6043638553920357,-0.9943816492928547,-0.3394757496600175,-0.07101424297490136,-0.8050463695255322,-0.9652006233830127,-0.060327461987141104,-0.811337067242169,0.8396177495012463,-0.5221100881222852,-0.8499936846415178,-0.1849125213913877,-0.7603706486221443,-0.29533868014984177,-0.2459379725499432,0.1774354007475013,-0.6737847626487671,-0.9205538871218587,-0.6501867286235624,0.7449793321464099,-0.05319438319083511,0.19183530316057473],[0.010707480684301877,-0.40235238327467787,-0.7700468070443052,0.9074781690694445,0.45926100277746223,0.37023953965191797,-0.05735864803736337,0.7081506123755938,0.5560903604850005,-0.28304433735777684,0.01619213091633915,-0.3684542218971186,0.7103858722978472,-0.30777497023532413,-1.2363670589902143,0.12013488934778449,0.9201935729808373,0.4578040383568904,0.36959297537216534,-0.44551436427773927,0.5265631612951924,-0.7758222032093925,1.284101018604932,-0.7166676898551154,-0.22898179391487225,-1.1720617253016727,-0.8485762831468819,1.1238455560104834,1.6894438715286118,-0.605179338856655,-0.7474931933521793,-1.8264919665862702,-0.8976119717196699,-0.5377299632819851,0.3499952725442576,-0.1529473684051585,-1.197951966940404,0.45643043305575304,-0.17769806169747365,1.9194586130551228,-1.0987845767962643,-0.6197764804180337,-0.15898715346432252,-2.0596067972463117,-0.5524662570164799,0.20098926236524942,0.450005056054724,0.3218309107414084,0.08120479901659838,-0.5531427324794493,-0.6382110015686261,-1.1826104098341952,1.1452738349704286,0.6684132220288448,1.1679454725543086,0.7548686423800999,-0.8414149021393427,1.053562636070572,-0.6434905641716506,0.4816428019801046,-0.6828499362399636,0.8127453353091963,-0.5221412653899773,1.5236954105565275,-0.3017653597657137,-0.4605705541420387,-0.14254409455027453,0.9886571106811166,-0.7446084102912099,-0.11770398096983524,-0.806220782852966,-0.7566305692733659,-0.4060606211031618,0.04436077806251112,0.37257651089117116,-0.8303947865231739,0.8237927250203362,-0.18002105242563565,-0.4496941458929253,0.8130928972413113,-0.3194248786675304,-0.6167302841270388,-0.3463241895001286,-1.661520040011258,-0.714123106542236,-0.38780729138268055,-0.10809335259598972,0.39893819287734866,-0.4000245450579811,-0.24211234112902824,0.7204147861891804,-0.13699397455443688,-0.40421835602563566,0.21367598544105873,-0.40475281087740267,0.14614399435462347,-0.01982339159484453,0.005188939482170638,1.0733384085701214,-0.514723726364562,-0.6024083574031749,0.5367229886747149,-0.7079993758210203,0.792581987050915,-0.6020542697617617,0.33432910529064247,1.0243311810377587,-0.7939053148071025,0.2673011426732173,0.07588017657388307,0.0013539474105603848,-0.45465409555474684,-0.736279747333606,0.7482137836624558,-0.8035120515004273,1.0310683261861686,-0.2319185193166534,0.30103673787002444,0.9153274094982242,0.9236650289446906],[-0.9128029280274026,-0.24420314959501263,0.3095792813668819,0.5270750246422475,-0.5976844307514395,-0.5639113943144974,0.11032962720463867,0.6433790254273151,-0.8449370134431426,0.7130746921576828,0.1778311094913948,0.921981364012697,0.4816996689473309,0.21263882926975658,-0.5517071944850183,-0.31590726368244887,0.5784567978996868,0.5990749980670276,-0.9286123779214259,0.483498579198393,0.6459981287101291,-0.30231654133274394,0.9699360821714047,0.11656911193150056,-0.2820380851547127,0.4949765803843836,0.3523486424805967,-0.8552320539760088,0.15320854790071203,1.0229152695347679,-0.013875795397727726,1.0784920331064334,0.21254987912746706,-0.16649835864169618,0.889788165794734,-0.1749964158455126,0.9843091127221654,-0.7555574387076618,-0.27803925326930634,-0.2851227576851375,-0.007048560952046388,0.9529313473766373,0.8673859800877989,-0.9279875725546752,-0.57179518526804,0.7806005477147491,0.8670199341397905,0.8849697016097624,0.05534159798618786,0.7448213371616893,0.8203244552688348,-0.8537375621906308,-0.28290848030005195,-0.608190803721967,0.5697577321104472,0.47820682189718616,-0.009113457016983227,-0.36250945264475676,0.1152692738239416,0.5053921231715096,-0.6978939755862915,-0.13754634744530117,0.11766726491433098,0.17603690373403127,-0.06349003621873595,-0.9040794035704877,0.1482020764661837,0.2614793444007852,0.5743447953511763,-0.5488541670302103,0.20111138072726453,-0.14685893178021917,-0.5343533007455535,0.0313896155851874,0.8800297076718163,-0.12313874545800432,-0.6040405742064436,0.8994483227234296,0.14234433338377525,-0.5054391915635075,-0.074991145001348,-0.8289075886601612,-0.03922877596606533,0.6051917835777807,0.3894874233785459,-0.4188701388325353,0.032220257312101194,-0.8816447059567958,0.21464062885097318,-0.7026233501278359,0.9407058278734864,0.9670047003289391,0.9639857957575311,0.4748863295444434,-0.8459471269823038,0.07691261486509014,-0.09820817978394607,-0.20153970822969863,-0.5926972265735728,0.5842597826492149,0.842981848599504,-0.057580041646647956,0.4095963511909831,-0.6704497237253009,0.9183615640248544,0.43777735744886553,0.8407498805464424,-0.2872106007855156,0.38710306243034426,0.531093801012329,0.1677492933969933,0.5564593654878816,-0.8655657198026319,0.13321301424054866,-0.8347798051713773,0.21098384358440836,-0.8556860249870102,-0.058258485417968034,0.8933572575916842,-0.8890209312604587],[-0.08283228118371268,0.8655332524123309,-0.8127135706107496,-0.10351856816564313,0.3537391855659416,-0.01840082087412747,1.0100103203091386,0.6718286629475103,-1.0165638113399607,0.012859684047291743,-0.6993513400695082,0.6765257632776664,0.10257619965375077,0.1356130864286186,-0.42442011313976397,-0.4592878222697608,0.29814939403619395,0.17984619935675505,0.31190096958153196,-0.44468296012533887,-1.4681279176641011,1.2150227863491856,-3.0658830721166677,-0.463056591015285,-0.01363928002964225,1.5587248331355092,-1.9340454790320667,1.460633407061685,0.2235200923529131,-0.5575234457155176,0.8766470163319019,0.5239210783441745,2.0133240529418432,3.2707603954191087,0.37854763023470434,0.28175152074794346,1.0632069354131672,0.4179598456449105,1.5223504644819281,0.6023684767571292,-0.39642406194838514,3.065164773724637,-0.8255151180669646,-2.0964260928570164,-0.08970020092504245,-0.6317659441788164,-0.8122904774509402,-1.601707795319363,-0.5246100613781454,2.064927369313304,-1.511045883112235,-0.2284296691888178,-0.519961537854982,0.26027071466813717,0.5917664249214776,2.4666604657801976,2.289426689747865,-1.8217467354794703,-0.45859829319531326,1.4187488330394582,-0.34145828586283816,1.191987047563143,0.07509927849515993,2.956090611311224,-2.2785769357863814,-0.5437534591623604,-0.22159944471741388,1.3014406083305579,2.70489135005286,-2.0332586366632075,0.819841401740725,-0.451588831413945,-1.358143942355612,1.1267722963073368,1.9389755278329877,2.33994994849315,-0.8197069964060852,0.4952961165865915,-0.27747710049745405,0.05520815028725424,-0.25138312296176857,1.0495219744534405,-0.09913155035387942,-0.1579611070630464,1.3974637523725422,-0.42366654700408635,-1.569337370727134,0.48908382888719243,-1.1789132233551247,-0.6037263576364907,-0.8016392831254896,-1.3358937825730073,-0.24079574386725652,-0.7746772548224746,-1.2648987404911025,0.6724682777358237,-0.6063977581231634,-0.6650566595887,-0.7953155743101459,0.026754106127268647,-0.3411652974413783,-0.9206681306295597,-0.16296169649036515,-0.8055436207608602,-1.058296438957981,-0.03884063380022466,0.2674767542872138,0.20189334081952195,-0.12326523144213969,0.026329855667885677,0.017326542843783585,-0.14630155685081014,-0.47323511321978146,-0.6863685724519641,0.28311331087509256,-0.7219821266570023,-0.017291110524450252,0.5980327567399142,-0.6033655347165026,-0.6050718164716828],[-0.6751283568800628,-0.7102390347581616,-0.7582302467551454,-1.1800601630551042,-0.10300660366132018,0.1675205071361828,1.194040693405114,0.036296804701253745,-0.7206725955726574,-0.40898515804353097,0.13443142976292244,0.3816490648355903,0.13948152978889766,1.3301641673465927,0.3229496965102695,-0.3907278813200236,1.2884662009384296,0.25665207049774974,1.2690082917138128,3.214782584604498,2.5274033368582156,1.2890170358015043,1.5936558774861207,-1.3078909724776295,-2.482723420016962,1.1068246563972457,-1.6224089300256959,2.2925739590824947,2.1601467843620306,0.04401426287558977,-0.03888196258668448,-0.8213169838834757,-3.598675393483559,3.567580691615249,-0.14484785199580066,-1.6247997132864773,-0.5633681627132248,-1.2390714147269657,-0.9150865117500608,-0.08157978506206483,1.0556880100134478,-0.451750168073525,1.9991461780548163,0.6101473498390724,-0.6404974692131099,3.2947874181507006,-0.035830579164666955,1.9897237370644645,-0.5659897052530989,0.2023498670115459,0.766653273056207,-3.2712827555273636,1.0121035915538588,1.1818255426020887,3.8615833115272853,0.9793340559060035,2.1977163435144527,2.7672737136734087,1.1524404259113363,0.4919710769539449,-1.5998690233287212,1.071525405315257,0.4888555648121311,0.3469735432709629,1.6837850800779512,1.7745038012480503,3.3025489433538584,3.0595801878987645,1.5257586086230215,-4.164295940917731,-2.317022527575291,-2.404451732139992,-0.2733181190855572,-1.219318820870254,0.7245228920984529,0.5852750153289847,-1.786798043483479,-2.141294783279061,2.1742153032937246,-0.01482101999929047,0.9250715157897441,0.3978662755950284,-1.2259614887740153,0.7453635035462871,0.8330282018374171,-1.2744878509256796,0.08863565319840679,0.11733902983898724,-1.68406900557948,-1.193065837921595,-1.2753482014640445,0.8310598709480438,1.5575453373994546,-1.3403028297107318,-1.1929071390419348,1.1811927555846853,-0.8053132236633626,-0.32229512759800866,-0.012430285848108425,-0.4953127775996305,0.3359547695737943,-0.9760786860685604,-1.5273984151441304,0.2787883297581961,-0.7828762311156137,-1.4139202163329867,-0.95747028151577,0.13561273530802428,0.35579730534073534,-0.8541531588219462,-0.7329558271356311,-0.5678049902622078,-0.7867372312358869,-1.359136096648406,-0.9083302003989578,-0.7065350737373963,0.2853195059704033,-0.5981654310659736,-0.5166485454141532,-1.5284085130192326],[-0.9189052125473489,0.18561556127616105,0.4974123445033826,-1.1576472086972782,-0.04369929950919783,-0.5244716602693197,-0.1551913823561443,0.4391670789849068,0.5605501656296747,0.00569189477433891,0.2597215849680612,0.7018764392596573,-0.8044011823181634,-0.02436133317393405,-0.7505985230424159,-0.942343423307703,-0.34774689089111493,-1.0721395955006605,0.021789143108173863,0.5768958426390245,-0.48401266271182647,0.5812511362872261,-0.6263873730686609,-0.25792493774259373,-1.1301301296053734,-0.8175244668909624,0.26313355540706135,-0.35130235765582707,0.11048410314330381,-0.5749920692052995,0.12475132857466374,0.5981844228467984,-0.3081711358633489,0.6946945148210542,-0.7942030731698703,0.5354886681000289,-1.1071560048580722,-0.8444039819006243,0.7297430768934955,0.05095803896682942,-0.5796944905761221,-0.5637352247566518,0.8010651246953914,-0.08664811676405156,-0.9317081350123194,-0.9788525276897099,-1.0788591614339416,-0.6347967801995235,0.37963367213595667,0.3206978507728624,-0.11612642301780202,-1.1020560120399459,-0.9438349266305875,-0.34088262676756736,0.5842040808532649,0.4069746279632395,-1.0912596586691992,-0.781158310392285,-0.43402860729563086,-0.17342316358615284,0.281129574403112,-0.3821545564640555,-0.09725453105418864,-0.10216580702726005,0.34249134968585465,-0.9484800334012514,0.5866783749909427,0.614638953693274,0.4431398975057584,0.5355666143408756,0.22653074713184435,-0.7679508904357599,-0.5500314927949512,-0.04070316918245092,0.2298953548979665,-0.10101879776254004,0.06333840496138385,-0.293381981795211,-0.2377678350701467,0.5025059434603895,0.5192545931330665,0.7357957709771927,0.6430010702633945,0.3245298469769324,-0.07637003120806267,0.11091638034288986,0.2336829224142307,0.12377637016647267,-0.3672574778093406,-0.7546327282072922,-1.0565033395436225,-0.7654918702374022,-0.1983927255607369,0.5110051375258019,0.40383585990127163,0.25592270466961786,-0.7993056344666771,-0.17103480575553323,0.6039316955558272,-0.8198989269683179,-0.20411351176882003,-1.03928922299831,-0.33337595264125264,0.20286961752343372,-0.6780448599752031,0.07793671558936482,-0.304669485828433,-0.9508094868412427,0.5679719320421694,0.12957431399438432,-0.5212524060488115,-1.107662576740796,-0.5434428106244342,0.5073609100382439,-0.972869419020649,0.7779035680280186,-0.4717738441479481,-0.25056772300319297,0.21613540255333077,-0.16279303727220887],[0.07500538130693672,-0.9024074580281487,0.21065442986244357,-0.4538533648727724,0.562670183631324,-0.8571263145825454,0.15761833977563794,0.5550328026775128,0.38911398560056654,-0.23332887751089462,-1.2215484652359756,-0.6219076080768118,-1.2676184569691762,-1.1660261570957358,0.9957976076080759,0.6937619272815367,-1.3583574856043503,-0.49521137216851746,0.8162657860986353,-0.5970369313702413,1.7657785031339126,1.2856045841838417,-0.7166478786171924,0.3090845212907447,0.08382875099007271,-0.5347537519090242,-0.8048785826761904,-2.029375666856795,-1.5175081015419434,-3.917350971493275,2.387035930987506,2.0719829666417557,1.0045658965479116,0.806558463152175,0.7318456392754327,0.9548874566279123,-1.155594515450699,2.4185601779704595,0.24970354519399923,1.7141826775114306,-0.4264492735228604,0.2552570593836872,1.4894340439988396,-1.3665055011753722,3.2808870126528547,-3.014003291862007,-0.44677287187353043,0.5529992630097946,0.9758702910634696,1.570794984115767,-1.321981355330913,2.4888290129171526,0.7107663530942864,-0.3162950848879368,-2.969414619304525,1.1719070182791338,0.8182355907394077,-2.8004715715054243,3.646739959893004,3.12339557402608,-0.45604152306288825,-1.4853260548808285,1.066371925023154,4.301656556897966,-2.447061316276862,-1.669862558296031,-1.3689398196262303,0.04630970362970314,0.5314211342477082,-0.09056009788349087,4.160960458367791,2.610989738206643,-2.3457252417947023,-2.7264289851395764,2.9113572747977305,2.5318560851308867,-0.8617151586918578,0.5083946517158568,-1.7161915953110862,-3.652312022633752,-1.0870186353407083,1.743376947029394,-0.33427829445800145,1.4168778578552126,2.1599470711579793,-0.4860773396771895,0.6643191508354236,0.9825335095603509,2.006989785354318,0.5839530023882142,0.32449581989966797,0.6091901028453172,-1.2694268736437728,-0.49713139503990283,-0.5575991131571303,0.40334349364631494,-2.230472664408681,-0.06944321105039168,0.07425305336897593,-0.4413243347232485,0.647816246224435,-0.6306371391775536,0.2628921388936858,-0.7667326155309024,-0.8213471779969281,-0.4414759228031677,0.6559007628463538,0.18212037131139022,-0.8086424546709587,0.04604469117059224,-0.45327808582771445,-0.6077871914337085,-1.1076140245964883,0.2460616639024565,-0.9655685926571091,-0.4702110349521652,0.8340566140477681,0.6910792674043684,-0.41204460525307696,-1.044664467256966],[-0.4781710137348044,0.1569457447212895,0.8222664639631158,-0.42170220576680184,1.0971559853281116,0.7324039875127505,0.22758216458414274,-0.8163615280335005,0.17936329786158198,0.311571775712715,0.38844778469969854,-0.1986799300140574,1.705083290892703,-0.35263219035102233,2.8478257340016513,0.19253538563450165,-1.2669658031172986,-0.2406425383322681,-1.9475252795783315,1.0522247345980345,0.6664666341427218,-2.125235642676724,-0.42477346292251467,-0.5415625807564094,-1.4382837219541011,0.0038217293313091063,0.17826322228192928,-2.179167358156183,-0.4674196776854632,0.1447340950284556,-2.7097317108251286,2.28267668139089,-3.164904038929383,0.9756742103951804,1.8345944040445916,2.916091920988436,-1.1266849497174036,-0.2065160210678801,-0.7364095233815844,-1.6430154651718982,-2.2934592440192123,-1.8340189734950934,1.157925714052861,-1.698039151042376,0.7016090785491411,-1.3810078073080374,0.6676548144266109,-4.549139230091295,-5.637001105547187,1.8507420739560354,-0.6719450620072178,-0.6737652909155595,2.7881416058171937,2.554884862274811,1.052046072821576,-1.2749151863174581,-1.016424270445103,-2.131744260323177,-1.889149557596677,0.3231738665792763,0.6531318412711693,-1.3803156447671763,-0.3664390338266865,-0.8878228616273722,1.0651318391654743,-3.173369857869457,-0.18308817582702747,2.3988427393158775,-0.585136133849704,1.707296139357212,2.075400853647359,-3.265892809914732,1.2539829902408963,0.7138790500654139,-0.6639890521229775,-1.0822477650143312,2.8717744583066875,-0.045309063245230194,-0.9068914183327011,0.5744981104668311,0.2195224736184794,1.4347860324406716,-1.4570472846500562,1.0468041595319435,3.23387191660211,-0.0850892959307981,1.2204304304232174,3.456950468832354,-0.44303247899029824,-0.7012314927752433,1.091102928728515,0.3533171978083752,-0.1620959405421946,0.32946598370173397,1.212491405107981,-1.8272055510210266,0.6789285572158964,0.38009267284829296,0.39780322852136474,0.43716545164576903,0.09231207052083722,-1.253537436622531,0.10358764341645367,-0.8157306549602868,-0.29087557242970696,-0.4853441578585941,-0.5434750799964901,1.1285862975863263,0.47760308374679394,-0.7009967549389732,0.031618300903910206,-0.22056932897254058,1.0578275504213484,1.0861622166480782,0.9064394958293905,-0.09141761181478301,0.7311133285378982,-0.7754059429033299,-0.82278396276207,-0.7012811641090307],[0.16631596731770426,1.141074942017138,0.1104933001656716,0.4299873062041841,0.7213145597051435,-0.4390700168060335,-0.24850165210453226,-1.1843936869540912,-0.49027882287327174,-0.9369359107668275,0.8971991122480633,-0.2155589166357451,-0.8206136303685408,-2.499561030449175,0.7014866187437184,-0.5688896254279613,-1.307667018843765,0.966173445349623,-2.9681475208171215,-1.2651820868202535,-1.1679290787469403,-1.7624495438619934,0.6467342425304067,-0.01727752878714886,1.4678973195864737,-0.6660136320656854,-0.9795714066304179,1.7608377862829356,0.7172771707962726,1.5207740615085863,-2.135912003667956,-0.10875332059307759,0.4278157270547952,0.8619671877671401,0.14551152096760422,2.010898782557276,-0.8784070049834873,0.26803910889018007,0.12177750832288299,-1.619665448560102,0.014811261501703905,-0.7391409321567733,0.30557417471467835,1.5357958127457072,0.3478776367821528,2.299450328913995,-0.1328235181424196,0.8478786795272881,0.5478848123308663,-0.29821698786868384,-0.3060066256694798,-2.014133294945668,1.3654728738678454,0.12479426451047661,-0.44346692150615274,1.1144251167363246,1.792798296602352,4.042198601039423,-1.1148529663613123,-1.7652732082957618,-0.6389651436800922,0.47840786415699776,-0.6866972073261527,0.01950798784238412,0.4422048609006824,1.7939461567567316,-0.30703295474815556,3.125855596694814,3.0390069896483074,0.16942817914531955,-0.4025510966424385,-1.6172826941653131,-0.04107605532579311,-0.3717742238659676,-1.648790145615339,-1.6656660745753442,-0.3153874746737358,0.27044417771605767,-0.7825750316319675,0.05260460741785083,-1.3619169286866137,3.032364593627035,1.344149211470134,1.289257612043246,0.1720576506013498,1.0459419541714694,1.8632572368480582,-0.24122698054035913,1.3723706566638845,-0.5033000218449512,-1.2726968935914893,-0.04751212999091933,0.45688296512923,0.44597984500982707,0.85103406130939,-1.514166563892094,-0.14154017810915298,0.010309452298038202,0.15353643019822644,-1.0527860391795378,-1.0013822132346462,-0.6999383460964815,0.5827612782977386,0.07589529657855565,0.08641534379128518,-0.809722375847698,0.36084639975869115,-0.9704073988279714,-1.0701986281479192,-0.1348379631992213,0.42571941981912986,0.17479367167886728,0.5246997149937441,-0.6873171695572419,-0.8165649358439137,0.6048844979990694,0.20907491883202922,-0.6095859198040178,0.11700198614192181,0.038296478549646934],[1.1366577026110167,0.5225193915900177,1.0747248630819006,1.6860401835417285,1.3995167845970669,-0.03948328126029815,-1.428672259946189,0.07810343858846523,1.092694445536625,1.2916617616502213,-0.18523401529872205,0.7490126781601967,1.9468998776511237,1.7887343131688225,0.9139814342692274,-0.10080431195530672,-1.7384520413018498,1.854942126984955,-0.8369631090374445,-1.193847376134116,-0.51745544450466,-3.444965047432706,-1.1075823571821635,0.4566155410537668,-2.1139531775306715,-2.105815796182378,-0.15600727128524977,-0.574143349628898,-0.6586302015040446,-0.20286880551595957,-2.8989852182393605,0.17636016398108822,0.9356442218175327,4.790293772505975,-1.3592970435277267,-0.5297610049110675,0.10660587970125614,0.0665468229276936,-1.8799579624617342,-4.123652257428825,-3.0484504386641333,-0.6923218380153039,-0.16754741726538952,0.4884717167055571,-2.733046593915449,-3.0429414950253664,-3.2176128309170204,-1.183619798088429,1.4057658269662354,2.4821243715744603,-0.7220146462826174,-1.954537580960539,2.960364889915251,3.9884006624771153,1.3884479364405349,-0.58960989249179,-0.10236560194953369,-0.36126991642559314,-2.6207373371944245,-0.6303945761048164,2.9881141133133515,-2.969118603618773,2.1294419278242542,0.27326026406019677,-3.8212321276711245,-2.7614418250507313,1.7242258981502536,-0.8478551669060662,1.6999008866233623,-1.1691646812835588,-3.7362189392254797,3.092501785928585,-1.2194735356423108,-0.31381318370901945,1.9309384846267283,-0.765089330455017,-2.0548779798065553,0.7232516380504384,-2.2721307043078385,-0.6030599857078929,-0.37760723232142035,0.6668978320475024,2.284798207023221,-2.389811190671908,0.20204372410802265,-0.28188556834350076,-0.5768636004842367,-0.08245239636903136,-0.1984440640564824,-0.2288230855295548,-0.013702554193634423,2.3497008313300336,1.7442689144960768,0.22656381019410615,-0.8796669423832484,1.2626318815059132,0.36413536903601884,1.1737422633512347,0.42526627830892183,1.4127033470375634,1.4676658235801836,0.4735152327487756,1.527989239284077,1.0155995702999576,0.7384050571072136,0.7042228564394537,1.4500531511733403,0.5239413472599104,-0.07619969722614346,0.3552541408937857,0.12920060054919202,0.9749716684535601,0.2927824845242426,0.47199297097997206,0.14249514557255316,0.6147279610199088,1.4759275069372177,0.7602623874870105,0.6581315565680264,0.8465395101045543],[0.8560148779876272,-0.2750865173983774,-0.16814249072109294,-0.7861873704670043,-0.32972121656251097,-0.8625580561119008,0.09692933877336848,0.28011362038554877,0.3103035328357052,-0.7011618946018783,-0.45669189823920653,0.2968458072836522,0.7351274016996125,-0.29428582244905455,1.3833018164306625,0.904381290816093,0.16521241484285756,0.5378654271835597,-0.18669798475728697,-0.3500510480752066,0.7023562740537713,-0.5810638829577434,-0.6974660192093968,-0.7180927996448424,2.135866569698546,0.024759240527998213,-1.2493503831993336,0.7141867288497885,-0.389673770557016,-0.7830277392489893,-1.3293509954162814,-0.8400267927508333,0.6623370678233563,0.8212497196520664,0.7209584108302178,1.2778770047952708,0.11696688669696136,0.9964424714543765,-0.4906441669042665,0.9437105299288179,-0.22231316037487922,-0.10937412828815476,-1.437977859951828,-0.6548126316990162,-1.8503817863263057,0.5485779736964156,-0.12823087439813555,-0.6004118899171746,1.0981264239127135,0.19292758044371275,-0.35834548805166605,0.21442456394798778,0.5142277844159737,-0.7655019821865333,-0.017429393810918157,0.8589634046558923,-0.27698620198819907,-0.4466720171165295,-0.6017741512916814,-0.42609333061248467,1.7277151037469405,-0.2156157673262223,-0.6536870749610073,0.03959982029798037,-1.2394489619619489,-0.4728445599312273,1.3231487906010135,-1.4712905523830395,0.9673897803559465,0.537691029839734,0.15606346865898316,-0.7861839164834609,0.4993834650667162,0.998719081052862,-0.8107982229409406,-0.3484109920784541,-0.9723856692056784,-1.2258373901821151,0.23990990082592845,0.4475368769636745,-0.8645755725504184,-0.4006444972321247,-0.25016939851287323,0.49635435346389206,-1.3161070024620949,0.23032612354330895,-0.0798479813449715,-0.8306834392565857,0.7239995886467816,-0.6159371850765509,0.8470176605074772,0.2741877755403793,-0.4404581800718558,0.8697113062945309,0.18890407550203017,-0.13634201247578245,-0.326907852530138,0.32739455983493737,-0.6667190041742065,0.4903019630883044,-0.1920418951355254,-0.7271423492839367,0.44237656284871085,0.5233278669963258,0.010678518723299911,-0.011724009597781563,0.9483158519670504,-0.5722796468696868,-0.06990502248808521,-0.25694830367160304,0.6695502337049754,-0.006157211986280796,-0.14997165399349366,0.21795540878428565,-0.8410570991689977,-0.11230649941213092,-0.4267104189176175,-0.3359096306044944,0.358181269091817,0.03476295651499478],[0.8878970753710761,0.2765507468032447,0.27658427751675596,0.23026681973577157,-0.20715021395852257,0.25677029683141067,0.40727077586149957,-0.25394773025838446,-0.308824333753058,-0.7015859187662522,-1.290553992146281,-0.3949176864007759,0.28530658486464777,-0.8798057422588675,-0.42833215267900704,-0.2389000356815203,-0.8348181818972832,1.3563302981126903,-0.5595130870456323,-0.012634000427431466,1.2809806717680703,-1.708839848056763,1.6166734329904169,-0.5885015185678005,-0.1780235410452371,0.07393175839197282,1.2506813423076248,0.1210633079089288,0.8222437799779743,-0.17603604923234373,-0.28332307929293304,-1.651683029609381,-0.549967309839871,2.494966480854345,0.6042421545167261,-0.29605616245536165,-0.12441802704106424,-2.23087302409363,-1.536455441733092,-1.0001912813273255,-0.7657060160826563,-0.6778984719797481,-1.2594638486177843,-0.4337343386568219,-1.4810757675826045,1.5929417461570523,-0.11499868609529572,-3.3018076025236778,-1.2890643692547832,1.6947392164671875,1.5699250573201968,1.1271341190763808,-0.47554307829881637,0.776252953382496,0.17623783461170017,1.8017672703880627,2.2319835265804224,-0.16350580256758443,-0.13890782542361724,0.07761020480462832,-0.6250786009808792,1.582652204116399,2.5337495276019335,0.4854081783760937,-0.5802157243753235,-1.3304647595472998,-0.12156323926630294,0.27594302669146675,2.2042777735143653,-0.8225781367516235,0.032540360110997354,-0.5353617829711511,-0.0864427858206396,0.23753524735576445,4.090959745121578,-2.0845880607230405,-1.1074762896650476,-1.0985390700862272,-2.310973108105218,2.291656499209747,-2.094797241431895,-1.4188964001897704,-1.2529707839427688,0.27893869494853507,-1.3756238255717153,-0.7338733958111717,-0.16212463725719478,-0.57792680025462,0.8787372373108432,-0.8893005731043083,0.46833855099166977,-0.43918970116699946,0.5484426400790269,0.2205764428675105,0.42059207724352166,-0.49363688139305345,0.8824653700626072,-0.8188578259683524,-0.0763624390284074,-0.46805119443441573,0.9510414493827787,-0.7880544631871912,0.6081459357041049,-0.011332513701891152,0.8648106790403601,-0.8907172735713001,-0.9612819539832961,-0.41895926411808854,0.4625397455292551,0.07608676509993513,-0.8346121274343635,0.9312402911350323,-0.2240016470288303,-0.1375701188712199,0.19110049442569155,-0.4124121118423038,0.4763690312822509,0.9690358335221704,0.3977210811093493,0.7131570913245583],[0.21999696201572336,-0.25418460436030066,0.8852180563827193,-0.18566445997339945,-0.47633899787252376,-0.26323586432297,0.2318946873520476,0.25482817944338165,-0.6660945057249977,0.7304394716262126,-0.9991152411570468,-0.28812458355731396,-0.29586264746397256,-0.9350306731285617,0.7688106261309345,-0.2196516847519321,-0.1273910516788858,0.7241051218658763,-0.779847228963605,0.1863992596914625,-0.6052037056321068,-0.987975563742236,0.19461123182721468,-0.9305314877324807,-0.5226264386539962,-0.4367303905883939,0.9063083974385066,-0.608924694085455,0.8054877545727007,0.6142346886972698,-0.6989910428679064,-0.5470542064981765,0.3495386781061793,-0.6046415997621608,0.43796626411369743,-0.8058452714844543,-0.31395806500870405,0.3632628288198543,-0.402057929224149,-0.7930690034495862,-0.7823477266648116,0.10115395000037486,-0.7804772823543403,0.2858137250939811,-0.3811692330633195,0.10308540212624032,0.1497039537409439,-0.010763321184042324,0.8087358151771553,0.13958621729862228,-0.8067253237463505,-0.5803786481384359,0.19558819403644992,-0.24370552737346776,0.20387458325082913,-0.9331892803908726,-0.5010212130198634,-0.12060138860067356,-0.936421593202769,-0.9881379846468353,0.4456099328977185,-0.2666957690321316,0.5324209474238448,0.22716710106042373,-0.4367292818330098,0.8011690936676138,-0.1884952804651689,-0.37361991810607764,0.4267818836540938,0.0943883247738104,0.3761558734275689,0.7147690005566073,-1.0902151858455744,0.8858518524044522,-0.05154775129856756,0.7686495717488978,-0.9921532315121373,-0.6471024984395198,-0.7681275681443014,0.08234568187983606,0.2149106546777438,-0.7063141394081307,-0.40786314867395246,0.021446998017307557,-0.6364215372228189,-0.5866740876114187,0.7941917707062136,-0.9885837892016497,-0.17083995627563298,-0.3019558959641409,-0.3448366676288492,-0.7874180448703539,-0.4942844557324362,-0.7405772145606628,0.6596515561137427,-0.5199450344954505,-0.508510212522145,0.10197421844146105,0.7947388471186391,0.7363788816421185,-0.10081434995011047,-0.5796054853002311,-0.8185847247410548,0.5771940264702952,0.6166686827927602,-0.8325907880325628,0.04928138078777115,0.9291273383819237,0.5084836660006248,-0.88982213163051,-0.33571607798647707,-1.0137914902069178,-0.6068724108348474,-0.6777612212626,-0.23204955786626932,-0.4672127760005783,-0.06684386312716016,0.8524994783245369,0.15336352254782706,0.29063988034945953],[-0.8339801756919026,-0.4231954726401741,0.7175884185984235,-0.8933810877768692,-0.5478236779518445,-0.10945519547363204,0.4941736413448389,-0.4236068928014515,-0.04377635774288408,0.8949803963277011,-0.8514385758435622,0.4347141455432848,0.5152231352639,-0.34651747753429873,-0.4667057085660199,-0.447792138283741,-0.6245971836915288,0.05325271605819853,-2.113252158847227,0.920460124470831,-0.13249886759532653,-0.7867869637417985,-1.2357399004273297,-0.540745050618345,0.24401544266011307,-1.0902135588982114,1.6898635039681684,-0.9568239400305316,1.2628232682251959,0.780370920916613,0.03959923985547468,-1.7345852824539691,-1.91309921022966,-1.5188239566900252,0.8808220196340701,-0.41173555351925994,1.20034769188977,0.6579953825207927,-1.5135488040688447,0.16216296745880873,1.9352006139829738,2.648652136013594,-1.4256988057377589,-2.2664510225179235,-2.5218022386479633,-0.7072938919679543,-0.3406188442867822,1.6500411365103882,-1.8173921526377004,-0.7963519224803068,-0.4779371850202206,-0.4643692822703528,-0.041313730907611486,-1.8449929895667962,-2.4857191516966024,-0.51927082045791,1.16376460025644,-0.4002980679673023,-0.9032685972786179,0.6990979019204707,1.867629205113056,-0.022864244613853765,0.35898606276834444,1.2760554301915124,2.0595996846294313,-2.2817371713596644,-2.5111098101532057,1.0721962587024338,0.5053114499334227,1.2625324696090694,-0.1490362840446461,0.987153622292469,-0.1255093591571856,0.017566386432477307,-1.161276787482757,0.7027124954112092,2.7857951055841195,0.7999318677546329,0.8256592519425542,1.259745119180165,-0.44631541065139446,0.04762406880502118,-2.374838755984087,1.6106909092031214,0.26035671617798506,1.3782262956211682,1.1326953455426494,-1.436665243816473,-0.8581277757749727,0.08248651391984928,0.14028844414542582,0.4962122296066205,-1.476603605993902,-0.333593666679678,1.204200785476796,0.8363110859284094,0.3359479695298878,-0.8588870800634331,0.5157342910592521,-0.6682703279711711,-0.2230336333043471,-0.9499672666739672,0.08270540771463943,-0.42194365010402013,0.39427144784935675,0.6375933338118452,-0.4363730154528289,0.5798036013452809,-0.13012998207996349,-0.5151957345065225,0.6591219061320722,-0.893190654373106,-0.35463804835485924,-0.17036354315482344,-0.46575487885016476,0.058287306171454493,0.9723934843993022,0.6863814631018107,-0.16783189266815857,0.30657279752516353],[0.6226685522604948,-0.6307652168263312,0.22917172708659952,-0.003927941073231742,-0.616695455188729,0.4530054762964022,0.5991697456739119,0.6554385998089912,-0.19286711888313707,0.19381527710313787,-1.0018503464065684,0.22105146061772682,-0.6526603671412107,0.9155649164704939,-0.2556294411263846,-0.4291736959728646,0.7046234372303409,-0.38860794544150024,-1.0327071626971618,-0.0821741221054197,0.45117931370257325,-0.008533563113843054,0.5479501638599716,-0.9903932281870064,0.29369970278648583,0.3195483387350594,-1.0505058020084974,0.8696414644452323,0.6639050519129538,-0.29223453986448283,-0.914343269057444,-0.2534971106555964,0.02070277519852126,-0.32522729680419377,-0.17265667531143475,1.2299737830304915,-0.7440861835513282,0.7019513791612915,-0.8313094751286344,-0.02881349514414201,-0.7137090307880314,0.2639177451147297,0.10616751849188173,0.8963874596928715,0.6286177233977501,-0.8785029499161402,-0.458965521477169,-0.8332609855135452,0.2811508976330576,-1.012346135071742,-0.5972698652070109,-0.5817203569787929,-0.16109114383909104,0.1409788747922947,0.7948094370024917,0.4641925124182075,-0.18933084246170917,-0.08486883142401937,-0.9874139380123331,-0.024182795949199688,-0.3823252498003738,0.08625398092448318,0.23008153468472253,-0.5307224711332104,0.3739366828363624,-0.6060149186238118,0.9084762880847401,0.3547292368422477,-1.7366076730187194,1.4287014107009843,-0.9809347294011529,-0.4160837191001169,0.32921677136282196,0.3537424827271088,0.4218114819888264,-0.4296786456726073,0.30465041454591685,-0.676059028266108,0.35275065838314634,0.7371325829035927,-0.19919601114211108,-0.20689963615721224,-0.9239775646234228,0.3496057458827509,1.09292241733227,0.8229689204572894,-0.8554202522579994,-0.4298745891235304,-0.963553452359481,-1.1626344669836024,0.40147594625785576,-0.4972839850634362,-0.26168428894485646,-0.031897365040384706,-0.2298695183955643,0.8966136138885165,0.8502475480762978,0.6086711578632019,-0.5510959178354312,0.5888892106922275,-0.6270270629343612,-0.06092921275956864,-0.9546625697360628,0.7424586174654323,-0.44763217094608965,0.5788454381917071,-0.4315670017755108,-0.8629703636675653,0.4024602371526087,-0.3860134276113305,-0.35483743434585113,0.9261386619910198,-0.05867562243038485,-0.6690586554986723,-0.034774983522004824,0.09911956688343615,0.5674822030136347,0.7071368123106855,-0.4704403019049527,0.14399862141685021],[-1.083254646915264,0.8439874195114838,-0.9965836369803961,-0.4088546591893565,-0.24866554724045573,-0.9303200382043686,-0.658086035704926,0.48970208990888525,-0.8230261938907307,-0.19325777820838916,1.8508076554517177,-0.2713024367990803,-0.8498513782552136,-0.11463945123340197,0.6015861057414167,-1.2506798896089062,-0.1241615158374528,1.1329353220974638,1.8935097404798078,2.3181995124755597,0.8375435315550545,0.7738041188848593,1.2482699126393426,0.20577100609851445,1.441261268671458,-0.6912595863010089,0.7013212618898187,-0.6064141712014636,-2.0541765197913677,-0.007519318419214396,-1.527125580826421,0.47312776687560515,-0.4682358343761617,3.499671593792545,-0.9319723696757394,-0.03707738785281806,0.07788859837761063,1.297458776347306,-1.4150442142025266,-3.953394774852069,0.6909603475251553,-1.088764894428874,-1.3665850715499905,-1.3780243809041743,-2.845602414711729,0.53790358782659,3.268470829884928,0.25679145812735227,-0.4031567675369151,-1.9555052954030292,-1.346195052365483,-1.0096220494268033,-0.13937414228928036,-1.9862890476254182,-2.160085964302343,-1.208013636740632,1.1448012779863832,5.093096100517224,3.076092721468779,-0.9439468725644311,2.691501479575417,-0.03768721544913688,-0.4855317747029217,1.2201851464846394,4.87986347028603,5.52472205043486,1.8962901090340925,0.16663153781742648,2.558859215100875,-3.4020636369454698,-0.09216330102564295,4.527861200016417,0.5239101736240299,0.4029054239459301,-0.40957666530499903,1.6655361863930351,-3.522439298090347,1.5079695359348644,1.2422609935502817,-0.24036177917099177,-1.1099423790747611,-0.07107067904691237,1.3059018913392795,-0.338499489734629,1.1627953111547853,-1.2165010056925538,-0.5238116439670383,0.6158527003807764,-1.4224375247776866,0.9486349924407571,0.02184758958989122,-1.5275031368788095,-0.13460673428963085,0.09055718444783009,-0.9065536657664456,-0.14108260316995308,-0.18002253295036608,-0.38169041295504014,-0.9140119926014604,-1.036953777540136,0.17511153838713547,0.31496662008906295,-1.318319007061269,-0.3394988743223689,-1.221306941480744,0.6338617528831624,-0.7523508489786478,-0.8920443083166071,0.6381429068949359,-0.034864038458440216,0.07777196703160554,-1.0679862702920488,0.1969731788875314,-0.004207103016255355,0.3609064660174237,-0.2074050305669055,0.4412862688844008,0.6441119486726518,-0.42927631608657757,-1.3281365322603051],[-1.096772618690632,1.2929455764196751,-1.0598802079372052,0.19873482785681873,0.47625022956987817,-0.9203746448805188,0.8057941520873515,0.17623886506459585,0.6662767585336791,-0.1154430095572889,0.3828033840031463,0.35933554812718604,-0.25095131070034404,-0.8834346599394791,-0.09193063146144034,-0.20204439403287666,0.26947824460448816,0.8660813980728101,-0.5559405866386924,0.5580572787984093,0.46033922297837626,1.5872277940749475,1.1164883728341224,-0.5207291983814483,-0.2057914782040658,-0.4615853484370288,-0.5457734215136085,-1.5328101907063376,0.8376442846012889,-0.5357958068383579,-0.43744821748858603,1.1530676739187977,2.5010351346151,-0.5625348120825138,-0.25398009247900594,1.100234062198939,0.855167826438597,0.17880892022929995,0.896888000806872,-0.034844379608319716,-1.2119657449920822,0.14221704804365876,-0.6183249253259239,0.33872142704236685,0.06884505170459103,-1.2823611235052979,0.3269332065422771,1.8795500489234287,1.8463866966697102,-0.6991194551838681,0.3709246929216388,-1.1830544198501305,1.6713704397598663,-0.35883589780950503,-0.5563137080708725,-3.6191378375947494,0.5921655247822488,-1.0484802385990448,0.02715248522003987,0.13215374696883614,-2.2304294064022234,0.023882405504731394,2.2257558157691806,0.06113579670083047,0.5106193662095878,0.08217140217805649,1.0916376000298436,-1.6726256262452512,0.601797168454162,-0.7361990386877526,0.0026667111597272575,1.8697197736588138,-0.24548307383786805,0.44949058913638523,1.4270641488564486,0.24158187510659282,0.4756397474509537,-0.4567394245807058,1.3633778905241818,-1.8708037437475953,-0.6860308514238131,0.6988632190212105,-1.5215431150598007,1.7630712753892839,1.4729322201646609,0.16765339365703358,0.9810417817111214,1.5247428257789162,1.049293022940445,-0.9114362319007161,0.042054887809599116,-0.2678446941372798,0.271483027560815,0.3463946773904389,-0.10318024234885659,0.34719610024511505,-0.405542652696954,-0.5497489834932734,-0.5656834375311643,-0.9131988874911134,-0.5630797346195766,-0.26332718232322266,-0.1468887592244691,-0.3502621126441636,0.052762639142573585,0.16730719123029464,-0.5406738385871976,0.6068480395935052,-0.2988141131991984,-1.175771126852135,0.5166701046465474,-1.1563100122034216,-0.2613903723182323,-0.3146096978163725,0.655796916956537,0.32273312488989203,-0.5773077588309008,-1.095480961309004,-0.5786657336857224,0.289579940808097],[0.8562670347776944,-2.104424394189538,0.3168084919589203,-0.5846068151559665,0.5543778926796878,0.710688405139205,-4.219765769378197,0.48011093517736575,0.25535120913899795,0.12707096763985,-2.682590599490147,-0.150389568219915,1.1687789007407812,-2.124431121959244,-0.1148611170177543,-0.6799402076577798,-1.79149719664889,0.15162880059210598,-1.6746201534780785,0.8575303226881804,-0.8748027788039311,1.7977243275783876,3.0802928612352116,-0.48927496712067237,-0.7751405602413938,2.4068111342205434,2.642596325549841,-1.5615873720389641,-0.46989808482297707,2.536323225591714,-0.7439232711613648,1.1345261685609624,1.2691777405603586,3.302180224290204,2.000715029804124,-1.7358427145419153,-0.14560252702517815,-3.3044435657914133,-2.773227366357812,-1.4502752064410052,-0.1246067198781044,1.6285020546062732,-3.7155791279969415,1.6436880644251797,4.492253773026259,2.620075590778668,1.1405846657938237,0.987067297041661,-0.3698654247748238,-2.2404171015199523,0.26480730544369896,2.7725064360803393,2.375777370663238,3.202696382477169,-3.7855147408911107,1.519935826311462,-1.1664227655365569,-3.760477852101198,-0.6352416002726642,-1.9019182436008337,-1.2366783668852255,-1.7969305293850164,4.222894634052649,3.661669788595085,0.7795506254019772,1.10045401291095,-1.5359106132220897,0.5009083092274665,-1.7121963438446701,-0.5049813176806389,-1.462838583903787,-2.3270276065865336,-0.3846850374032544,-1.304896073346497,0.20005050341442762,0.42522399767803837,-1.1278923258877989,-0.2214607737382461,1.7497179856957281,1.3814935816311842,0.78425919566665,1.9125390869859844,-0.6509840784693871,-3.321247061047911,-1.3356871685245681,-0.058008136564518066,-0.543268133882422,0.49788389448122866,-1.2405374106518225,0.274253178085813,0.4981287356677582,1.2249715444377518,0.5959453121185431,0.7145214941582393,-0.9443642317968913,0.5608831830286214,-0.9825720353319252,-0.5378985115253249,-0.13030500536552578,-0.7807134424752051,0.747344926306954,0.9673916119158226,0.5106243777390064,0.5099004321980177,0.49915264509176865,-0.22778248837631407,-0.1879897360176446,0.4603381426341347,-0.6896185900364971,0.5267577883482777,0.6236512912572949,0.05005655814496812,-0.39181536746481543,0.1091633838942077,-0.5390122817561508,0.6113262574832397,-0.3531256295012118,0.7944993795455604,-0.6654335740511139,0.7283818487119205],[-0.04191464000186865,-0.7346849032182514,-0.596910839289201,0.19826917334265462,-1.0616692820512326,-1.3420244405678947,-1.0786428672452928,-1.4570388095630704,-0.520419974037462,-0.5330113186991614,0.20609009019737243,0.28725906646354277,0.40011897144512026,0.3943251506375162,-0.1045350092088701,-0.25687155222304603,0.78274248975967,0.40197301978070304,-0.8800196129589251,0.8421445008965069,-0.23543525512786287,0.7850186834913053,0.9728135477359916,-1.4368216872806105,-0.0760278737284183,0.48838302018941065,1.621555692311558,-0.7165928787099509,-0.048052918167380616,2.3648179282864414,-0.7807771859860756,-0.26618939221078747,-1.440830162217183,-1.1635510560487154,0.09351897243875545,-0.6713059549252222,-0.15449519012855012,1.5234798942649053,0.6405560737359741,-0.5314915916856274,-0.7719577764164862,1.0812321701033103,0.19347129230369386,0.5787778183861463,-0.9292318481101695,-0.13107101645588048,-0.251699324774733,-0.32763755651104376,1.5028583342016102,0.37761742020844874,1.155548196858733,2.0828353403414006,0.06929270788044087,1.8889269647972469,-0.8737755397914623,-3.700738922451539,1.7966614271324326,1.8425518664400902,0.7424878904309259,-1.672447755461707,-1.6209981731481133,0.42551159662837423,1.3031757983243657,2.7882206549837205,-0.15557243149067787,2.575419238193462,1.072118031818046,-3.3621282044403373,1.6313835142926383,1.6670881870391048,-1.0303922453796992,0.6556768164668467,-0.3025112850840812,-0.39956929100345867,-1.2578009430196637,1.437592432413467,0.05933653073982629,1.6660680233512446,2.164801320737564,-3.6402385700868725,0.2875734054481797,2.646319070943883,-1.3589089414276885,0.0655900998518957,-0.12102336434094288,-0.8924862910212381,-1.0117708758143613,-0.5306805892082757,-0.40958444277446926,0.26432164041045275,-1.002860932919122,0.08391268574238672,0.8117951652596802,-0.6398430548291039,1.1076700321366197,-0.5905237909870994,0.364995173282942,-1.4600522406613454,0.13600798116985355,-0.9812324004776051,-0.17527657530322235,0.3237517243327361,0.43608114709980567,-0.23874279711447244,0.44023584875612726,-0.3630095925362605,-1.4793285472906146,0.08146269847898163,-0.07794665999095358,0.3969266374853451,-0.056255836386354126,-0.7732202964122431,0.07587370934828369,-0.33765544567689093,0.018593032304980626,-0.27689218462313614,0.15423462240688232,-0.4812566800432751,0.16436087952805342,-0.7730605741935187],[0.3019989667039666,-2.631767712396762,-0.5807884785992228,-0.10548228299633605,0.37249484245233533,-0.8902803450974441,-1.3247100950225819,0.4602136156943803,0.1266609561613502,-0.32616122274548637,-1.708904523140772,-0.9689770899670138,0.7038558968273284,-1.0960815069139567,0.6962163953891682,-0.6861270479080983,0.12402585337737368,-1.3651952360572353,1.0123294839412642,-0.6423243447725487,3.0797841093770013,-3.2587089175808868,-0.588463894210438,0.5746820183966299,3.5860997337821976,1.6289773304827853,-0.16278571180731316,-1.9117412698383072,-3.339381187634599,-0.06787902404709484,-2.436600311115776,-0.45576592676082317,1.65526757451608,1.0073209484334367,0.6338297438357489,-1.7740743315918863,1.7002186900637617,-1.02009545513089,-3.3845318256219965,-2.182881891433513,-2.4177149411588204,-2.559928660414946,0.2478275524092305,-0.049189964671385054,-0.5329908924669398,0.9096583484255016,-1.5225070822122464,-1.1773949395178605,-0.6111505069876265,-1.9448459193172751,-1.0593024935350848,-1.81808716709327,1.3859750315912456,-0.5826106337978931,1.6486772579640885,4.173607826556265,1.1657588338367548,0.15475380613064374,-0.485232338296902,0.6366228677052476,-1.405971125069524,-3.0098292389445236,1.4390443629910579,0.7531003972219119,1.1758871214278321,0.1499063666931211,-0.6222857016493204,0.5665762828582364,-0.77080086967198,1.5046784095818042,-2.4556553400426653,0.4015740960215673,-1.9244321498264467,2.0629527376084695,-1.7738486466641596,0.6911399750188119,3.3323196321432187,-1.6691434822786229,0.23177823420402138,1.3787179011565716,0.6773855953242032,-2.1030070636620044,0.832189556095355,-1.5482657889120037,-0.28602382762287903,-0.06102639609060059,4.205745405927087,2.586944680704973,1.389390215472039,-0.0881986670667641,0.7836300175909738,1.1259406309360425,-0.2997336193425491,0.7052993184359686,0.02602082711505093,0.1495482855424618,0.7421350110689119,0.19347126113066915,-0.7172132503580564,0.6174615797875154,-0.6426081766852194,1.4850964667852247,-0.5746822491768764,-0.9046512834268852,-0.9353857546130231,0.37670541989715545,0.33340616653185334,0.5912366511828389,0.18016681307002907,-0.25116818027210136,0.5110526958906034,-0.6388652208115388,0.276160899787859,0.04818238612111898,-1.1402241772046025,-1.0362345168551446,0.5542571773700631,0.812408726995105,-0.11381819710567997,0.8099755452667894],[-0.6851596249186815,-0.7653806416361979,0.6191025334834968,1.196937947408481,-0.1606857352179551,-0.5296347215806453,0.11300674291939557,0.4446581519878082,0.8610526748427634,-0.12222070799840347,0.5410935924416682,1.0021018354624431,-1.1046539716142367,-0.75529615305945,-1.7278281105425861,0.374964747301761,0.3786732725019434,-1.7027930677340721,1.1246726272308967,-1.4418260685129336,2.3007533520465064,-3.933903592923773,-0.14774206925254596,-0.27211470618264866,-0.06153666112329961,-0.9187084770107856,-1.6330598178945224,2.6085003221065692,-2.1938992548159204,-1.7945928981338357,-1.0289832810774222,1.3952829640396958,-0.2390102978999356,2.438279303672042,0.3229362071699652,-1.3168199526779354,0.04647090248121167,0.03414888141354471,2.2916308926932127,1.0618485232265122,2.0828553198977215,-0.6741163314285048,-1.5614816706586185,0.03446975389184904,3.2709808692707485,0.09791853611889689,-0.18108968684973048,0.6244578989922067,0.7680426211032377,-0.18848287340815023,-0.3822910708761064,-0.6060506753601617,0.7946724342718772,0.430247954427287,1.0155722219466459,-1.2133718567435003,0.5398333951779481,-0.05531830417774887,-0.7215627813287745,-2.90051433485524,-0.8536353036806525,-0.7149002134296167,-2.4532445077990577,-1.91866886951116,0.09457326884778805,0.7340860838670611,5.081822247211188,-0.01728067275251276,-2.100407295570741,0.6622011815240173,-2.551475849991625,-0.8312153480433325,-0.04199419272571058,-0.05997048292690509,0.2847627865163439,0.766184755582092,-0.5556777677707229,-0.010691401542672589,0.9080489735844396,2.0010311778567598,-3.5744907180691037,-0.6312735321183016,-1.5453889715163693,2.1794294806709917,0.9733417639561831,0.7997829847560165,1.543783488638404,-0.12082777589660267,1.3124879540858165,-0.19562164501226187,-0.31287150577971534,0.8137381473220551,0.08882553387225837,1.8232747932862112,-0.1570773552935581,-0.01163824927113913,0.41778605662451895,-0.6121624801799661,0.3209970193233178,-0.033663626710566795,0.2755008466170601,-0.49119982109041804,0.4433849230467518,0.7558580063658176,1.1165067291413215,-0.07846791078857264,-0.19082649568855103,-0.3444830039380822,0.8287994765665823,0.2923871584402642,0.30953678280325947,0.4022858858601529,0.8726902942238293,-0.22244408566233353,-0.05338035956053893,-0.36144188571977987,-0.5904623151795083,0.048095809124356396,-0.6444730524736932,0.3876417359550435],[-0.7942325030494171,-0.2677491247638516,-0.020131597120762318,0.6953374621704189,-0.026628597647671302,0.6065067973036762,-0.7046983965345788,-0.004081730725157326,-0.11737634227010779,-0.4110877818553631,0.969497807610816,-0.4833539278991009,-0.8566448946190093,-1.4508620060284618,-0.1781372818336652,-1.1570258803065487,-0.756821967057375,3.040048586625104,-0.7768769063227388,1.8034522266040214,0.21943870925855777,2.6696383798284855,2.3389795845442003,-0.08386699582277506,-2.4428569627435084,-0.29487092712528995,-0.26968232721007956,0.7754715840571006,4.146366920777515,0.02000443632177306,0.9893632922079703,-0.968538516409362,-1.855031458986426,-0.517050038496174,-0.20370660797080567,-0.22047216601134445,2.984005163844317,-0.4037080743627715,1.3082459061183407,-0.21659922539182502,4.348965479286241,3.6252809251510363,1.2416705882728751,-1.9561584334345201,-0.03444437046251289,1.3726289285430966,1.8812237307252486,-0.881296215548003,-2.306639015111727,1.9765277358867692,2.366447717983524,-0.17147907490349584,-0.2944774694311413,2.7567824670599377,1.3144735587698422,-0.9927662011319811,2.4335238353037956,-1.4111372919524239,0.9106380968760743,-0.6207253687866793,2.699273769755197,1.0043596557075511,3.98349310336518,-1.1792224622159324,1.8349633535411707,0.5899170468462926,-1.375249174001987,1.4346991470356685,0.38927019795564183,0.32555585510439794,-1.804987621385459,0.20245843592214793,-3.3530392645336002,-3.318501948976594,2.917337552164601,-3.8908325337092697,-1.4520525500531187,-3.152066517862755,0.3692472959100813,-2.4716496864793114,1.9386621429230169,-1.2722794185736925,1.8924072188008685,-0.5153408922421898,-1.5945401221591355,-0.06203416059192509,-3.984855353684578,-0.08124679925932919,-0.2340937753336057,-1.346268465136518,-0.9326364447614303,-0.5472250015355014,1.0590362013262968,-1.2022500679593622,0.29214768926572776,0.53678632910985,0.25545609099532396,-0.09314129481431314,-0.9209552180804215,0.11938506584732943,0.4942992451021586,-0.06533529195496156,-0.016089511730277836,-0.7308870534782779,0.7130892534942552,-1.243276732860661,-0.07143822868632606,-0.7933449936297639,-1.056028688693402,-0.011509052382877031,-0.6792706154965904,0.4565097034030694,-0.6411173067150981,0.34048637448834584,-0.2201562533267073,-0.8589665703808151,0.6969828196804075,-0.6376237950710348,0.5361868967064969,-0.9048483942810612],[-0.9107844347679758,1.5342414105107476,0.02051631007737117,-0.2661257409207695,0.8410160543805935,-0.8742994104024563,2.9756961523305643,-0.46394816873253547,0.7672551281811136,-0.5278713050196663,0.9286651694919746,-0.13046131136871902,-0.7383693620304593,-1.3966690749366388,0.2570937744066588,0.8477554563172497,-0.0028525572323188295,0.6637893449554259,2.383509949558298,-1.2247584959901552,2.033290253460933,-1.2977119409595912,0.8144911157095954,0.5663229077407811,-1.7474818529131264,-0.13207177020585872,-0.37112989653249523,-0.5153555860580576,4.764219991690203,1.744409985958936,0.19904547378526655,-0.0025581718499907823,-1.7852827677661003,-0.12218568888985185,1.2806922447037463,-1.910066509535474,1.2391906847167153,-1.0084031335513857,0.46775612163665675,0.4121565712838969,0.1273840810697758,0.2062487789945891,-2.486353188912267,1.208562763824724,1.9689482809077927,-2.353314061509195,0.8653546947919323,-3.472022632420342,1.3435530863560752,2.294564560517671,-2.2972508050539506,0.3761862671984018,-1.0768761120329728,-4.835948629039684,-0.4322112398104338,3.4897760227027614,-0.9383780695853166,-1.546858380861651,-0.09271203651585437,1.0463823958284213,-0.544498000767291,-0.35857471340485997,-0.00501779753182904,0.4631260493287391,0.6937402231649441,0.2602558722894953,-3.043116371018095,2.081414350133188,-2.2374629818574343,2.1465977708422774,1.0458019192602728,3.0561084745579588,-1.9516826441208446,-0.9514704942358215,1.0617735808347175,-3.2041596699129604,0.9419415321869353,-1.5224188996299701,1.1720504551631141,2.8866993739765707,-0.5856822676785615,-3.047557949368143,-0.47291673354843944,-1.4663951584987804,-0.27921982359562725,1.1527524626570846,1.047214298840335,-0.29840503309670463,-2.847525493935455,0.41930673165970567,-0.25825735259469357,-0.08278756943601534,-0.9285896731933004,0.3498721271462572,0.39832897888101376,-0.12123410483308564,-0.7385782087924097,0.0826802787300962,0.7817522282483292,-0.8323723562277078,0.1978870422664942,1.3253755073946232,-1.0946616520848822,-1.0155275570131492,-0.5624607072183777,0.8494456815759529,-0.9396623436111605,0.2601888447509489,-0.6174148967378231,-0.5613144470641825,-1.0688571881579898,-0.5123838374316793,0.6420685616932397,-0.11520133059768006,-0.0048874146703032344,-0.9179016223949453,0.7439335712307461,-0.61287222289553,-0.5289942953393253,0.3329227437560333],[1.090955814782242,-0.17986497969901305,-0.06613834495995997,-0.05415828053392905,1.1445078298626779,-0.23818048971335926,0.021885728841939685,0.6327518586192309,0.2983637451072581,-0.298847933062863,0.6171644724072803,-0.4590665827835451,-0.8110857590389283,-0.7997393260674447,0.9415861047745543,0.15474471042263374,0.5587940717399441,0.08358012468459958,-0.4922179845954035,0.08006555613590303,-0.7890252365001859,-0.6502262239450641,0.7617546425804085,-0.060012973217149386,0.4910814634148694,-0.7681512510177418,0.5674781482870375,-0.6628494861443298,-0.014989210120629646,0.9683791560399891,0.15831138259184915,-0.2920072990900581,0.16101088607048727,-0.7537840565742712,0.12071820781348806,0.6545593586729082,0.3567785684722369,-0.5193718644335493,0.23542895298990665,0.06319745540872262,-0.3940769593903506,-0.6808951889423847,0.43590265402059347,0.42105866464715785,0.8824580911846039,-0.4488984553333715,-0.7139407451007884,-0.7391110701978241,0.8330357153665839,-0.37898215398864976,0.2556732701116613,-0.07539056259927181,0.8566528769018908,0.06608633375762712,-0.4793243023155322,0.46330743249775136,-0.6542582015144952,0.8466780964029144,0.20821622629897737,0.9975869619760942,-0.5803904123125786,0.6346550049808327,0.5703301003646365,-0.7149054129002398,0.5282103228465599,0.0375304349725798,-0.37172701456564805,1.0019192320390804,1.0759153033719928,-0.0027552648474562474,0.8165962893307901,-0.3852762815551845,-0.7480912269412491,0.03243240757561998,-0.033999163555571775,0.8686785292769177,0.8747259959520011,0.371417874033687,0.6358038679126131,0.8204631796619574,0.9959710726277127,0.7205313387669368,0.8140845632915386,-0.7699384383186356,0.44627360026189944,1.1443465949463263,1.1352446348861966,0.9862486637271368,-0.47747328940289113,0.046587318834225934,0.10007713424646741,0.2681273790159299,0.4931126408523457,0.2572293446969793,0.7415218334851842,-0.5529027656756124,-0.6309589791533164,0.38845789698616856,-0.46373127440737055,-0.805693619535359,0.07872812513037568,-0.8265828324965604,0.6780091687917655,-0.4539376495468706,-0.483250265023726,-0.7410874672987142,0.9677428775219865,0.6980415079580848,0.007442795708092924,-0.4442235264402082,1.1333284643983028,1.1440305283881107,-0.7798961128532309,0.8983979622419307,-0.36809386868749533,0.8309077530881748,-0.3018232873099191,-0.1678593903154222,-0.07089229954317618,0.6286936039850863],[-0.24263167120376974,-0.401690558200515,0.22672767244556857,-0.15149636504367642,-0.07922139835361523,-0.1173945026667447,0.9070253233606105,0.9427531527265178,-0.8905492469235252,-0.3425640234095956,-0.12603197750780662,0.9081552227805183,0.10064571948329226,0.7467365515080218,0.6015456457702701,0.0027750604515338877,-0.688302177240238,-0.11924369674575083,-0.24584596001416675,-0.5032174750433485,-0.6633575516103751,0.24039593191419198,-1.0393859856294536,-0.9547958216687054,1.463756700805482,1.1681306471239943,-0.30733120305215467,-0.5597443134449503,-0.1617545312642075,0.16580572797501505,-0.9354445626768573,-0.40834075972987716,-0.8711896848870153,-1.6818940293479097,0.5040077405027039,0.31572134558237297,-0.1106987934881357,0.44852619045655323,1.7851174469901279,1.2059187583914803,-0.6496678974394479,-0.7380319137924043,-0.4312831704771145,0.043694481572393334,1.9312663393086813,-1.1124545099033027,-2.230060381877555,-1.3220611023749387,0.5238254429804221,-0.3094816929542803,0.17031855293478282,-0.36409739026708055,-0.6712436019158308,0.2987641141617307,1.796318685866781,0.9165047551298618,0.9990587830792045,0.25506925353823057,-0.5901276048947816,-0.24052414808996325,0.872239786941363,0.36702566388374364,0.42801593402040433,-0.21577933531106513,-1.1147099372085676,-0.5352403288248363,-0.4020296749056947,-1.7153977821198072,0.6261648278366586,-1.7229572223056318,-1.6359987614004174,1.8115721370760325,0.21930763655120697,-1.9760998182303997,1.5739018313209758,-0.12089990118781344,-0.7265502083449186,0.6283335047358722,-0.4785721189938653,-0.23907970237641765,0.04477930924867793,-0.09624486819558942,-0.523248401019009,-0.25381966962173846,0.03226737763734867,-1.1791518471563802,-0.08630773264155775,0.31111424527939735,0.5938355535597648,-0.9298396383886589,-0.00333999294736271,-0.2965763821079186,-0.5885802790985679,0.9013570896791986,0.8169998013337718,0.5963598177880443,-0.9638310766399505,0.4016311862677654,-0.07997579409441756,0.633881020064287,0.6792213238180533,0.7789257512457148,-0.012810749260092496,-0.5715328621941258,0.9038197912540402,-0.5625738105769633,0.5496458868964507,-0.09916840179516641,-0.741555486208848,-0.726983528809644,-0.03430201877403592,0.34514502515345014,-0.729425712819147,0.40276790743631763,-0.7299429093691301,-0.14982245271295014,-0.3980486446690886,-0.8233987321348835,-0.3253019782688239,0.4542210187619241],[0.49427715808750705,0.6004906560894028,0.4697846957061188,-0.7131726774752386,0.21116373094001922,-0.8557670633934518,0.35854479056936667,0.41429349188466735,0.36402617130651904,-0.2512709503670689,-0.705950477793647,0.7518111780524067,1.0337294284252212,0.7898521060663116,-0.3410414013288988,-0.6037399072703354,-0.7153138357113261,0.033800279487825165,0.16694289745567273,0.806659415815509,0.3498963883215,-0.6111622087523161,0.3924363983931738,-0.3018078470651403,0.7877488550762515,0.3878286901382849,-0.7254997337164382,1.0385638693320023,0.6638627870611814,-0.1028341450266612,-0.24706606629299935,-0.9517693441029277,-0.9974505503005704,1.0581814150516418,1.051087659025074,-0.6290185832420546,0.7377185818011108,-0.49988508515133734,-0.5212123973991812,0.6748420246016282,-0.5215122575644134,-0.10028252166784811,0.6983830787564288,-0.26015369104878255,-0.49859182698456284,0.3623496507189986,-0.15163360784449986,-0.453590503220899,-0.3048433968260604,-0.24904391283451954,0.5573800205875703,-0.39080835754228616,-0.592685423415686,0.1934192070466873,0.2877220093144831,0.4776593720561289,0.6618019746261019,0.8573023658834145,-0.7745332502202507,1.1301410533092937,-0.3665642135739228,0.04190951553925405,-0.6369744039337129,0.8069251480312042,-0.11340217025714873,-0.07703783748806849,0.6477799275085533,0.8444072969772307,0.5288986115935167,-0.11110516610633066,-0.7512878500466235,0.2434516172009954,0.8682248246318024,0.18133463638479083,-0.7243448417771122,-0.3360620924820976,0.545859344804677,-0.19982743770030018,0.12704441956565868,0.2964980432928395,-0.48742167940263975,0.09603629949792851,0.7594694692867886,0.20109229272567436,0.175725148117838,0.7491924568625536,0.5267520910131905,1.048895246248632,0.6493288936033867,0.5361240112918041,-0.021661572244055783,0.9200386122353833,-0.7496659744540454,0.9616782810189192,-0.43458620738802267,0.5297743132214229,-0.17294317280217114,1.0516424132886515,0.2720727797445478,0.8236719520802261,-0.0691655388569659,0.3571264334490154,1.0433960849660076,0.07522657994632098,-0.5083298718567698,-0.3638224572002523,0.4178962342821294,0.5181443327527636,1.046318789803168,0.4557039866104501,0.0424531758819812,0.6657862337368358,-0.6210629044505588,-0.42846090470241815,-0.36469668198674,0.6147717741811015,-0.4537006238239226,0.1333030431021367,-0.291215251000707,0.5354074570121533],[-0.40431249956333287,-0.8843684520911197,0.5923706208750841,1.3489547910623856,1.0124414433900781,1.1095280680446293,-0.24597676920809777,0.12146922517390067,0.5332470562254548,-0.08604790883925775,-0.47145920878959896,-0.3210476846133103,-0.3363704145473481,0.26319062635206364,0.18279785995748818,0.7245831336851607,-1.0605494122486974,-2.2087534984663404,-0.15331960959429064,0.19634184921792994,1.7227879053377937,-1.1153047496599184,-1.9925713170465078,1.1074189644989698,-0.5348324336617023,-2.976961330411538,0.13388380650447665,-1.4357798779340234,-0.8052837128629646,-0.8712075192707996,-1.2146403377718316,-1.0784762546437094,0.44928216721527753,-1.7091604532502005,-1.1420381743064092,0.985277023177906,1.029443922622203,0.053648811047904435,-0.2397155852848238,2.4702215773011935,-1.027761279628477,-0.6711573552399085,-1.5036395646245202,0.7726123630407044,-0.7640968054301034,-0.053107027180506666,-2.8746601269065426,3.5814842553784523,0.6171198582375081,0.19524559746048334,1.1932674091850057,-1.2824579059951695,-0.7290206403360554,-1.3210564148907384,-0.2791639143759634,2.23699587543177,2.139000036190301,2.500483135011365,-1.1705392503841872,0.3924733663968988,-1.0753581972438733,-0.8371165819222993,2.1801745550918765,-1.5732979229309187,0.7344527945350677,0.15865228924151834,3.028964265424278,0.021232580869337627,-0.8857153618900453,2.1408314618103748,0.3124614478403986,-1.125446861682221,-3.002011243629667,0.9415569806854802,5.032713593234314E-4,1.9701275227917658,0.9780923954104079,-1.855397081149272,-2.064283085047906,-1.6966050308128768,2.4422496743013222,0.18886408559325954,1.4717229844905924,-1.8069069955282053,0.28063099997399127,-0.759447869921909,-0.5029094816738439,0.3815361717541739,0.9205490116686181,0.4608599900344355,0.6293186102267794,-0.11043089723130012,-1.5223026843639595,-0.7425791126196629,-0.29749729560383614,-0.9734709550250618,0.26927343519028074,0.8999402625918009,0.12316663693250311,0.3709915488250806,-0.027787637889081552,-0.003670438360015376,-0.21463959297838534,0.012975990060971271,0.5181229556705669,0.6636436504473602,0.24622158269188016,0.49960358196680954,0.7792235118504625,0.013034627875301347,-0.1410347623028599,0.3916404931722893,-0.5340600512834223,0.5219671911042989,0.10919609424571362,0.736402125595951,1.2160988172852323,0.3834229569438637,-0.3308376001985203,0.02869774784692838],[-0.39760155071495007,0.3771932487589671,-0.6627359114461743,0.5558854957422118,0.9991538473781845,1.240912972577626,-0.1837185273043426,0.28295833469855713,-0.48875573670052774,0.9754560459550553,-0.3464176742982994,-0.23424093967502377,0.2987236409454057,0.15794599799733874,-0.5781153150663988,0.7611673742930448,4.098493854029814,-0.23851714502017607,3.5112967741252143,-2.211721971035005,3.623533890256006,0.19750635593109264,0.30942007012254474,0.5327068825639169,-0.1385377428136532,-0.8329585112900824,-1.410728486838605,-2.5658041279235313,-0.03583197051847015,-1.1447209471035404,0.41241757063260276,0.23674931270456037,-2.9925143838363617,-0.9828523235622727,-0.6830702924361397,-1.5201702065723706,3.0785673783085605,0.5944826388661199,2.244277245305287,0.696633140102556,0.45511065281402696,-1.7296034743536317,-0.4047721943340023,-0.8630572482515442,0.04141866437900766,-0.45149950929565835,-2.632492244540126,-2.7513160840490096,2.240028283113762,-1.7471145194796665,-0.11756908709271784,0.7853572875633328,0.951297669409911,-0.6404164922090914,0.5032987131999481,-1.020719621029083,-0.19491150149776768,-2.0850104329575774,3.087995578985078,-1.113352253105934,-1.4678172415573172,-2.429688532381115,-0.25573533191190584,1.1582608603692985,-0.17552556761740748,-1.2396215951646956,1.4660938720535583,-3.6278067641651988,0.8174116136589289,-0.8482528647423435,1.5507989296528983,0.16180669901437064,0.9586628035174538,-0.4115912350770165,1.7862026354383775,0.7383914399858735,-1.9860581416183394,-0.22433613142822176,0.9524869176542018,0.029961306391544203,-0.14764457198477085,-1.6321504443353627,1.9622286724457711,-1.2973664027691667,2.764193894977571,1.2093336276082352,-0.09716622180153768,-0.5511216485671645,-1.52910480473616,-0.16796139116017503,0.17163764710750704,0.04097076802121337,-0.5756696984088846,-0.38301003735932077,1.953185354057702,-1.482309274947259,0.5238118824773456,0.37974172994615973,-0.6204667280241406,0.13823714233600443,0.514460303496487,0.39557622655915725,-0.6594018189397758,-0.5062951190959281,0.4024199772841719,0.4240554517399412,0.005640913522971913,-0.31078266781675734,-0.48780898048421467,0.3876803523581098,0.7375758536101246,-0.7018915376823834,0.6542901714973864,1.2067946569778998,-0.2416638759297171,0.09691415518096246,-0.6842455225598053,1.2593375157499394,-0.24636976578155456,0.11621787835074837],[0.9135293522359884,1.0966765930014901,0.6734501583820445,1.3109084496275902,0.6902484508380553,1.0401674720636342,1.5629454026776841,1.2006494918612338,0.4911751748953525,0.3607540363876879,0.12250783957239719,-0.09471109703669986,-1.5386546476778897,0.3599768854007606,-1.6225984311012436,0.2777639340674034,1.6335926157063558,-6.446389768822529,2.5385341297795505,-3.2366607154221474,2.7948020228126818,-2.8847212426907,-1.8551359550509774,0.7548674001768885,-1.6020212305435861,-1.5425681661630637,-1.8020301046320664,5.082776715488629,-2.661162987466726,-1.511255033617258,3.9978138297310877,0.45393007585547496,-0.1233139611574885,1.1447377952014435,-0.5059156685681541,0.4816149721770223,-1.9943251170919982,1.0099591186394068,-2.6840756156228407,1.5917910857259685,-3.694496063282213,-0.8591538561891967,-0.17755847280332818,-1.785895044975275,-3.0348532401879025,-0.5969206251212181,-1.7878178090953563,-0.9074770857641106,-0.4079256220619536,-2.213051772097963,0.05011490442847388,3.063463037968821,3.069685058321336,-0.7675150356000013,3.214821998816929,4.1405328738545055,0.44269505100176737,2.8012144854649086,-2.9906705482542915,2.7035116364460805,-0.27764406389982593,-2.7792823717720596,2.1421326609414364,-2.7867763396483105,-5.404950662647718,0.4828157441451343,2.593967417551586,-3.5981587926759224,-3.0517101336016164,1.4753050476943197,1.3826147425676463,2.832340711077477,-0.36240779712246696,1.12881179888703,2.137957380734255,-2.782901533760727,4.422200472268283,-1.757544088469747,1.5193728526487231,-0.37500500380692936,1.0183487089846177,-0.4593060153179466,1.900522320954145,0.04236991814942023,-1.830869711005929,1.3025348066213145,0.44923356104404394,-1.0077826564062082,-0.655805237428334,0.13130178741126908,-0.18431453692721017,1.1000205833149939,-2.836786188756657,-0.32496777372828495,0.9930018415153439,-0.47150740008897823,1.3410251140040277,1.1060905959245027,0.058395242578259315,0.8314833506235471,-0.12983907389724514,1.193613494429579,1.2916305427949037,1.4006709714482803,-0.5637834674122657,-0.15352500595530155,1.3844322876083215,0.4685357658972676,0.3924558973398076,0.7836334396827329,-0.5381404181598717,1.3881287307354357,-0.002387101998424373,0.5170338204104152,0.680977163338826,-0.024302015757857454,0.5485828090925258,0.2360169582852566,0.714483890918548,-0.2448045805992378],[0.7453293200788208,0.805827293711337,-0.8637531398749555,0.7656539159031533,-0.09559161262035659,-1.920165796587857,0.8291122380860328,-0.97495346244015,0.1963720168491207,-0.3114470708884621,-0.011906783335395155,0.5171559866091938,-0.9127840653537284,0.5973690191790001,1.0153002265384337,-0.319171997704021,1.1789204383559622,-2.380242735426925,1.0149336744230177,0.1372476681396499,0.43552444104433663,-0.08656948916293361,2.435452639782161,-0.7372635072587074,-1.1713670761428878,0.8359389449770736,-1.2096170643111201,1.1090032881405518,-0.17378784038750708,-0.2729468782493173,0.4674349939956273,2.423123744933347,3.407092897128815,-4.666931602977666,-1.1720827365662811,0.328725830335936,-0.8061413333390129,2.482806732752207,0.8611888029078855,-0.48350976407191043,0.8768519636054194,-1.2260747884181358,1.5641702491854441,0.41955016386854344,-1.1220193242993581,-1.5220157745186729,0.1445752358439433,2.0742092192125563,-1.4215037114318896,-1.2422343168632939,0.06277525305161372,-0.8210912791966839,-0.9418123062309024,-0.716568654785824,0.58056572562361,0.24850076780798688,2.1408658546465964,1.96265221435894,0.722373223963111,2.3197389641354276,1.716963149117832,-0.025451275341463565,-1.933932380244829,-2.558254450719293,1.1248627550095154,-1.601559935649186,0.2664841493047365,0.2632338238400372,3.4378105833868795,-1.6090640602875255,-0.4600325358454049,1.7941941291005852,-0.1767859841183242,0.20086615408061564,-0.15329673826313503,-2.0315349633905666,-1.2231310780234481,-0.5127976784306594,1.3025606684482254,-1.8816042255712593,0.6659376313443561,0.29404610107908064,-1.135259164809957,-0.6562678682699591,-1.4936212764198464,-0.8755131845819938,1.929916554893842,0.1369956625240796,0.6799969861390964,1.5079834837387152,0.3582940304561062,1.8928243222303425,-1.0502890887416005,0.10043234033200768,-1.1979524313655874,-1.515588555331284,-0.5704937491778865,-0.46191791349822514,-0.4553996017710283,-0.6505563213982638,0.33546686183453384,-0.09411596589023546,-0.5327787413630195,0.32483986286220085,-0.07657856365084123,-1.0136490054802703,-0.13797607382937002,0.10549068507995413,-0.25496546627474076,-0.33581462725186556,-1.181284403084262,-1.0041609928377921,0.16606718547431082,-0.12245899940679525,-0.3596345342795689,-0.6719066495246367,-1.0057379715279922,-0.7371336523925859,-0.356350759335714,0.4885298024136171],[1.0042344885326535,0.09113332266350893,-0.4632423238230574,0.732227939021398,-0.17896305143092464,-0.5255728317164715,-1.5585701143465756,0.7269126690604687,0.5335505969060368,-0.4827553761058688,-0.0073061293245554985,-0.2513939566109797,-0.3390859393473937,0.8170996403722767,0.3826897030999033,0.5494472722141441,0.7317306127124387,-0.9691328201544479,0.9620174163098644,-0.390828858036574,-0.9264190514721994,-0.4435617781091396,-2.017467206557495,0.5370745847052574,-0.603521283047458,-4.471649012028,-3.0403975858687677,0.08043545620103282,-1.6036434785744516,2.6668731255796163,2.507454367642013,3.215690795926063,-1.3183068955479216,1.124425178594317,-1.708515596040822,3.086685302058682,-1.7651964943529668,-2.957128088750047,-1.1891374771939252,-0.4181521275794007,-1.5400950410082783,-0.4065175346871676,-0.4224293067906735,0.12193939280539698,-3.7381677133530706,-0.857530387567008,-3.484253624321047,1.7758741066105177,-2.5123711944955684,-3.1187091431020044,-1.358759274357481,-0.1973711894102205,2.4103087821767315,-2.0921020615683705,3.590074598389826,1.372645721647398,-3.1179224665993113,-1.9667655837915468,-1.4111668945055826,2.2440412657462785,1.7820605289654434,-0.2849841837730865,1.9844658712032788,1.6363186432616534,0.816829135695684,3.1630152661538906,2.9176726628774436,2.3000690406008295,-3.089918808156775,-2.18698490368054,1.2548723771833679,2.6188885688027304,-1.2369661591740377,0.17626474413764112,-0.10341412291648013,3.637569008477108,-0.21120775701004066,-2.991760953800331,0.8769386397897775,3.1945268734516263,2.3727887843431126,-1.1966296666284126,2.429612166162894,0.6918995118549731,-2.584808462792791,2.749576028752632,-3.1967750438110216,-0.07956263167403055,-0.6297295519177194,1.592831354094452,0.04173377699009804,-0.5840066117133942,-0.5608734854055292,-0.16252452850425697,1.5581753958025149,-1.6363410939794136,0.9675681477687783,0.7477175545297258,0.8103284979525015,0.5222653970539041,0.33388755524930275,0.20366768593908455,-0.5494034416060286,0.19131433874134948,0.8358468999131298,0.5540171003214429,0.37877401667517324,0.9383809291805755,-0.38447903822069734,-0.475494969331407,0.740254281837586,0.13553972711068585,0.6555848871425111,0.08984586912573232,0.4267801484843757,-0.15574707155066567,0.2013103087914568,-0.5595215897421587,-0.2595764320240233,-0.3040225698735279],[0.4820898440221676,0.066631202053588,0.3235668319852927,-0.8881518673873952,0.8048130660393891,-0.20133240555949974,-1.049816430868929,0.49557148106619675,0.5759958814629869,0.01308100125142164,-0.11677242661133476,-0.8625947339865883,-0.4775806258596269,0.22989544806731269,-1.0380573287109995,0.7952396889787336,-1.4099945550227797,0.1796685590448225,0.15654845453468794,0.15306893090582238,0.11984812162974295,1.8662853537882804,-2.449968830748516,0.6517487143376326,-0.8863568102648566,-0.9898115566779253,1.2662029506311139,-0.6055190097385548,0.33049991229676984,-2.051597105092436,2.227107128298313,1.0709131178308102,2.149909535272254,-0.5628077373576874,0.012518327554290042,0.004260565486768965,-1.1577586334927836,-1.9615065248246542,-0.24166046277764283,-0.7062473425363469,-0.24535063410050809,-1.2794384810533468,-1.091723156628684,-0.0775966569011513,0.6748082570591317,1.5017737106342781,0.4121026248445788,1.187691354069895,2.5430340260505155,0.8819405082475678,-0.0745727279667692,-0.968200438601446,1.3368750640768197,-0.6384763523850423,1.078450652974998,0.8530087407159663,0.5413660935428448,1.4140611412494704,-1.0714065314702785,-1.080416083885412,2.206894181706041,-1.893179879919898,-0.3852899564482349,0.02596638797992089,1.3998330770566603,0.6605371569257288,-0.9674879559026414,3.1612916623945533,1.2815375590746687,-1.585002334959533,-1.0279844032414445,-1.0351521744108636,-0.4072529355784459,-0.9497896157850247,-0.7011662375614093,0.3729080980400159,0.30120397409301625,1.3255877384956427,-1.5708851159091013,-0.9540438776877275,0.6415000299250296,0.9430716495970586,0.43455324093912534,1.5831271244235678,-0.07736060057162977,0.587527969763216,0.8979391473659818,1.1660030065195761,0.026835086075612902,-0.6780730828430919,-0.11153154302555515,0.7459815077798334,0.6413097407165628,0.3406565694064137,0.36830276897424413,-0.5706671730671944,0.7774968266020329,-0.10919298680206135,-1.1192099195547607,0.7105755810379644,-1.0853733948390307,0.22830752384340416,-1.162436694663527,0.6561706755317247,-0.10741412467893063,-0.03444938872360833,-0.6154444536074917,0.3654211253238556,0.4280164825846876,0.7842327767689861,0.578395428394652,0.8163769216526111,-1.071350889719026,0.017653742107494833,-0.7688086312341347,-0.7411185096832191,0.15251062247242322,0.3877150560760201,0.09474056630295774,-0.49363094794642043],[0.48214129050047605,1.1909917314912641,-0.4197171316161271,-0.9889144658902318,-1.1475770452144096,-0.0067566507198683155,0.1751900042369575,-0.5150294536214548,-0.5146695025890513,-0.1714717856579529,1.5954883690868074,0.40764729235504304,0.9487555881053031,0.513551872023559,-2.544455716431988,-1.1346740192283153,0.4130588496525798,2.8005840199214207,3.102116065156696,-2.9959529523802786,-0.6514803513265559,0.48978234052052355,0.5457686729547978,-0.8866983567860669,1.5418920963019052,0.6057041503412351,-1.5354383042101492,1.9302192319068556,-0.12417427477143544,-0.0037862814757424214,-1.1027492272876669,2.0729439337354334,2.4235942428763844,-1.244020878781074,-1.3595740130336267,0.18994306874417036,1.1435359899402122,-0.7226424260762615,-0.16926794270056245,-1.95219912580843,-1.4879211581811247,-0.22416180319093088,0.20544073439904412,0.34864423526754035,-1.3140838879244015,1.6458657202351898,-2.9658776070052406,-0.8178970957413357,1.4583132899283786,-1.8194983224108314,2.6713948398839378,-2.0762974171164865,1.4960189675497515,-0.36008999886184195,0.46315948370520205,0.9867615753345589,1.0744262683974057,-0.3861343118242879,2.2076280369224115,1.4719380077555562,0.9170479429915871,2.8807843246357066,-0.5313679277729114,-2.112115087373169,0.7043478382470627,1.606808405375026,0.4032903824704367,0.11865384483031527,1.9672407619076793,1.356619716533456,-2.0546771074788297,-0.9433236652410175,0.16968807000055566,1.0631988716205087,2.179724308920088,-3.2113837747999696,3.0388892858714187,0.05104766203827687,1.9202123064144105,0.03419882969198403,1.4090696169502794,0.5266822259925327,-0.5587738690895504,-0.05953784918501766,-0.38022731923313413,0.7884669771981897,-0.748282045081328,-0.9662345592094224,-0.36776344865671945,0.645121289579342,0.14578073939581623,0.10016611117197201,-0.775046472737263,-0.522151454751053,0.061044785513689956,0.6889738651277029,-0.5802025439082255,0.6760246089701905,0.5295243122843376,-0.5641172399443415,-0.9948794827042371,0.1334907046745388,-1.021867491285362,0.19480726111247978,-0.3282784917727253,0.7120963278235002,-0.2502480419677131,0.3109590202412575,0.11679767875727161,-0.6538032750589688,-1.2542167746754376,-0.2561500044746997,-0.4047819591783339,-0.5888745708362413,-0.9858582902050088,0.08295608923611288,-1.0381134950271607,0.3452235564671491,-0.7804349658037042,0.2919640022324766],[0.4491916699041453,-0.6882214729607703,0.10732415440086043,-0.818394211154311,-1.0151379115604864,-0.5449092986519086,-0.5086071972769985,0.2934007802816549,0.44525953638593485,-0.8621997354113102,-0.693561133534792,0.5343725714231323,-0.8995158902352494,2.715062826592254,-1.4810866820699649,-0.12572877700838692,-2.991207951195145,0.920568954874847,-2.825026349775573,0.9179785557716189,-7.981172019685193,1.4076933222939445,0.12922889515227223,0.324802421141538,0.7008731573256485,0.29347077315661296,0.6081124669122027,-2.055114030965843,1.060621185351395,1.207504633775147,-0.07374535011698036,-0.9798231768856137,2.1337217341102046,0.8472227929620022,0.4223813196719382,0.7116713437409219,-1.114469045968916,-0.12587026250397582,-3.4601291504756184,3.5940620927452622,-0.4534394966643441,1.3251058595926046,-0.9557153165782708,1.6737840941815503,3.010647637442302,1.0362627849531736,1.9585372666433352,1.6594867373204771,1.3114079968386012,2.409139362035232,1.6222555759613655,4.523549939573445,-1.8638535086887391,-0.06707574553302564,2.163497337787739,1.5135152999381383,-1.8085438806316407,3.2504609601177887,0.29749309402833357,1.3182473110908675,-2.7546647988144657,0.9987400376199409,-1.2579903728788475,2.6570734708228003,-1.0485532651306078,1.1498280814009412,-0.5815249946325813,0.2360583951533301,-0.15747901495316918,1.3869478883813469,1.44099784417716,-2.153380606267377,-0.8813236763350246,0.7032221013563124,-0.9533253865736817,-2.2960320440749804,0.4354108616253434,-1.02708324356459,0.7992731293004911,0.9725822274566942,-1.3357642086159054,1.6993764069993225,0.4804386365779012,-2.7861218945366524,-2.4300636065531136,0.4754549368015438,0.3647470284239467,0.19454542430618982,-0.8040303997876709,0.43192010816261517,0.08390034320913231,-0.9530075979507447,0.6248277999629832,-0.8239571052692526,0.5300408213437349,-0.9006275848714227,0.31787816754558096,-0.40698936611044756,-0.348311868329078,0.6782286348359532,-0.8607027057872001,-0.3698317021187091,0.40004065637500863,-0.732300757495425,-0.17223616474454767,-0.6914502872838699,0.48705751698457256,-0.6957451123415919,-0.4448822733082564,-0.167855897473279,-0.5785876775409171,0.29403824728792843,-0.7928126446481312,-0.36917109014803595,0.3182448081862075,0.39332104980055105,0.6266230749241968,0.5262799342112974,-0.4691892216867625,-0.8691640410026622],[-0.4024216275450979,0.6737818619967665,-0.543395421606629,0.8395686083444116,-0.671034637468138,0.8155816478022696,0.41017650713829423,-1.016969634266496,-0.8990502329703123,0.08295389807608566,-0.012682058367957329,-0.3668416672484812,-0.031133428428259745,-0.9242812949778028,-0.1985719114580314,-0.028847851192740685,0.24014623276058464,0.6735181847842333,-1.0590675344022966,-0.08896953413899203,0.5159063340438379,-0.9427941477496575,-0.5919087530560417,0.48013582760268947,0.4844199754040885,-0.11654957737034506,-0.7862176242930414,0.5690487092702439,0.5902974816510471,-0.18993068076298764,0.3723897697199812,-0.9283181278418605,-0.4380112477718885,-0.25437668320821755,0.5152582323002973,-0.6686688333317655,0.776453611383815,-0.3472576765582005,0.2132205807921465,-0.0934797281748449,-0.13346747803202533,0.6089688823012241,