{"name":"Music Embeddings","description":"Trained to generate word embeddings for musical words","inputs":120,"outputs":120,"layers":[50],"weights":[{"matrix":[[-0.8442911554887528,0.7961716409584797,0.0436984549736522,0.8176469334206943,-0.4931621326814668,-0.9399306055501345,0.3892809563479367,0.17715902103260175,-0.555968168459248,-0.21410448635567014,-0.11097710090988039,0.09955086926264398,-0.6393744763776266,-0.22559112932376227,0.7213135271388857,-0.1441027875943767,-0.54459536065438,0.6553519680910181,0.3380289922487967,-0.2748060456206922,-0.6752987009093528,-0.03662592209100215,-0.9691118307782098,0.5107743684868548,0.5326625876783024,0.20981980097032585,-0.326071100913474,-0.2249783512175361,0.7209552068372699,-0.02885138250164341,0.43815772789565177,-0.15749012982931113,-0.8723417832413866,-0.8623274999272088,0.011390226976418583,-1.126690597410033,-1.0321191533639995,-0.33709011935144184,0.7683931239082094,-0.5904242029424998,-0.9851049470488585,-0.5928518794889754,-0.12492967772663888,-0.1399794496083865,0.3990179440063546,0.01491388546483538,-0.009889634313568168,-0.5750717072994629,0.9023581362054247,-1.1050232913809388,0.016506631140367104,-0.915829510137821,-0.16430508616615178,0.5895960752955569,-0.8201964237434619,0.5989110557024205,0.21306086742669297,-0.667607146163405,-0.9187574014948787,0.689551468998627,-0.46323270466122834,0.37298069954612545,0.268233749055621,-0.9350614671260908,-1.0124181922019386,0.4009664707136478,-0.24933793453519357,-1.1465584196228475,-0.572197939257316,-0.6856268505381353,-0.6095228754979136,0.08069173215108712,0.2347689341205572,0.5580031563017377,0.6230284722784489,0.3068514303976573,0.11647667789186596,-0.7504968710810276,-0.46622697706510363,-0.11152568072506797,-0.4631529427296925,-1.033444791220689,-0.019353986594517807,0.017292647655678173,0.23496512621436222,-0.10159512434592377,0.11744436049775435,-0.8890953410182842,0.45510235863409526,-0.4096564266537536,0.07509874591020765,0.11936224843113145,0.47957957845231247,-1.0860126153425016,0.05981612726652253,-1.1649336287022292,0.8080222770096327,0.27401783506831856,0.6046146549176027,0.6688828161312249,-0.582959766082495,-1.1045164241754348,0.60802248177223,0.5857084067757736,-1.1502224311981357,-1.0394856856006578,-0.705751637914314,0.3529626540660419,-0.7094704339399934,-0.4504131592441873,-0.03546357029296905,-0.6256458324611811,0.7616628030557417,0.8251237738197685,-0.007781907265970911,-0.08073563650958761,0.530343488065107,0.23936171780426344,-1.0855344150940547,0.5639246531752728],[-0.07388863620060881,0.00437693283735468,0.17967916739751857,0.025539938327493857,0.3441131188968877,0.3121930106942466,0.1844034802487385,0.4898543201592314,0.5475055385097469,-0.6712577863836432,0.11628124926702849,-1.0815541547741312,0.6681657545203507,-1.010330412520713,-0.07226533439904807,0.5667683695446339,0.4518355229692646,-1.016260888858763,-0.5277459318816011,-0.8764446257053867,0.43332000313211744,0.12496490018663957,-0.5388087812200846,0.26169300652271893,0.5420354957110448,-0.0282597744560827,-0.03366112647465934,-1.0777983399991842,-0.11027609985839443,-0.5758326529860569,-0.19949806098551986,-0.9204395268489638,0.5077930760761065,0.49918694297800725,-0.6164274472751189,-0.8801132341322668,-0.9737239960244026,-0.438128436725303,0.7101708480515516,0.1430411368588068,0.12636785637904296,-0.2912031597886776,-0.6093527894217189,0.2126324456283138,-0.9543661283384424,-1.011332532785729,0.46274814517184554,0.3992014904037061,0.017939078899215227,-0.3403719633380826,-0.6290408471140878,0.29594817947152907,-0.26127608571238636,-1.0654706551294277,0.4605244417694032,-0.5036057226102664,-0.20279562913964502,0.401628145536959,-0.5004989614813133,-0.3008943016637283,-0.9098866828634755,0.27566207121582503,-0.9664854360556157,-0.28279889557305304,0.13653687752123186,0.09602772443254069,0.3695067736754502,0.0683956883624491,0.6328321319444531,0.684734498490522,-0.7182592906711099,-0.6644949689428593,-0.15665829584542976,0.2242070339564061,-0.852980468903048,-0.5509086356037795,-0.6852121562780764,-1.0928108391479088,0.45388650086765253,0.5949263927748553,0.6923335277676338,0.8504440393217727,0.5029682023070028,-0.3190986032769234,-0.4402611247755919,0.30446996636314866,-0.5480252280623495,-0.26891183311463357,-0.9541994531098384,0.4590509468397471,-0.17314909479869586,0.02499918286438974,-0.9318185920785279,-0.904923585528155,-0.883182368708644,0.3026493476014255,0.8353504751154914,-0.0387298123680299,-1.0477527332651837,-1.0986140912596192,-0.278010980636304,-0.1724369498158413,-0.4511329299200156,0.46820760463262345,0.7733544649749938,0.1658745533297846,0.8172146819447901,0.5014724428852151,-0.09775215782104558,-0.43966269708965217,0.5165955967574555,0.6436984599271545,0.6535599386964778,0.28009859443415275,-0.7374913484580174,-1.0553817361403812,-0.3273097400125487,-0.4461954656330322,0.37561631287708236,0.1925178358614156],[-0.3279488829631817,-0.03578552169112013,-0.4258102988082211,0.0047213944416457515,0.36945733687416016,-0.14136113377685622,-0.14987767493195087,0.5803160575410183,1.0104859180655787,-0.10021362036472255,-0.5708847481256537,1.0810483813646796,-0.13329341724427196,0.9431801222526196,0.8088728104388498,0.21050065979777355,0.46617948673988807,1.1225294807223734,1.0778323153437455,-0.3471188471127957,0.5099596722860108,-1.0974472620782991,-0.793003405546984,-0.6765848409362244,-1.4427411578517253,0.04050455923444484,-0.3733900598613925,-0.0731061682086697,0.38668455715041805,2.643796320883854,-0.21194288653851184,-0.7395431204469568,-0.18699860266140356,-1.5322628351070149,-0.9407492741677682,-0.3201739820275712,0.1614083841243596,-1.5618884907222215,-1.039860866253552,-1.5711228325877844,0.5479192980548853,2.821965416028853,-1.5540479710612554,-1.7486772105466857,-1.2503784914745122,-0.8462275420172024,-3.44977280938392,-2.3339161262923427,1.4562747160542184,-0.04299997180661559,-0.6389189783458384,-0.026825180956877373,1.5909726999581815,4.933995830190423,0.9189274766349919,-1.9019935730080875,-0.14125430219976656,1.2229670774696968,-1.2550306692974706,1.4087310586787443,-0.6098870403837041,0.03334855863485689,-0.3488795735676514,-0.6839344947901262,-1.404096008746003,1.615611673951099,-1.3192363652913546,-2.0404802705351623,-0.9510004936916757,0.17691168991582298,0.6664577357877485,-0.15912065652125537,0.4237162380924278,0.8491587530469873,-0.2556165301523749,-0.32942193314617285,-0.8628904059276249,1.6689151228928312,-1.0167718784453084,-1.6415694300812878,-0.3165755571554366,0.11282872785775296,0.033699281615169635,-0.286219754219257,-0.13444995381806712,-0.7124109595125302,0.7122330260715529,1.2272486195820347,0.7914118334070341,0.2448408742800278,0.5095718274402106,0.3112408742037121,1.0447822962768436,0.29152098913743224,0.05840574666960289,0.07410246912004491,0.14863809133321076,0.47287740447036475,0.3241336984728997,1.003819461413485,0.8905196031769843,-0.5840543991430464,0.14761144745150362,0.8988081691647615,0.0464042471008597,1.0700177565622722,0.017029741037583056,0.41980056882669947,0.6225291499680926,-0.39006381972384296,0.4752182751193895,-0.2150106219057592,0.7844675768472112,0.40168909317108925,0.22164595315680657,-0.37861788153107434,-0.0378758092068271,0.2087803755114267,-0.6407557768321032,0.7252688395975556],[-0.12029554446960687,0.6293063739796616,0.18164740357973372,-0.10072062937211625,-0.4179111286002974,0.30609480332095734,-0.9249768103880536,-0.44266171242057245,-0.5699397422640196,-0.968010029112898,-0.6913300370449555,0.2731246645726137,0.633083404017645,0.549584149162105,0.46670225339275745,-0.7237810661405006,-1.010470877376227,0.15548555003525882,-0.16880166562538448,0.21243061604439892,-0.3847439307459745,0.2328419255922989,-0.4018810871324527,0.09685823193636038,0.4453572757098744,-0.44625254371591944,0.12424953535925536,0.5242489874411731,1.119083598481894,0.5972263592842001,-0.1884906903829045,1.2171904742990511,-0.020450971990296843,0.8817457416137094,-0.5760793028180579,-0.46063809143312967,1.228631890759311,0.8572037342340182,-0.1097174423366277,-0.7441552052008185,0.40226123653184115,-0.182919662277956,0.4758227874330825,-0.3673929873712117,-0.7039958243586357,0.7676330864145644,0.44919423644251427,0.09560310982153497,0.586258972327563,-0.10490359155868695,0.3398679736036112,0.2905551827889186,-0.7704447739207314,0.648899631702187,-0.4426267499973912,0.2722023271702438,0.015524689998814005,0.47563892069511604,0.3367212328260136,-0.44838824341021083,-0.8376305827171725,0.7307329898721187,-0.6233293809779256,0.7365368716653872,0.29894022644355517,0.021083886358828262,0.7158455887003653,0.4994656856212384,0.1673745033207319,0.6956509621947538,-0.03551412686671039,-0.11693521060099982,-0.0434560182917655,0.7616939034728363,0.0031090538917875727,1.1292094436329514,-0.931333598352734,0.9275398821802792,0.050542962264562286,-0.9321043479054192,0.7869360387300862,0.696368626893025,-0.8851783871647632,-0.28205894302734086,0.17966317022654668,-0.1847684846673433,-0.13720329704723486,0.5279058858305425,0.4205836472693497,1.0082082258702354,0.7067657842326918,0.7569928263895139,-0.21138289442951055,-0.7001879008524003,0.23548546546363117,-0.6946118047780333,-0.7358320367917428,-1.0545784189043028,0.05119938996007005,-0.8973256145411082,-0.09930810319695131,0.31641409833657136,0.12747744561231336,-0.9535731792814457,0.4495854921126882,0.34039984553992303,-0.8348953010285598,0.751469684853356,0.41166040415934463,0.09298424131923168,-0.8083462687317453,0.15579393909043984,-0.6497667623373073,0.7080998875735709,-0.2870189875542673,-0.280462026056505,-0.6688328737104299,-0.07738543859053919,-0.5189452511141521,0.9226656198958556],[0.3808516592027622,-0.3746335138416659,0.2184940265611828,0.7859188500539087,-0.4570206957001053,-0.08565269660694917,-0.014036294051310213,0.16217733659410508,0.052830772936952416,0.17784242558071015,0.28521085954668124,-0.27603931272832,0.04770071169342384,-0.525309105053726,0.4707679885387238,-0.14268604692545045,0.01925956566263325,1.3410183144133734,0.1123127737806426,0.5451145611028391,0.19646172461047925,1.441280956273933,-0.05363935880140122,0.8179202372978422,-0.19692962643963083,1.1202215620180545,1.9516422049965039,-0.7624297521751648,1.8522043465206381,0.14270517411869,0.20510312852257603,0.9517197367674507,0.6569371549599778,0.20619206340446236,-0.5984184013411036,-0.38871114148712366,-0.6978298046266156,-0.40148860181956336,-0.45813553048516326,-1.0744445694610503,1.4365300249667636,0.8658797411222156,1.4608973108954286,0.004371228763367374,-0.5324445150531444,1.1466987475354558,1.3255222161088815,-0.18189025608623308,-0.42164785604878763,1.535833551573949,-1.0037710805122595,-2.4185258854557157,1.7208036794572779,-0.35556016646521277,-2.007934206669356,-1.6936132084746947,0.5676829954374619,-0.6908113870084998,-0.6678412622258245,-0.48381577035371537,0.19992204484557535,-1.1391467163670945,0.9591049367762027,-2.719675979556437,-0.34913847086078803,1.3165377423866442,2.3142416992928547,1.2076189298775826,0.9548368430022334,0.012660537450243132,-0.24462499865527051,-0.9470279658009436,-1.0635615101389553,-0.6162655087471848,-0.7008917608046332,-1.2060331866665046,-1.912407614200815,-0.8910565444938757,1.1811673723233709,0.6948769329689252,1.4254067689779197,1.6762295059015564,-0.013604408652402557,-1.4144823331048546,-0.6858462346680875,0.48548072373475354,0.38355254200101735,0.3602924077974513,-0.41665930869929463,-0.7555373457440474,0.23384716258020904,-1.222692405395188,-0.40553919703867464,-0.735668988279994,-1.4579443654973152,0.4420135820035048,0.44722446949133743,-1.0061207541055788,0.6933180690509559,0.5108386187518141,-0.25744103590412576,0.2536334085340743,0.8549198135566851,0.015285947334395217,0.008940931047927201,0.5916725329198647,-0.9137676179677912,0.14804883866323734,0.6527744262880129,-1.1075028272183938,-0.6027456153986863,-0.4462506867602317,0.0240045827311438,-0.9532724193162427,0.2973193785468805,-0.0331628767828383,0.6214730149440715,-0.9906316194740956,-0.8615738627417948,-1.1080393412403375],[0.6718026558296399,1.053424686849425,0.6224717898291023,1.5108470131382132,0.5403977638512725,-0.11680000499639526,0.7654915868606915,1.0541065873317135,-0.3555000197327806,0.2120959484121766,0.7898558468714934,-0.061366922515372936,0.3593111740122525,0.18021569373802332,-0.029626712401447996,0.2659766090825246,-0.3410394169801128,0.30593678027729715,1.30353784073671,-0.7495261919565352,-0.4113164007385753,-1.3314240697375603,0.3584073830364393,-0.006818833305871056,0.31113664494940974,0.5304648338662815,-1.3268263128442983,-0.372081751602196,-2.324501791496284,-1.4581532351135116,1.0638177995095244,-0.2218749004814618,-2.3617328738921186,-1.8919467530748395,-0.29865589533308806,-0.005213997646440208,0.7562178393991175,0.4596229404709058,-2.5657058431577937,-1.8649356689259025,-0.7803929051903257,-0.3512769597484306,-0.20874399955909143,0.5472475036970579,-1.0515959881694157,0.23307256260881204,-0.9742614112353701,-2.146609043927843,0.2258630139371991,-0.745317038930471,-3.3477497123360744,-0.19727926336425894,1.3261855720320053,-0.735606491579288,0.25552158131282376,0.8998219690504375,0.46275318206618987,-0.18954571785052882,-0.07116784454145145,-1.0241547100085702,0.18180068899687002,-0.9126301877039702,-1.8255778163648027,-0.9031948604574124,0.461279598875336,0.08589706003256535,-0.719596556088913,-0.36551557988991296,0.8237969008762556,-0.17369667265836736,1.2714270366367517,0.9951615766180402,0.2695459285183713,1.7600970465655168,2.38866680220638,0.4344855355552563,-0.8444670529483043,-0.8190170793951559,0.07447649759740087,-0.32514891194752976,0.3670604981393286,-0.2375477417804986,-1.2352641314609747,-0.9898883300211719,-0.7479969989485453,-1.2023859847191645,-0.6800139464455345,-0.9102631602930874,-1.1904478992704952,-0.7050063103906904,0.12867917411116878,0.3561178956455377,0.46469947325074035,0.640576289284742,-0.18775811720294244,-0.30704331372879184,1.0244832379204396,0.6273635580712108,-0.43939984651406755,0.2816561613022009,-0.07961170189066999,0.6394177829646746,-0.16141452977732507,1.507148905020407,0.9831651859972422,0.48783639391377903,0.10865997343723982,0.7524402452593182,0.7532895554181891,1.3855774555976894,0.18143820690112894,1.288065166406308,0.3746713559784583,0.6039186329489881,0.31211968927997974,0.6420418384978817,0.03508153308548067,0.1680434228738244,0.5332827683840382,1.3005482236361243],[0.980591115205679,0.5696402404056158,-0.237879001059156,0.5083255406544522,-0.9611198623491717,0.6076808484033787,-0.3828592330314831,-0.6684558586293823,-0.6969640036372591,-0.9200004115444336,0.5768415728195286,0.04475974673805745,-0.5444556560253915,0.1943281216465753,-1.0513310283293649,-0.2338821623430316,0.357261070543789,0.3782540181163115,0.4793597292797816,1.3078265440764163,0.19017040029597626,-0.007899570163091625,-0.19596969314635934,-0.6631977139822598,0.8313351366407606,-0.5224167323258274,-0.13603293836421176,0.9238205698250592,0.059981968283913334,-0.7535123245862634,-0.2430743549948856,-1.6601481409492385,-0.7575779143255736,-0.17160205507458473,-0.46531520394573656,-0.6657121061602386,0.6811471684371266,0.044920659565321,-0.38054128316788005,0.5577429845338738,-0.4789529766324662,-0.9870639754439848,-0.3422650249131153,1.100923004610259,0.0619150259558732,-0.10098954354372384,0.528063009912825,0.2743267419150902,-0.4245427963381674,0.19516170785328868,0.0017523548950382929,-0.48929456412662076,0.5543122841049797,1.1846440249321342,0.9256991534193366,-0.9833210506611797,-0.23815377281123565,-0.5987189298921614,-0.39720100737703595,1.557265753917099,-1.003862167250044,-0.15614022680688316,0.6208584057094004,-0.6574552751710785,-0.4539176110321305,0.7504704881222393,-0.7567545142366678,0.0823884015688496,0.10974979838394075,-1.308083530479928,0.30994640605756446,-0.8515836168971112,1.6383051443347996,-0.20313339861633392,-0.14159968588218783,0.44249795576869283,-1.2404826026599383,0.19989796271859733,0.0299979804863699,0.6169022912308016,0.048861347742615496,-0.08614512821534176,0.21560981415115626,-0.943874105598806,1.537746361304137,-0.08971831215489409,-0.1908028431161136,0.31827913767855104,-0.2272854661538648,0.4038755996002616,-0.03736136251644931,0.6533572149090291,-1.1198547997447,-0.7124251859306789,-0.8741875802035572,0.2501455564499588,-0.05436766939711282,0.18755519370907814,-0.8611689553012083,-0.35297541530508797,0.03361752959781267,0.8044997037487056,0.8112541880745106,0.810170954118359,-0.346248864255217,0.3749096181421821,0.3551867389992836,-0.8858217280863319,-0.34610531926416627,-0.6616426735471379,0.9155397524141007,0.3909559248189208,-0.018826874151209684,-0.7588477547264627,0.09830872345425481,-0.29211791882520727,-0.14021515530194176,0.017857682366202336,-0.2663214211693858,-0.20487173295565086],[0.6281023013874821,0.9748688438892245,0.8171642349519209,-0.29094534575309783,0.7072878626516242,0.7573783319579449,1.249270028470345,1.1469192501401897,0.2610849261513678,0.8690267333106303,0.636988820064737,0.36189470797141,1.0405860604299242,0.09117257550179939,-0.4921880577278641,0.7828392457433374,0.3312130238282476,-1.3203027428959313,-0.09237747938935424,0.1692901701300943,-0.3926849809396804,-0.9310126291530301,-0.22662779184553572,0.0667888109520177,0.8473219701621645,1.853156446201553,1.4854688136329304,-0.36074941621387924,-1.2087133063610525,-1.1623921374069859,0.42862527278212825,-0.260665407564771,-1.372473836312475,-3.0807095077054534,-1.2104441544618239,-2.1698201839257893,-1.0811144808319477,1.141800808400303,3.1880976363043665,0.3569800930494515,-1.5982871610026772,-0.002835229258885705,-0.26575534076190405,-1.9901108347061753,-2.7671412932750568,-0.7909218178445279,-1.3407695725931004,-2.327125747882932,-1.8024896425399388,1.1389682340561873,1.0208819080655265,-0.6370231936764511,-1.6161107884112313,-0.436629482562839,1.1156799131242512,-1.4761977359718752,-0.7286803563274512,0.28849583531225775,1.2735213825369949,1.5282614990099153,2.950634035459963,2.208751610031816,0.7696667685372323,-1.6335474632639386,1.4187875260882352,-0.9503936127214707,1.3310988079891,-0.18701629299233027,0.08717576254353586,0.1337678328600877,-0.0464887696334539,-0.5414959233417146,1.3436652886713523,2.819864068657088,-1.0589784746161774,-2.296751563388185,-0.91045219180319,-0.8481680206884421,0.2628749255461562,-1.1439854430556284,-2.3649589096916,-1.6859581195618258,-1.7267935249549877,-1.2047501626309756,-0.536376083973866,-0.8253213118530445,-2.5256828906107764,-1.3386563058539527,-0.9089369270299921,-0.6495178659757328,0.005268722847856819,0.8012273498711646,-0.7232191987430937,0.2609857093774328,0.44402865781972645,-0.37919815702693416,0.3402022202430016,-0.6836158330397958,0.8341979889790417,0.24204630369910657,-0.035061469305852175,0.9542874214322641,1.1283886721685352,0.9605245108714932,0.31282617011295,0.6065658641194641,-0.18621069367371268,0.047125022762175006,0.6397089947173374,0.8628021404550562,0.4354570938234862,0.15938944059203397,0.04060641448022956,0.10292135890431138,1.3509843820987963,0.17757514799426238,1.4060553611731519,0.41327576074688643,0.300448472161138,0.8340919006224196],[-0.09537859579007277,-0.7770295562617603,-1.0737352487327054,-0.6776233814145814,-1.0025562600064315,-0.3000718666802742,0.723932294868788,-1.0507364189675914,-0.6008844060624289,0.04085847273452127,0.1988539782688043,0.47755469082471713,-0.6648800047459997,-0.661651220288383,-0.013232007095081716,0.6224414941964517,-0.6042792338067525,-0.13383394118871483,-0.5412393005453612,-0.11122059275969984,-0.2591414592962226,1.4466986280945566,2.2442003677515117,0.0946028489426248,0.15155682441246038,1.0629977429047244,0.8690417529927038,-0.5361370908041766,1.7502783430628188,0.6003251572556955,-0.39727930632370373,0.2444078454496373,0.25797958841833,0.14178663922063497,0.9689993125067238,1.8949278277353834,-1.1359479682672649,-1.6706423412263829,1.742443426358832,-0.22868435983826216,1.3253658264229982,-0.005953170216544204,0.13775681535969808,1.565079126426162,0.45798252957244406,0.7476101361112468,-0.38848235916247986,0.6503757605183103,-0.02904965008683195,-1.0870497005279895,0.6374171679144329,1.4003635552010405,-1.0348219822529707,-0.27586980618609175,-1.7705665385403975,-0.09195902464571865,-0.3140318165967217,0.6567206246125107,-1.0226866482073649,1.2697393993318797,0.016491926192880462,0.2966090529014779,1.3209886134522224,-0.6874374468778982,0.6346144659642154,-0.6088012475761275,-2.0028076200291003,0.4838840766751236,0.26015637307920125,-1.2309747822376877,0.590327183924426,-0.4603571660366954,-0.15517259671421593,0.9831129609075294,0.7688039716436776,-0.8600438897682902,0.9460983989641871,0.4737454772377535,-0.34401115068048715,-0.35617693961898117,1.0730632646463576,-0.3944267148628795,-1.0739900363657273,-0.40181303097805554,1.3388449858580365,0.430111664157747,-0.3458052483836171,-0.8152430497746456,-0.40336887796656967,-0.06597104353100282,-0.5157965351299184,-0.46996761503899714,-0.6781817188206419,-0.38990925818201166,-0.7849604970829426,0.0357251848030319,-0.2626347989048697,-1.0248711960126988,-0.47345300300332227,0.5398670233245805,0.7017885502620921,-0.04009704968941531,-1.3560507051523885,0.641017660533073,0.7930096384860504,-0.8037511477359084,0.05551276732889611,0.20306577263046371,-0.37747352888038993,0.7752762786815638,-0.42927429150663327,-0.4028666905996518,0.7744370101643502,-0.11095294045541101,-0.624369433593028,-0.8019749458749627,-0.990551820795722,-0.624187193883731,-0.35956997023188736,0.0475198794164097],[0.9578097285246968,1.0313657277947756,0.4731652249498267,-0.44919485050579855,0.5193518364245099,0.11416476316446031,0.7917803934726536,1.1630352642283328,-0.5346948195907778,1.1833928159600628,0.6885744945002837,0.38838446802320903,0.04863461833927337,-0.5541410084742956,-0.3896227077913832,0.011477867752065156,-0.3049772624716163,-1.7562549060217636,1.2940381473576146,-0.47364472569582233,1.0593035277460783,-0.04206461886066264,0.8789776525028483,0.9166338529647401,-1.6029145656504853,0.30341276207838486,-1.0970102067914156,-0.01600699649309019,-1.3579455270370062,-0.18465854324053874,-0.542826060615748,0.10074785450579372,-0.6781957885962784,-0.5896834689362828,1.2904275663097966,-1.2880331683496489,-0.8456209635944688,-0.05041470226374325,-2.1690398774602064,-1.8745853464689983,-1.6994317304745528,2.408523354946457,-1.5974899990684224,-0.16695417989097386,-0.3194725962687817,-0.5735503712687423,1.8997709198747925,-1.124255359463295,-1.2357898719026894,0.09913989295855749,1.2754114262368301,0.06527524664563926,-1.9781678989062201,0.25865197268138546,-2.094883780363455,0.8284455029138067,1.5171160103245729,-0.21355634043067687,-0.2912366055222434,1.4101732111559204,-2.1444765410757514,-1.4589310446602701,1.7092713254397294,0.8488875768820635,1.0953798521803637,1.8283662979504256,0.8971086203004233,-1.3130389256218036,-1.0206158456217864,-0.8688861169770761,0.4893549828384452,0.221256949055157,2.0378870632504995,-0.774962411325702,-0.6720750472920656,0.33239457935449457,-0.7595974751146795,0.04423521605569014,1.6528216006830896,-0.8646713251635427,-0.35213741240150287,-0.8575825852455077,-0.45606294502348044,-0.3705067866484815,0.012249477611782347,-0.14208287873999612,-0.5618442309252502,-0.37478918275485423,-0.633535219898422,0.10676236775292855,0.48134343980709987,0.05082636326532444,0.32533497102407394,0.00914478097405724,-0.26873615671501233,0.5850675043555155,-0.27131902414238446,0.26284127228196913,0.7554795829529112,-0.19362835219001057,1.0399633599410216,-0.1161403420244056,0.24957032147655653,-0.6571486497432052,0.37416118732702,-0.11469595927590798,0.8062516817733251,0.6603776374703408,0.7010228461034383,0.7767961919207184,-0.6552901425969025,1.1278786359791741,0.037230781475628597,0.26260509536653537,-0.6069270665922167,-0.21493162011116945,0.4016604200721836,-0.5794881315162549,0.9917364313419409,-0.4937898966360899],[-1.6305290618711952,-1.5412977480628933,-1.9364298769741166,-1.5232565785840004,-0.3596365281561456,-0.9424537058977498,-1.9846270839824716,-0.7069624096851961,-1.820473087997539,0.4714225875082792,-0.2992308292298658,-0.5536770768784749,0.20432591828762484,-0.9686157614204237,1.702396445557635,-1.0552850455389085,-0.9864111990733959,2.3444239579555464,-0.6148453766215833,2.2153963720360874,-0.5131015867188462,4.407932664468541,4.584630186488041,-1.8026112001121584,5.042617075341064,4.685930618459438,3.0706344054237755,-0.025717989614483704,2.6441169905350037,1.8226003243492261,4.680868329666682,4.07886367386602,2.185141522873003,4.3086632316911855,2.3008875562991293,0.681949213065416,-0.9092738030349873,-0.27171046461240506,-0.6882307031688858,0.6434578727393641,-0.3547392193394787,0.6315288544040824,1.4246582515795179,-0.7538857156982969,-0.1729401394236799,0.14115956032716148,-0.20360501091295477,0.14312579243028825,0.8934051389075655,0.5182340752479162,-0.207413707556585,0.5803202286969814,-0.09786639835629925,0.0790054408669816,0.2019444124960772,-1.8155977061625586,-2.882381294196533,-0.16925040170153166,0.8695266771558915,-0.9766586504012171,0.07294689090565343,0.6725431066073888,0.7264792745073905,-0.9051802423592439,-0.2760826798839104,-1.2946841516264158,-0.6466692643691179,-0.47677499034144627,-0.9932042324917566,0.6465000197998687,-0.06738763529792452,-1.074392232748215,-0.34276962501359515,0.36241357190736384,-0.0871879496623931,-0.32941966370182735,-1.3256084877053609,-1.6543517320125274,0.6239923507496576,0.4517099728580695,-0.4070470287384103,1.0667584458261787,0.27821874646874506,-0.1639316904378306,0.8526235864923247,0.6887459446382684,1.5008976384542523,0.502525732612211,0.5219671594993068,-0.3804661364255099,-1.0167017899222008,-1.2808768820353722,-0.7302401696802049,-2.272181505640926,-1.142966820381404,-0.5633319687291514,-0.6386265088105337,-0.7023544738475476,-0.36731566874729144,-0.857051748977609,-0.5850397616271146,-0.704747906971669,0.617838587882498,-1.3337898628741882,-0.4347814870035775,-0.9417176311885211,-1.29854964692102,-0.9534587000471382,-0.9054755047814946,-1.246116440778071,-0.42535120674152344,-0.3558012616024144,-1.527974746312016,-1.7651876015842733,-0.8063225386989867,-0.22065844252855574,-1.2833686518497782,-1.0161262155056277,-1.779423738922944,-1.341991965076047],[1.536234331838527,1.2522586828553595,0.18289805588132255,0.7990176414230669,0.17341687764293465,0.19151109158216442,0.421006054034984,0.8830594860888002,-0.16343233330133541,0.7219116416618302,1.4706220575150255,1.2873975644243705,0.18701533533825648,0.8545171203101515,0.640826992329435,-0.23037247526938973,-0.21844059618605616,-0.8314224567456511,-0.14465203307920063,-1.1162721115716563,0.771320454384837,-0.6427770706073329,-1.039348025394201,1.4720290569219328,-2.099368745418733,-0.7845020040929307,0.540618629512439,0.4375552689318573,0.43424953844295633,-1.032381913761799,0.41714103661696533,0.7542334466218773,0.3530470143208738,0.5338646631629509,0.26090682580587343,-0.29622402837635636,-1.412574258507617,1.0049340069728852,-0.22216804059022585,0.7884140988087768,0.011191188447787,-0.9665651636473651,0.46151640337099914,-0.6011367783108462,-1.5208629089276429,-2.5545373010502312,-0.6621016564385332,-1.971770822525094,-0.470360027373509,0.008180896136673688,-0.1015288479544903,0.18408634274200508,-0.905172733889218,-0.7124723183798327,-0.7194634590342447,0.4376745974370674,1.9238287823315836,0.7645354956772121,-0.7753746742184571,-0.48681331879897316,-0.5875754042474942,-0.10703817007669408,-2.181546793853059,0.586742679832865,-0.9159973133015643,1.0160639023357472,-2.3634069846685466,0.2838294359368525,0.6317152967368684,0.3688100559219931,-0.911783764323146,-0.449915807955275,1.650038718029309,-1.9712084282655233,-2.588093643809716,-0.8548314215300595,-0.5783326311194533,0.27439003688435754,-1.2472027354645647,0.948803131686925,1.2127887232043166,1.4081014825188833,-0.8594717840640033,-0.5947708747238295,1.412558109981297,-0.8760804312131033,-1.1463740957499988,0.10961640828922967,0.10415054838609591,-0.4553987597748436,-0.5822232050535103,0.07620605213769374,-0.12597375323582072,-0.17808136881661413,0.656457265384551,0.7003110479677922,0.7234035880006887,-0.4543626489418377,-0.5541833256351351,0.7327734762421027,0.9602707126507289,0.2566831269715885,0.7294873172515283,1.1216853526806536,0.6531010969521288,1.1694404594035237,0.5146017881020283,0.23185721467041093,1.0808689999864456,0.11513022453326233,1.3451759753702952,-0.22674064408793074,-0.11402602389409919,1.67844410730458,-0.11609249006501286,0.028066191542069168,1.0560888109382465,0.9317127863682205,0.08890675639564113,-0.28304905660401786],[0.008738805616046771,-0.19283066526698822,-0.43551214824828666,-0.8636904049807069,-0.9410666733402479,-0.38263245603960216,0.45865548197541417,-0.20467878522851085,0.06315851686256199,-0.4283654536403957,-0.6232682377699484,-0.039769951587504494,-0.967619342184823,-0.08796631744442227,0.19133458266659337,0.47451134676795814,-0.07068976741932778,1.6431033883504562,-0.8284252714773642,1.2835608228408657,0.23564032966270548,0.7577957810982093,1.3848443490125135,-0.5646621854970445,1.7723030281906003,-1.2761292555142691,-2.2308511813284566,-0.3899630565336495,-0.0613775792850448,2.3181902606532594,2.638272130665495,4.023464571352902,0.6771265210538219,0.40466799303034906,1.3032244956241164,2.2586488730219463,1.4256207904670777,0.17862697316321205,0.21680636471586706,-0.5035855869370027,3.8667851118333925,3.1546474083537093,2.223305365968198,3.1256809065237148,-0.44405624754509687,-1.545284579683026,-1.0705670883686627,1.409140582053871,-0.6264413143044268,-0.3006508814824028,0.09647260644595879,-3.1523316109140627,-1.4508610949079785,-0.727647183244461,-2.7450834102130433,-1.07036867792633,-1.4763406667071595,-0.27166483521313756,0.8570407433999087,1.8866899254324656,-0.2572428908855252,-0.5267459498691152,-0.8062853474650956,-1.793167363250452,-1.3451911884128005,-0.9833696827272363,-0.7485043130697661,0.6484173694725026,-1.0522073022162894,1.8334799400035426,-0.8755924296190717,-0.5184901582223009,-0.18381190173676434,-0.783917141565406,-0.36437021338242614,0.12766097232372242,1.0700860729309418,-0.18590757774673836,-0.1472746663614179,0.5122992213736645,-1.0065410107784643,-0.026556500040415328,-0.22609270520543795,-0.8140819398263219,-0.40322440847252194,-0.6425217418426785,0.23294563095737544,-0.41453006472520904,-1.0998220435120551,0.01685542738344255,-0.873843977201041,-0.7319259521594935,-0.5696048225494497,-0.611674668452361,-0.6580836188617607,-0.17902161443653958,0.5121828038810634,0.23822954425585796,0.1355091010437934,0.6028685518563751,0.3835770272878425,-0.1419760616884898,0.6514396410877058,-0.06554466370181092,-0.12267146947343527,-0.04223675819270172,-0.6733046250326528,-0.411366232994939,0.9661339732555042,-0.4112500627595779,0.11942705705066717,0.15400703790455228,-0.9844263295506069,0.33653019623744007,-0.7827661753818421,0.04680474301903816,-0.2219522311490682,0.18057669268897703,0.0632404156839557,0.7747850322229582],[-0.4607952118618734,0.17485752308775712,-1.1068539523878287,0.20987582830643084,-0.45974204281638914,-0.2055160941182583,-0.35508394582962943,-0.1268870236168155,-1.0212939446982547,0.8745023955516763,0.5996151724113163,-0.9333585871194022,0.06429617671334799,0.2815928923172444,1.4966551351948878,-0.25739884030849935,0.3410302888529497,1.775220018586214,-0.18734273336011473,1.679221975043403,0.4144561414407911,3.7193936300687414,3.5337267261899923,-0.12049502839486179,3.5905062150022644,2.849095494628237,2.1741979203108324,-1.2557109580463934,0.20571656396959528,-1.0385313453536562,-2.7970722218421122,0.2914669709563635,2.5552473217246283,3.143352382159932,3.146390760933964,3.7317449739243456,2.493872177669397,1.5775722011712567,2.3901699162577907,-0.22972395281595628,0.9812171280660139,-0.923322783127563,-1.673670130153029,0.6636209081481456,1.3824527233035826,-0.6830554617869089,-1.4119889861100634,0.36553234389284034,-1.0195326032178516,-1.890698345681114,-0.1467064990123497,-1.0493651077546102,0.699457723979523,-0.09591489737276816,-0.4177809275167786,0.2870690302240959,0.9078119129283669,-0.9875310764930877,-0.9277641678753821,1.4627988236586393,-0.8007532985425098,-0.15174106521102174,1.380535071677971,0.2593422543189752,-1.571481012552778,0.4355110651413619,0.14570657294013453,0.0771392151900276,0.934355944682682,1.1448130636291103,0.44209887259620917,0.28250921238140486,-0.5587266553168869,-0.24439976506582436,0.3805463549165386,-1.109461945701607,-2.7327905545385596,0.11553534049696858,-0.5710579293029175,-1.5640224518586745,-1.1797800919995782,1.2284110697920627,0.630243176321322,-1.2590802271417911,-2.6975427736945465,-1.9116931513519169,0.0257917753772007,0.34814511896786315,-1.3506024134846946,0.04861056115998331,-1.5355054942225175,-0.8795298043911235,-1.0172266526464093,-0.5600187434927566,0.2792799263722927,-0.6838938486499618,-0.5154634918729469,0.007354367663264482,-0.8572240952191367,-0.6241986609573937,-0.8371719235499415,-0.2163593857618781,-1.064357221887139,0.2760479003301733,-1.2836716649408773,-0.5604140380554863,-1.183212639125071,0.01801950342506973,-0.261008620422103,-1.1679043266330134,-0.7605695673335824,-0.6309465542228001,-0.2022282305737659,-0.9985292704239921,0.26386208836583724,-0.07495064133288139,-0.4593205497911834,-0.017680201110670958,-1.0008690372491813,-0.08352585620974455],[0.2006221336869129,-0.828595279656957,0.08226278756049467,-0.16871930490392772,0.9458721237780233,-0.661796447254258,0.877165990078936,-0.3376462327571844,-0.3770484726932348,-0.6719040299713764,0.6740919207967674,-0.6599169213780646,-0.4399555994922557,0.014590700983442808,-0.9894709030681663,0.9479216028577707,-0.7294598357070957,-2.5163276506247274,0.6516243164174488,-1.8588706775665982,0.6874244451264871,-1.5636461453972554,0.35044637503630005,0.9564575029961185,0.9165696929921617,1.1507238458247486,0.12312753112861019,-0.9043983581398475,-1.5982670062465008,-0.5199673508450681,-0.5971877708538775,-1.1922189371618732,-0.562270936227997,0.21091177730983213,0.7428783465448369,-1.9356563709445818,-0.25177550431510815,0.395187406364886,-0.6624724623033591,-0.27202892292628655,0.5713200913227121,0.7751674677629213,-1.1124787048475557,-1.12915078848568,-0.7212475070459473,-0.7539909188660123,-0.3902536889524215,0.6496599016817683,2.0708551184288218,1.8882143848579753,2.4537625566342713,0.2310371947793331,0.6604572776159696,3.1125208782096956,-1.5903541346498105,1.1521866732138444,-1.194304144760792,-2.3469971380759245,0.11940851448285204,-1.4679183245115617,-0.24791231292230864,-0.7423801977608718,-0.5177489931293918,-2.6990654143935955,-0.9484655975753147,-0.18987311060728473,-0.19348150907700196,1.3320399719589247,0.6195189508230716,0.5648397448908878,0.35244810547466,2.3992461525150692,2.941534248192394,-0.47382810531058134,1.024324071341288,-2.7074745127144713,0.8234379400020652,2.3828950171348824,0.7769440340696134,2.18348059727303,-0.3733286932272956,0.3281359131930723,0.13194006316075096,1.4679707653173006,1.2536814902850846,-1.7169343380146254,0.23632667041424804,-1.375731962368387,-0.9894596577057637,0.21716076494008946,-0.9804051649385027,-0.7564690138861535,-0.8951176314906185,-1.18902661457136,-1.2100464913773148,-0.4033973762586014,0.10370933117087301,0.5216953927610485,0.4970948989971467,0.08726662002465659,0.8394613123911435,0.8275089882104923,0.0013345469731158774,0.4872602407318853,0.6627563948077616,0.45930677224999894,0.829479283952456,-0.724188962935684,-0.41016838913757214,-0.11606605670217034,0.49357951619402385,-0.32069521944634916,0.35295669319507406,-0.8905935639529367,0.8519924572353793,-0.482334279962639,-0.9876291652500134,-0.052633630392756085,0.6676381801290431,-0.06707335161559345],[-0.0450993730739027,-0.3492966560456249,-0.6231553187104184,0.6349913437931392,0.20572581820330502,-0.19136586951738063,0.4213041413912846,-0.11808177303171227,0.527906025106224,0.585088686058671,-0.3121019215516002,0.10174281952908189,0.48396524559659776,-0.6069837376609624,0.11854171270138264,0.2827185839109613,0.0966989417257302,-1.1296019830672746,-0.6954067298815529,-0.7420876451308893,1.0375355228198428,-0.445067264270826,-0.07842555304675822,0.45458278349314285,-0.07198394873675955,-0.07740227701897164,-0.23156107382125118,0.5516826441442295,-0.46596846377497453,-0.7790431641896276,-0.717228223748027,-0.17386239337958923,-0.0030537646964490326,0.13015872180531435,0.7357179826032365,1.7872885702495958,-0.03989289373491293,-0.3427788447816385,0.2045560625997526,-0.23226189549356882,-0.7098475287594341,-0.20875458982686737,0.412169370382922,-0.11222663946258679,-0.892526057682604,-0.6246132110795756,0.14928515272082257,1.7390858887966514,-0.42615544928219673,-1.5506399466210563,-1.4365410754710572,-0.33332830752722004,0.6253697810627852,-1.6244037776716886,1.945186014920268,-1.0701391802834614,-0.8772449933022327,-1.8876946143243112,-2.740171205021768,1.517735558525413,-1.1746390282939452,-1.3062425831386602,-3.4012198539479663,-2.9772584468587593,1.772716271045972,-1.5519023803379786,-0.222762766233593,-1.0692059117544706,-1.0638412483854063,-2.2746183542538194,-1.012964101660411,2.0641318722692783,-1.3916845994346934,0.14349338132369152,-1.820875813957472,-0.07807942497731783,1.1760190067480536,-1.031156877539787,1.6882720175948247,-1.471697031171935,0.7020777066972166,0.8891783997288144,0.24925713293234394,3.159316198205128,0.9119813648220579,1.5150388021478673,1.9121653104860195,1.5882310356901874,2.186880815102843,0.5223416326105762,0.702131115903573,0.7125806232868621,1.152610592040472,1.3205844201567851,0.05624975952786773,0.4858856732590138,0.5467736982529747,1.1023286360350288,-0.7395368190520859,0.37960146160961294,-0.6084364726514133,1.13758481619032,-0.2874216649912614,-0.3088294257897285,0.10620009814981542,0.09448662999423445,1.0142482965183222,1.0387032850565057,0.33994869083682056,0.6821889406145365,-0.6312357016065662,0.17182265423114038,0.2970128174639267,-0.20376578312416424,-0.4644245221216329,0.650665140239463,0.33121618936254793,-0.24390868950168204,0.054771049890679574,1.2711222075481972],[-0.4548562470610738,0.505052145703364,1.0326225248999537,0.9934935586504303,0.726848023576641,0.5840185435621547,0.07321893987081383,-0.16960954164329836,-0.19077936767208162,-0.1838697332228356,0.3766876559292646,0.5319836545818664,0.3183555056336691,0.3629700525634216,0.8760466438255518,0.7041300038797162,-0.7064415164746249,0.7031648731417512,0.19635274201620342,-0.1132045233835551,0.5592925971542682,0.5984801696674336,0.37076723739209744,0.27750404831337244,0.5034715654142885,0.07789116363112672,-0.9124229312426952,0.8433057986124106,0.014935133618896129,0.8599937362706769,0.14504207422619272,1.0082451182459298,0.2058247201866134,0.2621793924348753,-0.5025736107127724,0.5174542346513491,0.7077299978010373,-0.05482006030794643,-0.08687738865093414,0.04199084285779932,0.8914381629929025,-0.7771065774668169,0.05281006429883632,0.6825099627210297,0.014794784842182811,0.7511878849022775,0.2914038230047922,-0.42732041730662024,-0.29837207248249603,-0.948897619882935,0.9634683143789954,0.6534124857553703,0.4836568011940666,0.8095490997402234,0.3365563313058177,-0.00890777181445944,0.19499297047689398,-0.1619413195266162,0.01742870146430231,-0.896254315073298,-0.8729641455874406,0.6106156145067759,-0.08300886373540611,-0.32088920929794923,-0.03681462606991588,0.7276518172509137,-0.3865047004628149,-0.8815639671645686,-0.26129129294145265,-0.40382800782136774,0.3578476715046987,-0.7776925363917603,0.29897985655086795,-0.5067700086343908,0.15536820100954937,0.28887599107003514,-0.06851478313199014,0.1787930357195581,0.8008934692340576,0.6316921619891606,0.5169858430342178,-0.6801360208889426,-0.26650137923126277,-0.746512100290945,0.4773915317661446,0.8744629974379994,0.9450751774032905,-0.7124366225063561,-0.898314632655347,-0.07857868149288903,0.9779106331384333,-0.5388928955333915,-0.5194245102742071,0.14529241321981443,-0.1579065925314048,-0.40771170886093516,0.380593306103526,0.4321273186388328,-0.712923276189063,0.8029270269949558,-0.7193894747097652,0.8005524186593272,-0.7062689142707685,0.6328753749594682,-0.6283714377373965,0.9202052604084675,-0.2501666064126885,0.8080127024776909,0.32077428632565225,-0.4394100472580666,0.06351286367518695,0.8747481397271932,0.24934340429663343,0.8959824463650479,0.20610585266236517,0.7444226244713071,0.694602833089317,0.8498307879936311,-0.08871926011054307,0.45772293007098486],[0.8233522199418372,0.1920025214855598,0.5575430741641406,-0.21126387534330854,0.48954445078668357,0.22074104078597032,0.23029691591893825,-0.8469467543598438,0.38829916071845944,-0.30999354354850356,0.6017304097815642,0.9309241281975719,0.3875459663901848,-0.8063490960360676,-0.35336758394840256,-0.37609541480941705,-0.27342713873036345,1.0016086874164245,0.3289538479003031,-0.13525390423253478,-0.4218973388541542,0.8683581310061175,0.7990077294770441,-0.4512841363298697,0.48665585284075913,0.6610333805716797,1.0814066447962454,0.5097248263671826,0.48836329334426065,0.1246344560918989,0.9447356522694583,0.5817166788571279,-0.07021550444173956,0.921794961228948,0.3466158788824943,-0.43987030204617994,0.33353250333389234,0.8471303059702636,-0.33051483278655996,0.36313978195788993,-0.38754332845930467,1.0193581749720098,1.0451002743786655,-0.6297430342960201,-0.7903760152366585,-0.3596597833715451,-0.4143437550034311,0.3008171745489306,1.091695492082044,-0.04332349503395947,-0.6607374345162789,-0.236357710656775,0.024890306489169057,1.0006177800900449,-0.7973520437933094,0.241220647225504,-0.2570891975843683,-0.3715060613461936,-0.6803065066518411,0.07806388545869884,0.44780060202560434,0.6201673880437986,0.6130920094434379,0.749009123343157,0.4975377728876572,-0.8312822165777826,-0.708566669363564,-0.6472220958827094,0.6909636823983707,0.11852355129055421,-0.1980402136190276,-0.25703044552587384,1.0815605453625892,0.46864477605621735,-0.043003464956832035,0.9124063794319328,-0.4565219655342146,0.16123048985847097,0.08785642304857642,-0.4237755932541173,-0.028910400204644728,-0.6092889033390272,0.34043251775540906,-0.8217257460761057,0.48246800635712167,0.9630188366828516,0.5200799917586844,-0.0343563771141672,-0.0036050206458195966,0.6170144643699594,1.0320093076229258,-0.34227720971057773,-0.7548180153925746,0.9077580909911376,-0.09472174162347116,0.7444797896197772,0.5669012477184677,0.6165507511927412,-0.4190623178456834,0.2199094756517695,0.9912195957608456,-0.7351871893174988,-0.5112267635717378,-0.8027712096282467,-0.254982788717322,1.0806928338309363,0.738792691696083,0.006529474345446952,-0.3162765397574979,0.027396810162870624,0.11671103297084866,-0.5833946307679603,0.29951319455073916,0.6655269188587533,0.23576724356730971,0.46693639782514457,-0.5564171089048927,0.8970081284137036,0.7082049705979572,0.5026528682419953],[-0.48886408935516573,-0.5274668201650821,-0.6117780128204775,0.5999822625732998,0.11175907933383245,0.23885117982954404,-0.504450862128383,0.2791898281010428,-1.1572680609729593,0.21487277296816956,-0.4171167871942187,-0.9717621376416552,-0.77058749424099,-0.7031092048770589,-0.2507671763317003,-0.8487546141120561,-0.7275586506836238,-0.5147025747453937,-0.374112341138882,-0.4069372009562921,-0.8715434467822678,1.6095759919057246,1.2253945817713943,-1.3478424158350841,-0.6090711304710053,0.37871004966121136,-1.1872081569466602,-0.3210680153038337,-0.25144153401819147,-0.514156811890334,0.38560071830118525,-0.2742398372217409,-0.3183516599062451,0.10222647410784493,0.7559345064754457,0.44680784090185244,-1.2999755720553947,1.231175588929493,-0.6259180814527987,1.1177390025258376,2.364276578065195,0.902721396786837,1.0915242828855372,-1.7000552831998386,0.278510490580952,-1.8532701371325995,-0.1891496473719929,0.0856235596379179,-2.829409102349632,3.327896213676341,-0.8802104145196437,1.858101680557188,1.8007450057156813,1.04754903622559,1.3607862886043531,-0.5180100636582035,2.633493045227642,0.11223784583707504,-0.041929887567441315,-1.9105408967913602,-3.5733323314285603,0.9452057347422982,-0.9662893784476477,0.9439044340794837,1.8012022994955543,-0.5473344438488672,0.8863133032848203,-0.4311875665321511,3.6756652576411915,1.7852786259654776,2.0137095060410326,-0.12492808861418266,-0.8788388795487124,2.0288851500876004,-1.4183702927181936,-0.9919392175267709,1.2564651798876398,-0.15582455811263568,1.3395787329920188,0.3675802453294574,2.047338861653507,-0.8914968851114802,-0.2321707755168649,-0.6119216696545784,-0.3099308056417089,0.15123980197377093,-1.2837884366627754,-0.2101020410276427,0.25762167553885484,-0.11460640830351393,0.23796422299328737,0.18606301654418797,0.34154000392396067,-1.0023416954093243,-0.1865740891874258,0.2507247239570941,-0.10129175383667863,-0.06103028536834543,-1.014481938325132,0.5082228036724563,0.017024439414455982,-0.14705615835452948,-0.4064465756695958,-0.8695015923617138,0.1314293602720939,-0.3483024512353153,-0.2057227872697164,0.4863739053515101,-0.8437635375422787,-0.05407244745154602,0.03579738309027422,-0.6232391404543904,-1.1543649114056993,-0.4211046102772071,-0.8868597096062398,0.030501239794125744,-0.22380658327081854,-0.22890808476688704,0.4177307482801857,-0.057961840782395926],[0.43748321572857785,0.09210246445129164,-0.0795930002234333,-0.08538345909394554,0.6756498977546704,0.06736075726610811,-0.5165960090817451,-0.11375216090063645,-0.5709009959753063,-0.8289578289915109,0.3058844016826603,-0.551278892324934,-1.0109020797318822,0.18878559376295065,-1.3782801250165715,0.7453285861397428,-0.19336658576894009,-0.32527704221520165,-0.22910182415927263,0.26829366963769474,0.5849477635852413,0.4163938722958111,-0.5987685711560395,-0.4347264125381516,-0.1737596874619698,0.7217226277674559,-0.48390709986822367,-0.23069012393074476,0.6859058030311257,1.075928193875942,0.4939690286109734,-0.862946922699739,-0.48820504925175634,-1.0170732194228682,-0.852611435025224,1.0217578975614467,1.5253924398579302,0.14546433628947972,-1.9408828034358405,-1.0720049774192661,1.5018887685039102,0.5499399928486906,-0.21683678072989085,-0.13605591888632831,0.4062469290485259,-1.2138377333847639,-1.607880477018845,3.3042150724006745,4.2901920121420245,1.7951800631824961,-1.4676720425069107,-0.49489458898901467,0.6370406942673335,-2.051053244649499,-0.49192311795470367,-0.2607530603874911,-0.5476108521030909,-0.05651947091872545,-1.5650850369250615,2.6281383786397603,1.2360615120162715,2.7905705907989464,2.046424258851231,2.193621609575053,2.0455602804938473,-0.906471151428129,0.8721418520641997,0.12178586911722518,1.7455742706361081,1.1003939806814975,-0.11387254842676146,2.4365973970986046,-0.2524360404949802,-0.2981916739057314,-0.9860562735471133,-0.5589763087456809,0.12866368747355653,-1.7439260247900117,-1.3941803727833977,-0.2552262451640192,1.137176721812112,0.2882647952863871,-0.8799170558270639,0.3097669938408104,-1.1444201152528153,-0.9060084177397054,-1.2460764838338532,-0.7335431721122778,-0.6996749994606402,-0.5076727652125916,-0.8647027949338008,-0.6704057521439375,-0.6348316957307492,-0.8957192770562206,-1.3124598315266047,0.021862737334162087,-0.358959303345586,-0.7684554941762461,0.03270669169421599,0.033239403716181205,-0.043785897902064254,-0.6380303412107681,-0.4046654242399794,0.20625495083068637,-0.9538573143881025,-0.4574300800759181,0.1079821137312607,-0.2484956836041601,0.4664872395322903,0.574370214312398,0.5453609740325561,0.014060024522279075,0.3921469492877455,-0.8034577011212413,0.38132912101231753,0.3694469627479464,-0.5416467325077371,-0.9193417667188576,0.20546300085626049,-0.19953629262300407],[0.27512498354424586,-0.8863842125779129,0.7899893035329368,0.9459449655089653,0.08791501602725776,0.6866363728474338,0.4737042468672604,0.7249026753520982,-0.20031882798536002,0.6647697742677114,-0.4994913528927534,-0.5823335663290199,0.5827332360568122,-0.44753992298404544,0.6957657811085306,-0.8884663876758148,0.5801335153164402,-0.5455879728679933,0.4379681540516005,1.5053434109073882,-0.7823328572220878,0.9297265977459628,0.7373989177101427,0.8185982812435983,1.5448684832477626,2.7071104149446548,-0.7836078074165952,0.19671361334506463,0.6630074138117844,-0.06414313197192803,-0.40428852964246315,1.2597239627461563,-0.04678229299564872,-0.24012334043570208,-0.10072957967023582,-0.6019705983206218,1.566018486102469,1.3460293509059815,0.9723472102871072,0.5652285481412899,-0.44461440023227955,0.06861680355283276,-0.7482220800074938,-0.3376341986013618,1.9129821710071933,0.7288423483373585,-0.27474335146780177,-1.39071028623184,0.609481824619933,0.31321767630044,-0.9581603109825761,-0.7171784942591634,-2.094719439266566,-0.19624677515330838,0.7948884497685005,-0.14006197646730426,-0.307972012461496,-1.024688116059208,-0.670921092669447,0.13392905765416904,1.009160842853235,-2.6739540582899344,0.06559139406758471,1.688717583450108,-0.1392871014206955,0.635053962230469,-0.7626533320985555,0.4474345963992632,-0.9352765309456523,1.0605514595361194,-0.9351370481779222,0.4493135320819358,-0.011600628434862623,-2.308559285069903,0.25689556245711814,0.4116821821217896,-0.32089238582019725,0.0604392431239464,0.365529673881505,0.452923816842795,-0.9857209003453506,0.15095740491683246,-0.3508616480002499,0.3601555814375934,0.03791866582193064,0.9426820237706827,-1.15652427474097,-0.09308554965253646,-0.08438749038742588,-0.2617813203105162,0.4436078135210685,0.3296789512012145,-0.5031133726489969,-0.26935907284810173,0.36643434960322757,0.8832291369446723,0.45572718926792566,-0.8367786283417433,-0.06757830386565822,0.10086763803570697,0.5880214867390692,-0.6798244078299003,-0.9081467789910478,0.007728936788879183,0.36527417104725834,0.378755468357282,-0.9872771583101256,-0.5282920199275898,-0.18886067020084604,-0.3701189596756522,0.6352997313162467,0.5526032663622775,-0.157184181937748,0.049409466587976736,-0.8154809983128679,0.38342403294483174,-0.5807593028670872,0.04672846496388566,0.11573580047463339,0.49100704896208514],[-0.29380745257715596,-0.4794927389362648,1.2102617738030261,-0.44881236164372035,-0.34543060261937114,0.5317977434856345,0.46960758998386803,0.0482195203625475,-0.1562231347580958,-0.626274625908708,-0.5047187453859933,0.6992408098809431,1.1652076170038788,0.2701654564779539,1.5347636375701492,1.084584590006164,0.9161052223329098,0.1171118421094461,0.7181771548290892,-1.6159462785811176,0.3526730593660335,-2.0518383600241332,-1.2181519244827925,0.32506449539629007,1.6236430742615997,0.7537778958769521,-0.9932443163373778,1.0801833362204452,0.35349495358297833,-1.0538502010209843,-1.7208169770628252,-0.8731543144265528,0.6981782699148421,-1.614843791733817,-1.5278685436231219,-1.1545429226106305,0.39450839263243576,0.6413180674687721,-1.5656364863490193,0.3949340081097459,0.3216186223144626,-1.3387692381387162,-2.2262683954836224,-0.3359412569563117,1.6438866500408587,-0.7589798621863371,-1.7795636812170779,-1.451698423082399,0.7789356951690167,1.2633520687806001,0.6754601687479804,2.2600936793110673,0.7732363829182101,-1.4923408428949145,-2.8526463828536053,-1.8753082216353638,2.1236602352503238,1.1488682865692463,1.557753863667641,0.7914178086922977,-0.6994079871054744,-0.8837181437916445,-1.2942640293451635,-0.2217673176468854,0.10478432455106715,-1.0837353954079927,0.30249949270370313,-1.0846622362565974,0.7007022438922843,-1.0596521075813696,0.2865461540805045,0.7132428890816164,0.6895041146706617,-1.45294126149368,0.15527044654810623,0.4348012730028366,0.3562567063103818,-1.6578149541840754,0.28906587095381825,1.2953041520231507,-0.2530544716433907,-1.7188475339139084,0.5153442531133472,-1.0103419302188303,-0.14063793027844745,1.2904900106893684,-0.3702905026718938,0.6650634973303086,-0.06864682562467407,-0.24964048275329018,0.6628633044111156,0.7637029048128311,0.41001485449304276,0.39871675105043114,-0.22106726021598708,-0.4131247586919829,0.6778878422130358,0.4316775914732482,-0.6824990000414622,0.04966846600927236,-0.5710944511233391,-0.10867718731537308,0.9755570164437631,0.9134545702417884,-0.6463444597262799,0.023897431229133133,0.40549397189803255,0.7061322659652841,0.8183018939904217,-0.5525797764196719,0.6385051733426258,0.44727264741849554,0.7870818339040689,1.0096991691069896,-0.37835417841156466,-0.26185822084287286,-0.22695914278575385,-0.5211260259863225,1.1289385023430998,0.6123067581700967],[-0.6799854538210054,0.08028073477778362,-0.4567305009043389,-0.8849913091723688,0.9230168170610388,0.47015893647411594,0.5872352865468838,-0.7397411720745092,-0.5435292277502205,0.6033770379234938,0.6265971909633751,0.13321378893970814,-0.835325877613592,0.6650554228334392,0.5859709340676748,-0.38605183730324827,-0.47068136415898704,-0.09473282768378148,-0.07872372212764618,-1.292617103595994,-0.8096185494676763,-1.1208686781437704,0.22343350810436857,-0.3056193237001998,-0.9165638702380062,0.2415894231678995,-0.2148662572384803,-0.688368834131771,-1.5194211118102972,0.7042334160108307,0.619643352502662,-0.5150088008725965,-0.9032759548054521,-0.023070433542364266,-1.0700973647200822,0.577171145638629,-1.2491022703815742,0.32595827087844065,0.5453998226281538,0.2184365654825639,-0.398707834258399,0.3462882663621812,-0.9977006214428065,-0.045924710071825074,0.13918297703603202,-0.6269592862521066,0.3397099136687847,0.487193474424002,-1.2823433067536996,0.05154679483453358,0.9122377399047149,-0.5600496624010064,-0.07021882588879645,0.37749684884052837,-0.7323834285979318,0.7120695041518303,0.012077026555330925,0.30239163799740154,-1.4236538412362734,-0.3600647422621974,0.6495163948573368,-0.09568755010652834,-0.9182430353158268,-0.10016663369866548,-0.7882548668616519,0.5285187353873176,1.1238322393546243,-0.8741443957240715,-0.4401928216293242,0.4078029856334376,0.6717957540058989,-0.5737205903554315,1.241131462440369,-0.012787271820952174,-0.19432731726944713,0.2168676443825589,-0.3940723504145363,-0.7620068915686851,-0.31246050621723,0.4629849590724394,-0.026020681591397168,0.9614839325729286,0.2941016730296021,0.6756873441872968,0.29932294853085045,-0.45884818394605126,0.1756679602449801,0.14889988173623425,-0.14737312532307867,0.44029407773103135,0.282176297048793,-0.6577944909875522,0.557789429169735,0.7481982336064256,0.5692819403314054,-0.7950111514448016,0.7597027513612179,-0.4488558275423001,-0.2895960288320399,-0.3182790139549427,1.0191736340824633,0.675296213473889,0.664341288715942,0.6745099760386767,0.41140390376167374,0.11912633895065348,-0.29893832122175196,0.8754590171436422,0.050365532409732176,0.9963368314462584,0.6187284663898219,-0.5285532690731524,-0.9672063094677658,0.35955724222359803,0.5632761096626328,-0.8428747204089259,-0.471511749377486,-0.7704286229541198,0.5047374549502323,0.598413477331264],[0.8975406874570678,0.8104976554779798,0.6347397686546971,0.6155713924856913,0.19590449362183304,0.28242069338975617,-0.9434430589825052,0.7511136249014355,0.3893417989221999,-0.05369584000038996,0.2317324027275406,0.4870236553872839,0.7425649201165743,-0.4553724041114078,0.7891174589067074,0.3184748956500275,-0.8771698312177366,0.7356822028054689,-0.718531734450469,0.6791859882083816,0.6863639710143442,0.4557354439065528,0.29825382045332505,-1.0005356665565013,0.3618550028753299,-0.4200432612547854,-0.14700476861118741,0.7064913704626162,-0.3789046672710553,-0.2543695571310664,-0.2594056103533042,1.5353285145739513,0.5434665617146687,-0.5063177586887248,0.1338874096179558,-0.4275461856461184,-0.7339825373427777,-0.27305585453508546,-0.03290733384468586,0.6620566263385568,-0.20625720794756586,0.5150276540456531,0.27528431458599967,0.9583963435887678,-0.25853657031050264,-1.9426448748350194,2.0788041787907976,1.192142422810957,2.1085637808900612,0.21576250535744426,0.24198035390324468,3.114408517594053,2.227729534742304,3.0796945760372485,0.5932853498507211,1.6290391637113684,0.5597112912990755,-1.2407975388344263,1.05501066260099,1.5030255324469224,2.2214878673929306,-1.8557959798481882,-1.255267377219647,1.0181917435924595,1.0204256635977722,0.661632871109374,-0.8860006536840547,1.4029891330440794,0.28793099705955355,-1.9206733697959828,-0.21373293733879267,-0.3309273655469605,-0.9119036113223778,-3.242243936026023,-1.7905328007003747,-0.8416901864435774,-1.8856397446888484,-2.9272945878609615,-2.6346375279124454,-1.2841604942336937,-2.5396887807993136,-2.7801867962009537,-1.6653327882503692,-0.584974747627824,-0.8631523692128641,-1.1457836327871576,-0.4079039784679809,-0.6000441620688947,0.18644856077667932,-0.3015490057469071,-0.17318422230903552,-0.4980631063531716,-0.7345142392282701,-1.0680981051894405,0.1477660103216047,-0.5091031114933536,-0.7791398321371663,-0.23115436432081493,0.502672567534779,0.2185918104579484,-0.050417102479630174,0.4854877926292724,-0.12220254165896642,0.7720012033375098,-0.44323206377856106,0.32472245294530266,0.757554948623422,-0.7343486725042884,-0.18550700041898927,0.3004987432130872,-0.04197132682544036,0.09921906741299936,0.15770064793497285,-0.01606890157014498,0.8615719650232411,0.4984320715968052,0.5104866494496522,0.2587445810350016,0.7270102445736523,0.1515538999686452],[0.37397536550048466,1.0262953923971283,1.0791756722099644,0.7272016645121179,0.7583441201570918,0.09860085864054552,0.7500948483106332,0.5224610689357242,-0.025306696248986214,0.8646329831313594,0.8923305305096322,-0.022736161967602118,-0.1425237710337694,0.2749141139545714,-1.0148634134753423,0.7143680638305793,-0.4465030994752916,-0.34357735570568204,0.7339754195989009,0.9281017212822599,0.5361375059017764,-0.07399823092889592,-1.2432664453446143,-0.40098464876264944,-0.873687623690673,-1.2204383913863637,-0.7334416889113038,-0.4105843032930037,-0.4640527409306234,-0.9966727799645799,-0.6648354842718952,0.5519123589599823,-0.8782744570529268,-0.3734617809685352,-1.0179158951799896,-1.0727546423807806,-1.8145976979584357,0.06712352698995175,0.34410134653064367,-0.6310780736707591,0.7128734150118633,-1.2384180785559649,-1.8491704851052386,-2.165084092733975,-2.0277374868652163,1.1770024515917332,-0.6287292714244287,0.7187590728065253,0.29320872543096627,2.0666061325654743,-0.8880018906056915,-0.36928138965150464,-0.22912108793712285,-0.017541187009870954,-1.3202447013904368,1.8648469880820018,0.6241564114771039,-0.4351438842902821,0.7501919193763626,1.5961488649899307,-1.6316523795251339,-0.9579723127402396,-1.259467945030563,0.5302146705098902,-0.6859893209404603,-0.9660709646538624,-1.0935579322295044,1.0981080588567842,-0.5028845412624452,-0.3522157768409058,0.49904507739404563,0.11164279397666409,-0.22512291901435869,0.6230415122544661,0.11774803306989624,0.09260168828897491,-0.2661453222452308,0.7183751490304446,0.3438223609569173,-0.8003646996682139,-0.024223067322595188,-0.6076122079355946,-0.04438080678347138,0.48600021936457927,-1.4078574348747046,0.5969054858163547,-0.31134207796515617,-0.07967401453139057,0.5055382649072462,0.5747261910256732,0.1549145014684856,0.22150854628492841,-0.09275330048189741,-0.1368571032929878,0.127113649300412,-0.057426791961318724,-0.1660877639003292,0.9898870751443642,-0.14228378702722416,1.3358774364544823,-0.6032090874928017,0.7991756721984508,-0.1281087068051504,0.28969033139267447,-0.2087643747623562,0.020876356853757123,0.19636144336490047,-0.2076572976966392,0.9836250290752527,0.9077283577623106,-0.44895966476689136,0.7228579499274764,-0.27991592756080014,1.1485861017115488,1.3097722038532624,0.040345132114838464,-0.4592872185426216,0.8028863680504134,0.9802863193267425,-0.17326550350435765],[-0.36795837013633553,-0.19064367185483527,0.4425329348365255,-0.3254193967161682,-0.27908028623357345,-0.7897664267740765,0.016867784898892707,0.0685492652128919,-0.6242737147893337,-0.5211417289156174,-0.5442139650067358,-0.32448874320973337,-0.43297327814437636,-1.0246580337989344,0.5267056185633374,-0.9186001329851591,-0.2812534189607238,-0.4531480520035777,-0.21018413786392404,-0.044939352071724385,-0.8336349367547798,0.8300883588830078,0.8811244266465091,-0.5188507984701205,-1.0109133260534535,-0.08973746166615355,0.7110087756168896,0.02993594061166211,0.9727122105306197,-1.0033228659207587,-0.1736351885082234,-0.7085429889402745,-0.5721961053297302,0.19454574495881077,-1.00487738204389,-0.366861104648346,-0.9574514195860289,-0.22731855279116137,0.4843947083503115,0.7509260506012391,-0.46340665031954975,-0.9732754994251913,0.17921582816089532,0.35521823873419855,-0.785248504966521,0.5890856340650931,-0.5509999547898912,0.7650602586378531,0.6581792990452203,-0.035838998579041416,0.4954522322802684,0.1622295509402074,0.179610405135462,0.7417653429122041,0.3262756431454173,-0.7105102816650702,-0.38926853068039113,0.2895105678936997,0.8191446848413125,-0.8276775946515014,0.1903237571482423,-0.3038419100012075,-0.804401818548491,-0.1693485819050297,0.08507381396042395,0.517387101647971,-0.9494011481590836,-0.4130103795736501,0.8531038624061252,-0.21053304747580562,-0.8931021722789738,-0.5091680459348907,-0.5244734906640537,-0.9064492260000859,-0.9591046454673572,-0.6851900530306313,0.8557011687453431,-0.35372326796883463,0.7777220079731147,0.8826704521344694,-0.658550661273438,-0.9886026439125429,-0.04040280042986232,0.1597558060679432,-0.6716055246218533,-0.994554680960259,-0.6664582968223945,-0.479210383707535,-0.43046659820090216,-0.19706889536905675,0.08812321797833231,-0.5823483811913075,-0.5440805519338168,-0.6255704800682064,-0.12661272234063567,-0.34092396891311383,0.15083913882440303,-0.6093912793039984,-0.6954848753866041,-0.41464923771474943,-0.12037807376468826,0.6074820540532695,-0.7638230215816951,0.10836610886899112,0.40600029231287904,0.8816443856049698,0.5227169827043936,-0.5758919398649244,-0.6938862213611853,-0.8548964109175231,0.059073944112729065,0.20358970864748005,-0.4341939591070246,0.8190225214077064,-0.6765369059568482,-1.0207833326348377,0.6231793745471487,0.4346920554325197,0.7997136588395956,0.566736275118859],[-0.09394695561079892,0.36600482227730696,0.09765751693136024,0.18114285771567473,0.008659207902330313,1.4161479520611573,0.2267523163781744,0.6052966440815576,0.642832993508642,0.429884859348625,-0.010299487675762563,1.6411731719495697,0.5083110983386582,1.551939760731442,0.014676773255045376,1.5600527836460893,-0.055219846024019276,0.6096085829407419,1.1639663415293973,-1.2458104654908417,0.2626460291093741,-0.09264665999501091,0.5986446449377752,1.2207677610037757,0.9466065743611564,1.0267929522198473,0.25972246960144113,0.5707694761086938,-0.5705702793107926,-0.7647589867152054,0.6976209197762914,-1.1663156106402788,-0.18364936381995547,-1.1423299103494806,-0.5683162197312079,0.40532274506184374,-1.0429442285590966,0.14127836587802164,-3.398761739693407,-1.5393814235701118,-3.5847460656572525,-1.4408131417344157,1.877745381510332,0.0929883158758527,0.3411722944946051,-0.07630729982833383,-0.33089046845524966,0.7790290422071481,0.12032834381866556,2.309006840536249,-0.6420731565258817,-0.30354528766853744,-2.945275581841968,0.644989160042848,2.724110535893006,-4.0062436046097805E-4,0.4303999611159243,1.1838082826228644,2.1725235049320073,0.06708130254969498,-1.4204601473947858,1.619035343063534,-1.2039893927497216,-1.4692855173617778,-4.379595162434106,-1.0941833155690097,1.2896622879992077,-2.522554259306556,-0.7675350565706074,-1.3356366013400667,1.1047742140747354,1.3316803940841082,-0.519864249820119,-0.261564494100546,-2.548018744479304,-0.9930027962892818,-0.8124693724959122,0.32012210759469517,-0.1462717955815523,-2.8195486716013782,-0.1814396323111233,-1.2513243193867474,-0.390808561951615,-0.8768863023137141,-1.1027050950071704,0.31103587622649254,-1.753735729471912,-0.9895227887579536,-1.367198235859196,0.0188650158758723,-0.12288052650010992,-0.2669425144812198,0.0027701535448650047,-0.5000290802512813,-0.7526535018697583,-0.12718372900415265,1.0573002574409733,-0.38641281458856364,0.7635186170944249,0.7799051178494286,-0.03288282481606347,1.2763771508226476,0.48080125352603703,0.8647605226518312,0.31993483346647694,0.6658897365128095,1.3991506739077717,0.02875085437527809,0.10946484892512329,0.7687879905752508,1.3891113462959612,-0.07478967543114413,-0.002684800382711524,1.0277581833755651,1.3525219368771626,0.29212144477765273,1.4977927591761147,-0.07177171090897959,-0.26900650087215816,1.066119897086921],[-0.18364184995773192,-0.01850280783435824,-0.4329506607617346,1.093746368378023,0.26553492959861413,0.7548820603881391,-0.3301743187041223,0.9795684948635196,1.0955754344324076,1.180794209718905,0.06397710426746614,0.8634173509723865,1.2058687888953805,0.5259563451189688,2.071743631199022,0.3116507407108746,0.8957721529827848,0.9460191002738353,0.051474901612999654,-1.3822358934641494,-0.39654004150588196,0.8190876472334103,0.3985074674782526,0.8827322840556312,1.2499622366582603,1.053956929581134,0.6005728733490318,0.5308336443950804,1.4698410795295407,1.4108627462014547,-0.2585878030497585,-2.8649689655065242,-1.444019675939197,0.5238013508065901,0.9964760744133827,-0.4025311955971392,-0.01777245649387412,0.4288796704155029,-0.6050111468545643,-0.39090405583445453,1.1283052873832164,-0.04322608570365359,-1.1749613321231405,-1.017667782170053,0.24825996760789612,1.1290657257799015,1.7817487144248954,-1.0662183644465164,0.08430602574279393,-0.650167462102438,-0.7037860224295543,-3.3189746054428233,1.8734559848159493,0.13500789046633174,-2.1956097010644124,-0.4148881688733627,-0.7684730678912498,1.8249893027879098,-0.1608145701720409,-1.4293201591939961,-0.7373696672739966,0.055065880156596345,-1.156158453386093,-2.1651895055761834,3.278968546058499,0.25887918736853305,-1.8292185942393355,0.58702123759529,0.04011260697099482,0.8251038943731548,-0.24290296474555684,-0.14934381607043248,0.2949575979350613,-2.138013036824146,-1.284956627541098,-2.7219961418664433,1.9289014687121693,-1.1169323737386263,-3.2198792726826477,-1.412770050521777,-0.5088426617226787,-1.757828378713379,-1.368459876684357,0.16267392532109984,-1.141204123338121,0.2672501395335294,0.6838878385188991,-0.06417929751757152,0.9816640960109737,0.16039585556753533,-0.27062373263927914,0.43045579450316956,0.0030472215184203537,0.7367392089167781,0.025047714146226877,0.2426609683889372,0.3325620717685554,0.9160658122371856,0.058070186113784616,-0.11297107611612099,0.5138901527670404,-0.1148140901788438,0.021705097900172644,0.5882233409756584,-0.011878127119293366,1.3894845723674298,0.7540301971197504,0.5866806566668864,-0.07891570926708384,1.3385424945699689,-0.10686667155380629,-0.2840355428583511,0.1467517997741618,0.058540897148801785,-0.34406794320920175,0.9067182867777509,0.08186704292454254,0.043984327792681494,-0.09925148363802196,0.33022092205842735],[1.0098257865951439,-0.7663267814435519,0.22361984215813246,-0.7782183762672805,-0.5998381762037102,0.6583115759606861,-0.5886404488188892,0.546799120388386,-0.49398254012750165,0.1836396177836641,-0.2887780433750693,0.0503547736039065,-1.1264956612117107,0.5710595520935846,-3.3165472316594498,-0.47035189030575014,0.9797370623464933,-3.121993408211178,-0.09780647743624415,-0.6178393085612602,-0.07406719095567876,-0.7875314444414409,-0.2222354082863016,0.1590073384303714,-1.6355867807141573,-1.1818537457368614,-1.7359263978992552,-0.07886277359912203,-0.796002884485766,-0.19317342813091418,-0.2650658064872884,0.33074731467866825,-0.008000558301061899,0.1529703965176427,0.8844720933275564,-0.0030397097498832517,-0.9012204029504823,0.17259238281003597,1.5690694782879508,-1.603755156350212,-0.6556923071565091,0.6381151087625943,-0.8954481034467395,0.36645681727832935,0.30247160956893326,0.40051119452056977,0.9677212043440356,0.04987864716115762,0.9343076389562789,1.045615963201062,0.8127583321745496,-2.0197418965941716,-1.4650898267026264,0.685858250928362,1.4214349091417084,1.8270930910617877,3.1231152667647364,3.683769357765794,2.7162313827969684,-1.3103648180246528,-1.7709405494175017,1.2010439150236674,1.2318210330358792,-0.7566822250166303,0.46457822122282877,-0.8134236073454904,-0.12416496354765674,1.9257226435944526,-1.4424203292545572,-1.0009378761997543,2.294803021169171,0.30445164066048935,-2.2200931009651583,-0.5152806370995889,0.6461016974303657,-1.547068886429564,-0.4862821415749107,-1.7836017142255183,-1.4877121011434733,0.2544461381431758,-1.1502284725046579,1.0500125096722759,0.15889529858780863,-1.398506130965029,-0.0737721254602275,0.823085568299327,2.623909717376979,0.04878051506212753,0.7595633246937843,-0.2089174188764982,-0.9588792498454691,0.42598471318526093,-0.092837896245969,0.8847489983559546,-0.3168563427695537,0.003907662849947506,0.357924047915787,0.4243452605492267,0.4634539834038957,-0.5050952187796341,-0.004665906419647432,0.6106239393523711,0.6200521270841082,0.908300780080826,-0.3274859149590725,0.573129408202232,0.7431558075651132,-1.0215570399112346,-0.8897950082057196,0.3406845455902067,0.6956191004683376,0.685662860844195,-0.5889606571627342,0.725329100884395,-0.24962487322121382,-0.5308656338757789,0.6435516085582609,-0.19378227319812058,-0.09585019873642361,0.46656825570213734],[0.9905412410624344,0.7376380549965249,0.8086133975363887,-0.462610532730759,-0.8931383544937543,0.6809872331139102,-0.6883668535781837,0.9136295810843755,-0.8324200117627722,0.19131664339954763,1.024621395551129,0.9121430969605249,0.4859719897232939,0.2807845195313242,0.1860899897919098,0.698746937028411,0.8352309691070159,-0.22978845564224645,0.15329882938320666,0.06463691891467427,0.15759498567471814,0.6446722395133476,0.13483763445153168,0.6364446740617533,0.26966603376945497,-0.40863660746983893,0.24801466559656923,-0.37978190077961405,-0.9886374755836113,0.30503001632906246,0.3790840186153622,-1.5880954257457989,-0.2654183675479152,2.1909038082323513,-0.003898863202539679,-1.3738440487077113,0.5046415271446936,-0.03455609400754184,0.7625639418492606,1.2769055680217853,1.0879954734284798,1.6632928650439216,0.14886288217855165,-0.14037401295947785,0.5132064661655042,1.49718073348382,-0.40439682032697954,-1.7296735932230813,1.4963809047392438,-1.570897920420992,-2.0169306994986287,1.3894166600032183,-1.7958045812136452,-0.5305207109202257,-1.320084187698527,0.20276666174084793,-1.4879502192613572,-0.6806219554517775,-2.829030867567205,-2.2175828142244045,-0.6328701925268394,1.3828656883755082,-1.9188413978738867,1.9846195376538898,-0.32283084034127785,0.06562254531907845,1.4750293770773584,1.80569444085343,0.6028902570872224,-3.655521719309074,-1.4435400842020893,-0.7626072360322472,0.325029413556591,1.9619056297463398,-1.8875872016624136,0.2657606215916226,-3.244467724550911,-0.8434355697066109,-0.7246029629729989,1.7590714238974134,0.5858758668932015,-1.299284327826007,0.10994069799721565,0.363685572192889,0.5964507667423663,1.6918853164862524,0.39720899965631995,0.9369838924112489,-0.279527469225025,0.16264811833939025,0.11526334374032904,0.051628659275785596,-0.4609611256801941,0.32025109014156283,0.017300528271497334,-0.16620251726827628,0.02797900258512063,0.75595026951895,0.6432706128471744,0.23549295021098204,0.9895033389813237,0.6705145220772386,0.3532766795189237,-0.5559923616561149,-0.24785418180154659,-0.2747199980179995,0.09673778425405849,-0.623052431486202,-0.43860751286036925,-0.732006004103853,0.9590517747441134,0.7154894376697507,-0.6953760510995828,-0.018585212913514726,0.7454443069336605,0.7503250342924672,0.2973427698406257,-0.4929744745755724,-0.5947260229261375,-0.5429822302837586],[-1.3642240705175763,-0.3959610097704564,-0.8632445509754437,-0.20564835799019215,-0.3928420762589096,0.10625805592038644,0.330630204587582,0.3531236169437583,-1.1555174096539758,-0.7825600748552303,0.26335891230722525,-0.5044245231530549,0.7805990089912253,-0.4012050949150037,-0.058673033271778814,0.4094049302974719,-0.6060475201614136,-0.4827334584678556,-0.7103348701108393,0.5993918877073058,-0.7408055943786064,1.6158318444825845,-0.7054617813645457,-0.9972292093701373,0.3663201520364096,1.0328065032441975,0.169853932858344,0.36669097240282683,-2.332880395216214,-1.364236607258102,0.34335914376184834,1.7411129626635633,0.9752878815990058,1.980150832714105,-1.1339291867877266,-1.0563036058481161,1.7156457248095558,2.17834682142158,1.407916300612517,-1.4420413319050847,-1.23599807276782,-0.4713880750791301,2.2545081570237984,2.9261418057433106,0.7523579143547171,1.9392295414906964,-2.083156359630588,-1.4907776274267615,1.0438069428558236,2.199591214692856,1.607344566959682,-1.0858770533716815,1.9590493412798873,0.30021905832282214,0.24470200320270832,1.5839462408572442,-1.7373252392388971,1.7502380502476493,-3.842866791813382,-0.15744028689238312,-1.034951062532549,1.5107031455854991,0.7179810423336842,-0.9553826992373644,0.22515513310278853,-0.3731760634571558,-0.5596031108305592,-0.31420471587368465,0.11913702934820268,1.9515333415878044,-2.11185320981947,-0.7412827379329995,-0.9825848013615449,0.31255038253203576,-0.8852830430325516,-2.223438805968083,0.2935029092097982,-0.13106467649741493,0.8012783916480548,-0.37959840731229894,0.018684448250147485,-0.04302300619304313,-0.796009724489608,0.7740805455809516,0.03839223936525326,0.9229617679951843,-0.0047978998306255,0.7499047216326917,1.9646111079746968,0.0587267422329388,-0.027566967650674127,-0.19711600566213358,0.4818115327429904,0.24985879300940028,0.388609021281245,0.3828739549154975,-0.3788320745333063,-0.11331077339978567,0.49717134526513285,-0.3631805479920848,-0.6554738476748195,-0.42394643050336384,0.6281562873269678,-0.9768035272420329,-0.8382030962036128,0.13564144731668937,-0.3757515271595608,-1.2656257382182485,-0.7267466220383353,-0.33434594018174785,-6.038337027663907E-4,-1.2459729320033506,-0.8061080197051788,-0.5746040886653813,-0.6293409022524304,-0.7597359235897948,-1.022089846516759,0.5619392871607855,-0.3204209381296476,0.5733118760068138],[0.7705100513271904,0.6717143114424858,-0.7630933082244477,0.501432279525141,0.7349795681554908,0.7694970126899711,0.11589736479669516,-0.42165902103949604,-0.5249499618292016,-0.8663037866335211,1.2138501570763263,0.00593264697004764,-0.44057084056289786,1.2227357669794887,-0.9404862443881697,0.9135133349390258,0.8925207767588536,0.19913449344964995,-0.5196319948075624,-0.7773972835888011,-0.1981564871629754,-0.6937671190854542,-0.674091042997481,0.8765567648809508,0.9528277249486659,0.6826888541518332,-0.7173461018119316,0.004683388891490424,-0.16061480160733932,0.22992768824152068,0.426413201039718,-0.4204850093576894,0.3592299363212218,-1.1513790603606964,-0.5126385433046762,-1.2331554853459488,2.5099541586574983,1.2724730675320213,0.2814047292309325,0.6462596650737097,-0.6908845954014117,-0.03884678598220871,-0.8257503071249301,-0.4568919575386291,1.2118834030989143,-1.2251161271018753,1.277209578065299,-0.03056428075195731,-0.08886017988736777,0.44206831017465614,-4.011428285425476,-0.9614532717283832,-1.8797880191488652,1.7851635572375668,-1.2653448247585621,1.171647019301906,1.6605405106197038,-0.8514164901057114,0.11857344590567992,-0.22926874818106632,0.7509469143267571,0.9746337649416678,0.925662384280084,-1.0075259230816411,-0.8791519031697308,-1.1423985960876575,-1.9454354209250406,-1.9929045728450838,0.5809187521711907,-2.5708619096828365,-3.0654437540788644,-1.5343968634522063,0.24512809791732676,-0.8454250497689958,0.38183758479635815,0.03395164793790942,0.15124703611869608,-0.6183902886118883,-0.09267251929973674,1.0050973880530447,2.0722661120875525,0.7040072824840338,-0.9504180756875807,1.155910781791465,0.7341992526434337,0.030582098611039898,0.8361703749126941,0.8509532166334932,1.228196789087348,0.2109566320456413,0.6812571370218895,0.5532297714404971,0.30672731382977175,0.7014894153155249,0.08248799079961397,0.5147482626470326,0.4555797341666611,0.4916184646223949,-0.5344144056859054,1.094002664905403,-0.304874513747994,0.6977291797226085,-0.27882849330501414,-0.7744971573718903,-0.8294633997846649,0.9304931104558415,0.41886699709516373,0.8942271886188101,-0.7183794406997354,0.9476077498252714,0.37445960068299833,-0.021303694892992792,0.14481324323628425,-0.46921598660475894,-0.36362059768335697,0.7252095093083476,0.24475075090459128,0.6797382542197127,-0.33487693824243103,-0.08844189213879058],[-0.9815233584695092,0.4201850617048598,0.0211921839852563,0.03063931445047062,-0.6664574321669544,-1.1561452321582635,-0.28346584668385955,0.40473743042483357,-0.6531467229594946,-0.9690076899716916,-0.6002342790258933,0.3965680342517073,-0.6666495541853322,-0.8628527012854134,-0.02934343295138323,-1.5482861946353814,-0.9485988991995425,1.15238386793204,-0.11571204388128578,0.6174881720209531,-0.7535306813555475,1.5494083359090627,0.995475336289924,-0.2083602975984482,-0.667651312999549,0.6982469218190277,1.002514828542392,-0.737370156680419,1.438803173826633,2.0553464877934378,2.9174930406040196,1.2899296888414793,0.9717417149024841,2.8113012034791844,1.4213136479793862,1.248502138719415,-0.09376186547586976,0.3942385869158393,1.7728541814222736,0.15203151686364724,0.46881323923466334,1.4098799651754708,2.1854728967306425,-1.2126947519873095,-1.640094427787992,-0.11708912709006135,-1.342189170348572,-0.8863460395100076,-0.18509993650159998,-1.1964458836985001,-0.5194443954416427,-2.227142800911617,-1.9985384110193087,-0.2428827833196271,1.0730336326769065,-1.995822605406319,-2.4711996185526015,-0.6781603194899165,-2.6595899031459393,-1.9973170869233485,-0.36439961451342645,-1.6187542254715532,-0.2346951889100608,-1.3593400209970399,-0.46156913222690743,-0.5366030089091146,0.24790315305191432,0.15868648935350432,-0.7708190089441188,0.35915037864673194,-0.4947690163438369,-0.2919490846972498,0.6191274042955183,-0.1995818381211468,0.8167804309538439,-0.31105586461582685,-1.0526902083802299,-0.38477852962329495,-0.7446191375635907,-0.6157497793440092,-0.6064697074320411,-0.051478115251341154,-0.15514983984290245,-0.7376664456460696,-0.3013232761995854,-0.6273624820364426,0.28624912149282045,-0.10313485204879476,-0.06410171937515709,-1.019304039031349,-0.7178197556814155,-0.5785107513742516,-0.5448581131449873,-0.4808852565990773,0.2287614171074007,-0.6927071464924733,-0.8082300841499531,-1.0133786672478486,-0.5501643431478731,-0.058586241345941405,0.24725729065627958,-1.1477035454939581,-0.48916028728752153,-1.4506350335310845,-1.0892827010367678,-0.9144766296668267,-1.4730826290177712,-0.4534158696428729,0.4412756187412061,-1.0436892403938056,-1.1936041224838787,-0.3184661678968895,-0.6964704152798165,-1.3888585670979132,-1.1077551992088666,0.46334168283188065,0.1948397518096911,-0.4806081767938071,-1.099952002594166,-1.4657293491450765],[0.6910371264663504,0.010797695938224144,0.11891432501068029,-0.8157839303991321,0.47521900566385616,-1.0980726535502576,-0.1903766923168692,-0.6247996965549996,-0.9950059142695314,-0.13585015096381997,-0.7228498731087176,-0.44996558064650366,-0.5539781879352972,-0.02575099473942305,0.47209097587654575,-1.0738365535587324,-0.8177143032845586,2.205605914440302,0.2611232638225527,2.0488930767131093,-0.5631242930106006,0.5470750620209162,-0.6592051992770529,0.4098048631309202,-1.9537744034204418,1.7041954380717708,1.1725450094896233,0.8892324820726893,0.6805375351248293,0.8319877001504746,0.7646658133606808,-0.02976098644486969,-0.4623137813306863,1.17995431926017,0.9000824967630632,0.597340626990419,2.0390688801496735,1.2576836850914068,0.12584005647206195,0.5638422827971344,-0.434282200860336,0.4385227964137961,-0.8412694314032706,-0.6575856805099938,0.05454120090819578,0.6044375002245774,2.2972382683852697,0.541163722231499,-1.855433883494895,-0.37086675684373377,0.9316306064631718,1.9368998076466863,1.8789062985689204,-0.6940292945605482,-0.36619347396872165,1.1594506181810502,-2.1099384854566354,1.4141112350431873,0.30776276372345773,0.8260401906427203,-0.3311863544845692,0.5516561507402421,-0.7655075405643307,-1.3479712499093293,-2.1185765414663233,-3.4288992864559904,-0.023250791031281956,0.9937601183305242,-0.44787652376325654,0.4289441305738827,-0.45509205139818615,0.08469650527849513,-0.3153751403545131,-0.5028513614706501,-0.8835316707174313,0.8740914607661165,-0.12419380965752727,-1.4769070717531323,2.368767577535066,2.278653706784937,0.7335047329001343,-1.058016866161751,0.3683361501333444,-0.3386523504657603,-1.6346742527634235,-0.9393575983327376,-1.054975376109664,-1.0207450356140237,-1.3111981217912696,-0.6048728107491113,0.21292548144155288,0.21292515741300078,0.15354798322891694,-0.07434397497032294,0.46157664555318084,-0.3769080816138119,-1.2269625508421729,-0.4171469208835122,-0.5476566168330073,-0.38692175135775536,0.13792626856314066,0.19758070899222124,-0.9503805143329171,-0.03355625752495873,0.1761485071720953,0.0785687227497431,-0.4598533196884717,0.526763759709229,0.7538043699580099,0.2660578392500716,-1.1505767220649228,0.01189055186736531,-0.3530249033222545,0.42974541128809834,-0.12105364401766887,0.44497341474668933,-0.02515278908330175,-0.10018415704796604,-0.0989579748795501,0.49308340432900016],[-0.3488130607955718,0.08131757561869919,-0.312450412819179,-0.2798390690809565,0.19169255085930953,-0.13524274174157846,-0.9985994074161911,0.5975191802306666,-0.6691677892713862,-0.2941999055857814,0.7269372068601173,0.05055237877798197,-0.8027031597896357,-0.9226072552421932,-0.24527162243579823,0.6685476470266042,-0.838769451221807,-0.01869144452205188,0.7001111023450953,0.3404554901352707,-1.0062825798397215,0.9526333522928947,0.49598022530985425,-0.7884724317891706,0.1454150564811489,-0.40709695312896105,0.031057414519785786,-0.8536114530231681,-0.7500898990380963,-0.3011153667734286,-0.35790521164967937,-1.5297062343752053,-0.4568379372100675,2.356455155646837,1.130743261665908,1.4368332900693357,0.5570129807447154,0.3051045514255439,0.6802639799555914,0.08413014555364189,0.43151687878219036,1.8532706061169488,0.8880334726852128,-2.0140509465374645,0.4370414883509489,4.899297987778541,1.3506035655148563,2.751927759163234,2.6485139594662357,0.7484467263673764,0.579656283103914,-0.3977126571256862,0.06736892653444011,0.48577284274788823,0.22094030943830636,-2.47669220933215,2.008613314325183,2.4065376368811933,-1.240848744578078,-0.3384207884139475,2.7073518834456856,-0.57147588970694,-1.518323491123496,-0.15184415425484152,-0.7950669138370368,0.3286811876698593,-0.5840237657364299,-1.8740901826583585,1.3357428140038954,1.472731220833816,-1.6424795157571204,-2.403906811794499,-0.17409799494993272,0.1474054067978881,-0.7249593709754307,1.4525810301550748,0.2984786983000887,-0.4331728038105586,-0.6039680371463481,-1.1332598441177113,0.4473408920718536,0.8270624256076089,0.31771645149379396,-1.7563963782411953,0.7424964841622156,-0.5351458945510866,-2.253197041893994,0.5621839092415619,-1.0313384682833628,-0.16095795554313297,-0.4797094810107618,-0.5518979320709858,-0.11612966181899044,-0.15599757988728832,-0.8703512575282438,-0.20019671874344125,-1.128498191555934,0.2726947690148794,-0.8715820929296731,-0.6778525516510724,-0.44477767397358553,0.8992896153363735,0.8128056197591546,0.9518407311723395,0.24383788187248423,0.1768540748941166,-0.318764039280171,-0.6424205953861132,-0.8205537507897048,-0.35476667274481594,0.8774561106729716,-0.8301223649237873,-0.9623479150027511,0.1867870821363724,0.4198491867737854,-0.31073991178217913,-0.8859242958332011,0.5559193504375554,0.8710336284955081,0.2264204015011338],[-0.09472288515301679,0.734058640941001,0.8284142869435211,0.15136182747881557,0.21698633178123236,-0.8183306084544019,-0.4192497612282386,-1.140622885763305,-0.9562586053279387,0.1299636391328228,-0.02755324329472262,-0.6370947208327591,0.21471175611420343,-0.04272888934049107,-0.8966548636398057,-1.131574393441832,-0.9798673194990397,0.3362098704610817,0.09404306792481028,0.09021661665847627,0.11197131422848992,-0.7488567451438303,-0.5978056697776652,0.7298612122392987,-0.18071640471869146,0.6966516494344013,0.6514837858916314,-0.5258308008793322,0.15328134838665938,-1.0760308689377707,0.7234690538807717,-0.69546440439126,-0.5748893918501974,0.02877952563728055,0.2209768898909194,-0.8375609255864078,0.8830602949102991,-0.6752314501198011,-0.7731092240008847,0.07631498651572584,0.10692924433531825,-0.5166928041246711,0.005168929385315387,0.5999366948644954,-0.2840600979762865,-0.546501351009127,-1.042682401652612,-0.30035279760480765,-0.30212540843042013,-0.9029238946857909,-0.8507395148012566,-0.34165302621631166,0.5024871520990268,-0.6527117778423955,0.225681584171131,0.14440808740255134,0.44778716744547403,0.37937221867458,-1.1228865454835861,0.4779915752281678,-1.079851250175631,-0.4114573662299997,-0.08807775537261997,0.32318305165722,-0.3349775532745705,-0.25875072480287364,-0.7242060430560705,0.11205955758593075,0.6215225307456983,-0.9453248389178117,-0.6849093811798275,0.2620001836284463,0.7033019727993922,0.2556027862838393,0.26575838978412253,0.09723080336606695,-0.9372020863853433,-0.9950367991841605,-0.3422172436782627,-0.08234038440651578,-0.8455357878671496,-0.1764875864964822,-0.0298379848125934,0.5146196320740443,0.30198772964288684,0.5563248158560788,-0.5765851469411837,0.5277520648089635,0.4958821155823718,-0.560591429421736,-1.062560170277706,-0.7434998745284896,-0.41958749831419284,0.4183161244678746,-1.0143926521004738,0.4942055876739964,0.7499715524700376,0.6805941895050402,-0.319703265225362,0.3718820568513505,0.6529348744166016,-0.542740784947595,-1.1610567215221803,0.1559809025214769,-0.3003303983407522,0.11867104876238958,0.46651853784941183,-0.23836208872353937,-0.5384265377713797,-0.954955987030238,-0.9961211692322358,-0.38265720874620973,0.39302201703982187,0.27232281618771165,0.5357916763094499,-0.047846566585061034,0.11545281353828366,-0.13786130957111675,-0.09811287723579613,0.6544000274384447],[-0.7697771552848217,-1.2871795680040319,-1.2102296649987885,-1.3113841109793958,-0.1988661189916009,-0.4433911181884879,-1.342203431573842,-1.358866390716138,0.4336645252147168,-0.8648690840544682,-1.3953660037711342,-1.211967768092713,-0.3422565130080795,0.38615185276090475,-0.3633127373538968,-1.21781954917431,-0.535680332316348,0.2451156443258408,0.5413454239671561,-0.242499110202065,-0.18032458778167237,1.2374368507546987,-0.1275545351787255,-0.052258339723858266,-0.7668185212937164,0.2802355359139929,-0.382109635861248,-1.301878287931661,-0.4468866757678954,-0.7579546730809115,-0.3986921724990655,-0.14421069088109814,0.8632621861301663,1.727182828499478,0.4890825973634168,-0.6522335301248826,-0.42385043824898344,-0.7977201438393403,-1.3477236176403689,-0.8224712826995048,-0.4112741830507964,0.615482134580571,-0.1394228502260967,-0.3031692884699174,0.7354565169285611,0.07643392182133014,0.6062687925425687,-1.7194748514115679,-0.4045528988266897,0.23147031103436122,-2.391962570034644,-0.8754393320471348,-1.0212072994937145,1.0455031004767452,-1.1574838466047013,-1.04027383397399,1.1054458860193834,1.4720722805161752,1.9483618541972503,3.453921108090957,2.116230561924373,2.07996859850244,-2.5564981150928334,-0.8903323133855247,0.45300880879884714,1.0220115835786154,0.020434933649150507,1.845887664203618,2.264946708757136,0.8120842271671738,2.050915196813759,3.8998711907038985,3.792095787319564,0.8234920828735005,-1.636081207530623,1.6563318899161232,1.4761337051948715,1.782550452478833,-0.32643888614249533,-0.0262351910200962,1.0843820512745637,0.14317050918988933,-0.26916501834309603,0.6109508812334418,0.4518796457060335,-0.05309767214913405,-0.8057230945120877,-0.017816955861142583,0.3379170884698708,0.17244572558558485,-0.33146921530504847,-0.49218074138720364,0.8808687743015614,-0.03655093002372145,0.3720026644980084,-0.33135695310631585,-0.4054218910507674,-0.1595298366963006,-0.2270978687383537,-1.1900013916227796,-0.278799411600689,-0.7176889585683816,-0.8174553589628907,-0.5674229045785532,0.5612555119187274,-0.6941158217826021,-0.9677642671694843,-1.1443731147036575,-0.5556965487966744,-0.646813509638411,-0.1459971069040446,0.36043297814417835,-1.5312990769959471,0.34212900905941707,0.27215898689403767,0.07783420809148771,-1.1287597440852655,-0.8314389568521748,-0.11749308571798582,-0.7246804413390945],[0.6304356569729421,0.2503687828898871,0.626607623708743,-0.3157288530209618,0.1387297717973497,-0.05040202380399489,-0.8931715832067728,-0.8668643622545349,0.6187048326820039,-0.235957237052625,-1.1156720506900273,0.052055538719723,-0.15336041754156599,0.8618746647665534,-0.1317696349389721,-0.6706902960814338,0.11048763005200223,-0.7161987046000889,-0.654538907526848,0.5019972499048427,0.2421732831344523,0.6126150917816663,0.13730408077506898,-0.03455540619324128,0.13397733959817137,0.1301701066586208,0.22845749352429273,0.6356305667644186,-1.142014659016087,-0.41627188654665165,-0.4430057218265506,1.1143013560124746,-0.17798165638059782,-0.6669877539331138,-0.3739598662195226,-0.32444040951632963,0.7248663564153105,-0.20122397837989744,0.4484186951016796,1.2780371633033434,-0.23852037872070428,-0.8316953313124479,-1.4493072579950501,0.5070063786278557,-1.4413615016318555,0.3884410268837629,0.9852502708142007,-0.43203023186194095,0.9558486001379404,-0.14650539546907904,-1.7432423267123707,0.6382893925532215,0.5434869890078146,0.06731922729809878,-2.46799451740709,-1.2063808015079207,-3.394236573287629,1.2456322476015562,2.5809970134503373,-1.12915675436035,-0.5280139127656542,-0.39263765534942024,-0.13047333786594964,1.519079722551894,1.0598992153072486,2.7530970962025108,0.5269500044753658,-2.5400669156097337,-3.3728386011404665,0.4396712662494502,2.155196223871119,-1.3248290452992946,0.3762020724258924,0.727011181908444,-1.5119240925421538,-1.111536991582556,2.4685703096951297,0.5856721811390769,-0.6130278467464345,0.5431309178814551,0.014715250052141395,1.4585524628979416,1.5878380194482866,0.3392770920828051,0.6394297211665929,-0.6619832873047489,-0.5684483947926221,-1.4681192084769206,0.6263487664548193,0.049493503409417716,0.6616260813547094,-0.4304795081098411,-0.07177433685889303,-0.2985831651697652,-0.6281559747821637,-0.32810364412881604,0.21571922721770345,-0.42324157125538814,-0.41841181610708733,0.12281132401008799,-0.7207630131239271,0.2896541783331143,0.0397518375854438,0.8709869316124643,-0.13927690720687458,-0.22907368928207328,0.8385839089942992,0.5402126780433023,0.7589548971612297,0.47299665520012274,-1.0498792009618327,-0.49398517699282585,0.9530959031414623,-0.42411583509611483,0.24117088475881285,0.14635536504849406,-0.36882118648838697,0.1916689038522158,0.25510310181939605,-0.9328854784064677],[0.16035068572442376,-1.1901676497323501,-1.2720251379134544,-1.3251380605894412,-0.301767895395031,-0.9687660061934992,-0.5255715601387555,0.10592878661733873,0.3636250083334782,0.6591370047804216,0.23233081504308611,0.12711428120126597,0.656178750417184,-0.08501746661458637,0.21983826366302847,-0.5755717426773458,-1.019140672563222,3.0005102988549424,-0.9775947828184252,3.113912009285775,-0.842265569699823,2.3225530688574634,-1.0758013632531305,-1.2134317329853264,-0.4350903758402426,2.0410216610213987,2.259202757929203,-1.3002896323088968,3.7835802262832923,2.8039694997765072,1.1952772746271085,2.487497996740534,2.7503227608251635,1.499121633102551,-0.6959525594271805,0.12035105645334795,1.409819774902855,1.5256118400320615,1.9778482772435533,0.7082744693677435,1.921623791542331,0.1806394751796677,1.0029792192629177,3.5941123395447243,4.297289360930475,2.7428868336776873,0.7134911116175222,-0.82119281738347,0.5236411309738114,1.1152559612562742,-0.15016697870487497,-0.1787813341046228,0.7830253312100633,-1.6027864327940862,-0.020159503943516552,0.46962708278023707,1.3630680376201885,-2.3534636124308927,-0.827683678971192,-1.7186855785506594,1.4548070113495488,0.45070481104428495,-1.8836058565824938,-1.4887877731618269,0.5033127039254671,-0.8620913090947194,-0.5977965810747685,-1.0744892330158313,-1.939022115485978,-1.5412774748842706,1.135457178741891,-0.3249668407325693,1.3173893021392562,0.19561734199521022,-1.5312209613727734,-1.8057125972373427,0.9961099873932441,1.209775951259252,-0.9480869833447171,-1.8938311667742211,-0.08578443561855303,-0.9579614718132465,0.8979133486075027,-2.6385381492049675,0.704147350613229,-1.1263728495223557,-0.7737021713644842,-2.250549685296227,-0.8655968981235245,-0.7463136871526743,-1.4931335748061276,-1.024859246628072,-0.3935072137704082,-0.7018834519727272,-0.8608810373912427,-0.5045095843160087,0.41151443165701684,-0.28052980754434853,-0.37780907948102216,0.5331290134556833,0.7465335110469983,-0.9537926257505308,0.613952606549714,-1.5041194766519006,0.1218680953952051,-0.7135057448405498,-0.7881520226213065,0.09947853504583462,-0.5934101873428784,-0.5637005471733673,-0.9207655304478676,-0.006646823678337673,-0.7745816791889594,-0.7564310577516603,-0.24816831748899665,-0.5358951999814493,-0.4035117952285512,-1.3567305563427963,-1.4493512977212413,0.23703353429399615],[0.27663556544399975,-0.42839927759638746,-0.7490547928214777,-0.2506756919831788,-0.6338976215735475,0.707725498588506,0.6418930719273079,0.1099547414342224,1.1233404448140516,0.4117825507516521,0.44646476059853174,-0.4894093967263648,0.3784458308078212,-0.6394264521446418,-0.7551803499450527,0.02157060492292931,-0.582350819528781,-0.9064486584386446,0.35558036403347953,0.44509890961721543,0.7586379671954329,-0.0751980722732351,0.04974388991146887,-0.30087257861296074,-0.5002329552335785,0.10015928039727298,0.14786272827637392,-0.273184077753068,0.20879130432329734,-0.9740599169161239,-0.4765347080820329,-0.5974369494215311,0.0767578428892991,-0.1547689087838501,-0.08793584468321707,-0.2610287111437351,0.7563196734335424,0.19987580449659637,-0.1821430047387387,-0.3148636161109631,0.03705997900956782,0.4402710980533163,0.1978302356880019,-0.9615383339361855,-0.23989625288072056,0.18405594989620286,-0.44873733539621896,-0.5595998196202555,-0.9635697274436167,0.7976741647259749,0.8063672076757255,-0.09769609448165134,0.639061397925134,0.42427467951378495,-0.8266636514042497,-0.5666333798003043,-0.056653206124646985,-0.9629713765202493,-0.5825455377398261,-0.9842911430467316,0.5166009915124185,0.933424173316931,-0.31644102629552395,1.2422008736391423,-1.1178749290708503,0.026903689198044478,-0.9893425747593212,-0.1916279841023953,-1.1547663223729276,-1.1780307705406583,1.1459527541265022,0.3104119936548583,0.49375618563530344,0.5970326011952379,0.0640575372521595,-0.7559842760596467,0.7274698732639592,-0.6555521421592876,0.5719936123207751,0.4328535611302726,0.25329950190717465,-1.1878010187905395,-0.20889229515889596,0.4605599956975893,-0.6343927088258126,0.923216286922941,-0.5356591965206279,-0.7015413801977511,0.24116711960640386,0.7118843100275855,0.8351827764223383,0.49283150133688086,-0.7089065391685815,-0.08550897284512944,0.18856375911213244,0.46948915287672316,-0.02060358775632891,-0.41279906910025316,-0.3209226553664613,0.6204237357649631,0.22369435320409586,1.0889330400234145,0.17968342691269856,-0.011325410055781799,-0.45288068428277967,-0.20110806523376312,0.8932184405353363,-0.6271134710094652,-0.03455681492320854,1.0111354641186614,-0.5799262719817018,0.512835468973483,-0.811160102358734,0.8886471435865249,-0.559634334615339,-0.386700166283177,0.6503373824061398,0.46053095253842996,-0.3594195354383935,0.7021624945299187],[-0.6177911349973372,0.015352335117362375,0.9983440900665205,0.4674191124681885,-0.18208879116771393,0.5899601032958733,0.5290714664176738,-0.020637781433436492,0.4735338499564327,-0.022141592100753293,0.6826930498344487,0.6873559572666103,0.3027550055650943,0.09450110185630137,-0.8276102993934805,0.34541870193685414,0.0799620422879099,-1.4441632739344872,1.034978831775373,-0.9477777783934339,0.029846478055890798,-0.2544877136025062,0.3921146523067199,-0.773614217887617,2.0957232206052256,-0.8584734450527208,-1.1221970027602421,0.7532973948171494,0.23074836857870057,0.06609911162446225,-0.7623182803394334,-1.166603863568046,-0.5182074196090625,-0.28678074477556664,-0.04483716178303558,1.0472221674494804,1.999666259708658,-1.0246979500271438,-2.7296834403010615,-1.9674132843548175,-0.435738218005795,-1.752246495462139,-1.0397626350210623,-0.9647813226482308,-3.11827173620984,-1.9159682505239002,-1.7347406133856482,-2.4096563500445862,0.6744368767502837,1.713761939128666,-0.744622127283859,-0.16015952175105502,0.6692152567141648,-1.0850074595044836,1.1451204041253542,3.1761608796441902,1.4116090728824082,0.3289690637539474,0.9932664778269513,0.43162348136505907,1.5694634044614069,2.1416275350029697,-0.949807980439332,-1.0134816146401937,0.6792270254608602,1.7790521554730552,1.1633271967732428,2.131338807799563,-0.5873756930826964,-2.1920065156583095,-0.9120538322229933,-2.643166569295849,0.05003801290356047,0.3649260859254394,-0.8181214860611848,-0.11415396014271176,1.5872378074823923,1.5961487144263653,1.1479292129933099,1.1658811406794976,-0.3207854157529928,-0.31817114131812607,1.6600685205512442,-0.1957309823883825,0.2145590739636479,1.7191995008585554,-0.7292127462155872,-0.45379141116443156,-0.3634372481576927,0.15914085243671353,-0.9649370278442956,-0.4387145281646232,-0.988451253753247,-0.588455901093214,-0.8283283815351171,-0.5393852237066693,-0.27917666935347585,-0.07722627838828186,-0.03683036918608426,-0.7016402560722986,0.5674370286167804,0.8678850192108477,-0.869685732270621,-0.11468434459908086,0.15938690852984733,0.26180266038806715,-0.8404655771260839,0.2921032526779493,0.7634241910008385,1.0291773744417978,-0.4518287776730207,0.8208334419748059,-0.6878015565316083,0.1630114287851358,-0.8932649886335723,0.1643816361089157,0.8179528644680042,-0.38818357726590463,0.5403356117685642,0.5534416372710599],[-0.30274264863960176,-0.5800980246071538,-0.2495704694218305,1.0260529465177057,1.0015995217741185,0.26118134207249977,-0.4001872285032154,0.08762257404870276,-0.43641790392169943,-0.42772350430757045,0.710506777716397,0.972727599286172,0.354355768587698,0.5066125704376188,0.4748490825207844,0.2571469366998871,-0.841683215476828,-0.6448850429797618,-0.10903726073272234,0.38003798991695537,-0.369539577539299,-1.059064470494649,-0.18431821863119616,0.09511811110285039,0.391791553818401,-0.029791180585896405,-0.7782880233137927,-0.06180892548879981,0.09266963300007558,-0.9026108596039822,-0.4765171240953681,0.0956763813900248,0.3434089741304931,-0.6569441542989013,-0.8159784197467899,0.7653912900277026,-1.07247450802286,-0.6644051285791539,-0.8180359075739754,-1.1500039613912147,-1.280140602983826,-0.13597153980341062,-0.6908762019375395,0.5342333184071697,1.2254949545698808,-0.5920253480516805,0.1796668262695875,0.9414728477590021,-0.7019857165166516,-0.08667287570862471,0.10488645314341796,0.7417478694657944,-0.4779449308923904,-0.11532374289119622,-0.7952103715370445,-0.08659849221721526,-0.8965121881907749,0.7543586161717196,-0.8839004668085588,0.45719927216901074,0.026240776541888597,1.1941338249885534,-0.9227868483436136,0.43072027466843593,0.968213477004575,-0.13594158849475566,0.08966699699207707,-0.2834272889611041,-0.5189904090384291,0.042844189661189566,0.6108465150439287,-0.822420375212014,-0.21859235490487372,-0.7225636288117141,0.4637725126531773,-0.4460421013784473,-0.002374198181925778,0.48408594675363886,-0.0814579919911827,0.8062419477727827,-0.38653118658711766,-1.1506744403492921,0.2629801383894164,1.0002692556811996,0.37934142632860673,-0.5398031205654906,-0.5102185798008987,-0.5820461491792609,0.09573660653267543,0.11669670582312332,0.17848072487011582,0.006745554746121574,-0.8067553076897921,0.7955009874744003,0.4578640903947664,-0.7906532304248031,0.663117949265547,0.09598652955120647,-0.38273656625952857,-0.027991327463877808,-0.06683054220189254,-0.3172238586039947,-0.1837377920126514,-0.6428726948525666,-0.4030548869063312,-0.6903039013079847,0.5836728032271138,0.4215218385596937,0.6755668307847149,0.7213149646949815,0.8445040686649312,-0.7402636984110751,0.5698760314971754,-0.10783155534106346,-0.7008127363371074,1.0293485985019495,0.9689284024761058,-0.8086677958117171,0.13983202851850596,0.23887625056543393],[0.825074018684067,-0.6638109822351006,0.29334615187641866,-0.3961822616637237,0.850716216420784,0.8163263582431173,1.161843469471615,1.0352701480833777,-0.540384048419053,-0.7203368912288404,0.1853971625903359,1.1664568347003104,0.5632345587601237,0.8163472829252245,-0.1656026233962224,-0.06479546478157114,1.174615038962596,-0.8828439795205804,-0.03455745065949339,-0.7301992526135674,-0.6042254608942894,-0.4479794669359093,-0.5445211424976545,-0.09837804971004845,-0.3243961456868558,-1.0827493853534882,-0.31774107844647115,0.0626663186229205,